343 100
the 0.338868 0.056710 0.062772 0.030079 -0.016704 0.183166 -0.098771 -0.000518 -0.301710 0.288405 -0.203739 0.033904 0.141265 -0.077225 0.201314 0.064209 0.021727 -0.207951 -0.126239 0.274875 -0.066671 -0.028023 -0.275034 0.043098 0.025654 0.214370 -0.239876 0.046500 -0.095355 0.395464 -0.249115 -0.051294 -0.071459 -0.198511 -0.271458 0.188156 0.207214 0.025263 0.006718 -0.232188 0.293946 0.303624 -0.069736 -0.141223 0.106539 -0.290857 0.022536 0.049022 -0.003176 0.245457 -0.277045 -0.407415 0.014540 -0.236494 0.080895 -0.224986 -0.080602 -0.290824 -0.007928 -0.031570 0.004273 -0.013190 -0.118067 0.122636 -0.194209 0.189320 0.027908 -0.179662 -0.027392 -0.080217 0.129906 -0.206904 0.090974 -0.220997 0.025057 -0.027110 0.058736 0.330076 0.010184 0.251338 -0.237885 -0.080630 -0.254058 0.044523 0.169336 0.306750 -0.411185 0.256659 -0.174848 0.099153 0.087646 0.288978 0.030645 -0.129187 -0.181846 0.307535 -0.443635 -0.083631 0.072153 -0.037765
to -0.443557 0.112437 0.183154 0.216079 -0.073423 -0.150947 -0.269580 -0.187113 -0.186104 -0.113931 0.159691 -0.195839 -0.095132 0.050837 -0.326532 -0.394260 -0.039108 0.033791 -0.088412 -0.207208 -0.053234 0.153665 0.141740 0.270598 0.046160 -0.270351 0.093884 0.360115 0.155967 -0.258100 0.054265 0.037330 -0.221863 0.114527 0.254534 -0.334369 -0.173424 -0.203474 0.381802 0.246960 -0.223886 -0.175978 -0.250450 0.067470 0.288950 0.269152 0.302978 -0.127822 0.465354 -0.192004 0.080591 0.425539 0.220730 0.001190 0.167209 0.092560 0.096255 0.220084 -0.099726 0.170542 -0.118096 0.120484 -0.056282 0.341965 0.006569 -0.064082 -0.092943 -0.034408 0.216829 0.096270 -0.345988 0.247855 -0.112147 0.006896 0.202544 -0.056549 0.099173 -0.112646 0.057713 -0.142580 -0.020566 0.131067 0.340842 -0.123963 -0.501804 -0.301348 0.232364 -0.208895 -0.241285 -0.114350 -0.019859 0.007381 -0.247907 0.301305 0.307072 -0.138399 0.252304 0.023774 0.279795 0.069497
forward 0.250377 -0.225289 0.361528 -0.008402 0.260198 0.705098 -0.470858 -0.176497 0.138402 -0.422988 -0.087752 0.273934 0.053158 -0.174348 -0.159312 0.049708 0.345378 0.076560 -0.363095 -0.150391 0.265315 -0.208061 -0.180257 -0.201735 0.453352 -0.312313 -0.166594 -0.356261 0.249647 -0.084452 0.467528 -0.428044 0.343189 -0.074135 -0.093429 -0.153727 0.171694 0.067139 0.300546 -0.495358 0.085368 -0.111433 -0.011630 -0.235748 0.349244 0.320343 -0.251588 -0.121566 0.361614 -0.161525 -0.256430 -0.127428 -0.313340 -0.124391 -0.161983 0.306228 -0.584845 -0.006333 -0.045874 0.189576 -0.235072 -0.216468 -0.097274 -0.166624 -0.111215 0.209452 0.136802 0.026507 -0.367924 0.768577 0.258936 0.150367 -0.074450 0.373470 0.215765 0.333253 -0.136366 0.288399 0.139500 -0.407706 -0.187378 0.146658 0.032286 0.231043 0.039197 0.122094 -0.240861 0.207110 0.004664 0.197937 -0.180199 -0.092987 -0.081932 -0.505880 0.213693 0.088052 0.019483 0.251608 -0.030031 -0.334446
turn -0.162560 0.065049 -0.113712 0.029840 0.088338 -0.127256 -0.108521 -0.128548 0.370767 -0.226016 -0.253382 0.436392 0.182573 0.014158 0.235164 -0.173827 0.296426 0.051413 -0.274678 0.267494 -0.003052 -0.381654 0.370334 -0.024795 0.018329 0.071962 -0.388777 -0.368603 0.136926 -0.340196 0.155076 -0.118416 0.094409 0.551771 0.190634 -0.207112 0.097612 0.397819 -0.084408 -0.210252 -0.182204 0.165725 0.193181 0.010025 0.255456 0.115786 0.006273 -0.167021 0.160038 0.168522 -0.313757 -0.137423 -0.029801 -0.141677 0.201270 -0.096776 0.233302 0.374472 -0.414216 -0.420994 0.205840 -0.196188 -0.150415 -0.463887 0.263352 0.263086 0.249248 0.360057 -0.061995 0.258814 0.076534 0.084995 0.100834 0.050185 -0.015691 0.204584 0.017810 -0.264581 0.234694 -0.220668 -0.114554 0.063719 -0.341532 -0.084257 0.471353 0.120708 -0.308452 0.111011 -0.038534 0.357681 -0.176709 0.158834 0.234150 -0.067762 -0.302020 -0.136117 -0.391688 0.139983 0.235475 0.280259
and -0.117895 0.036773 0.026368 0.089125 -0.069016 0.141809 0.052820 0.025149 -0.213323 -0.053660 0.104486 -0.022187 -0.091554 -0.098831 -0.130723 0.021431 -0.049130 -0.030601 -0.040530 0.011651 0.062690 -0.158802 -0.043508 0.068961 0.097907 -0.151137 -0.084433 0.226308 -0.058066 -0.231120 0.107032 -0.188583 0.056265 -0.091057 -0.100108 -0.164683 -0.036948 0.012250 0.184635 -0.008289 -0.041162 -0.064121 -0.083489 -0.089237 0.069729 0.043914 0.054906 0.069243 0.274802 -0.122261 0.049053 0.002266 0.037859 -0.081671 0.061170 -0.022466 -0.141378 0.050836 0.102087 0.083978 -0.163209 0.188809 0.032089 0.115049 -0.113515 -0.058641 0.011790 0.018559 0.124831 0.054071 -0.157094 -0.034755 0.128525 -0.075756 -0.000745 -0.103751 -0.015884 0.024150 0.091633 -0.234135 -0.117895 -0.210219 0.141310 0.137610 -0.081410 -0.065621 0.001194 0.110140 -0.095367 -0.173202 0.012731 0.011392 -0.165412 0.103460 0.092151 0.019486 0.062544 -0.013633 0.077177 -0.096774
a 0.153825 0.080965 -0.102420 0.104838 -0.088731 0.044608 0.153462 0.120184 0.007717 0.118360 -0.082769 0.037791 0.196494 -0.107500 0.000831 0.033029 -0.297365 -0.104370 0.050080 0.085341 0.064299 -0.352652 -0.166461 -0.010872 -0.091045 -0.081524 -0.127315 -0.035504 -0.133771 0.002732 -0.132619 -0.051056 0.206707 0.037920 -0.256943 -0.083062 0.160566 0.026429 -0.246304 -0.152860 0.019278 0.127427 0.238585 -0.158610 -0.094394 -0.363503 0.063308 0.044541 -0.134241 0.322567 -0.155846 -0.335647 -0.193695 -0.180735 0.144973 -0.175678 0.257373 -0.143280 -0.059122 -0.145585 0.067674 -0.237071 -0.055629 -0.070669 -0.134794 -0.007133 0.068681 0.030002 -0.175758 -0.009985 0.059411 -0.241404 -0.019565 -0.088008 -0.141036 0.080809 -0.075129 0.223494 -0.006218 -0.147302 -0.095384 -0.226711 -0.192632 0.036376 0.338113 0.409541 -0.346222 0.247964 0.014097 0.078924 -0.101279 0.165666 0.097272 -0.114532 -0.252081 0.148751 -0.305228 0.187305 -0.156237 0.152556
is -0.515527 -0.144582 0.221753 0.058323 -0.050291 -0.176363 -0.155970 0.182507 -0.091915 -0.214063 -0.176563 0.292388 -0.221325 0.357649 0.080571 -0.675107 0.019158 -0.054054 -0.026338 0.172178 -0.164992 0.481618 0.121079 -0.013762 0.470563 0.176331 -0.088786 0.111353 -0.116707 0.133574 0.048726 0.126066 -0.244346 0.348725 0.011079 0.088884 -0.101057 -0.431842 0.179669 -0.102253 0.436666 0.122178 -0.111519 0.017704 0.268835 0.314136 -0.139344 -0.358364 0.294267 -0.101947 0.228379 0.165108 -0.061563 -0.391722 0.090526 -0.305461 0.400072 -0.094986 0.008467 -0.308271 0.178541 0.164173 0.026630 -0.280436 -0.096121 0.145975 0.261880 0.150540 -0.066899 -0.082922 0.069701 0.087441 0.101758 0.038784 0.130496 0.114631 0.163052 -0.177632 -0.157181 0.050898 0.032189 -0.099702 0.112418 0.417137 -0.149152 -0.221990 0.325365 0.010616 0.412525 0.054489 -0.099934 -0.123407 -0.045579 0.228478 0.339224 -0.138955 0.090303 -0.160432 0.147671 -0.204790
of -0.042869 0.199005 0.360690 -0.241073 0.332195 0.217710 -0.334484 0.185009 0.358158 -0.309587 0.105573 -0.042282 -0.202018 0.112336 -0.136733 -0.036292 -0.230235 -0.079834 -0.007879 -0.411349 -0.171241 0.138865 0.298154 0.152629 0.127964 -0.035231 0.241610 -0.197327 -0.175134 0.032709 0.087306 -0.075912 0.142455 0.122787 0.175021 -0.353278 -0.034327 -0.426875 -0.023361 0.244142 -0.194364 -0.213743 -0.085843 0.166420 0.190597 0.057810 -0.053677 0.240650 0.255246 -0.243620 -0.138619 0.485261 -0.020285 -0.030280 -0.137248 0.241017 0.019049 0.104268 -0.121836 -0.116528 0.112902 -0.123313 -0.129798 0.005584 0.139665 0.271559 -0.081756 0.118233 -0.236370 0.369323 0.086254 -0.012279 -0.154539 0.135512 0.179431 0.107930 -0.005264 -0.333477 -0.131030 0.077835 0.170863 0.164874 -0.080373 -0.099824 -0.003069 -0.097185 -0.052482 -0.209243 0.038389 0.306901 -0.332879 -0.178640 0.026223 -0.263361 0.170108 -0.008723 0.160365 -0.144243 0.041400 0.311751
walk 0.283603 0.221919 -0.150410 0.135609 -0.144518 -0.322751 0.267002 0.222152 0.152276 0.397992 0.197959 -0.113678 0.239354 0.190657 0.209197 0.139519 0.010695 0.033948 -0.165861 0.184964 -0.239219 -0.242740 -0.131311 0.135639 -0.111316 0.290760 -0.014911 0.031586 0.182019 0.360734 -0.411140 -0.007050 0.085834 0.059397 0.208443 -0.086139 0.009940 0.091317 -0.191778 -0.054287 -0.272089 0.038405 0.059659 0.148163 -0.092427 -0.047599 -0.029336 0.061820 -0.117526 0.113074 0.071690 -0.005071 0.132871 0.121859 0.315638 -0.134109 0.410544 0.001828 -0.180543 -0.038327 0.370092 0.131871 0.048342 -0.072876 0.035413 0.261395 0.230511 0.002504 0.191711 -0.216849 -0.002483 0.123272 -0.233660 -0.009524 -0.052061 -0.092740 0.064902 -0.156498 -0.148628 0.155608 0.163434 0.075602 -0.135067 0.057260 0.050472 0.168735 -0.310154 -0.161865 0.226977 0.109110 0.064142 -0.118995 0.249189 -0.316792 -0.245995 -0.131295 -0.267568 -0.124978 0.001931 -0.072488
left. 0.219513 -0.386545 -0.145337 0.208667 -0.061048 0.150277 0.110319 0.032469 -0.159543 0.047074 0.171930 -0.020464 -0.187856 -0.127129 -0.161528 0.125004 -0.047469 0.029123 0.208866 -0.005423 0.152259 0.203352 -0.267981 -0.091657 0.182070 -0.103617 0.161386 0.211480 0.021333 0.164982 0.028937 -0.117829 0.017642 -0.156439 -0.118082 0.243073 -0.094036 -0.054301 0.258289 -0.101079 0.184358 -0.213624 -0.068968 -0.224855 -0.164878 -0.030277 -0.150244 -0.068793 0.054365 -0.004336 0.366820 -0.167843 -0.104572 0.096169 -0.088856 0.125167 -0.063414 -0.137189 0.206549 0.100779 -0.158785 0.223738 0.005593 0.160761 -0.163902 -0.260906 -0.089906 0.000170 0.019277 -0.067153 -0.185909 -0.024640 -0.070148 0.188039 -0.103068 -0.289353 0.020596 0.445827 -0.164093 -0.044410 0.195476 -0.097083 0.209549 0.218894 -0.341002 -0.063642 0.221133 0.186118 0.256830 -0.299505 0.103824 -0.064450 -0.169032 0.024182 0.282822 -0.053953 0.179912 -0.003009 -0.042932 -0.412637
right. 0.179311 -0.480008 -0.098182 0.195010 -0.064611 0.236858 0.076042 -0.011719 -0.141580 0.031723 0.157563 0.030647 -0.205886 -0.191804 -0.180667 0.048528 -0.037048 0.100110 0.239849 -0.054073 0.192248 0.324414 -0.308764 -0.184275 0.266474 -0.185597 0.268054 0.170842 0.089573 0.193906 0.060301 -0.126448 -0.003214 -0.169498 -0.096949 0.219949 -0.138212 -0.055551 0.292542 -0.180257 0.174156 -0.251757 -0.084571 -0.203768 -0.103147 0.009307 -0.188363 -0.142358 0.096159 -0.067269 0.350185 -0.169947 -0.215229 0.139895 -0.093008 0.225814 -0.048101 -0.114737 0.242717 0.072904 -0.136916 0.133155 -0.025568 0.115481 -0.120694 -0.263302 -0.057241 -0.020644 -0.080622 -0.023766 -0.222098 0.039508 -0.146358 0.266991 -0.077542 -0.246336 -0.031756 0.479484 -0.149100 -0.071085 0.203280 0.035048 0.250595 0.209492 -0.387018 -0.084065 0.331202 0.113257 0.202359 -0.330224 0.107837 -0.052399 -0.192147 0.052177 0.354741 -0.048445 0.181381 0.060024 -0.009488 -0.407512
intersection -0.115270 0.090299 0.113834 -0.188159 -0.101338 -0.053820 0.194615 0.115360 0.188560 0.125971 0.043181 -0.024720 0.140108 -0.005001 0.144073 -0.103299 -0.150386 0.085389 0.228941 -0.090531 -0.066618 0.249504 0.271297 -0.013146 -0.176354 0.142899 0.324845 -0.116294 0.022835 0.059482 -0.160677 0.151054 -0.234955 -0.026918 0.230206 -0.021959 -0.206700 -0.019657 -0.265580 0.050448 -0.244896 -0.101657 0.067334 0.358630 -0.168876 -0.022319 -0.110980 0.061953 -0.074828 -0.078576 0.019693 0.193792 0.070075 0.195903 0.164319 0.162914 0.231480 0.129020 -0.107516 -0.210613 0.273135 -0.030566 -0.126621 -0.118922 0.288992 -0.019241 0.051255 -0.078925 -0.073447 -0.264719 -0.191523 -0.023712 -0.171966 -0.080485 -0.009262 0.018222 -0.058481 -0.172587 -0.024960 0.135284 0.172003 0.303391 0.020048 -0.145653 0.101070 -0.015623 0.249093 -0.401001 -0.215351 -0.000151 -0.011086 -0.089692 0.132015 0.082738 -0.175031 0.073975 -0.025994 -0.065017 0.115112 0.217030
you -0.086490 -0.167257 0.001815 0.141070 -0.148181 -0.085706 -0.055710 0.089483 0.162764 -0.147482 -0.139077 0.154986 0.100511 0.133009 0.232056 0.248826 -0.088730 -0.138871 0.287824 0.337346 0.249461 -0.077169 0.233651 -0.255395 -0.108884 0.094592 -0.217642 -0.200680 -0.468077 -0.017217 0.143093 -0.104030 -0.175855 0.363743 -0.018002 0.254356 -0.007234 0.246697 -0.016125 0.125488 -0.003354 -0.096679 0.157738 -0.065133 -0.072726 0.039269 0.104102 -0.025055 0.088125 0.314792 0.116476 0.050709 0.262801 -0.231217 -0.018861 -0.097527 0.059099 0.037511 -0.266760 -0.102497 0.121318 0.218555 -0.066678 -0.013904 0.099755 -0.185532 -0.294275 -0.041218 0.119340 -0.316944 -0.099653 -0.236654 0.339574 -0.240406 0.196571 -0.135809 0.063286 0.033544 -0.034647 0.016755 0.044059 -0.378688 0.268910 -0.187131 0.388915 -0.130953 0.619842 0.150150 0.063351 0.017310 0.245447 -0.096856 -0.161345 0.107421 -0.125528 0.140995 0.269748 0.073301 -0.200049 -0.130214
at -0.364075 -0.045639 0.025898 -0.035504 0.015941 -0.099763 -0.014636 0.154443 0.017925 -0.130429 0.107782 0.056015 -0.114019 -0.013996 -0.040197 -0.080320 -0.191299 0.063981 0.089427 -0.102377 0.017932 0.094751 0.226451 -0.064259 0.040203 -0.340788 0.184899 0.050472 0.151078 -0.149955 0.191779 0.066457 0.124436 0.214594 0.081707 -0.215338 -0.204526 -0.043159 0.094562 0.084872 -0.106132 0.013300 -0.121264 0.055103 0.133944 0.145309 0.029768 -0.122642 0.160698 -0.287690 0.078844 0.318666 0.056451 0.015566 0.010827 0.083612 0.173046 0.229293 0.041798 -0.025738 0.097316 -0.050448 0.010399 -0.212203 0.138400 0.021613 0.148372 0.197141 0.003137 0.100245 -0.047660 0.217990 0.094308 -0.010837 0.150922 0.021106 -0.175748 -0.320444 -0.018954 -0.142609 0.102884 0.163111 0.198832 0.050379 -0.010239 -0.269399 0.278112 -0.234749 0.061892 -0.165259 -0.044757 -0.018168 -0.083037 0.178092 0.128119 -0.126580 0.202380 -0.001028 0.026875 0.195910
with -0.123930 0.094040 0.343057 -0.188386 0.042055 0.125487 -0.416895 -0.054384 0.033466 -0.135116 -0.018287 -0.130124 -0.110647 0.016815 -0.199072 0.024569 0.001019 -0.110799 -0.062642 -0.155061 0.048939 0.066594 -0.028730 -0.065253 0.133209 -0.180970 0.116490 -0.011793 -0.128371 0.136602 -0.009075 0.013694 0.045058 -0.134256 -0.020417 -0.186847 0.165853 -0.251884 -0.007517 0.161076 -0.064300 0.059273 -0.155226 0.126082 0.242574 0.065128 0.174877 -0.028116 0.061117 -0.237027 -0.125707 0.229579 -0.066016 -0.200030 -0.222264 0.075340 -0.173197 -0.190669 0.154386 0.163165 0.053988 -0.210289 0.087345 0.197576 -0.106532 0.154040 -0.125420 -0.263639 -0.129514 0.160588 0.147846 0.122253 0.048959 0.026521 0.302334 0.255227 -0.079964 -0.224308 -0.001029 0.130696 -0.177332 0.043545 0.042972 -0.176318 -0.065516 -0.058690 0.129862 -0.163071 -0.186254 0.077157 0.093170 0.055354 -0.150249 -0.142143 0.240079 -0.010271 0.200284 -0.079892 -0.123426 -0.053484
hall. -0.204744 -0.051462 0.057744 -0.129592 -0.019166 -0.044079 0.035544 -0.123765 0.238284 -0.137487 -0.012311 0.071547 0.039164 -0.037335 -0.148509 -0.153308 -0.190855 0.048878 0.110243 -0.222649 0.093158 0.068525 0.046341 -0.097755 -0.097603 -0.212544 0.193995 -0.235579 -0.083524 -0.110905 -0.035363 0.176112 0.032631 0.034752 -0.020471 -0.138021 0.006990 -0.158145 -0.250716 0.194811 -0.141514 -0.058744 0.186494 0.160182 -0.094419 -0.080625 0.006750 -0.071994 -0.079310 0.037413 0.021048 0.086120 -0.185469 -0.056966 -0.054294 0.030531 0.187079 -0.041002 0.008537 -0.093975 0.097363 -0.377709 -0.018114 -0.103563 0.055099 -0.117614 -0.086015 -0.024408 -0.226857 -0.017216 -0.014916 -0.035058 -0.137036 0.216646 -0.011868 0.267612 -0.032461 -0.038527 0.020289 -0.101860 0.143625 0.113025 0.037814 -0.181336 0.216667 0.075368 0.299630 -0.161670 -0.030226 0.122777 -0.155983 -0.074104 0.067051 0.003003 -0.013988 0.054030 0.191122 0.206633 -0.199757 0.190545
Go -0.069627 0.328240 -0.015813 0.107326 -0.191614 -0.427218 0.271441 -0.042357 0.159770 0.207953 0.234960 -0.155966 0.229244 0.147014 -0.168370 -0.393061 -0.095232 0.187273 -0.135439 -0.152486 -0.081536 -0.277974 -0.169643 0.309450 -0.086120 0.082210 0.205230 0.060584 0.080671 -0.016793 -0.419008 0.125125 0.011401 0.039861 0.223354 -0.352904 0.014281 -0.268713 -0.342972 0.072316 -0.400343 -0.099755 0.269307 0.459484 -0.224428 -0.036180 -0.087074 -0.110486 -0.182428 0.190345 0.196652 0.112545 -0.179427 -0.010691 0.357159 -0.173552 0.516482 0.037099 -0.120313 -0.042300 0.209678 -0.121577 0.210494 -0.107560 -0.099871 -0.034907 0.136905 -0.139850 0.037721 -0.241416 -0.083582 -0.017469 -0.490364 0.207859 -0.250333 0.329065 0.139877 -0.116395 -0.097912 -0.127236 0.167862 0.036492 -0.141464 0.099870 -0.088924 0.255121 -0.219639 -0.198900 0.186190 0.172714 -0.212495 -0.258702 0.343949 -0.199658 -0.109439 -0.246794 -0.126022 0.106788 -0.095889 -0.130599
one -0.214046 0.003534 -0.141312 0.092035 -0.144385 -0.337699 0.126542 -0.142769 -0.157391 0.038911 -0.009649 0.005773 0.074100 0.094547 0.014228 -0.308612 -0.015467 0.139975 -0.060093 0.118513 0.039069 -0.154333 -0.159981 0.022565 0.062989 -0.071145 0.016433 0.191266 -0.126954 -0.096226 -0.083788 0.208984 0.054018 0.065383 -0.114398 -0.015833 -0.071391 0.005935 0.081428 -0.032388 0.066405 0.065911 0.101369 0.120524 -0.045110 0.042053 -0.024763 -0.242495 -0.139193 0.255311 0.219548 -0.155860 -0.049394 -0.047087 0.112708 -0.329122 0.152552 0.037643 0.141015 0.076378 -0.054869 0.083718 0.220699 -0.063604 -0.091857 -0.222721 -0.033514 0.032397 0.107956 -0.143737 -0.066960 -0.087083 -0.024263 0.054702 -0.189249 0.140994 0.183283 0.039663 0.002991 -0.138231 0.054662 -0.141879 0.038034 0.146343 0.054584 -0.033784 0.048336 0.058969 0.179642 -0.098151 -0.020449 -0.106238 0.144135 0.078790 -0.001087 -0.091317 0.054995 0.114914 -0.126079 -0.249291
go 0.194487 0.187748 -0.145666 0.025084 -0.016913 -0.004000 0.075072 0.147925 0.147252 0.183631 -0.030985 0.058750 0.117143 -0.077063 0.198624 0.222487 0.035297 -0.077820 -0.027412 0.202012 -0.055175 -0.285269 0.085698 0.100850 -0.158502 0.090045 -0.180666 -0.189284 0.089283 0.012407 -0.160159 -0.144702 0.110776 0.102253 0.117423 -0.116330 0.181627 0.244443 -0.306486 -0.136575 -0.198831 0.158141 0.039759 0.004284 -0.069592 -0.179397 0.041119 0.141478 -0.080295 -0.020316 -0.245739 -0.145727 0.054849 -0.011536 0.039913 -0.027562 0.180769 0.020105 -0.127658 -0.209378 0.162568 -0.092402 -0.110853 -0.146046 0.089751 0.172385 0.187627 0.043230 -0.042971 -0.094684 0.127635 0.019717 0.043386 -0.168229 0.033732 -0.033428 -0.165890 -0.086600 0.098060 0.083633 -0.072768 -0.010110 -0.316955 -0.147288 0.320414 0.226415 -0.328943 -0.008398 -0.111549 0.191499 0.023142 0.253816 0.144363 -0.172745 -0.376964 0.041341 -0.452501 -0.019589 0.054027 0.269665
your 0.210866 0.304549 0.003735 -0.249732 -0.153465 -0.117455 0.091074 -0.082909 -0.071367 0.437264 -0.269058 0.135721 0.490177 -0.061907 0.461958 0.077527 0.266596 0.198731 -0.297977 0.375206 -0.015157 -0.276910 -0.135053 -0.180063 -0.136597 0.237178 -0.054357 -0.287478 0.131290 0.333985 -0.322446 0.158621 -0.025142 -0.023118 0.093390 0.012877 0.097883 0.583720 -0.235942 -0.459841 -0.022293 0.469003 0.097923 0.398872 0.184214 -0.150769 -0.063100 -0.242670 -0.399775 0.343464 -0.438546 -0.402263 0.093968 0.029172 0.165089 -0.274885 -0.090726 0.111468 -0.099914 0.011740 0.319838 -0.245049 0.067500 -0.546760 0.246956 0.225730 0.273919 -0.185006 0.002019 -0.223466 0.262114 0.038118 0.085953 -0.215443 0.033930 0.300283 -0.114902 -0.302353 0.185487 0.251235 -0.376467 0.246902 -0.432208 -0.175563 0.609998 0.281890 -0.453288 -0.246734 -0.307918 0.116106 0.251852 0.185345 0.388246 -0.265788 -0.620338 0.128331 -0.699852 0.018099 -0.013559 0.065876
move 0.345312 0.063037 -0.146752 -0.037308 -0.009640 -0.139823 0.174859 0.112121 0.295521 0.290149 0.117022 0.055542 0.099664 0.026968 0.199644 0.062329 0.172472 0.140033 -0.020878 0.121883 -0.109381 -0.018599 -0.052725 0.064937 0.009799 0.344451 0.202646 -0.161542 0.137903 0.342184 -0.373852 -0.125551 0.002748 0.075413 0.308776 -0.004362 0.018953 0.090424 -0.289752 -0.164343 -0.280410 -0.129737 0.107220 0.290661 -0.140973 -0.037179 -0.224670 0.066304 -0.179477 0.024972 0.014010 -0.063058 -0.016242 0.183849 0.119518 0.124222 0.319251 0.015053 -0.144598 -0.256261 0.356186 0.010943 -0.051472 -0.149499 0.188330 0.169805 0.151668 -0.032147 -0.088703 -0.233634 -0.011144 0.053816 -0.320814 0.181760 -0.148549 -0.027481 0.059066 -0.059258 -0.056538 0.271199 0.217752 0.256587 -0.338365 -0.019649 0.069106 0.201988 -0.218141 -0.185469 0.130382 0.195451 -0.013232 -0.021658 0.324717 -0.280793 -0.172314 -0.112083 -0.415971 -0.080086 0.146139 -0.010775
left 0.308369 -0.383624 -0.291851 0.075412 -0.015417 0.130899 0.108194 0.113234 0.001953 0.061041 0.203494 0.087326 -0.205412 -0.257242 -0.151027 0.334130 -0.032236 -0.008912 0.236696 -0.022519 0.121018 0.177445 -0.120319 -0.060002 0.056189 -0.158609 0.241455 0.074990 0.111297 0.212364 -0.052492 -0.093648 0.138574 -0.139854 -0.058662 0.234101 -0.001108 0.032100 0.124501 -0.011908 0.120556 -0.095302 -0.111438 -0.200735 -0.189267 -0.148819 -0.119015 -0.006390 -0.003026 -0.107868 0.274626 -0.192231 -0.030608 0.089491 -0.230532 0.172470 -0.056378 -0.144272 0.191282 -0.038775 -0.072227 0.030691 -0.093496 0.103828 -0.063274 -0.191014 -0.043482 0.093915 -0.104722 -0.030793 -0.061218 0.096801 0.031520 0.229446 -0.071736 -0.348165 -0.146245 0.326310 -0.131610 0.130624 0.257730 0.044904 -0.008544 0.063320 -0.155734 -0.002290 0.080413 0.151834 0.225696 -0.213321 0.080419 0.121723 -0.136250 -0.003862 0.144279 -0.038062 0.024094 -0.079270 -0.022599 -0.148546
right 0.254377 -0.318844 -0.328496 0.069855 -0.064706 0.144219 0.202046 0.095272 -0.111957 0.044002 0.161223 0.074683 -0.144699 -0.308494 -0.126778 0.298431 -0.073450 -0.013533 0.257797 0.002638 0.106859 0.123556 -0.032089 -0.022405 -0.006500 -0.163101 0.176543 0.187856 0.092717 0.059535 0.012173 -0.006717 0.124773 -0.173970 -0.113018 0.251676 -0.073147 0.146293 0.188788 -0.050171 0.142259 -0.065233 -0.119915 -0.247104 -0.182749 -0.194702 -0.076240 0.014870 -0.004957 -0.047605 0.250718 -0.277214 0.053815 0.144043 -0.157357 0.108335 -0.126708 -0.057638 0.178926 -0.041491 -0.167488 0.097332 -0.096738 0.110589 -0.033392 -0.251643 -0.020402 0.171584 -0.041236 0.000914 -0.147991 0.053053 0.121770 0.098962 -0.170464 -0.409713 -0.142020 0.337768 -0.067339 0.043932 0.175837 -0.000915 -0.008705 0.081571 -0.128127 0.010886 -0.034116 0.196944 0.104572 -0.318816 0.075615 0.155498 -0.144459 0.110065 0.046990 0.005241 0.005623 -0.090986 0.044360 -0.082631
this 0.205234 0.073408 0.049762 -0.106225 0.041477 -0.070213 0.043323 -0.019753 -0.282170 0.186180 -0.041016 0.039062 0.159611 0.070111 0.087772 0.235514 -0.009144 -0.109961 -0.235989 0.151209 0.006657 -0.172622 -0.269926 -0.026995 -0.147915 0.096866 -0.098217 -0.019685 -0.012859 0.278610 -0.079808 0.003078 0.015608 -0.230368 -0.284687 0.127951 0.055684 -0.017168 0.031046 0.063239 0.170672 0.289837 0.034072 0.064335 -0.013899 -0.110510 -0.098927 0.017648 -0.157604 0.170009 -0.091719 -0.052111 0.130762 -0.241980 0.042806 -0.195390 -0.316772 -0.088015 0.031335 0.328912 -0.030113 -0.032874 0.127155 -0.055433 -0.172430 0.127966 -0.041584 -0.151544 0.215098 -0.087436 0.190518 -0.114552 0.150311 -0.016932 0.059307 0.120877 0.074754 -0.064179 -0.031033 0.106565 -0.083622 -0.066388 0.029202 0.121961 0.209248 0.063881 -0.143424 0.066840 0.062054 0.022780 0.041442 -0.031427 0.071858 -0.159733 -0.070416 0.191624 -0.011741 -0.013258 -0.196925 -0.229700
hall -0.070797 -0.038861 0.080752 -0.042243 -0.007737 0.030648 -0.051862 -0.082831 0.258513 -0.086134 -0.116907 -0.039108 0.040448 0.005006 0.047491 -0.021696 -0.029715 0.029018 0.215041 -0.087793 0.066764 0.150419 0.169054 -0.134475 -0.105992 0.054955 0.029544 -0.211137 -0.113825 -0.080364 0.058531 0.072410 -0.150513 0.108948 0.112067 0.022757 -0.012184 0.031822 -0.198370 0.089353 -0.128453 -0.143824 0.129180 0.045398 -0.064805 -0.048302 0.095040 0.020885 -0.102193 0.068271 -0.068654 0.073337 -0.072909 0.100347 -0.027658 0.153725 0.117705 0.010128 -0.135669 -0.131406 0.086513 -0.160665 -0.064169 -0.010854 0.158486 -0.064481 -0.116472 -0.050037 -0.148376 -0.046621 -0.043551 -0.047549 -0.082669 -0.040201 0.005669 0.065876 -0.042085 -0.030959 0.022454 0.047155 -0.000410 0.070483 0.010843 -0.257262 0.061163 0.026040 0.253116 -0.120840 -0.151786 0.078108 0.033145 -0.035038 -0.004861 0.083519 -0.059525 0.032064 0.099587 0.111805 -0.051760 0.191940
take -0.282333 0.059778 -0.011757 -0.205517 -0.006839 -0.031847 0.027045 0.179948 -0.004460 -0.109034 0.109997 0.180072 -0.018184 -0.142602 -0.064865 0.044420 -0.256463 -0.070704 -0.044861 -0.103305 -0.061418 -0.025812 0.306623 0.072824 -0.088481 -0.338365 0.085812 -0.045804 0.043777 -0.126364 0.049970 0.183262 0.215061 0.052855 -0.063213 -0.184719 -0.040472 -0.035873 0.026184 0.161687 0.017117 0.271578 -0.182376 0.071023 0.122789 -0.040134 0.050117 -0.028431 0.253491 -0.241552 -0.024653 0.169764 0.209494 -0.213184 -0.096662 -0.159314 0.012390 0.077677 0.070198 -0.072729 0.067049 -0.099323 -0.115877 -0.226405 0.071148 0.068622 0.138748 0.238707 -0.037458 0.132778 0.098162 0.115752 0.366673 -0.029012 0.199915 0.039258 -0.214557 -0.290947 0.063824 -0.048045 0.095585 0.107322 -0.005851 -0.010923 0.368481 -0.133929 0.077375 -0.129987 0.006676 -0.004489 -0.128214 0.080140 -0.037981 0.066933 -0.115243 0.056398 0.082138 -0.155113 -0.035109 0.338930
Turn -0.170270 0.299428 0.140288 0.090736 0.000231 -0.205018 -0.083031 -0.019758 0.152725 -0.015330 -0.017722 -0.194584 0.210161 0.241679 -0.018253 -0.253221 -0.094609 0.030290 -0.343410 -0.104027 -0.158100 -0.340102 -0.074966 0.071306 -0.006082 0.031439 -0.274502 -0.113967 -0.075754 -0.109553 0.011150 0.073144 0.116603 0.166045 0.004578 -0.264220 0.143979 -0.162226 -0.096564 0.009837 -0.077109 0.036638 0.164989 0.001053 0.182792 0.137343 0.207829 0.059468 0.083696 0.176445 -0.125770 0.142726 -0.051527 -0.101527 0.194945 -0.247581 0.232485 -0.050635 -0.190234 0.074789 0.107890 -0.020072 0.069443 -0.042010 -0.092813 0.196563 0.043845 0.022237 -0.003663 0.182493 0.204564 -0.048448 -0.089096 -0.024743 0.050088 0.342456 0.117972 -0.096816 0.028772 -0.204822 -0.085182 -0.101128 0.005321 0.035138 0.102583 0.102844 -0.187879 0.010099 0.145803 0.301666 -0.179255 -0.256600 0.127102 -0.166428 -0.093109 -0.102788 -0.009243 0.073854 -0.154574 0.111199
end -0.146198 -0.148781 0.034672 -0.075765 -0.101585 -0.138893 0.050695 0.016018 -0.041367 0.189688 -0.121053 -0.046020 -0.068213 -0.014310 0.255036 0.191489 0.050180 -0.007841 0.516730 0.160705 0.224589 0.405678 0.155869 -0.318688 -0.165668 0.177631 0.171663 -0.057983 -0.021212 0.117571 -0.013759 0.008075 -0.414763 -0.089952 0.124780 0.265909 -0.076322 0.120773 -0.284775 0.108849 -0.086134 -0.032206 0.015443 0.167503 -0.269329 -0.047398 -0.007515 -0.043672 -0.443445 -0.151134 0.080898 0.075183 0.003114 0.186166 -0.046985 0.212508 -0.004668 0.007588 0.081709 -0.044030 0.147984 0.018668 0.144208 -0.007333 0.170762 -0.229758 -0.066486 -0.292707 0.049601 -0.486084 -0.136138 0.069657 0.050727 -0.297324 0.025808 -0.100213 -0.168001 -0.201545 -0.045391 0.303452 -0.094393 0.115465 0.017789 -0.229596 -0.057634 -0.144377 0.580864 -0.258250 -0.211222 -0.267231 0.415329 0.189448 -0.077872 0.368923 -0.004714 0.086332 0.104735 0.030059 0.041708 -0.041382
once. 0.074336 0.283427 -0.153852 0.240127 -0.000736 -0.322251 0.210535 0.266996 -0.000792 0.135587 0.252135 -0.377621 -0.126821 0.395301 -0.053825 0.041516 0.001049 0.031425 -0.081248 -0.014207 -0.235557 -0.189874 -0.065442 0.237420 -0.058290 0.336428 -0.008434 0.271136 0.088877 -0.112665 -0.091398 -0.180114 -0.063214 0.047761 0.242442 -0.120786 -0.120892 -0.059663 -0.014215 0.077296 -0.199890 -0.240741 0.073142 0.074531 -0.219879 0.170924 -0.063993 0.225445 -0.171605 -0.107469 0.223659 0.296325 0.106576 0.298859 0.170655 0.055309 0.197635 0.154914 0.000458 0.175458 0.005378 0.433251 0.184855 0.143814 -0.032479 -0.007168 0.098022 0.043010 0.332072 -0.166939 -0.084887 -0.007846 -0.284103 -0.072626 -0.151821 -0.195406 0.180077 -0.216051 -0.189809 -0.060577 0.081963 -0.227634 0.102675 0.145369 -0.501845 -0.114297 -0.208131 -0.067154 0.313989 -0.050985 -0.033359 -0.280585 0.085940 -0.054172 0.104596 -0.349929 0.011550 -0.152200 0.107073 -0.184317
on -0.284039 -0.057917 0.032360 -0.056647 0.042655 0.025121 -0.064274 -0.086312 -0.072227 -0.174178 -0.012112 0.052122 -0.067609 -0.007383 -0.067852 -0.248260 -0.019091 0.118117 -0.126957 -0.170374 -0.138252 0.227680 0.113583 0.007833 0.093654 -0.196835 0.004270 0.073074 0.192812 -0.138994 0.223389 0.204328 0.014189 0.138182 0.066822 -0.037807 -0.147361 -0.012383 0.337310 -0.009373 0.147333 0.045991 -0.201537 -0.109369 0.278426 0.198588 0.113888 -0.145440 0.323025 -0.136681 -0.015953 0.158762 0.082154 0.074204 -0.034595 -0.012461 -0.044639 0.140405 -0.003180 0.045129 -0.131506 0.001999 -0.099780 -0.104318 0.114883 0.072265 0.079149 0.223109 -0.011240 0.261015 0.020696 0.198531 0.114306 0.072403 0.125153 -0.045353 -0.037528 -0.054102 0.072230 -0.129091 0.037049 0.206277 0.192815 0.045926 -0.135231 -0.279396 0.114524 -0.079548 0.015435 -0.073560 -0.095501 -0.103614 -0.127706 0.216982 0.136116 -0.084608 0.168501 -0.034617 0.096489 0.221302
blue -0.016329 -0.018206 -0.103646 -0.006796 0.050581 0.015667 0.030236 0.090265 0.103104 -0.076218 0.056199 0.019293 -0.119138 -0.021271 -0.073312 0.060278 -0.056211 -0.039896 0.100370 -0.088250 -0.035890 0.029186 0.129154 0.078509 -0.025127 -0.060332 0.039192 -0.003906 0.031787 -0.090871 0.023924 -0.014093 0.067378 0.074307 0.062973 -0.036689 0.021346 -0.030163 -0.041061 0.066637 -0.039573 -0.024750 -0.042615 -0.066468 -0.070436 -0.003738 -0.001978 0.069783 0.034670 -0.147760 0.034348 0.064820 -0.032425 0.049293 -0.113000 0.079762 0.078649 0.035044 0.026558 -0.108933 -0.023100 -0.002046 -0.065843 0.008601 0.035179 -0.016789 0.020282 0.106056 -0.048096 0.047401 0.018231 0.042738 0.032514 0.025862 0.012369 -0.110743 -0.087071 -0.036781 -0.013556 -0.001300 0.117062 -0.007632 -0.046807 -0.036027 -0.024031 -0.066217 0.005238 0.017460 0.073825 0.015808 -0.061120 0.041924 -0.042310 0.040414 0.017192 -0.068769 0.017540 -0.052245 0.020160 0.150041
path 0.107375 -0.013899 -0.117960 -0.079489 -0.033879 0.196837 0.016147 0.196778 0.107525 0.005773 0.003625 0.158543 -0.080947 -0.292278 0.038518 0.244823 -0.157767 -0.149863 0.357182 0.055706 0.035547 0.064425 0.314706 0.072065 -0.145885 -0.111231 0.121907 -0.041953 0.006751 -0.036055 -0.098495 -0.050947 0.045700 0.065118 0.092477 -0.064751 0.022781 0.151671 -0.154809 -0.020700 -0.195238 0.055228 -0.095021 -0.027405 -0.113732 -0.311774 0.027913 0.116031 0.014803 -0.164919 -0.104889 -0.105085 0.075561 0.005848 -0.072602 0.157892 0.143380 0.046419 -0.038726 -0.365729 0.095142 -0.170337 -0.267471 -0.011965 0.174757 -0.007133 0.098504 0.099234 -0.214015 -0.066933 -0.111253 0.032126 0.111809 -0.155479 0.035450 -0.262554 -0.294021 -0.010529 0.047783 0.173578 0.064737 0.083539 -0.245396 -0.217912 0.230364 0.132456 -0.088004 -0.017850 -0.254265 -0.023572 0.022939 0.382362 -0.045401 0.045748 -0.211570 0.113714 -0.262567 -0.086762 0.176457 0.396332
down -0.133827 -0.085212 -0.003366 -0.039773 0.055340 0.077597 -0.111658 0.036793 -0.008256 -0.182368 0.054847 0.134095 -0.195260 -0.037406 -0.102020 0.053237 0.012700 -0.042970 0.041115 -0.083512 0.013619 0.121467 0.195049 0.073263 0.045296 -0.160745 0.018064 0.019524 0.087724 -0.133223 0.154306 -0.022807 0.040056 0.066197 0.050511 -0.040617 -0.046641 -0.045012 0.150781 0.096150 0.028220 0.006288 -0.183683 -0.059205 0.028291 0.103754 -0.032467 -0.026055 0.187392 -0.261395 0.054280 0.155638 0.064428 -0.054417 -0.147908 0.080361 -0.108129 0.096839 0.038818 -0.017324 -0.114333 0.041631 -0.052754 -0.010273 0.023013 -0.013861 0.006175 0.130326 -0.008218 0.141973 -0.009250 0.105876 0.149275 0.046860 0.149282 -0.123278 -0.109227 -0.086501 0.019042 -0.026922 0.103927 0.034242 0.093910 0.017082 -0.055129 -0.207226 0.137300 0.002899 0.033658 -0.047228 -0.061298 0.037772 -0.148074 0.092772 0.145797 -0.071485 0.155420 -0.086479 0.045801 0.070154
in -0.155581 -0.093419 0.024759 -0.105064 -0.025803 -0.109201 0.083559 -0.016908 -0.024022 -0.001294 0.060498 0.094229 0.014684 -0.021701 0.070137 0.005318 -0.083307 0.068327 0.084718 -0.025507 0.042342 0.177955 0.153412 -0.099520 -0.046776 -0.032843 0.189154 -0.016457 0.010340 0.050987 0.041569 0.129216 -0.095828 0.027638 0.047853 0.068174 -0.206372 0.008732 0.091722 0.126607 -0.047228 -0.019063 -0.029628 0.153699 0.017858 0.073120 -0.066194 -0.089352 0.063521 -0.020994 0.132521 0.160413 0.140245 0.031308 0.063664 0.011545 -0.006489 0.176093 -0.046802 0.019682 0.090510 0.087104 0.003126 -0.118849 0.135212 -0.063193 -0.048075 0.031779 0.105398 -0.107913 -0.162426 0.059577 0.078243 0.028453 0.056563 -0.040764 0.013877 -0.143889 -0.042745 0.014402 0.166018 0.163147 0.166675 -0.003884 0.070246 -0.208691 0.337557 -0.182529 0.004476 -0.116754 0.030244 -0.124345 -0.018889 0.119501 0.029444 0.026941 0.197836 -0.059418 0.038489 -0.013596
until 0.024650 0.037741 -0.074797 0.115001 0.047815 -0.050437 -0.119072 0.135828 0.138642 0.001706 0.301743 -0.087130 -0.198130 0.012547 -0.278240 0.320087 -0.154182 -0.124707 -0.040252 -0.178610 -0.036892 -0.150219 -0.029039 0.172045 -0.106743 -0.218285 0.032236 -0.083864 0.016378 0.023362 -0.054123 -0.191410 0.125409 0.079530 0.061864 -0.189884 0.183503 -0.212525 -0.016371 0.292045 -0.211833 -0.017749 -0.131940 -0.094476 -0.005846 0.002303 0.136355 0.199235 0.211494 -0.226601 0.095052 0.272053 -0.057565 -0.154739 -0.143921 0.089438 0.068307 -0.089786 -0.002949 0.085400 0.050056 -0.005624 -0.054209 0.165816 -0.164640 0.103993 -0.157269 -0.036074 0.037917 0.023375 0.037219 0.053501 0.017173 0.147185 0.289640 -0.111632 -0.084728 -0.078375 -0.072938 0.046052 0.211123 -0.107015 0.097025 -0.161386 -0.064574 -0.140161 0.157754 0.016561 0.172655 0.118055 -0.009689 -0.007165 -0.166723 -0.135145 0.138228 -0.160996 0.150780 -0.103756 -0.147942 0.098495
onto -0.242441 -0.008375 -0.110133 -0.099733 -0.047802 0.078167 0.138429 0.172432 -0.094583 -0.074275 0.241395 0.078644 -0.138757 -0.261838 -0.268133 -0.109337 -0.334069 0.066158 0.082091 -0.275051 -0.081423 0.122654 0.175100 0.130921 0.026214 -0.498561 0.343404 0.215307 0.234138 -0.189241 0.006039 0.174576 0.239815 -0.008266 0.048424 -0.288524 -0.182805 -0.057104 0.178751 0.030513 -0.059550 0.065419 -0.245891 0.003736 0.092924 -0.049533 0.022032 -0.073965 0.307901 -0.358602 0.094024 0.120011 0.052992 0.065647 -0.072798 0.045304 0.133466 0.140933 0.209434 -0.083592 -0.053882 -0.089064 -0.151901 -0.097380 0.088530 -0.070052 0.208000 0.261043 -0.128835 0.171608 -0.104551 0.221668 0.099629 0.104588 0.070332 -0.144303 -0.260440 -0.098872 0.032799 -0.156126 0.186906 0.230268 0.075332 0.031610 -0.018332 -0.169842 0.018854 -0.182743 -0.024839 -0.205901 -0.161898 0.089086 -0.112658 0.166565 0.045999 -0.080644 0.036180 -0.092904 0.099538 0.361892
should -0.044190 0.035634 -0.166475 0.125565 0.061719 -0.226243 -0.081856 0.314592 0.139766 0.148751 0.286485 0.183479 -0.058812 0.104629 -0.088521 0.189514 -0.183659 -0.139141 -0.237957 0.052300 -0.109928 -0.360785 -0.096099 0.083167 -0.046832 -0.295516 0.055370 -0.181103 0.140516 0.175602 -0.240357 -0.183142 0.293691 0.284446 0.030293 -0.335423 0.190802 -0.124492 0.018770 0.173923 -0.215323 0.225750 -0.061882 0.049531 0.191758 0.067999 0.026406 0.002099 0.347262 -0.136901 0.034568 0.209809 -0.100705 -0.364344 -0.012420 -0.134046 0.382140 0.119798 -0.034595 -0.089629 0.383083 -0.102228 -0.097283 -0.193803 -0.097996 0.275253 0.095561 0.087688 0.044192 0.014521 0.059554 0.179440 0.070801 0.192239 0.364666 0.015549 -0.121165 -0.215914 -0.079307 -0.047288 0.247115 0.008898 0.009261 -0.063977 0.274701 -0.154248 0.047356 -0.056982 0.333550 0.241873 -0.033763 0.078905 0.007018 -0.222444 -0.006175 -0.117041 -0.141521 -0.094082 -0.070139 0.113916
wall 0.023530 -0.128569 -0.091650 -0.140543 -0.050122 0.003669 0.083047 0.049007 -0.075937 0.067747 0.034537 0.011594 -0.110588 -0.122650 0.109711 0.304541 0.133931 0.107495 0.260953 0.075433 0.088683 0.247428 0.157106 -0.196117 -0.062861 0.002500 0.235245 0.047819 0.165269 0.071167 0.091056 0.056060 -0.087221 -0.079930 0.180012 0.172672 -0.167447 0.288879 0.085933 -0.018461 -0.039850 -0.018582 -0.140139 0.087608 -0.068967 0.052841 -0.063379 -0.056252 -0.202840 -0.227782 0.114906 0.056866 0.183328 0.297478 -0.139611 0.214630 -0.248451 0.175259 0.104659 0.073736 -0.004685 0.059555 0.077933 -0.115223 0.259306 -0.115604 0.049393 -0.017357 0.064653 -0.147107 -0.064905 0.245471 0.154691 -0.092181 0.034734 -0.257350 -0.229657 -0.249796 0.005731 0.183773 0.008723 0.193232 0.075438 -0.076734 -0.123948 -0.236229 0.227152 -0.217698 -0.116495 -0.323936 0.269206 0.060230 -0.095576 0.154918 0.014179 -0.067035 0.076583 -0.117426 0.070490 -0.032652
segment 0.267375 0.077194 0.018232 -0.069078 0.064674 0.000597 0.145676 -0.118518 0.293852 0.091164 0.087990 -0.262637 0.005515 0.069868 -0.114953 0.076711 0.150158 0.128803 0.060999 -0.202677 0.030307 -0.006422 -0.220433 -0.012823 -0.062013 0.262373 0.182962 -0.151843 -0.045280 0.043674 -0.129490 -0.101315 -0.051207 -0.209607 0.161980 0.039284 0.113539 -0.158287 -0.364841 0.092773 -0.197450 -0.327895 0.250017 0.188529 -0.319788 0.006371 -0.088480 0.223774 -0.400176 0.038456 0.080313 0.040568 -0.258661 0.255981 -0.106422 0.234392 -0.069605 -0.173566 0.057493 0.096463 0.000783 -0.113728 0.185392 0.156947 -0.000890 -0.095211 -0.163455 -0.258381 -0.090060 -0.139539 0.049117 -0.093559 -0.439588 0.226503 -0.257853 0.133400 0.094554 0.062673 -0.066180 0.084318 0.052937 0.003508 -0.114190 -0.058950 -0.237739 0.193639 -0.026887 -0.081486 0.060334 0.150102 -0.023557 -0.212598 0.149418 -0.228229 0.073765 -0.081140 0.054742 0.124470 -0.168574 -0.155700
be -0.215342 -0.073183 0.078677 0.100051 -0.011438 -0.100809 -0.029997 -0.082924 -0.028753 -0.227870 -0.164829 -0.087458 -0.007397 0.192497 0.085650 -0.070565 -0.041165 -0.042681 0.122288 0.093794 0.119058 0.015654 0.134024 -0.152893 0.008168 0.143391 -0.242794 0.036864 -0.426604 -0.221079 0.299227 0.013945 -0.198621 0.189908 -0.134151 0.234147 -0.079173 0.008872 0.106174 0.111184 0.153665 -0.163509 0.124857 -0.162983 -0.001558 0.105804 0.136417 0.036128 0.027493 0.267916 0.126144 0.065051 0.065247 -0.055485 0.042623 -0.125314 -0.085070 0.044356 -0.136363 0.035335 -0.110066 0.304764 0.124757 0.113710 -0.035242 -0.163015 -0.295133 0.020299 0.186295 -0.065721 -0.132790 -0.266132 0.170680 -0.203030 -0.054338 -0.013106 0.238104 0.077012 -0.022952 -0.120586 -0.088968 -0.388082 0.260173 0.019031 -0.015482 -0.179326 0.360426 0.230899 0.065574 -0.088930 0.097968 -0.222178 -0.143984 0.247586 0.099854 -0.004775 0.370666 0.037305 -0.089809 -0.170460
red 0.125195 0.056232 0.047855 -0.099112 -0.017822 0.150028 0.048677 0.042008 -0.059934 0.075159 0.170143 -0.137955 -0.002581 -0.187839 -0.161694 0.115531 -0.185300 -0.055289 0.093405 -0.236119 -0.050873 0.110011 0.008366 0.152861 -0.109356 -0.117091 0.240068 0.109601 0.037392 0.096007 -0.146616 0.078510 0.031159 -0.297083 -0.004081 -0.044365 -0.020635 -0.143282 -0.012473 0.112329 -0.078178 -0.026325 -0.121493 0.047450 -0.092711 -0.170554 0.013577 0.138474 0.027289 -0.138718 0.008422 0.054973 0.059514 0.093252 -0.050988 0.099210 -0.090438 -0.104343 0.101865 0.047392 -0.064809 -0.021079 -0.104736 0.232065 -0.041457 -0.055458 -0.069032 -0.076016 -0.057921 0.023692 -0.083079 -0.003796 -0.062798 0.006420 0.010275 -0.108761 -0.072459 0.115207 -0.024827 0.097626 0.105512 0.134298 -0.024365 -0.070374 -0.090121 0.061784 -0.079446 -0.085133 -0.165759 -0.076807 -0.040643 0.057514 -0.053475 -0.045232 0.000287 0.094579 0.019956 -0.122073 0.031280 0.127654
This -0.010476 0.001411 0.139492 -0.156856 -0.063345 -0.142152 0.053367 -0.032898 -0.302305 0.184295 0.098195 -0.019027 0.140650 0.079558 -0.034178 -0.046567 -0.123583 -0.018472 -0.242795 -0.005795 -0.052213 0.041987 -0.272992 -0.012431 -0.013715 -0.026516 0.137974 0.116924 -0.035485 0.334400 -0.146843 0.227639 0.008370 -0.260281 -0.275404 0.099373 -0.052399 -0.259215 0.124791 0.131895 0.239757 0.231358 -0.027946 0.187808 0.059721 -0.006849 -0.098091 -0.108697 -0.000066 0.152954 0.129065 0.074231 0.113257 -0.251240 0.089119 -0.278518 -0.162112 -0.164779 0.106151 0.299315 0.032246 0.025539 0.124016 -0.015339 -0.177165 0.067622 -0.091634 -0.155871 0.155431 -0.082327 0.075312 -0.093702 0.060726 0.111475 0.067708 0.179288 0.163576 -0.001323 -0.120223 0.096052 0.102157 0.045846 0.182957 0.236017 0.092245 -0.021172 0.080798 -0.047007 0.140666 -0.048607 -0.041912 -0.208033 0.068553 -0.119359 0.093180 0.105618 0.173570 -0.096818 -0.223178 -0.275681
two -0.064988 0.157269 0.113302 0.031861 0.009858 -0.143599 -0.051257 -0.063131 -0.031110 0.019218 -0.073145 -0.217801 0.005626 0.229962 -0.024254 -0.038566 0.052053 -0.055383 -0.016999 -0.036417 -0.008062 -0.063627 -0.126231 0.013426 -0.069602 0.167090 -0.133092 0.025515 -0.134929 -0.057540 -0.028515 -0.023629 -0.129809 -0.084134 -0.026576 0.009821 0.090484 -0.143144 -0.168774 0.155622 -0.009151 -0.036691 0.101270 0.042218 -0.106293 0.046634 0.110484 0.086900 -0.238291 0.038547 -0.029178 0.105293 -0.075090 -0.028188 -0.023042 -0.042697 -0.055779 -0.123923 0.036369 0.175438 -0.054076 0.007929 0.198507 0.173305 -0.140608 -0.040578 -0.121121 -0.227276 0.104376 -0.129963 0.095380 -0.079713 -0.072489 -0.102657 -0.036293 0.159807 0.099169 -0.100005 -0.018322 0.029425 -0.164761 -0.183395 0.022211 -0.040232 -0.147963 0.004943 0.041747 -0.001586 0.003803 0.063289 0.077972 -0.093254 -0.004323 0.040776 0.045181 0.007228 0.134756 0.070135 -0.137288 -0.134901
brick 0.015696 0.010088 -0.062183 0.005329 0.016352 -0.005553 0.063981 0.106297 -0.048139 0.084553 0.094331 -0.043830 -0.046322 -0.054524 -0.069837 -0.061224 -0.144260 -0.035784 0.025146 -0.086594 -0.103629 0.061073 -0.021951 0.132924 -0.016212 -0.090927 0.119103 0.101948 0.054043 0.058890 -0.124816 0.080420 0.071346 -0.062212 -0.030064 -0.061964 -0.026857 -0.135725 0.004935 0.060602 0.007261 0.021475 -0.083104 -0.006035 -0.033846 -0.069988 0.001384 0.062259 0.080969 -0.090082 0.040330 0.012832 0.002352 0.007574 -0.028607 -0.004745 0.155374 -0.034517 0.070272 -0.066352 0.012925 -0.013144 -0.081351 0.088668 -0.026499 0.007066 0.045025 0.046760 -0.037262 -0.005794 -0.030737 0.016562 -0.029887 0.023718 -0.014406 -0.082712 -0.028897 0.077173 -0.052435 0.033259 0.134970 0.070574 -0.014058 0.022113 -0.053007 -0.005845 -0.065765 -0.039557 0.019007 -0.012328 -0.084874 0.057927 -0.013396 0.020810 -0.001729 0.013740 -0.048617 -0.080110 0.040586 0.131124
Position -0.192255 0.054711 -0.056681 -0.195042 -0.061027 -0.316255 0.227940 0.141108 -0.210599 0.144787 0.024501 0.197865 0.087273 0.115974 0.121591 -0.087325 -0.149324 0.018044 -0.151488 0.157640 -0.102211 -0.012011 -0.027419 -0.008931 -0.087237 0.005758 0.152971 0.053568 0.042565 0.192674 -0.147805 0.253335 0.019854 -0.002364 -0.128580 0.029196 -0.149169 -0.057411 0.024273 0.101884 0.118544 0.323255 -0.012892 0.286118 0.011403 0.001849 -0.161416 -0.175853 -0.052825 0.029628 0.091651 0.078132 0.162729 -0.219285 0.113017 -0.289326 0.089075 0.134136 0.086646 0.055615 0.189799 -0.031640 0.108702 -0.333070 0.024656 0.086617 0.138434 0.045925 0.183951 -0.225299 0.060905 0.048671 0.186599 0.031061 0.049954 0.098482 0.023408 -0.323158 -0.039735 0.051764 0.122812 0.085426 0.086874 0.171851 0.285259 -0.137868 0.074463 -0.184388 0.164194 -0.050538 -0.030801 -0.087283 0.137960 0.042453 -0.065884 0.042863 0.014219 -0.103537 -0.089253 -0.057540
towards -0.190533 -0.044806 -0.014509 -0.017957 0.075179 0.129199 -0.098422 0.087274 0.000699 -0.195826 0.130041 -0.075503 -0.321134 -0.099047 -0.286412 -0.007377 -0.083299 -0.050830 0.168971 -0.268038 -0.032712 0.190852 0.149098 0.123154 0.080237 -0.287070 0.161181 0.179511 0.094788 -0.204113 0.112397 -0.012995 0.096647 -0.018497 0.067294 -0.170274 -0.016736 -0.190851 0.101873 0.166253 -0.031944 -0.090759 -0.236791 -0.121036 0.021416 0.041981 0.115911 0.061836 0.153110 -0.429787 0.081589 0.191740 -0.066282 0.069091 -0.235022 0.204082 -0.020004 -0.008676 0.210803 -0.038513 -0.149676 -0.052729 -0.038835 0.191637 -0.013441 -0.066279 0.018375 0.088587 -0.110933 0.175511 -0.030027 0.195467 0.037843 0.054951 0.072150 -0.165917 -0.180745 -0.088167 0.015439 -0.016562 0.053285 0.042166 0.047603 -0.022588 -0.307652 -0.184322 0.082569 -0.050393 -0.035890 -0.127126 -0.046696 0.123917 -0.229136 0.182942 0.247639 -0.108109 0.192796 -0.069648 0.077102 0.210066
easel. -0.115210 0.061269 0.016525 -0.039343 0.046332 -0.054328 -0.056126 0.118897 0.062154 -0.115856 0.080155 0.065632 -0.117289 0.088686 -0.069156 0.027748 0.043001 0.006890 -0.040520 -0.001165 -0.033831 -0.061078 0.114503 0.030764 0.063900 -0.041035 0.052189 0.022397 0.084183 -0.096169 0.066924 -0.098604 0.066315 0.114953 0.121595 -0.145426 -0.037264 -0.012856 0.057385 0.036243 -0.106874 -0.014179 -0.038492 0.086148 0.061675 0.161734 -0.057416 -0.019944 0.060173 -0.200928 0.055098 0.189681 0.034641 -0.015950 -0.025941 0.072583 -0.016174 0.148163 0.030814 0.012507 0.048410 0.018906 0.023529 -0.089163 0.064341 0.058321 0.100817 0.079495 0.024551 0.062753 -0.000539 0.136832 0.020895 0.059670 0.094660 -0.015485 -0.055358 -0.274142 -0.011293 -0.043240 0.033446 -0.002984 0.029522 0.041222 -0.050465 -0.143486 0.017845 -0.084501 0.101409 0.002890 -0.022527 -0.043062 -0.002954 -0.020044 0.108851 -0.144069 0.041610 -0.052374 0.059978 -0.023971
back -0.134593 -0.157517 -0.066542 0.057469 -0.096181 -0.110270 0.106568 -0.273436 -0.059560 -0.024296 -0.126960 -0.189190 -0.067635 0.060304 0.067229 -0.345290 0.170146 0.285159 0.175219 -0.100536 -0.052942 0.448833 -0.026823 -0.119177 0.100772 0.236667 0.047254 0.170549 -0.072857 -0.059625 0.125299 0.291813 -0.324820 0.010842 0.125698 0.339012 -0.191451 0.064152 0.162775 -0.048041 0.202965 -0.243468 0.002776 -0.070243 -0.018657 0.117145 0.107523 -0.155117 -0.132622 0.179958 0.189509 -0.051408 -0.053187 0.405798 0.015363 0.033702 0.030650 -0.003734 0.019094 -0.001124 -0.174017 0.215006 0.135462 0.092710 0.121866 -0.238265 -0.138906 0.003860 0.039686 -0.094180 -0.124892 -0.006908 -0.132612 -0.045007 -0.271430 -0.122356 0.174891 0.189466 -0.024382 0.067385 -0.020288 0.068880 0.137851 0.002491 -0.440963 -0.164054 0.242438 -0.023283 -0.002621 -0.234767 0.144132 -0.232697 -0.050154 0.395692 0.155532 -0.156614 0.212643 0.020635 0.066185 -0.060181
along -0.268269 -0.057049 0.151278 -0.018143 0.079930 0.100528 -0.165955 -0.082765 0.071923 -0.338348 0.059338 0.101987 -0.124553 0.008174 -0.153665 -0.220423 0.088231 0.048964 -0.022384 -0.158852 0.037971 0.091108 0.260940 0.061874 0.171319 -0.115467 0.045006 0.050296 0.033252 -0.308548 0.254815 -0.070719 -0.026693 0.145667 0.174005 -0.163561 -0.150766 -0.074258 0.250270 0.044492 -0.119382 -0.220270 -0.072187 0.046307 0.146688 0.296322 -0.061529 -0.060079 0.344311 -0.194701 0.087539 0.259730 0.064259 0.013224 -0.004840 0.161155 -0.093547 0.252671 -0.087124 -0.034148 -0.108255 0.113009 -0.071454 0.004907 0.109526 -0.030285 -0.020520 0.124536 -0.014054 0.235287 -0.188693 0.113525 -0.002575 0.145816 0.068376 0.002108 0.050055 -0.112879 0.072406 -0.224317 0.083734 0.073684 0.172323 0.050244 -0.168434 -0.232348 0.190290 -0.068442 -0.035768 -0.000281 -0.158557 -0.138116 -0.091863 0.088231 0.212580 -0.093425 0.240394 0.009759 0.189537 -0.046658
yellow -0.036235 -0.003921 -0.021770 -0.020936 -0.010687 -0.072633 0.020947 0.101501 0.065383 0.051902 0.029990 0.030598 -0.052632 -0.003083 0.000212 -0.016664 -0.126990 -0.049351 0.127336 -0.024850 -0.046119 0.123212 0.088979 0.052563 -0.047560 0.001307 0.117509 0.004907 -0.004111 0.097499 -0.119162 0.040133 -0.034008 0.052900 0.058164 -0.014425 -0.022949 -0.093911 -0.102011 0.095168 -0.051809 0.021946 -0.035711 0.055265 -0.048074 -0.074348 0.005080 0.018909 -0.002164 -0.067691 0.012480 0.078970 0.012257 -0.020478 -0.005947 0.033113 0.201276 -0.019502 -0.009859 -0.140373 0.124130 -0.044767 -0.071804 0.011298 0.045951 0.015388 0.013524 0.008802 -0.050727 -0.107894 -0.033470 0.016777 -0.015442 -0.006567 0.044962 -0.055862 -0.043186 -0.061824 -0.056568 0.128159 0.116915 0.076838 -0.048985 -0.071478 0.022479 -0.001583 0.080521 -0.083569 0.013130 0.030584 -0.017473 0.085211 0.006143 0.052255 -0.009497 0.001656 -0.036080 -0.058019 0.047276 0.137425
path. -0.016970 0.024149 -0.036328 -0.036046 -0.021016 0.142599 0.011836 0.083668 0.016551 -0.059674 -0.012511 -0.000640 -0.050873 -0.144810 -0.018204 0.129596 -0.137705 -0.093178 0.191715 -0.034134 -0.013811 0.066071 0.220390 0.030821 -0.102003 -0.066135 -0.022854 0.024987 -0.028671 -0.140550 0.063897 0.017373 -0.002661 0.018280 0.009939 -0.013107 -0.013246 0.092176 -0.006164 0.033252 -0.041257 0.002246 -0.084449 -0.121389 -0.008370 -0.140526 0.128115 0.116458 0.055650 -0.083952 -0.072732 -0.026853 0.095751 0.057118 -0.042546 0.074336 -0.016300 0.028547 -0.019173 -0.118206 -0.041251 -0.026361 -0.143501 0.063266 0.091763 -0.030517 0.015473 0.098611 -0.074190 0.041119 -0.075442 0.001090 0.126571 -0.168041 0.024318 -0.186257 -0.143717 0.000208 0.055432 0.036388 -0.045016 -0.008942 -0.052128 -0.142126 0.062252 0.013457 -0.026423 0.023493 -0.187585 -0.065995 0.025674 0.154714 -0.105786 0.127656 -0.093928 0.072260 -0.026251 -0.058453 0.086900 0.296901
carpet 0.181694 0.092666 0.156238 -0.110523 0.070220 0.189377 -0.090032 0.053245 0.080699 -0.013345 0.063448 -0.059562 0.049831 -0.028533 -0.032976 0.081196 0.002437 0.005867 -0.045715 -0.125986 -0.018027 -0.025940 0.021094 0.032745 0.022972 0.034014 0.129919 -0.073474 0.044731 0.081106 -0.024501 -0.067125 0.048144 -0.141143 0.073396 -0.098204 -0.021353 -0.032776 -0.014943 -0.067053 -0.141739 -0.100378 -0.013168 0.140978 0.021136 0.016814 -0.116032 0.092803 0.009389 -0.089489 -0.071871 0.083061 0.010596 0.074545 0.000466 0.175888 -0.126711 0.038316 -0.041671 0.057808 0.036850 -0.019633 -0.045374 0.014229 0.054453 0.104696 0.025346 -0.060887 -0.097383 0.139374 -0.000584 -0.008689 -0.127883 0.054447 0.040288 0.051112 -0.029679 -0.045624 -0.021309 0.024613 0.014775 0.131852 -0.041312 -0.019727 -0.016531 0.068499 -0.154381 -0.129053 -0.089730 0.069231 -0.077187 -0.085734 0.058448 -0.236258 -0.010922 0.022771 -0.037209 -0.067819 0.047752 -0.040196
face 0.217531 -0.077566 -0.119476 -0.027148 -0.038298 0.050322 0.143504 0.135894 -0.008630 0.168972 0.110241 0.011548 -0.063206 -0.116969 0.079642 0.167712 0.020671 0.027128 0.204702 0.067862 0.014621 0.132608 0.010891 0.010632 -0.013799 0.113759 0.239919 0.075874 0.074094 0.168668 -0.158079 -0.081945 -0.045404 -0.116007 0.117930 0.099820 -0.091836 0.097239 -0.038939 -0.081451 -0.107065 -0.104150 -0.050004 0.099349 -0.178731 -0.090089 -0.174328 0.059295 -0.106508 -0.111129 0.107078 -0.068260 0.047161 0.191376 -0.007017 0.176891 0.041618 0.035148 0.067398 -0.111657 0.081540 0.110391 -0.051627 0.020743 0.108425 -0.059321 0.049850 -0.031996 -0.024103 -0.185223 -0.154366 0.022101 -0.080840 0.008352 -0.081663 -0.243176 -0.066355 0.050295 -0.067841 0.168204 0.140040 0.114228 -0.079171 -0.003131 -0.090289 0.011274 -0.008901 -0.086839 -0.031881 -0.129536 0.095223 0.078485 0.032343 -0.021022 -0.035503 -0.002395 -0.149020 -0.115068 0.144099 -0.068857
an 0.032253 -0.071079 -0.040915 0.035699 -0.028410 -0.119702 -0.018386 -0.044840 -0.051218 0.083682 -0.099204 0.111004 0.104072 0.063392 0.073913 0.035991 -0.001827 -0.068473 -0.127097 0.194575 0.077365 -0.166406 -0.206819 -0.121265 -0.017094 -0.011820 -0.120088 -0.106110 -0.125892 0.164983 -0.065442 -0.008471 0.033208 0.043554 -0.230959 0.106182 0.138958 -0.003191 -0.051439 0.006217 0.157111 0.201697 0.114144 -0.025853 0.031479 -0.075785 0.008320 -0.099604 -0.075799 0.250641 -0.031415 -0.155038 -0.084410 -0.283470 0.017410 -0.221749 0.029195 -0.134092 0.010740 0.036786 0.080684 -0.117681 0.062419 -0.082717 -0.144930 0.035651 -0.086457 -0.081440 0.028132 -0.097629 0.130773 -0.115911 0.087571 0.034356 0.042752 0.156684 0.071531 0.082276 -0.021918 0.018406 -0.045302 -0.142863 -0.009311 0.030410 0.251778 0.093671 0.018857 0.163128 0.119908 0.091195 0.042856 0.039341 0.048266 -0.075841 -0.024855 0.082748 -0.038377 0.106479 -0.197995 -0.145532
pink -0.052950 0.021971 -0.030232 0.006877 0.007901 0.009582 0.015918 0.097512 0.006664 -0.041396 0.029077 -0.034218 -0.089171 0.005863 -0.029989 0.021903 -0.081905 -0.075852 0.098161 -0.044848 -0.071749 0.064258 0.116097 0.081107 -0.025650 -0.029496 0.004435 0.070686 -0.030633 -0.034581 -0.007594 0.038495 0.009892 0.015204 0.018878 -0.015755 -0.016203 -0.058616 -0.009205 0.084908 0.002237 -0.004021 -0.084067 -0.058865 -0.026801 -0.017247 0.059633 0.076842 0.054062 -0.126029 0.022578 0.073145 0.040034 0.013769 -0.058058 0.014840 0.068881 -0.018961 0.035786 -0.078612 -0.010319 0.047251 -0.051203 0.085833 0.006070 0.005067 0.005369 0.059500 -0.008726 0.001680 -0.012387 0.026442 0.071270 -0.068887 0.036418 -0.124830 -0.057541 -0.038179 -0.016236 0.045256 0.045767 -0.041501 0.013424 -0.018854 -0.050999 -0.068047 0.026566 -0.008535 0.002641 -0.019516 -0.014718 0.037165 -0.080899 0.082894 0.006744 -0.011956 0.046229 -0.096088 0.036870 0.128887
see -0.101297 -0.027104 -0.038745 0.040663 -0.009217 -0.055151 -0.018933 0.089436 -0.009851 -0.068855 0.148597 0.056925 -0.070054 -0.001582 -0.096639 0.127898 -0.062008 -0.015807 -0.055127 0.006585 0.033080 -0.102037 0.080603 0.014112 0.009235 -0.165541 0.009375 0.023418 0.003973 -0.070114 0.079699 -0.085615 0.083668 0.123620 0.017733 -0.082419 -0.022586 0.025547 0.162899 0.060401 -0.062482 0.016486 -0.095751 -0.029605 0.084917 0.094483 0.025855 0.002921 0.207890 -0.091362 0.116274 0.127088 0.085449 -0.099542 -0.018405 -0.024519 -0.043918 0.103647 -0.001893 0.058793 0.019446 0.121388 -0.013574 -0.049905 -0.022135 0.015530 -0.016805 0.096353 0.095067 0.035543 -0.069657 0.056735 0.152917 0.055541 0.156914 -0.079701 -0.038825 -0.100332 -0.001740 -0.080927 0.087554 -0.073479 0.121185 0.009134 0.037441 -0.183174 0.139633 0.027025 0.122331 -0.050699 0.021033 -0.059809 -0.097055 0.006021 0.073286 -0.109858 0.127654 -0.083842 -0.003630 -0.051003
segments 0.199251 0.023929 0.076965 -0.170567 -0.016845 0.019071 0.101229 -0.171507 0.034556 0.162991 0.069235 -0.066532 0.161968 -0.088102 -0.016822 0.029260 0.037908 0.121824 -0.034126 -0.127825 0.058829 0.021935 -0.206580 -0.020042 -0.067995 0.075390 0.271721 -0.114905 -0.029508 0.224107 -0.229194 0.098818 -0.036817 -0.335440 -0.019802 0.063953 0.008167 -0.082189 -0.180460 0.034231 -0.092015 -0.047717 0.106962 0.309609 -0.172113 -0.098582 -0.175109 -0.006586 -0.241979 0.117031 0.021506 -0.068598 -0.104185 0.062357 -0.017812 0.027811 -0.143096 -0.124279 0.074731 0.118470 0.057296 -0.104519 0.093767 0.029036 -0.034082 -0.085100 -0.127566 -0.252701 -0.046891 -0.123524 0.002364 -0.096429 -0.210259 0.190509 -0.119779 0.197024 0.076477 0.087397 -0.032577 0.123761 0.080352 0.173978 -0.095140 -0.040148 0.077634 0.170074 -0.003225 -0.154813 -0.072956 0.064276 -0.001950 -0.129433 0.183146 -0.222743 -0.058495 0.106314 -0.007116 0.028934 -0.140056 -0.183852
then 0.083011 -0.119651 -0.024174 -0.025666 -0.053012 0.102068 0.068938 0.005372 -0.044663 0.074671 0.025250 0.015871 0.028009 -0.149135 -0.007175 0.000472 -0.073045 0.035377 0.073911 -0.032069 0.029326 0.131756 -0.046923 -0.039022 0.026085 -0.050063 0.096815 0.021273 0.016896 0.112418 -0.041307 0.071899 0.003521 -0.119466 -0.065328 0.097445 -0.036465 -0.013763 0.028490 -0.079323 0.093738 -0.005203 -0.043906 -0.037177 -0.027785 -0.094286 -0.042771 -0.026791 0.038061 0.016222 0.048413 -0.113909 -0.011338 0.034976 -0.003356 0.013005 0.000893 -0.081165 0.051202 -0.037565 -0.009846 0.003882 -0.069477 0.005840 -0.015554 -0.063385 0.007389 0.005403 -0.076477 -0.005102 -0.034383 -0.030842 0.003821 0.034152 -0.037825 -0.060452 -0.044712 0.195004 -0.022708 0.030474 0.058592 0.083927 0.009658 0.044248 0.004930 0.052708 0.025811 0.010330 -0.011498 -0.080237 0.003526 0.022913 -0.023641 0.010235 -0.007116 0.061856 -0.028850 -0.026144 -0.005288 -0.006469
intersection. -0.095130 -0.094121 0.073678 -0.081412 -0.038502 0.131147 -0.029373 -0.088989 -0.008793 -0.049729 -0.083386 0.107550 -0.001929 -0.155093 -0.014235 -0.110319 0.030266 0.052073 0.125138 -0.034783 0.128396 0.142581 0.003506 -0.105091 0.094568 -0.140058 0.130319 -0.051434 0.038208 -0.006486 0.017907 0.051618 -0.022486 -0.052059 0.015491 -0.003327 -0.009538 0.010698 -0.022615 -0.099841 0.019667 0.008576 -0.027586 0.052256 0.023164 -0.010909 -0.043971 -0.122668 -0.006696 -0.080941 -0.027521 -0.101605 -0.119554 0.013673 -0.070184 0.067218 -0.054789 -0.020042 0.094273 -0.070253 -0.022160 -0.169950 -0.010084 -0.070784 0.049586 -0.084534 0.048872 -0.063051 -0.174275 0.010496 -0.014912 0.069000 -0.005648 0.039542 0.002534 0.085082 -0.128744 0.048853 0.066426 -0.014278 -0.058446 0.129211 -0.046487 -0.029873 0.042021 0.021740 0.108085 -0.069623 -0.143430 -0.065469 0.033425 0.114439 -0.030805 0.059915 0.018016 0.084166 -0.020648 0.098270 0.014463 0.015401
alley -0.014990 0.023337 -0.045224 -0.018257 0.003651 -0.103623 0.078732 -0.020887 0.137063 0.031774 -0.010787 0.026050 0.075069 0.035071 0.080896 -0.026406 0.045809 0.087286 0.016521 0.022335 -0.003861 -0.009405 0.080564 -0.023090 -0.071816 0.092367 0.041656 -0.103526 0.037321 -0.034709 -0.020322 -0.001677 -0.059081 0.105760 0.138578 -0.004082 -0.048976 0.081135 -0.096537 -0.001271 -0.123448 -0.063587 0.097279 0.117064 -0.037501 0.040357 -0.036281 0.008330 -0.065799 0.058328 -0.011663 0.044360 0.011567 0.099514 0.074132 0.051713 0.096152 0.117233 -0.116645 -0.080490 0.105864 -0.021238 -0.018998 -0.099925 0.143181 0.005301 0.008438 0.023804 0.004685 -0.076986 -0.050756 0.014166 -0.083478 0.031994 -0.047022 0.020776 0.030337 -0.094829 0.017639 0.009825 0.056793 0.089696 -0.037710 -0.073172 0.063476 -0.000257 0.039105 -0.092511 0.000203 0.057497 -0.012752 -0.050569 0.097267 0.009143 -0.079357 -0.035491 -0.052435 0.049909 0.039827 0.066647
position -0.072270 -0.005836 -0.017371 -0.097607 0.007536 -0.210143 0.106043 0.046167 -0.166403 0.076432 -0.001211 0.116277 0.082945 0.126571 0.082257 0.001489 -0.070962 -0.037559 -0.179168 0.134423 -0.047289 -0.050181 -0.097946 -0.041536 -0.064192 0.025277 -0.016939 0.004116 -0.044085 0.154874 -0.039772 0.130953 0.025260 0.009546 -0.190870 0.110159 -0.052461 -0.079689 0.072815 0.119541 0.199732 0.231494 0.020341 0.086718 0.032279 0.033084 -0.079066 -0.071414 -0.012226 0.125317 0.076092 0.047246 0.141960 -0.241433 0.042886 -0.269197 -0.066878 0.002864 0.025712 0.139384 0.064624 0.037856 0.083269 -0.152943 -0.070301 0.059406 -0.016711 0.015779 0.188872 -0.128481 0.092674 -0.047014 0.187552 0.042336 0.059621 0.087181 0.103953 -0.118768 -0.049313 0.024823 0.071098 -0.053948 0.111860 0.162158 0.224283 -0.101952 0.097043 0.006854 0.201990 0.016755 -0.016295 -0.122688 0.060412 -0.004442 -0.007388 0.079928 0.099655 -0.046703 -0.143551 -0.137204
way 0.073516 -0.157035 0.004230 -0.116641 0.087984 0.274480 -0.074000 -0.211270 0.198363 -0.189934 -0.158674 0.138883 -0.070206 -0.220685 0.035636 0.120412 0.199766 0.049269 0.244766 -0.038128 0.181219 0.168438 0.208060 -0.102633 -0.037933 0.024884 -0.019087 -0.235738 -0.017771 -0.209324 0.211676 -0.061651 -0.107190 -0.002054 0.116559 0.138419 0.048226 0.156032 -0.131984 -0.009365 -0.055228 -0.152572 0.033790 -0.052745 -0.119375 -0.048859 -0.032544 0.057182 -0.074889 -0.046033 -0.090284 -0.096273 -0.087095 0.150376 -0.196123 0.276512 -0.236177 0.043861 -0.074992 -0.163965 -0.157200 -0.152812 -0.093292 -0.020652 0.173078 -0.128228 -0.151141 -0.013060 -0.178684 0.071041 -0.024601 -0.037260 0.003344 0.038626 -0.063167 -0.050398 -0.106958 0.116180 0.145207 0.027715 -0.028484 0.083038 -0.122307 -0.189390 0.050582 0.044406 0.136975 0.052944 -0.252900 0.034580 0.008160 0.111760 -0.044114 0.064458 -0.041282 0.073769 0.029821 0.122131 0.032941 0.143676
hallway. -0.033787 -0.167102 0.096561 -0.035552 0.012762 0.183162 -0.099890 0.003897 0.060818 -0.077684 -0.006421 0.145325 -0.042805 -0.093844 -0.000763 -0.015138 0.019273 0.034605 0.044976 -0.006293 0.083965 0.155058 0.035064 -0.136979 0.136854 -0.133873 0.120053 -0.110114 0.124654 0.038532 0.093600 -0.074566 0.003983 0.028495 0.045929 -0.041521 -0.060307 0.032174 0.070750 -0.137499 -0.021881 -0.038187 -0.053823 0.019319 0.097662 0.075788 -0.114591 -0.108104 0.133925 -0.151298 -0.005777 0.023817 -0.075479 0.005042 -0.025647 0.162521 -0.014619 0.060233 0.029515 -0.060080 0.051035 -0.088074 -0.099970 -0.131003 0.089242 0.024288 0.083850 0.020904 -0.145125 0.087866 -0.045732 0.100103 -0.034888 0.098844 0.122090 0.018991 -0.113123 0.035229 0.010421 -0.062030 0.033471 0.171259 0.076401 -0.000461 0.010578 -0.057593 0.180366 -0.097954 -0.045871 -0.023167 0.008018 0.032489 -0.051503 -0.038135 0.092703 0.021123 0.005148 0.042465 0.062155 -0.025972
past -0.090167 -0.060069 0.061409 -0.094876 0.112578 0.160134 -0.079200 0.027097 0.081062 -0.200651 0.157608 0.078247 -0.167086 -0.104180 -0.161481 -0.030557 0.018324 0.043492 0.036805 -0.203221 0.008470 0.124002 0.218180 0.088991 0.117078 -0.176891 0.209101 0.037966 0.127932 -0.156977 0.146902 -0.071462 0.078129 0.013473 0.160883 -0.161146 -0.132465 -0.072595 0.171909 0.047144 -0.137167 -0.182439 -0.151382 0.059368 0.063547 0.171049 -0.094909 0.033718 0.261047 -0.316176 0.079367 0.211660 0.049335 0.091549 -0.090017 0.242248 -0.109999 0.186163 0.028458 -0.043146 -0.062533 0.039715 -0.103722 0.018728 0.130945 -0.009121 0.029384 0.134776 -0.072539 0.212483 -0.135719 0.162716 -0.020824 0.175797 0.053367 -0.093807 -0.074836 -0.098793 0.033346 -0.083498 0.161218 0.192285 0.075946 0.037785 -0.148160 -0.174095 0.085127 -0.127215 -0.040809 -0.042196 -0.136834 -0.040529 -0.078107 0.002539 0.176515 -0.083165 0.139883 -0.069426 0.173539 0.055810
chair 0.020133 -0.047173 -0.073120 -0.099679 0.037209 -0.000451 0.028962 0.081153 0.096902 -0.026200 0.073100 0.092084 -0.100396 -0.074094 0.002051 0.116084 0.023735 -0.002591 0.120260 -0.012106 0.009582 0.078909 0.162681 0.026149 -0.014908 -0.008557 0.160790 -0.019765 0.041117 0.014593 -0.026434 -0.035489 0.040977 0.023159 0.112886 -0.005531 -0.041768 0.030899 -0.029895 0.058507 -0.096637 -0.046044 -0.059258 0.092103 -0.070696 -0.001739 -0.076750 0.035262 -0.015197 -0.150406 0.055394 0.058228 0.075445 0.059554 -0.089117 0.124195 -0.002628 0.082482 0.021595 -0.114182 0.057338 0.000985 -0.050821 -0.036804 0.119841 -0.021328 0.021348 0.069244 -0.034881 -0.030031 -0.048499 0.088247 0.041521 0.063152 0.000570 -0.121989 -0.078785 -0.135676 -0.007441 0.101814 0.126881 0.106005 -0.085025 -0.037904 0.034106 -0.058326 0.044431 -0.081674 0.008107 -0.020515 -0.005302 0.065641 0.011713 0.009776 0.001840 -0.032638 -0.015958 -0.081573 0.081538 0.068321
black -0.071693 -0.003181 -0.049629 -0.019138 -0.031032 -0.057853 0.024413 0.055135 -0.035657 -0.010606 0.027785 0.005686 -0.064184 -0.016556 -0.037262 0.042192 -0.047712 -0.050131 0.097051 0.013415 0.018225 0.029288 0.070589 0.025561 -0.047663 -0.061026 0.060568 0.072631 -0.020122 -0.032034 -0.026653 0.031796 -0.013111 -0.004767 -0.011401 0.004193 -0.014025 -0.016867 -0.031764 0.105202 -0.008729 0.040705 -0.041792 0.020838 -0.064331 -0.036819 0.023179 0.004124 -0.040719 -0.083735 0.048508 0.040228 0.029422 -0.033186 -0.061466 0.004046 0.024147 0.001673 0.077650 -0.027020 0.003491 -0.007111 0.012483 0.046273 -0.007139 -0.066952 -0.012749 -0.004691 0.035825 -0.078418 -0.035543 0.027967 0.071428 -0.049247 0.025121 -0.068014 -0.048790 -0.073951 -0.006887 0.048868 0.023624 -0.036296 0.014876 -0.035507 -0.002216 -0.055047 0.075923 -0.026982 -0.018079 -0.064196 0.041794 0.089739 -0.058235 0.094619 0.019910 0.001673 0.047466 -0.036840 0.000087 0.034836
blue-tiled 0.029755 0.013522 0.070196 -0.121788 0.043942 0.034733 0.014899 0.048145 0.039569 0.018062 0.144194 -0.059562 -0.060741 -0.039840 -0.115101 -0.023748 -0.052302 0.073440 0.023294 -0.189199 -0.007840 0.089569 -0.042517 0.041586 0.054555 -0.058871 0.266590 0.023061 0.079767 0.076123 -0.062089 0.003111 0.064040 -0.138216 0.064693 -0.086837 -0.045123 -0.184900 -0.043300 0.032581 -0.103141 -0.102127 -0.033950 0.164321 -0.067016 0.045742 -0.133045 0.029443 -0.044375 -0.178116 0.088828 0.135937 -0.089374 0.075464 -0.052966 0.147016 -0.012147 0.004116 0.107530 0.046696 0.032399 -0.040497 0.050124 0.000020 0.003670 0.000684 0.014469 -0.067877 -0.077243 0.029242 -0.014777 0.060153 -0.144278 0.156620 -0.015213 0.061090 -0.034926 -0.055335 -0.053860 0.017684 0.126734 0.156299 0.003535 0.052019 -0.124503 -0.025675 0.024332 -0.164756 0.047630 -0.012718 -0.075927 -0.097110 0.054902 -0.102445 0.118097 -0.066154 0.068790 -0.042948 -0.021495 -0.059832
easel 0.041791 0.068188 -0.010760 -0.092729 0.078863 -0.032502 -0.022583 0.094180 0.144612 -0.023695 0.107811 0.044302 -0.043194 0.037746 -0.010894 0.106833 0.045936 0.035644 -0.055974 -0.042964 -0.060343 -0.043818 0.101456 0.040626 -0.012196 0.022197 0.114602 -0.079747 0.121969 0.019147 -0.010038 -0.075271 0.076906 0.059150 0.166504 -0.115797 -0.024551 0.014959 -0.010856 0.041285 -0.162198 -0.036308 -0.018135 0.129091 0.017845 0.081583 -0.079283 0.045999 0.012842 -0.139541 -0.005414 0.157916 0.056376 0.063378 -0.025100 0.126723 -0.004753 0.140183 -0.050203 -0.014149 0.101509 -0.021838 -0.026954 -0.090995 0.127442 0.109878 0.066953 0.066937 -0.006517 0.057805 0.016920 0.118396 -0.057807 0.108398 0.054902 -0.016654 -0.045897 -0.225374 -0.020943 0.048396 0.098992 0.131162 -0.060077 -0.025362 0.003695 -0.064636 -0.065334 -0.133343 0.065310 0.077053 -0.052099 -0.043556 0.075203 -0.111561 0.008092 -0.101442 -0.034376 -0.076120 0.056226 0.052468
all -0.100826 0.000645 -0.028878 0.048545 0.076137 0.051802 -0.156570 0.089885 0.080950 -0.188761 0.060391 -0.018430 -0.281335 0.061052 -0.169982 0.067170 0.003264 -0.117691 0.102895 -0.129308 -0.048931 0.123658 0.169733 0.153353 0.032425 -0.067016 -0.061649 0.035746 0.007050 -0.155012 0.098716 -0.105506 0.013768 0.112249 0.118577 -0.080860 0.060107 -0.127403 0.040651 0.172208 -0.019910 -0.083952 -0.171324 -0.147663 -0.018086 0.084690 0.113535 0.110677 0.140579 -0.310639 0.029712 0.207193 0.008835 -0.023319 -0.196030 0.130520 0.006545 -0.019313 0.029007 -0.054953 -0.118664 0.037560 -0.050449 0.167531 -0.031177 0.014901 -0.029959 0.083356 -0.026023 0.103461 0.036066 0.094522 0.049160 0.003972 0.126804 -0.185806 -0.080676 -0.084787 -0.002988 0.045903 0.071195 -0.077619 0.049450 -0.065232 -0.215415 -0.157154 0.092030 0.053047 0.053950 0.031247 -0.044816 0.084728 -0.194442 0.107931 0.175531 -0.112847 0.152798 -0.078185 0.037359 0.153650
that -0.045786 -0.023249 0.017728 -0.028954 0.000632 -0.060548 0.016855 -0.032966 -0.128819 -0.024779 -0.004501 -0.051495 -0.002252 0.053333 0.048820 -0.053021 0.012672 0.070437 -0.030920 0.003995 -0.026101 0.065900 -0.005833 -0.035336 0.019440 0.029521 0.014887 0.114465 -0.020108 0.017788 0.091053 0.113762 -0.030293 0.002657 -0.034814 0.107461 -0.112366 0.032513 0.166531 -0.008347 0.105289 -0.001241 -0.029595 -0.005096 0.055110 0.087190 -0.027027 -0.061491 -0.011500 0.054597 0.081116 0.054640 0.100660 0.082269 0.023988 -0.044084 -0.096614 0.057981 0.021637 0.126869 -0.076799 0.145718 0.080748 -0.010827 0.016843 -0.021398 -0.038808 0.021086 0.116267 -0.001117 -0.026962 -0.022241 0.057002 -0.034147 -0.022752 -0.024908 0.097005 -0.005251 -0.022107 -0.025819 0.014281 -0.002906 0.148243 0.075441 -0.104649 -0.139635 0.069202 -0.008052 0.042027 -0.117850 0.027835 -0.135229 -0.004474 0.065470 0.061309 -0.046765 0.141637 -0.051859 -0.005935 -0.102459
three 0.023000 0.102115 0.030620 0.093183 -0.043908 -0.140016 0.044813 0.000942 0.000186 0.087035 0.015582 -0.151868 0.036766 0.161164 0.008612 -0.036040 0.036825 0.006438 -0.032065 0.036756 -0.020125 -0.094367 -0.133069 0.018701 -0.018562 0.148416 -0.051813 0.053244 -0.031524 0.016343 -0.086145 -0.040930 -0.078816 -0.033560 0.026320 -0.017901 0.027787 -0.056799 -0.117580 0.016047 -0.075530 -0.050190 0.109758 0.072878 -0.101920 0.031023 -0.004906 0.023641 -0.174720 0.053103 0.048427 0.041542 -0.074043 0.032708 0.090222 -0.030151 0.088336 -0.042938 0.006904 0.093728 0.033028 0.059010 0.130586 0.071327 -0.088639 -0.015565 -0.012024 -0.141620 0.096361 -0.137116 -0.002038 -0.046853 -0.152208 -0.033989 -0.054427 0.073209 0.097396 -0.029548 -0.050017 -0.015141 -0.050850 -0.122423 0.022527 0.027870 -0.135277 0.045891 -0.029595 -0.019225 0.052635 0.022389 0.048133 -0.089330 0.053161 -0.047124 0.020775 -0.075642 -0.000752 0.036655 -0.045983 -0.173994
will -0.048088 0.016351 -0.040126 0.104857 -0.007249 -0.131376 -0.022398 0.234750 -0.009678 0.113733 0.158796 0.046143 -0.072253 0.091043 -0.069114 0.013550 -0.198837 -0.133299 -0.080920 0.036366 -0.107475 -0.085525 -0.088329 0.097193 0.019778 -0.117545 0.052269 0.027082 -0.001755 0.185662 -0.195882 -0.064517 0.101801 0.099817 -0.048012 -0.140407 0.076388 -0.209302 0.021706 0.119819 -0.019820 0.126611 -0.071449 -0.004077 0.089033 -0.010265 0.026034 0.012802 0.224800 -0.077040 0.079263 0.116696 -0.020465 -0.254925 0.023594 -0.137156 0.289516 -0.050327 0.023891 -0.066570 0.210857 0.020157 -0.063136 -0.006646 -0.134492 0.142024 0.050524 0.023270 0.038171 -0.066719 0.002201 0.032450 0.040969 0.060552 0.189359 -0.034927 -0.008768 -0.047309 -0.108437 0.033563 0.154429 -0.062484 0.054891 0.045323 0.068543 -0.063110 0.059341 -0.001570 0.213157 0.085691 -0.031936 0.037693 -0.034293 -0.082680 0.064835 -0.026320 -0.052379 -0.116822 -0.028602 0.017903
stone -0.005509 -0.019189 -0.031353 0.015932 -0.007151 -0.038674 0.043785 0.043094 -0.005595 0.030014 0.095701 -0.032283 -0.054454 0.006826 -0.050680 -0.025515 -0.026430 0.026785 0.030807 -0.040261 -0.036086 0.068375 0.007716 0.057101 0.021694 -0.012389 0.088738 0.076814 0.030399 0.032127 -0.041908 0.005755 -0.005512 -0.001211 0.061204 -0.010247 -0.057586 -0.051626 0.052954 0.031493 -0.040827 -0.066947 -0.044066 0.024272 -0.014220 0.037393 -0.008818 0.015833 0.058512 -0.062460 0.088442 0.065557 0.030074 0.042805 0.008730 0.043824 0.051741 0.024431 0.020991 -0.007966 0.012471 0.084575 -0.011401 0.044499 0.014791 -0.012584 0.000978 0.017015 0.031691 -0.029707 -0.076446 0.040839 -0.029574 0.044403 -0.005462 -0.079298 0.014556 -0.006810 -0.039818 0.021675 0.099963 0.042805 0.038374 0.030835 -0.112972 -0.063051 0.049057 -0.047528 0.052067 -0.047609 -0.010448 -0.035637 -0.011300 0.028928 0.060434 -0.060406 0.035566 -0.063306 0.050627 -0.023210
so 0.082358 -0.097215 -0.122526 0.093880 -0.008931 0.055385 0.087563 0.062323 -0.110142 -0.049834 0.096162 -0.097646 -0.170663 0.000439 -0.017556 0.058261 0.082066 0.060970 0.118739 0.003243 -0.024336 0.110599 0.026221 0.038776 0.059425 0.076962 0.022448 0.229778 0.062950 -0.088913 0.140253 -0.028557 -0.034776 -0.034519 0.084255 0.167572 -0.123215 0.058670 0.196707 -0.054113 0.061812 -0.196874 -0.094860 -0.156684 -0.096548 0.094009 -0.067304 0.048075 0.014732 -0.087632 0.211099 0.015770 0.110388 0.260058 -0.036774 0.125418 -0.114473 0.070481 0.060808 0.078581 -0.206623 0.306456 0.031984 0.095335 0.021233 -0.135170 -0.021816 0.104950 0.107811 0.015035 -0.115601 0.035095 0.002491 -0.038002 -0.100119 -0.308459 0.016889 0.131982 -0.044430 -0.045454 0.069246 -0.084076 0.148957 0.123878 -0.350312 -0.151293 0.003218 0.068561 0.105194 -0.239005 0.049895 -0.092814 -0.104331 0.104347 0.129205 -0.135763 0.113662 -0.103401 0.098718 -0.133806
are -0.031766 0.175558 -0.108112 0.106145 0.059250 -0.231902 0.011479 0.198074 0.001944 0.045213 0.112019 -0.082814 -0.085217 0.216357 -0.047530 0.118124 -0.107798 -0.171245 -0.136967 0.042344 -0.160777 -0.240521 -0.011563 0.178339 -0.100473 0.060780 -0.190654 0.048339 -0.073931 -0.004409 -0.091477 -0.097682 0.090510 0.145936 -0.038982 -0.095511 0.137368 -0.133858 -0.026753 0.209849 -0.005973 0.127355 -0.018273 -0.097913 0.011105 -0.003754 0.130688 0.162346 0.057297 -0.012365 0.024115 0.137487 0.051344 -0.186763 0.002560 -0.190578 0.146306 -0.029247 -0.033430 0.024742 0.072421 0.109454 0.049605 0.070990 -0.153778 0.152023 -0.004445 0.060673 0.176728 -0.044963 0.101498 -0.019666 0.119315 -0.065263 0.101869 -0.070126 0.058138 -0.179696 -0.070652 0.037100 0.022690 -0.253374 -0.030938 0.025937 0.020952 -0.068436 -0.132535 0.120394 0.246176 0.124837 -0.024188 -0.004665 -0.022838 -0.028022 -0.003067 -0.095841 -0.007371 -0.128705 -0.051327 0.075060
chair. -0.059438 -0.061137 -0.039526 -0.026781 0.035250 0.010238 0.007820 0.027698 0.102322 -0.128503 0.115433 0.060875 -0.098919 -0.055240 -0.108536 0.024920 0.027650 0.052113 0.051906 -0.083970 0.051774 0.001925 0.123566 0.025884 0.041291 -0.107931 0.125725 0.010582 0.077144 -0.123441 0.080851 -0.067604 0.070931 0.054136 0.112073 -0.088693 -0.068093 -0.007623 0.043039 0.051373 -0.138511 -0.122379 -0.028398 0.055609 -0.035832 0.105477 -0.080260 -0.003175 0.070290 -0.164272 0.113429 0.119475 0.010191 0.053420 -0.051297 0.141346 -0.014661 0.127248 0.017358 -0.034368 -0.010653 0.015777 -0.011391 -0.025071 0.071165 -0.058686 0.018110 0.087599 -0.020214 0.070926 -0.092263 0.104023 -0.015462 0.143183 -0.002927 -0.043496 -0.041135 -0.095854 0.007122 -0.080476 0.125568 0.065771 0.035587 0.021502 -0.062361 -0.102674 0.086895 -0.064640 0.059607 -0.038952 -0.057731 -0.042217 -0.015459 0.011096 0.092970 -0.103572 0.101248 -0.007564 0.056776 -0.019620
floored 0.015268 0.055300 0.088232 0.004260 -0.028972 0.021942 -0.053582 0.029673 -0.004231 0.040968 -0.058088 -0.027247 0.069401 0.022029 0.079824 0.013086 -0.060752 -0.075885 -0.010366 0.051467 -0.040836 0.014561 0.033840 -0.005839 -0.036788 0.053945 -0.067736 -0.019266 -0.040983 0.086111 -0.043502 0.021821 -0.055565 0.004168 -0.023657 -0.008502 0.008862 -0.007612 -0.034444 -0.019468 -0.014464 0.064682 -0.013225 -0.016064 0.062111 -0.060255 0.049555 0.034610 0.032658 0.029206 -0.098678 0.007975 0.034444 -0.058349 0.092102 -0.028302 0.065962 -0.035649 -0.072571 -0.028903 0.072963 -0.008275 -0.061815 0.028444 -0.003836 0.106746 0.020180 -0.039858 -0.011724 -0.012192 -0.003394 -0.047075 0.000222 -0.112926 0.074461 0.020109 0.002477 -0.001031 -0.012630 0.058084 -0.055963 0.009935 -0.001649 -0.060552 0.065722 0.047056 -0.027712 -0.020067 -0.098542 0.055759 0.019211 0.040579 -0.002866 -0.032481 -0.063857 0.069914 -0.070956 -0.032923 0.031636 0.069423
twice. 0.085510 0.190432 -0.099408 0.153795 -0.040141 -0.219427 0.180872 0.130668 0.021812 0.132901 0.182706 -0.261154 -0.026172 0.216281 -0.033712 0.018752 -0.011140 0.043363 -0.033780 -0.025482 -0.132677 -0.141872 -0.087186 0.162124 -0.057206 0.209891 0.021483 0.174036 0.027299 -0.034609 -0.128052 -0.075207 -0.025663 -0.005705 0.141348 -0.076599 -0.054208 -0.051028 -0.066645 0.051011 -0.170814 -0.171386 0.083482 0.077560 -0.173625 0.059986 -0.035020 0.138337 -0.150313 0.000382 0.168305 0.139555 0.025679 0.190699 0.145975 0.017439 0.163075 0.053684 -0.007549 0.105074 0.029426 0.238587 0.138353 0.109729 -0.037312 -0.027100 0.037831 -0.025558 0.192218 -0.145182 -0.085777 -0.030656 -0.224847 -0.029707 -0.142290 -0.094767 0.127077 -0.081278 -0.118606 -0.032769 0.069228 -0.134383 0.042850 0.081487 -0.284146 -0.005165 -0.144410 -0.055510 0.175933 -0.034121 -0.012622 -0.194520 0.090328 -0.067893 0.023832 -0.204750 -0.002809 -0.074299 0.024148 -0.145165
carpet. 0.080912 0.015835 -0.001949 0.033037 0.016298 0.099909 -0.020919 0.049334 -0.035182 -0.029403 -0.011608 0.008961 -0.015386 -0.001340 0.035972 0.068353 0.052122 -0.017545 0.006316 0.054931 -0.015448 -0.011463 0.071972 0.000596 0.017229 0.067144 -0.055085 0.038565 0.048307 -0.044040 0.069959 -0.092786 -0.034350 0.017242 0.047062 0.010911 -0.050354 0.125989 0.103683 -0.101464 -0.028642 -0.051030 -0.034625 -0.052532 0.044571 0.025408 -0.018465 0.041622 0.046947 -0.032467 -0.035185 -0.017093 0.074322 0.074277 0.050051 0.086502 -0.079413 0.092319 -0.057823 -0.002517 -0.030655 0.096203 -0.063320 0.005387 0.054938 0.041309 0.055603 0.050506 0.026137 0.053317 -0.064174 0.010693 0.017765 -0.073045 0.002120 -0.122675 -0.018835 -0.000111 0.015553 -0.020338 -0.053347 -0.012815 0.001829 0.004056 -0.054703 -0.011425 -0.103812 0.024472 -0.065787 -0.043271 0.021636 0.027692 -0.035121 -0.004935 -0.014431 -0.005168 -0.073042 -0.044433 0.138320 -0.011811
next -0.087213 0.017452 -0.025764 -0.041627 0.022252 -0.021410 -0.024544 0.021230 0.058429 -0.038685 -0.002720 0.041126 -0.045255 -0.047077 -0.021798 0.013333 -0.048061 -0.043876 0.101884 -0.015999 0.028555 -0.008462 0.125542 0.024707 -0.067818 -0.068040 0.044300 -0.030363 -0.035200 -0.094618 -0.005371 0.004363 0.003750 0.049482 0.028959 -0.072674 0.015355 -0.001225 -0.078207 0.100370 -0.089568 0.011371 -0.009212 0.046402 -0.030983 -0.036991 0.037556 0.023999 0.005414 -0.075279 -0.021658 0.057561 0.009941 -0.039861 -0.057912 0.032889 0.048352 0.056484 0.004640 -0.097234 0.032155 -0.069571 -0.027891 0.001335 0.045274 -0.036046 -0.016072 0.018271 -0.030698 -0.031482 -0.032222 0.012626 0.064064 -0.029476 0.018043 -0.009531 -0.065712 -0.097366 0.042344 0.014839 0.017981 0.010536 -0.046740 -0.091017 0.077483 -0.022618 0.066252 -0.035166 -0.075048 0.018342 0.000118 0.105065 -0.013084 0.080260 -0.034768 0.013189 -0.003271 0.006416 0.022550 0.139604
floor 0.066810 -0.039737 -0.036581 0.009905 -0.044911 0.001993 0.073079 -0.006513 0.073036 0.080507 -0.005225 0.000452 0.040968 -0.045297 0.046464 0.036030 -0.012891 0.015885 0.102668 0.024449 0.033600 0.053476 -0.032370 -0.049078 -0.044292 0.051510 0.049167 -0.062408 -0.020168 0.087699 -0.088689 -0.004041 -0.052066 -0.010956 0.034555 0.052958 0.006035 0.037850 -0.103073 -0.018294 -0.044395 -0.042183 0.050962 0.018851 -0.076519 -0.078368 -0.004497 0.011944 -0.077455 0.057800 0.011657 -0.070684 -0.042286 0.047235 0.016105 0.045581 0.090360 -0.053004 -0.021206 -0.075806 0.073760 -0.041713 -0.030304 0.001345 0.041678 -0.033904 -0.011865 -0.049050 -0.059244 -0.111591 -0.040104 -0.019876 -0.057032 0.010320 -0.041903 -0.028656 -0.026514 0.061998 -0.017589 0.077820 0.036411 0.034057 -0.045227 -0.064593 0.033235 0.076086 0.059630 -0.031345 -0.030254 0.007561 0.055334 0.028008 0.027065 -0.008923 -0.060763 0.035534 -0.064882 0.028619 -0.013600 0.027604
lamp. -0.091471 0.001128 0.001433 -0.058804 0.031560 0.011413 0.001553 0.047659 0.049078 -0.077579 0.139030 -0.004953 -0.133132 -0.044982 -0.128565 -0.019889 -0.027864 0.018016 0.072581 -0.142998 -0.026378 0.102454 0.124568 0.095504 0.025420 -0.106485 0.186740 0.077742 0.090555 -0.073943 0.002561 0.002967 0.039444 -0.016893 0.123789 -0.119533 -0.086150 -0.099944 0.035946 0.107979 -0.134901 -0.093924 -0.098476 0.089725 -0.031829 0.069851 -0.037321 0.025064 0.078262 -0.235651 0.100905 0.174906 0.029546 0.083018 -0.058382 0.135886 0.018136 0.078901 0.065230 -0.033695 -0.003820 0.007623 -0.021516 0.049877 0.064351 -0.024624 0.032613 0.051276 -0.022061 0.043824 -0.085648 0.128138 -0.047243 0.093836 0.021848 -0.072924 -0.057771 -0.120519 -0.011770 0.009090 0.133347 0.113313 0.029329 -0.002292 -0.129728 -0.112136 0.074534 -0.134445 -0.004635 -0.051896 -0.063492 -0.011489 -0.037444 0.036880 0.108687 -0.088045 0.094875 -0.071291 0.083941 0.061282
hatrack. -0.051436 -0.066920 0.028561 -0.141441 0.046683 0.043494 0.032247 0.022775 0.091742 -0.086838 0.175918 0.023062 -0.114748 -0.076767 -0.152923 -0.037436 -0.003932 0.126088 0.081437 -0.205271 0.028877 0.141748 0.073815 0.004722 0.081835 -0.137492 0.343900 0.027087 0.119857 -0.034482 0.027353 0.018551 0.082520 -0.075122 0.128080 -0.101817 -0.134982 -0.111911 0.029441 0.050797 -0.136508 -0.161351 -0.054730 0.192967 -0.063262 0.123183 -0.171939 -0.034567 0.007002 -0.243305 0.161792 0.176260 -0.034223 0.146283 -0.092572 0.202104 -0.054165 0.101084 0.119774 0.015494 -0.005000 -0.031585 0.032147 -0.050101 0.105450 -0.081015 0.027708 0.034156 -0.086580 0.078356 -0.076860 0.134588 -0.125761 0.235428 -0.027246 0.007436 -0.063893 -0.113010 -0.036224 -0.041370 0.196249 0.208650 0.051241 0.056423 -0.132679 -0.110241 0.124729 -0.203539 0.059072 -0.083333 -0.096951 -0.123993 0.022894 -0.041182 0.158136 -0.103057 0.154788 -0.026248 0.021083 -0.058639
follow -0.065594 0.029822 -0.019939 0.015846 0.031282 -0.029073 -0.072301 0.133251 0.120220 -0.041150 0.053109 0.076763 -0.095522 0.028749 -0.021486 -0.001793 -0.035273 -0.073104 0.013747 -0.009189 -0.084202 0.035069 0.155627 0.100526 0.026069 -0.039870 0.012780 -0.023431 0.082972 0.001564 -0.036903 -0.052503 0.044872 0.156886 0.125870 -0.131172 0.025485 -0.069360 -0.039493 0.045190 -0.105364 0.029766 -0.089728 0.000711 0.047341 0.024102 0.014345 0.017468 0.129216 -0.187680 -0.024203 0.129612 0.024733 -0.062792 -0.006941 0.052413 0.196109 0.036818 -0.048807 -0.166068 0.115762 -0.028460 -0.106408 -0.029697 0.044887 0.130699 0.104110 0.094742 -0.049614 0.034770 0.017054 0.116107 0.009431 0.019660 0.119301 -0.053259 -0.080758 -0.143817 -0.011595 0.056098 0.093663 0.063112 -0.057421 -0.035677 0.001422 -0.044372 -0.005703 -0.062761 0.044856 0.092202 -0.064415 0.095428 -0.015869 -0.010069 0.017670 -0.083995 -0.068342 -0.077999 0.102812 0.160118
end. -0.049272 -0.052298 -0.010405 -0.110272 0.000075 0.016685 0.020064 0.083725 0.065143 -0.039519 0.080039 0.104887 -0.082270 -0.043857 0.008425 0.031089 0.006829 0.065921 0.074976 -0.033216 -0.011003 0.147513 0.139168 -0.029462 0.062459 -0.048089 0.177290 -0.020071 0.119117 0.030889 0.025989 0.020671 0.029883 0.065682 0.145662 -0.039884 -0.092131 0.030516 0.049046 -0.033420 -0.074518 -0.035923 -0.094660 0.106511 0.021107 0.074380 -0.097464 -0.055217 0.048038 -0.182308 0.075430 0.106011 0.042427 0.076325 -0.041282 0.107274 0.014388 0.120071 0.031798 -0.074831 0.074000 -0.006210 -0.038819 -0.144109 0.153536 0.029020 0.107188 0.086710 -0.058595 0.014011 -0.039903 0.150829 0.010775 0.091593 0.053607 -0.080925 -0.110728 -0.157453 -0.008450 0.052978 0.124598 0.177553 0.004890 0.005696 0.004147 -0.124918 0.104790 -0.160067 0.051381 -0.052278 0.000088 -0.024787 0.000616 0.005216 0.047162 -0.077089 0.013673 -0.068771 0.073992 0.050273
alley. -0.050911 -0.036234 0.013822 0.019256 0.047856 0.028551 -0.039026 -0.054837 0.056531 -0.114516 -0.032893 0.038498 -0.062752 0.030391 -0.021368 -0.047764 0.101640 0.034872 0.018226 -0.017118 0.041715 0.018537 0.060146 -0.016083 0.058237 0.022557 -0.041486 -0.023903 0.000791 -0.129819 0.115921 -0.073110 -0.034328 0.068235 0.062533 -0.008260 -0.012036 0.004686 0.028135 -0.003296 -0.020314 -0.102863 0.024929 -0.023936 0.003392 0.105037 -0.017184 0.000197 0.021053 -0.036790 0.017480 0.035136 -0.036179 0.038476 -0.031385 0.073826 -0.057309 0.068071 -0.034788 -0.027124 -0.058050 0.013611 0.020226 -0.015891 0.038373 -0.028097 -0.017679 0.039928 -0.011504 0.060493 -0.022003 0.025649 -0.026745 0.035825 -0.032691 -0.006309 0.013411 -0.034823 0.031347 -0.069591 -0.023366 -0.028099 0.012406 0.019004 -0.074734 -0.053555 0.044148 0.034189 0.010508 0.006227 -0.022523 -0.028464 -0.023175 0.048238 0.072543 -0.044320 0.056950 0.059001 0.038049 -0.027422
grey 0.103123 0.025918 -0.028395 -0.043220 -0.043186 -0.043902 0.085177 0.094628 -0.040396 0.161752 0.096168 -0.024076 0.034790 -0.025183 0.016808 0.080479 -0.117941 -0.037506 0.014844 0.004095 -0.050683 0.032252 -0.043905 0.052079 -0.069991 0.029606 0.118461 0.043443 0.001901 0.194113 -0.167993 0.047722 0.006352 -0.083531 -0.023040 0.027770 -0.013210 -0.067281 -0.041750 0.052174 -0.014683 0.052443 -0.040074 0.074870 -0.056141 -0.096434 -0.033433 0.056505 -0.009201 0.005011 0.046225 0.014628 0.069179 -0.022076 0.040148 -0.039554 0.060754 -0.062289 0.017336 -0.002085 0.092315 0.038663 -0.042647 0.031817 -0.015788 0.034677 -0.007264 -0.041024 0.021019 -0.112449 -0.023318 -0.027403 -0.004225 0.003585 0.029163 -0.070154 -0.003824 0.008747 -0.073343 0.130274 0.112070 0.050882 -0.021969 0.007810 0.050549 0.037548 -0.020791 -0.058187 0.036115 -0.007239 0.003950 0.008196 0.040830 -0.061081 -0.048047 0.039689 -0.054436 -0.095918 -0.012547 0.009797
reach -0.048525 0.130190 -0.058838 0.090160 0.026581 -0.124564 -0.016907 0.163083 0.101746 -0.019390 0.203881 -0.135590 -0.113659 0.102564 -0.144441 0.175963 -0.119158 -0.068566 0.000009 -0.104736 -0.085474 -0.151816 0.101881 0.146456 -0.120981 -0.061749 -0.004096 0.040375 0.017851 -0.093068 -0.009150 -0.099259 0.055709 0.120532 0.129803 -0.162685 0.039947 -0.078485 -0.002295 0.209408 -0.203993 -0.051565 -0.058905 -0.032357 -0.026542 0.051702 0.124997 0.166354 0.093501 -0.144311 0.085359 0.251421 0.058488 0.005263 -0.017102 0.045310 0.098578 0.076480 -0.051967 0.046887 0.053641 0.094891 -0.003172 0.093997 -0.029074 0.050734 -0.050503 0.045028 0.103028 0.004589 -0.043662 0.058550 0.018962 -0.010382 0.140916 -0.133738 -0.047991 -0.189157 -0.050797 -0.003586 0.110012 -0.111952 0.068793 -0.096847 -0.093792 -0.132037 0.027417 -0.041681 0.111586 0.039403 0.000891 -0.060585 -0.078633 -0.030718 0.040940 -0.161961 0.104017 -0.111061 -0.013745 0.108435
hallway -0.064956 -0.029387 0.009598 -0.073414 -0.012764 0.030166 -0.006401 0.054797 0.070573 -0.021752 -0.024925 0.084982 -0.016750 -0.049715 0.071853 0.014340 -0.018394 0.006294 0.127980 0.015375 -0.009532 0.147423 0.185798 -0.041712 -0.022614 -0.008738 0.096471 -0.051125 0.046423 0.011586 0.011857 0.046133 -0.055297 0.082804 0.116982 -0.001279 -0.074099 0.079642 -0.011139 -0.009580 -0.069440 0.004765 -0.062343 0.065970 0.028173 0.007213 -0.003914 -0.024138 0.036771 -0.098613 -0.020920 0.056041 0.057067 0.062324 -0.006208 0.088692 0.063350 0.099521 -0.037892 -0.134080 0.090372 -0.044656 -0.098822 -0.089529 0.165071 0.019253 0.055282 0.043317 -0.063509 -0.034696 -0.062021 0.080794 0.035094 -0.042714 0.068447 -0.084908 -0.099546 -0.111296 0.016428 0.070943 0.043995 0.133648 -0.003026 -0.093553 0.053542 -0.070181 0.115375 -0.130201 -0.093709 -0.026725 0.040143 0.058526 -0.025705 0.066556 -0.038994 0.008930 -0.026193 -0.042608 0.099281 0.142379
concrete -0.035412 0.000402 0.110072 -0.045879 -0.067024 -0.058197 0.001677 0.045504 -0.046607 0.086818 0.027484 -0.091931 0.028528 0.018431 -0.013480 -0.006730 -0.173128 -0.062990 0.040882 -0.033983 0.015532 0.054637 -0.072837 -0.029840 -0.045658 -0.036538 0.095870 0.029929 -0.118475 0.158435 -0.103873 0.103609 -0.047457 -0.105416 -0.104698 0.034004 0.013191 -0.167020 -0.084508 0.106796 0.012701 0.044479 0.005536 0.069204 -0.029642 -0.085293 0.043492 0.012815 -0.030423 0.033645 0.030176 0.068546 -0.020027 -0.098917 0.036709 -0.052839 0.072138 -0.121987 0.052846 0.051632 0.085335 -0.026759 0.028274 0.094856 -0.094837 -0.000875 -0.102863 -0.151630 0.008446 -0.107843 -0.025701 -0.077810 -0.013631 -0.057957 0.070909 0.071269 0.028450 0.042255 -0.074829 0.054924 0.035269 -0.010351 0.106237 -0.029029 0.020467 0.015660 0.156536 -0.064309 -0.044109 -0.019372 0.046454 -0.025715 -0.031324 -0.003481 0.036800 0.056911 0.104688 -0.041320 -0.105312 -0.051510
bare -0.118950 -0.064080 0.019821 -0.113306 -0.106050 -0.128528 0.092220 0.068837 -0.042412 0.114138 0.036437 0.037070 0.027650 -0.024358 0.044517 0.003764 -0.188225 -0.035910 0.155682 0.037164 0.044970 0.162409 0.027934 -0.089246 -0.079471 -0.058383 0.240173 0.023043 -0.107085 0.195701 -0.148551 0.161003 -0.075644 -0.059862 -0.070686 0.072088 -0.089061 -0.122260 -0.115066 0.158514 -0.010538 0.089331 0.007477 0.182448 -0.094574 -0.104312 -0.035367 -0.055172 -0.071048 0.007232 0.116510 0.081622 0.046869 -0.101727 0.018860 -0.074291 0.143317 -0.066739 0.074983 -0.042586 0.175697 -0.052995 0.001974 -0.025455 0.016986 -0.079621 -0.066925 -0.118379 0.013528 -0.266824 -0.088426 -0.050104 0.062240 -0.024145 0.055335 0.032863 -0.029026 -0.072741 -0.072183 0.144460 0.137413 0.064634 0.103068 -0.056595 0.147415 -0.046932 0.321656 -0.164824 -0.015377 -0.085112 0.070123 0.018969 0.010667 0.083980 0.006296 0.069308 0.105985 -0.057651 -0.092096 -0.020575
times. 0.009785 0.032256 -0.121091 0.182812 -0.034861 -0.150763 0.142985 0.061804 -0.020322 0.036475 0.128197 -0.145145 -0.010984 0.140278 -0.043219 -0.088302 -0.046650 0.063384 -0.066317 -0.038780 -0.104718 -0.086922 -0.068588 0.107098 0.007498 0.079797 -0.039977 0.150020 0.014436 -0.067335 -0.009017 0.009498 0.015491 0.060657 0.035665 0.001630 -0.085587 -0.046162 0.095701 0.016789 0.000494 -0.126926 0.046428 -0.067682 -0.061675 0.066045 0.002257 0.027454 0.036436 0.088476 0.170556 0.048932 0.016138 0.111652 0.121041 -0.073476 0.155185 0.053507 -0.031805 0.054712 -0.036103 0.229089 0.054940 0.056174 -0.064743 -0.051549 0.011777 0.093400 0.149486 -0.020958 -0.083409 -0.034380 -0.110107 0.012387 -0.122655 -0.106996 0.133032 0.087161 -0.092143 -0.114363 0.095407 -0.118585 0.107810 0.130506 -0.210654 -0.055273 -0.066836 0.067844 0.218925 -0.051992 -0.052516 -0.196006 0.017367 0.017410 0.058876 -0.146742 0.062162 -0.040403 0.019955 -0.096658
make -0.092194 0.009952 -0.001211 -0.033708 0.009209 -0.021601 0.000374 0.031452 0.055331 -0.051741 0.089957 0.002779 -0.036064 -0.010593 -0.054302 0.014036 -0.057730 0.019677 -0.022500 -0.105119 -0.071202 0.042671 0.124867 0.050892 -0.023016 -0.092928 0.051658 0.005090 0.074005 -0.053218 0.044181 0.066759 0.054422 0.032841 0.061957 -0.097347 -0.069243 -0.020955 0.068021 0.089716 -0.069748 -0.003394 -0.086071 0.023951 0.049681 0.061424 0.021007 0.007558 0.126004 -0.128917 0.032980 0.156694 0.069787 0.038782 -0.008613 0.029653 0.028966 0.081775 -0.007463 0.001526 0.015711 0.024406 -0.040244 -0.030234 0.057961 0.047363 0.038394 0.103511 0.034859 0.087493 -0.021678 0.097714 0.038373 0.048453 0.073079 -0.030015 -0.042964 -0.124633 -0.005171 -0.021721 0.094026 0.093639 0.063399 -0.011108 -0.020213 -0.119680 0.066065 -0.100330 0.031483 -0.007441 -0.051843 -0.064295 -0.032305 0.010145 0.028843 -0.074296 0.100911 -0.079742 0.020792 0.109136
it 0.131330 -0.056333 -0.028531 0.046637 -0.012724 0.067408 -0.016855 -0.034546 0.011692 0.055798 -0.084247 0.074640 0.058972 -0.074635 0.058365 0.092779 0.018659 -0.054919 0.035137 0.112876 0.083340 -0.060619 -0.051041 -0.038328 -0.038632 0.029465 -0.089164 -0.091122 -0.063077 0.061837 -0.040735 -0.064221 -0.012059 -0.006441 -0.068866 0.073854 0.094746 0.082760 -0.079165 -0.060834 0.020870 0.053928 0.054191 -0.059137 -0.040844 -0.128712 0.007439 0.002594 -0.036464 0.119661 -0.088371 -0.170779 -0.039769 -0.078919 -0.003471 -0.017675 0.001567 -0.078910 -0.048614 -0.069487 0.011847 -0.064873 -0.054051 0.006567 -0.039671 -0.011912 -0.041453 -0.047758 -0.054726 -0.046812 0.024179 -0.085752 0.034360 -0.031381 -0.010030 0.000840 -0.017259 0.137426 0.029061 0.044663 -0.053615 -0.054325 -0.101370 -0.054750 0.145943 0.135720 -0.044438 0.111145 -0.066227 0.052378 0.044804 0.123297 0.004840 -0.048523 -0.095297 0.096350 -0.130538 0.055675 -0.027502 -0.002828
wood 0.017846 -0.026208 -0.052860 -0.027284 0.031649 0.089835 0.037803 0.080676 -0.005864 -0.050696 0.082512 -0.032232 -0.132435 -0.086174 -0.102075 0.104082 -0.084792 -0.077724 0.151149 -0.098182 0.002141 0.066241 0.092147 0.092799 -0.049218 -0.076228 0.078465 0.082968 -0.019168 -0.065438 0.013978 -0.021994 0.030220 -0.079328 -0.002815 0.003155 -0.002945 -0.079337 -0.023195 0.112005 -0.019064 -0.053698 -0.078465 -0.058850 -0.112760 -0.059436 0.010195 0.120297 0.020294 -0.162681 0.052204 0.054055 0.019728 0.026370 -0.121040 0.100467 -0.044385 -0.027441 0.083852 -0.036792 -0.093983 0.016842 -0.052009 0.130063 -0.014993 -0.070617 -0.049430 0.020672 -0.030711 0.006591 -0.035746 0.002506 0.052092 -0.013495 -0.016916 -0.144094 -0.086133 0.023260 -0.007930 0.038629 0.078638 -0.033393 0.000601 -0.020944 -0.083320 -0.035300 0.025445 0.019270 -0.028112 -0.063300 -0.025324 0.079330 -0.093937 0.068495 0.041243 0.024302 0.065087 -0.069664 0.019925 0.092978
first -0.096438 -0.037071 -0.022835 -0.002008 0.024003 0.027855 -0.073576 0.049943 0.117192 -0.087120 0.018947 0.057013 -0.112318 -0.043812 -0.031176 0.039438 0.021593 -0.025532 0.083891 -0.018757 0.031060 0.017967 0.131446 -0.006484 0.027909 -0.114150 0.021464 -0.048793 0.065377 -0.093596 0.067053 -0.054307 0.059936 0.107540 0.081555 -0.102953 0.026483 0.014927 -0.041024 0.029567 -0.099694 -0.006699 -0.065657 -0.022821 0.020878 0.037181 0.036980 -0.013107 0.043247 -0.191918 -0.014581 0.084355 -0.036239 -0.005334 -0.093317 0.109447 0.062850 0.052621 0.025764 -0.109951 0.037805 -0.085742 -0.034393 -0.030182 0.063655 0.025913 0.054752 0.061004 -0.075278 0.059142 0.006757 0.131944 0.040287 0.004183 0.075018 -0.022895 -0.136528 -0.117406 0.027937 -0.004076 0.020408 0.044306 -0.024288 -0.070523 0.000118 -0.057975 0.072169 -0.052474 -0.017579 0.000482 0.007407 0.108943 -0.063240 0.042623 0.044521 -0.071051 0.001604 -0.000197 0.039095 0.128036
yellow-tiled -0.033289 0.010799 0.051491 -0.075456 0.014283 0.009155 0.014401 0.069270 0.017451 0.014631 0.118998 -0.080428 -0.073963 -0.018635 -0.071839 0.007432 -0.080408 0.021283 0.093246 -0.129024 -0.016011 0.129540 0.063220 0.045054 -0.004128 -0.040697 0.209144 0.064387 0.017577 0.032946 -0.026662 0.036592 -0.006069 -0.071444 0.077913 -0.042481 -0.089542 -0.123541 0.002422 0.092411 -0.094543 -0.093941 -0.074330 0.110910 -0.048797 0.039229 -0.033450 0.055435 0.014898 -0.162289 0.096190 0.167934 0.029925 0.091541 -0.036689 0.125695 0.010779 0.039864 0.057607 0.019346 0.025080 0.048930 -0.000483 0.062525 0.049613 -0.028651 -0.026273 -0.038004 -0.003676 -0.019573 -0.075526 0.047443 -0.057027 0.036918 0.030750 -0.044640 -0.031425 -0.071626 -0.053888 0.046435 0.121001 0.110874 0.064282 -0.009578 -0.117264 -0.097653 0.110857 -0.152028 -0.015612 -0.058960 -0.014395 -0.063257 -0.020404 0.009856 0.090979 -0.032779 0.114554 -0.077919 0.029033 0.009081
pink-flowered 0.040996 0.105941 0.069583 -0.083387 -0.082063 -0.034128 0.056941 0.106091 -0.051236 0.161104 0.164941 -0.088309 0.025993 -0.014669 -0.029787 -0.001508 -0.130886 0.018681 0.026648 -0.074658 -0.097035 0.112277 0.017167 0.095637 -0.026387 0.026419 0.246753 0.132766 0.086238 0.180619 -0.207251 0.074058 -0.045964 -0.114812 0.128309 -0.088336 -0.097216 -0.088799 0.014838 0.022435 -0.142660 -0.012706 -0.100469 0.210228 0.003590 -0.031141 -0.042849 0.020640 0.037412 -0.103750 0.075642 0.125381 0.103220 0.079959 0.111613 0.045923 0.085952 0.043195 0.021423 0.026898 0.137610 0.057028 -0.047372 0.044426 0.066746 0.053866 0.075014 -0.080563 0.028466 -0.093711 -0.130151 0.080918 -0.109285 0.009379 0.041630 -0.072899 -0.021924 -0.087557 -0.075011 0.116371 0.117817 0.186339 0.009441 -0.009458 -0.087508 -0.013580 -0.020909 -0.226952 -0.053151 -0.046289 0.002063 -0.045321 0.043421 -0.069171 -0.000231 -0.014462 -0.054583 -0.149873 0.093091 0.001251
containing -0.183881 -0.024392 0.078521 -0.152095 0.047932 0.015826 -0.102788 0.027971 0.045609 -0.119453 0.084648 0.060699 -0.124707 -0.065676 -0.139837 -0.015191 -0.069251 -0.002663 0.052817 -0.141015 0.037305 0.104029 0.118459 0.003729 0.038470 -0.225108 0.228805 -0.001226 0.041694 -0.036386 0.043528 0.048478 0.080987 -0.002890 0.041548 -0.144250 -0.038247 -0.142252 0.019733 0.154834 -0.085548 0.010504 -0.106596 0.128506 0.062013 0.061824 -0.005163 -0.047698 0.081910 -0.235287 0.045115 0.198786 -0.003856 -0.063970 -0.122403 0.096142 -0.034264 0.051194 0.111179 -0.004043 0.033576 -0.147092 -0.001806 -0.028369 0.054424 0.002209 -0.010548 0.012331 -0.078128 0.079751 -0.010868 0.140675 0.044749 0.115754 0.126805 0.057951 -0.112208 -0.198658 0.004036 0.013068 0.084498 0.135313 0.046820 -0.039299 0.006709 -0.137636 0.173056 -0.163061 -0.028820 -0.029390 -0.045337 0.034090 -0.060474 0.032382 0.148119 -0.038470 0.162152 -0.034319 -0.016578 0.078454
flowered 0.011007 0.030806 -0.061889 0.025780 -0.010417 -0.027518 0.003651 0.102051 0.015146 0.032820 0.015114 0.081938 0.011529 0.005984 0.053808 0.040672 -0.014848 -0.047531 -0.041954 0.093462 -0.063816 -0.062196 0.079706 0.038629 0.002840 0.016128 -0.050361 0.007075 0.067002 0.032928 -0.045844 -0.042357 0.033319 0.113358 0.053233 -0.048044 0.014781 0.081309 0.040536 -0.055469 -0.032929 0.086309 -0.051434 -0.020633 0.072306 0.001666 0.003801 -0.006548 0.104788 -0.035730 -0.028503 -0.008767 0.078671 -0.048575 0.052277 -0.041325 0.096135 0.069425 -0.058647 -0.087704 0.088869 0.030360 -0.090765 -0.074418 0.039087 0.110565 0.111499 0.091889 0.020065 0.004269 -0.006540 0.060316 0.058840 -0.039000 0.071499 -0.075947 -0.039909 -0.059806 0.003475 0.025256 0.025787 0.018879 -0.057507 0.003598 0.087175 -0.012170 -0.087199 0.012162 0.031255 0.038521 0.005523 0.069070 0.016054 -0.027960 -0.063067 -0.021651 -0.139277 -0.072397 0.094086 0.076226
from -0.070492 -0.105128 0.034665 0.008952 0.014932 0.073207 -0.064242 -0.004086 0.030211 -0.109616 0.060910 -0.006873 -0.125977 -0.069509 -0.134506 -0.034243 -0.036431 0.008328 0.112700 -0.125140 0.044262 0.136602 0.038005 0.010880 0.068116 -0.139335 0.110092 0.042268 0.031211 -0.041765 0.064908 -0.011960 0.007347 0.000666 0.033638 -0.042463 -0.037676 -0.096306 0.070298 0.047292 -0.026546 -0.101626 -0.070775 -0.032377 0.000811 0.031828 0.008793 -0.020876 0.096199 -0.142722 0.085157 0.099496 -0.040595 0.028049 -0.072266 0.126019 0.006288 -0.005570 0.048249 -0.014019 -0.050659 -0.031963 -0.029242 0.055189 0.004986 -0.064356 -0.020307 0.024295 -0.072300 0.063743 -0.059953 0.069293 -0.025727 0.085883 0.039163 -0.040550 -0.049305 0.040944 -0.013234 -0.032315 0.072127 0.050560 0.084588 0.003771 -0.134573 -0.079320 0.160038 -0.032489 0.013255 -0.068979 -0.025585 -0.008669 -0.103957 0.064523 0.152913 -0.047494 0.133885 0.005933 0.021656 0.015613
'T' -0.105608 0.016748 -0.016746 -0.001583 -0.013173 -0.054069 0.005839 -0.038525 0.088180 -0.047299 0.065997 -0.066703 -0.031568 -0.033442 -0.113724 -0.011352 -0.043656 0.067385 0.105385 -0.141116 0.086405 -0.035630 0.018059 -0.032653 -0.046675 -0.153242 0.127475 -0.028601 0.012960 -0.135355 0.027237 0.009854 0.048609 0.024549 0.084594 -0.121483 0.019780 -0.029766 -0.095049 0.066711 -0.170878 -0.088864 0.048703 0.072609 -0.066972 0.021760 0.046042 -0.015461 -0.100679 -0.066966 0.064200 0.083953 -0.111721 0.089013 -0.056191 0.094361 0.052767 0.037040 0.047197 0.032824 -0.009352 -0.114055 0.067945 -0.013509 0.027396 -0.102394 -0.036855 -0.043685 -0.074275 -0.005811 -0.022464 0.068238 -0.086575 0.043882 -0.016219 0.078965 -0.086114 -0.064241 0.016203 -0.075017 0.032165 0.027095 0.020829 -0.099587 -0.051911 -0.024807 0.119811 -0.088256 -0.010149 -0.030918 0.012544 -0.010971 0.000942 0.025056 0.036390 -0.077873 0.100486 0.104408 -0.077562 0.049710
lamp -0.085058 -0.079056 -0.052503 -0.107572 0.019196 -0.008316 -0.000419 0.037903 0.139970 -0.067156 0.049660 0.168662 -0.070404 -0.106133 -0.002794 0.048823 0.001447 0.031211 0.124382 -0.029775 0.046438 0.105325 0.214869 -0.016812 -0.018726 -0.105578 0.177111 -0.096268 0.061887 -0.028602 0.010323 0.009859 0.027104 0.096884 0.139069 -0.040843 -0.055410 0.046668 -0.021186 0.057354 -0.119562 -0.015602 -0.060214 0.112490 -0.005673 0.033034 -0.063451 -0.040813 0.066272 -0.158764 0.040715 0.084939 0.049850 0.028174 -0.083417 0.112869 0.042006 0.135689 -0.012998 -0.160403 0.090874 -0.071995 -0.085287 -0.128267 0.171747 -0.020569 0.025563 0.089231 -0.084288 -0.012500 -0.063130 0.122661 0.058423 0.087874 0.062129 -0.066665 -0.115596 -0.149239 0.034186 0.050738 0.146337 0.172413 -0.049241 -0.081372 0.111404 -0.103514 0.151808 -0.121090 -0.015644 -0.005980 -0.019450 0.067813 0.000342 0.049509 -0.010592 -0.034778 0.013466 -0.041231 0.074774 0.133042
green -0.069942 -0.025564 -0.022688 0.003607 0.055986 0.026968 -0.012276 0.009401 0.088749 -0.136630 0.003763 0.034067 -0.085543 0.022047 -0.019223 -0.031316 0.059184 0.035129 0.042848 -0.047114 -0.006987 0.031180 0.135388 0.014000 0.039388 0.000025 -0.017391 0.000158 0.039023 -0.158871 0.125149 -0.047025 0.001903 0.104937 0.110609 -0.035232 -0.060035 0.041090 0.054299 0.007069 -0.061775 -0.105088 -0.013676 -0.030279 0.016587 0.111594 -0.000568 0.022594 0.072093 -0.101771 0.025963 0.090114 0.005194 0.094639 -0.026611 0.109635 -0.010637 0.127160 -0.048443 -0.060551 -0.039717 0.055442 -0.019908 -0.024104 0.093404 -0.002765 0.021118 0.103190 -0.005805 0.086934 -0.042431 0.069017 -0.001107 0.021245 -0.012647 -0.070768 -0.023855 -0.073634 0.031613 -0.070922 0.030012 0.016570 0.024625 0.007621 -0.076862 -0.099800 0.035526 -0.014006 0.018450 -0.006980 -0.036156 -0.027157 -0.039059 0.064851 0.052861 -0.077875 0.055958 -0.003371 0.095374 0.054590
