295 100
the -0.104133 -0.115983 0.007154 0.183555 0.009405 0.029885 -0.123236 -0.012387 0.076043 0.307152 0.085345 -0.033795 0.062273 0.110559 -0.138049 0.253121 0.128363 -0.133196 0.033867 0.067503 0.092261 0.056214 -0.017626 0.066608 0.047829 -0.165313 -0.179523 0.050597 0.029982 0.056713 0.087093 -0.036127 -0.282754 0.049342 -0.030335 -0.182489 -0.000819 0.101925 0.130520 -0.120383 -0.238150 -0.192571 -0.061851 -0.173608 -0.051421 0.036079 -0.051198 -0.135726 -0.218095 -0.130896 0.072283 -0.193540 -0.196485 -0.145905 0.214569 -0.026165 0.218216 0.140860 0.064928 -0.016140 -0.236458 -0.115281 0.025952 0.174367 -0.004393 -0.160884 -0.173357 -0.003612 0.223151 -0.122743 -0.031094 0.178922 0.062511 0.160715 0.194173 0.270792 0.031088 0.058237 -0.182284 0.120721 0.009404 0.115144 -0.021194 -0.018954 0.018727 0.119954 -0.288039 -0.155051 0.130985 -0.010195 0.303683 0.164101 0.035299 0.305097 -0.179389 -0.023138 -0.177375 0.279136 0.038541 -0.385077
to -0.298909 0.181123 -0.192804 0.035218 -0.055616 -0.003864 0.015661 -0.028097 0.212411 -0.121639 -0.080663 0.102940 0.064427 0.203374 0.063753 -0.081470 0.239153 0.049525 -0.039512 -0.105811 -0.124427 0.010954 -0.055238 0.182162 0.017523 -0.174384 0.220244 -0.130683 0.088148 -0.019812 -0.244147 -0.079154 -0.224470 0.114506 0.091424 0.098140 -0.197957 -0.011590 0.103325 0.137976 -0.066463 -0.355137 -0.173284 -0.082863 0.003073 0.054083 -0.023744 -0.179090 -0.070958 0.073713 -0.087920 0.044009 0.098799 -0.200385 -0.423794 -0.193523 -0.100271 -0.010610 -0.154020 0.037345 0.379867 0.140098 0.066820 -0.027077 0.034539 -0.076574 -0.048359 0.181656 0.152728 -0.011403 0.081572 0.215829 0.023237 0.202779 -0.127773 0.032622 -0.158988 0.123370 0.076450 0.312420 -0.208717 0.047643 0.252764 -0.081407 0.014914 0.231392 0.096853 -0.181513 0.045555 0.229265 0.093456 -0.198831 0.348108 0.044942 -0.012391 0.078925 -0.021202 0.136878 -0.135043 0.095605
turn 0.246293 -0.161937 -0.075216 -0.117027 -0.038820 0.216840 -0.357288 0.222836 0.312971 0.178006 0.042462 0.152221 0.027639 -0.103733 0.000431 0.127613 0.253205 0.269476 0.009572 0.096961 -0.011042 0.223527 0.022289 -0.261079 0.028987 0.166390 -0.110030 0.043497 -0.045937 0.044015 0.270870 -0.084208 0.001630 0.513661 0.085155 -0.297811 -0.318248 -0.183861 0.018056 -0.102221 0.054377 -0.276267 0.082705 0.142343 0.132512 -0.149088 -0.185397 0.206979 0.060896 0.047002 0.051553 0.262370 -0.066817 -0.281207 -0.202135 0.339782 -0.131156 0.131712 0.389818 0.206669 0.408544 0.324257 -0.142747 -0.035064 0.166583 0.013657 0.207291 0.038034 -0.166495 0.024208 -0.126141 0.123186 0.260747 -0.081271 0.057287 0.231459 0.157956 -0.060586 0.564834 0.185261 0.058463 -0.103332 -0.225794 -0.005650 0.181258 0.177087 0.051078 -0.055492 -0.158624 -0.012103 -0.260976 -0.215864 0.583079 0.024320 -0.153963 -0.097575 0.197735 0.078520 0.243738 -0.103356
forward 0.269299 -0.154719 -0.186164 -0.115296 0.079255 0.300903 0.256384 -0.049496 0.075725 -0.352344 -0.049388 0.276140 -0.173458 -0.101202 0.209309 0.222008 0.021674 0.423068 -0.119266 -0.027202 -0.202388 -0.112373 -0.105502 -0.198699 -0.087841 0.307598 -0.081836 0.209174 -0.247301 -0.102318 0.058265 -0.053560 0.575138 0.180384 -0.298695 0.031480 -0.061120 -0.290963 -0.020072 0.236914 0.295010 0.347707 0.341093 0.044671 0.295177 0.155468 0.157739 0.468098 0.074091 0.342693 0.128645 0.439639 -0.253511 -0.064850 -0.257767 0.215554 -0.132267 -0.143109 0.069329 0.029313 0.212887 0.243020 -0.107768 -0.154206 0.159377 0.024636 0.028317 -0.194618 0.119814 0.223380 -0.091413 -0.121603 0.049335 -0.447584 0.232643 -0.077354 -0.196374 0.204252 0.235571 -0.073195 0.087861 -0.602082 -0.112653 0.134988 0.101286 -0.261098 -0.048961 -0.199814 -0.333600 0.072024 -0.372886 -0.124250 0.037519 -0.308627 -0.227289 -0.214454 0.321244 -0.164249 0.196445 0.310019
and -0.195152 0.034429 -0.113082 0.161005 -0.191139 0.127759 -0.193135 0.070377 0.174291 0.225621 -0.092123 0.080247 0.026012 0.061451 -0.178221 0.090927 0.016311 -0.051986 -0.025781 -0.069528 0.018879 0.062091 -0.101632 0.224481 -0.044498 -0.294520 -0.072780 -0.120798 0.044772 0.059400 0.031973 -0.183507 -0.183481 0.099398 0.011912 -0.131518 -0.054642 -0.019415 0.190306 -0.151601 -0.097105 -0.279405 -0.163339 -0.124939 0.092778 0.046067 0.034748 0.015500 -0.098464 -0.054483 0.032453 -0.088511 -0.087011 -0.103944 -0.064105 -0.044371 0.053296 0.145692 -0.056648 -0.026704 -0.015410 -0.036619 0.035906 -0.026019 0.185771 -0.065768 -0.121660 0.204308 0.176980 -0.083950 -0.178913 0.157492 0.060292 0.147529 0.181075 0.256648 0.028226 0.146382 0.109942 0.246772 -0.136958 0.136600 -0.125354 0.202531 0.158628 0.212666 -0.212739 -0.040039 -0.004454 -0.024422 0.165701 -0.019948 0.262720 0.184791 -0.081089 -0.009847 -0.171144 0.170406 -0.051820 -0.269167
is -0.055473 0.151074 0.080876 -0.217731 -0.029544 -0.035271 -0.032280 -0.133288 -0.131267 -0.137292 -0.364490 -0.102682 0.135261 -0.020507 0.133260 -0.096726 -0.382199 0.097251 -0.135006 -0.050575 0.067713 -0.171571 -0.156802 -0.177933 -0.051359 0.143122 0.215487 -0.019178 0.008597 0.104171 -0.197179 -0.060330 0.072144 -0.349996 0.038767 0.254221 0.227447 -0.171798 0.057096 -0.217015 0.160262 0.237384 -0.061130 -0.076510 -0.082476 0.137806 0.255673 -0.026255 0.202980 0.029902 -0.221235 -0.075384 -0.010290 0.263341 0.197688 -0.074659 -0.083141 -0.244253 0.017259 0.055329 0.003163 -0.123435 -0.004513 0.292138 -0.315583 0.207533 -0.113108 -0.073879 -0.194878 -0.095038 -0.160930 -0.054620 0.214059 -0.172936 -0.054778 -0.307187 0.129258 0.065502 -0.130302 0.050533 -0.045716 -0.049616 -0.278688 -0.063542 -0.189853 -0.130531 -0.076224 0.385659 0.139022 -0.153062 -0.147282 -0.249623 -0.382211 -0.232455 0.026287 0.208312 -0.126936 0.092379 -0.092863 0.048302
a 0.030899 -0.055314 0.129867 0.228518 0.049187 0.073369 -0.239124 0.062416 -0.033131 0.328663 0.152737 -0.168387 0.053682 0.019275 -0.048241 0.053512 -0.029451 -0.231033 0.081778 0.026406 0.204453 0.043320 0.150554 -0.129602 -0.030736 -0.139560 -0.168244 -0.024782 0.051471 0.090401 0.176550 0.009784 -0.211358 -0.111150 0.008585 -0.134780 0.175280 0.112522 0.043555 -0.270903 -0.091325 -0.041123 0.038503 0.040611 -0.062843 -0.029651 -0.079609 -0.022567 -0.098140 -0.160115 -0.104182 -0.046979 -0.121183 0.065329 0.318633 0.009965 0.013447 0.089317 0.079349 0.044948 -0.167670 -0.029529 -0.091685 0.086956 0.068409 0.001621 -0.025798 -0.032074 -0.055241 -0.008042 -0.179698 0.062660 0.077378 0.034376 0.152718 0.166141 0.119973 -0.068004 -0.095524 0.058674 0.127220 0.221828 -0.091358 0.065845 0.026677 0.093468 -0.060779 -0.023319 0.211065 -0.271851 0.092965 0.254639 -0.090057 0.030120 -0.038230 -0.000865 -0.158338 0.090748 0.127872 -0.290392
of -0.206547 -0.164673 0.032171 -0.052111 -0.017213 -0.097082 -0.044016 0.130997 0.253422 0.060373 -0.073038 -0.080938 -0.025537 -0.025100 0.049001 0.030138 0.111878 -0.013504 -0.100938 -0.185032 0.078622 -0.098318 0.137212 -0.006052 -0.030171 0.078425 0.157741 -0.202202 0.062945 0.168038 -0.149401 0.095624 -0.183161 -0.137666 -0.227204 0.288318 -0.050953 -0.040561 0.230083 0.123755 0.006091 0.031834 0.061137 -0.179571 -0.028502 0.076521 0.027334 -0.127503 -0.019029 -0.051995 0.091907 -0.106562 0.074842 -0.145606 -0.105688 -0.221835 0.106800 0.009315 -0.138690 0.032834 0.334436 -0.019691 -0.076321 -0.079612 -0.048316 0.065722 -0.125474 0.176874 0.183589 0.207788 0.098234 -0.005045 0.150194 0.052028 -0.097902 0.257987 -0.300331 0.218905 -0.005071 0.206124 0.039260 0.115459 0.050899 -0.122302 -0.076438 -0.067357 0.014631 -0.105065 0.075763 0.059164 -0.034739 -0.053805 0.122563 0.142631 -0.028915 0.039095 0.040299 -0.106907 -0.023385 -0.032928
walk 0.219535 -0.097614 -0.331316 -0.207412 -0.058957 0.224552 -0.275504 0.018734 0.210687 0.034626 -0.200359 0.385472 0.126762 -0.053763 0.124169 0.180140 0.203366 0.322914 -0.031202 -0.060053 -0.176979 0.193702 -0.212275 -0.278032 0.139949 -0.013335 -0.224054 0.300681 0.045749 -0.199256 0.269088 -0.116909 0.323008 0.536756 0.154320 -0.349656 -0.197564 -0.266113 -0.191141 -0.115878 0.250919 -0.371852 0.043043 0.321577 0.257696 -0.054732 -0.119561 0.272211 0.073359 0.306708 -0.164599 0.360642 -0.233447 0.052379 -0.150703 0.310850 -0.200424 0.197826 0.302357 0.318575 -0.028936 0.149055 0.004060 -0.082704 0.171728 0.069975 0.242977 -0.058521 -0.096309 -0.059911 -0.205761 0.082740 -0.001174 -0.270397 0.161759 -0.119646 0.626675 0.008396 0.556018 0.179330 0.060627 -0.327758 -0.388358 0.288299 0.358932 0.252535 -0.228558 0.084926 -0.282515 -0.185359 -0.404124 -0.175418 0.403772 -0.252142 -0.364373 -0.061227 -0.098877 0.083284 0.194847 0.119626
at -0.156588 0.029760 -0.012442 0.127607 0.105855 -0.113497 -0.077624 0.012615 0.007090 0.334746 0.078227 -0.071000 0.008254 0.191722 0.001889 0.018056 0.055386 -0.266703 0.148904 -0.002810 0.135270 0.025347 0.074283 0.060368 -0.057215 -0.359834 -0.031652 -0.075181 0.158814 0.071284 -0.173803 -0.007488 -0.240353 -0.062897 0.134219 -0.099359 0.082498 0.110809 -0.042348 -0.213447 -0.117118 -0.174652 -0.186311 -0.100392 -0.079874 -0.053301 0.048943 -0.078449 -0.126450 -0.229063 -0.298224 -0.206640 0.055091 -0.003584 0.032452 -0.147820 0.014607 -0.041282 -0.080371 0.068350 -0.089961 -0.085136 0.099282 -0.046774 0.054610 -0.098523 -0.190458 0.082635 0.034615 -0.107717 -0.020347 0.105083 0.081049 -0.005580 0.063783 0.072879 0.020413 0.220051 -0.137289 0.313761 -0.067719 0.296117 0.050037 0.143904 -0.015876 0.252696 -0.132490 -0.066983 0.121952 -0.158780 0.039644 0.102306 0.096615 0.067689 -0.186668 0.008435 -0.269351 0.167213 -0.039906 -0.257508
left. 0.029402 -0.076341 -0.129679 -0.003234 0.075758 -0.002599 0.213247 0.003864 0.069323 0.007296 0.018215 0.115822 0.008864 0.135142 0.104082 0.140142 0.129653 -0.075938 -0.071232 -0.076736 0.030674 -0.020669 -0.030974 0.157790 0.054679 -0.155783 -0.187845 0.044094 0.049338 -0.041505 -0.119745 -0.065438 0.195752 0.171912 0.066610 -0.038180 -0.014650 -0.010104 -0.037135 0.028686 -0.028984 -0.147276 0.007967 0.059727 0.091298 0.014331 0.052315 0.154300 -0.055788 0.048079 -0.089611 -0.015523 0.061459 -0.024640 -0.042853 0.029674 -0.038599 -0.038356 -0.133683 0.109845 -0.123338 0.090838 0.101179 -0.182957 0.140890 -0.039503 -0.117942 0.045671 0.202118 -0.012393 -0.038014 -0.010530 -0.072316 -0.100124 0.148978 -0.018812 0.059991 0.197337 -0.032238 0.142954 0.007007 0.007495 0.063118 0.136539 0.128296 0.124263 -0.094671 -0.255375 -0.095889 0.007224 -0.053388 0.031763 0.152782 -0.004023 -0.175648 -0.112368 -0.156632 -0.006387 0.015943 -0.036312
you 0.027041 -0.047310 -0.182576 0.053181 0.099769 0.013600 -0.180642 -0.028001 -0.040120 0.282253 0.218145 -0.105539 0.000004 0.039875 -0.103269 -0.049499 0.034988 0.082780 0.106131 0.107657 0.173136 -0.128342 -0.006825 0.060845 -0.039417 0.010608 -0.224084 0.041771 0.091080 -0.019970 -0.161783 -0.051397 -0.054503 -0.014196 0.026492 0.025436 0.049933 0.186571 -0.264275 -0.308590 -0.301564 -0.203116 0.207675 -0.071373 -0.037652 0.000413 -0.066041 0.054838 -0.049157 -0.092187 -0.166504 -0.174637 0.002214 -0.174175 0.027282 0.119390 -0.168403 -0.074947 0.170833 0.113545 -0.225650 0.183263 0.153700 0.004014 0.087641 0.036723 0.000358 -0.083159 -0.155691 -0.062306 -0.256680 0.044561 0.213219 0.035091 0.067950 0.048127 0.326030 -0.043592 -0.204584 0.030805 0.102668 0.166374 -0.196709 0.063805 -0.108406 0.228032 0.044235 -0.014594 0.095186 -0.186741 -0.085113 0.377334 0.087576 -0.078401 -0.345701 0.293011 -0.202806 0.038459 0.270067 -0.171078
right. 0.178650 -0.164630 -0.166679 -0.080413 0.016316 0.100549 0.327324 0.000730 0.134869 -0.285384 -0.066079 0.243559 -0.028084 0.011889 0.179926 0.187499 0.189855 0.165208 -0.203816 -0.104129 -0.170972 -0.047266 -0.098121 0.083364 0.086570 0.085212 -0.172100 0.145732 -0.102958 -0.113166 0.015077 -0.085137 0.448034 0.320199 -0.079796 -0.002882 -0.160216 -0.190340 0.050009 0.273303 0.185968 -0.009675 0.181221 0.168029 0.236962 0.051831 -0.001526 0.291166 -0.011582 0.275801 0.112490 0.226784 -0.079867 -0.048779 -0.145275 0.140440 -0.013102 0.032435 -0.053314 0.101358 0.045992 0.183830 0.010155 -0.217599 0.149531 0.031802 0.026230 -0.000077 0.325484 0.138348 0.027990 -0.068494 -0.173891 -0.178157 0.151789 -0.029746 0.005203 0.123679 0.172617 -0.005555 0.054712 -0.371986 0.017663 0.109263 0.208973 -0.078703 -0.017109 -0.298092 -0.279044 0.161158 -0.189365 -0.096852 0.165373 -0.124502 -0.090924 -0.212044 0.095050 -0.162563 0.053210 0.214783
right 0.051384 -0.045504 0.012232 0.150267 0.098295 0.075484 -0.001321 0.018318 -0.002120 0.305712 0.131429 0.008154 0.005786 0.133928 -0.067951 0.171591 0.016678 -0.234091 0.133423 0.062572 0.163689 0.144597 0.042585 0.027316 0.006491 -0.310826 -0.241509 0.065661 0.059877 0.038865 0.070809 -0.010851 -0.022183 0.051152 0.125936 -0.279083 0.117342 0.077329 -0.058613 -0.209405 -0.148133 -0.091434 -0.118821 0.001322 0.004776 -0.077102 0.059688 0.110052 -0.060770 -0.186757 -0.141696 -0.094619 -0.018074 0.079819 0.181258 0.052055 0.006584 -0.015028 -0.038927 0.017985 -0.319663 -0.057488 -0.009333 -0.045786 0.147490 -0.139337 -0.140511 -0.032688 0.009146 -0.129660 -0.132698 0.077515 -0.015187 -0.100037 0.288628 0.063682 0.054765 0.111634 -0.086776 0.149012 0.018393 0.206861 0.034373 0.209592 0.114566 0.208978 -0.243139 -0.114317 0.027291 -0.203629 0.071366 0.139544 0.031100 0.136329 -0.173568 -0.138806 -0.232505 0.157400 0.057968 -0.293715
intersection -0.029884 0.020911 0.082496 0.193960 -0.124284 0.177400 0.072744 0.022686 0.027743 -0.161557 0.075547 -0.101703 0.007491 -0.037232 -0.017996 -0.225830 0.086002 -0.077681 -0.101921 -0.211646 -0.059168 -0.009762 0.133922 0.006057 -0.080279 0.085257 0.112268 0.001677 -0.127682 -0.124159 0.039094 0.071938 -0.007711 -0.245667 -0.235474 0.313366 0.102546 0.078215 0.229056 0.183635 0.120518 0.154731 0.153663 0.010702 0.076955 0.114253 -0.049585 -0.135182 0.046407 0.172145 0.079416 0.040933 -0.035589 0.037293 -0.031282 -0.137876 0.018179 0.034820 -0.082199 -0.079718 0.095857 0.083413 -0.207104 0.148072 -0.016797 0.100078 0.066079 0.120628 0.144920 0.384601 -0.118228 -0.062143 -0.056200 0.174341 -0.030691 0.060039 -0.145062 -0.019114 -0.111356 0.012118 0.123214 -0.049795 0.330278 -0.162210 -0.095668 -0.150322 0.142730 -0.101240 0.186919 -0.021706 0.151195 0.021294 -0.299876 -0.175361 0.239350 0.069314 0.155634 -0.189517 -0.102916 0.155502
move -0.027831 -0.100080 -0.031589 0.016091 -0.276036 0.211946 -0.342612 0.231994 0.354623 0.203923 -0.163906 0.182790 0.002653 -0.133822 -0.272269 0.104752 0.036641 0.112953 0.020629 -0.112529 -0.093476 0.237403 -0.117059 0.054736 0.014505 -0.139219 0.016126 -0.134488 -0.088497 0.161737 0.283617 -0.087744 -0.105520 0.191287 -0.014493 -0.187513 -0.123893 -0.184073 0.190706 -0.071435 0.031112 -0.227065 -0.140349 -0.001860 0.163432 -0.070523 -0.046963 0.000414 0.079793 -0.063537 0.198369 0.077052 -0.051079 -0.068342 -0.152544 0.121295 0.126562 0.254046 0.119275 -0.061364 0.139476 -0.078215 -0.129680 -0.096462 0.235901 0.015804 0.111173 0.208361 0.046740 -0.005694 -0.108629 0.052598 0.030980 0.042537 0.179726 0.297124 -0.017706 -0.000458 0.477367 0.145849 -0.080624 0.059497 -0.223046 0.163080 0.241617 0.153691 -0.192322 0.123664 -0.092488 -0.002123 0.020607 -0.197862 0.385654 0.269232 0.029604 -0.097573 0.089721 0.014372 -0.010350 -0.149041
hall. -0.104958 -0.087853 0.026740 0.075535 0.003748 0.009018 0.119869 -0.054171 0.048056 -0.133385 -0.029252 -0.085901 0.068639 0.066120 0.232082 -0.070690 0.185804 -0.096282 -0.209486 -0.281962 0.053404 -0.202598 0.188996 -0.118073 -0.062685 0.150920 0.050261 0.031803 -0.012478 -0.146758 -0.056106 0.104072 0.032451 -0.175844 -0.306818 0.401634 0.106276 0.029150 0.212401 0.188999 0.180203 0.131333 0.226744 0.017116 0.067539 0.225666 -0.020696 -0.089182 -0.079281 0.280926 -0.065510 0.062955 -0.154415 0.007651 0.030087 -0.222640 0.024487 0.048427 -0.170629 0.110528 0.146869 0.081653 -0.122436 0.118687 -0.108206 0.118286 -0.125143 0.058289 0.305249 0.376218 -0.068359 -0.048721 0.021527 0.014943 -0.041967 0.036723 -0.049307 0.198945 -0.216786 0.153137 0.172784 -0.143904 0.240089 -0.155396 -0.108396 -0.201990 0.016172 -0.231621 0.161147 -0.074387 0.011965 0.051619 -0.272813 -0.256951 -0.014512 -0.002771 0.024644 -0.165098 -0.050290 0.145087
one 0.109866 -0.030979 -0.018481 0.013599 -0.152051 0.203784 0.196070 -0.066441 0.056906 -0.400920 -0.139113 0.113722 0.128087 -0.008559 0.061566 -0.079736 0.117895 0.063155 -0.320877 -0.219199 -0.106952 -0.041449 -0.092077 0.026470 -0.006115 0.189296 -0.086246 0.184754 -0.171598 -0.237594 0.148680 -0.017545 0.283125 0.033896 -0.238346 0.288830 0.017456 -0.113783 0.203464 0.310201 0.291059 0.131646 0.157812 0.161763 0.143374 0.207855 -0.098541 -0.005173 0.014256 0.437585 0.149338 0.207635 -0.192073 -0.045810 0.005433 0.009007 0.004260 0.119202 0.014350 0.031593 -0.022685 0.116209 -0.173854 0.193295 -0.022183 0.130277 0.088323 -0.002319 0.330351 0.328233 -0.165802 0.015914 -0.163581 0.130991 0.084917 0.007108 0.072953 -0.077590 -0.063072 -0.083643 0.076603 -0.292830 0.151748 -0.108600 0.077700 -0.229877 0.031645 -0.170537 -0.005605 0.150531 0.126522 -0.098549 -0.230755 -0.155623 0.173033 -0.049612 0.197835 -0.143291 -0.050804 0.288893
with -0.209371 0.093590 -0.043268 0.108129 -0.199889 0.122616 -0.072046 -0.033111 0.091382 -0.163138 -0.185471 -0.087135 0.135218 0.012614 0.033451 -0.246532 0.028555 -0.100809 -0.177640 -0.324218 -0.031593 -0.101432 0.035248 0.012611 -0.027099 -0.024953 0.148593 -0.060040 0.028049 -0.081903 -0.060615 0.023072 -0.134960 -0.312797 -0.237566 0.449757 0.082568 0.006710 0.265931 0.096024 0.188345 0.020162 0.075555 -0.021313 0.006739 0.209368 -0.020227 -0.206736 -0.015632 0.217685 -0.076940 0.011524 -0.100892 0.095944 -0.037617 -0.289069 -0.012171 0.077038 -0.137879 0.037194 0.113859 -0.010039 -0.195518 0.200041 -0.087395 0.170504 -0.042952 0.175991 0.194702 0.322768 -0.186942 0.034983 0.008276 0.216305 -0.078374 0.032684 0.039839 0.018705 -0.120562 0.154098 0.035952 0.001438 0.139610 -0.055578 -0.103467 -0.093364 0.041453 -0.002861 0.231094 -0.080053 0.082655 -0.037620 -0.265143 -0.201964 0.189214 0.193304 -0.034580 -0.113299 -0.142597 0.148729
Go 0.123711 -0.118294 -0.125294 0.142708 -0.112515 0.331028 0.130391 -0.076625 0.098316 -0.457771 -0.094751 0.143953 0.088358 -0.068968 0.225008 -0.012590 0.245517 0.053279 -0.326058 -0.309690 -0.337056 -0.035854 0.033529 -0.163485 0.112197 0.214554 -0.034949 0.247973 -0.172118 -0.300216 0.203577 -0.030180 0.294033 0.045520 -0.357521 0.237668 -0.071276 -0.160355 0.327725 0.410991 0.433051 0.082840 0.357163 0.282843 0.236382 0.230611 -0.150466 0.057174 -0.007693 0.551003 0.129575 0.406086 -0.351303 0.111520 -0.012891 -0.090086 -0.001719 0.177519 -0.010688 0.098354 0.138854 0.141891 -0.299188 0.113001 -0.082330 0.221890 0.160127 0.046474 0.463965 0.490320 -0.036706 -0.017553 -0.263330 0.050205 -0.013618 0.009600 0.100138 -0.052873 0.168648 -0.013047 0.252940 -0.525814 0.179618 -0.059393 0.119898 -0.284007 0.066592 -0.212838 0.004100 0.090619 0.011387 -0.017159 -0.316483 -0.396218 0.174614 -0.066690 0.160311 -0.207721 -0.085834 0.453957
go -0.027796 -0.121358 0.047479 0.214339 0.008549 0.095509 -0.296775 0.126785 0.146283 0.481918 0.137267 -0.069103 0.056140 0.064597 -0.077597 0.097346 0.169657 -0.305170 0.089517 -0.062016 0.194389 0.138087 0.206432 -0.104898 0.009564 -0.254765 -0.180306 -0.036696 0.081093 0.076150 0.192679 0.038686 -0.281738 0.037881 0.013594 -0.190842 0.097802 0.111385 0.140847 -0.247089 -0.110256 -0.243803 -0.054207 0.000921 0.003594 -0.033060 -0.078356 -0.035297 -0.113671 -0.160492 -0.099569 -0.078180 -0.067556 -0.002132 0.211971 -0.050864 0.076355 0.161001 0.020376 0.080816 -0.087683 -0.024322 -0.130343 0.007734 0.138914 -0.057622 -0.076603 0.094484 0.055417 0.032373 -0.129777 0.096898 0.100331 0.066916 0.165990 0.281948 0.089353 0.099913 0.031007 0.267537 0.131665 0.316352 0.024249 0.086551 0.102422 0.220026 -0.205872 -0.141952 0.182454 -0.247510 0.123018 0.176130 0.115228 0.152566 -0.132531 -0.081752 -0.181323 0.149859 0.069549 -0.351734
this -0.196450 0.017688 -0.041727 -0.048496 -0.053930 0.084407 -0.174474 -0.029558 0.042716 -0.017106 -0.141106 -0.014118 0.076168 -0.066296 -0.038082 0.048754 -0.170773 0.022759 -0.140977 -0.138604 0.138642 -0.168706 -0.010128 -0.030277 0.010203 0.193912 0.048123 -0.142353 0.060561 0.092263 -0.001841 -0.005982 -0.099702 -0.179705 -0.144428 0.198528 0.235684 0.003802 0.070682 -0.111637 -0.175789 -0.008906 0.029548 -0.082633 -0.045990 0.240156 0.070499 -0.078561 0.088023 0.110779 0.118010 0.061681 0.030958 -0.027302 0.071594 -0.105420 -0.119172 -0.046303 -0.148101 -0.014460 0.024092 -0.049553 -0.023324 0.043291 -0.073368 0.122864 -0.079510 -0.039698 -0.081210 0.005852 -0.133217 -0.049927 0.177233 0.078591 -0.060416 0.019002 -0.048248 0.012357 -0.068593 -0.044004 0.074662 0.217607 -0.103612 -0.141591 -0.061658 -0.092592 -0.030030 0.069363 0.168296 0.003928 0.201188 0.084802 -0.071931 0.160860 -0.039095 0.110013 -0.071137 0.116274 0.002938 0.019733
your 0.068493 -0.000812 0.080686 -0.318390 -0.240404 0.212765 -0.111522 0.155992 0.132987 -0.191513 -0.319865 0.101168 0.098608 -0.229402 -0.151395 0.021639 -0.298970 0.264186 -0.192947 -0.082609 0.164812 0.048104 -0.180685 -0.039166 -0.042405 0.263645 0.036033 -0.115142 -0.091184 0.188155 0.183536 -0.022307 0.160752 -0.040616 -0.038509 0.138875 0.109082 -0.206669 0.087152 -0.058161 0.014124 0.189141 -0.109998 -0.061941 0.047979 0.094778 0.124931 0.074186 0.270247 0.104401 0.267044 0.096501 0.155701 -0.068918 0.005428 0.204171 -0.116856 -0.074838 0.056673 -0.081138 0.120167 0.005012 -0.165102 0.117205 0.050866 0.114151 0.043039 -0.039884 -0.300172 0.002504 -0.291535 -0.100185 0.265737 -0.018486 0.104322 0.022399 -0.084076 -0.097993 0.151137 -0.127358 -0.083116 0.159881 -0.211080 -0.123855 0.063368 -0.164808 -0.058315 0.170201 -0.057425 0.044180 0.038107 -0.364680 0.118653 0.259286 0.118907 0.009219 0.221220 0.000875 0.022543 0.003068
left 0.021199 -0.104073 -0.051941 0.071604 0.062780 0.047422 -0.011077 0.042991 0.085372 0.236828 0.074275 0.067501 -0.065254 0.053481 -0.056442 0.190353 0.046922 -0.027494 0.112335 0.051252 0.008174 0.087851 -0.020708 0.033826 0.001418 -0.188533 -0.118869 0.025534 0.008954 0.060843 0.010910 -0.038889 0.000493 0.093857 0.031857 -0.213964 -0.032132 -0.013022 -0.026460 -0.096765 -0.099964 -0.083612 -0.038226 -0.061639 0.063567 -0.070911 0.059633 0.110049 -0.052808 -0.152853 -0.037640 -0.067798 -0.056249 -0.010000 -0.002564 0.057220 0.074332 0.010269 0.005748 -0.000682 -0.119126 -0.042403 0.029617 -0.112392 0.119144 -0.106601 -0.102513 0.017119 0.082221 -0.089563 -0.017132 0.038755 0.018485 -0.122768 0.203569 0.096923 -0.024392 0.161874 0.057370 0.147187 -0.005146 0.016346 -0.066252 0.183901 0.084905 0.139011 -0.207793 -0.070023 -0.078086 -0.087946 -0.044616 0.052874 0.136428 0.101294 -0.202888 -0.101220 -0.121966 0.083550 0.055106 -0.199539
hall -0.107280 -0.077695 0.016353 0.009084 -0.097820 0.072049 -0.029619 0.034291 0.122224 -0.067034 -0.079826 -0.056501 0.076803 -0.025134 0.072326 -0.072156 0.096111 0.009071 -0.195962 -0.255345 0.081212 -0.141387 0.091986 -0.064538 -0.053331 0.163541 0.053681 -0.036842 -0.020497 -0.045748 -0.015252 0.063073 -0.016986 -0.156628 -0.231541 0.363666 0.103939 -0.003663 0.191206 0.065332 0.057499 0.043718 0.161211 -0.037208 0.065682 0.183625 -0.008375 -0.102617 0.016498 0.199744 0.026613 0.008587 -0.049697 -0.047306 0.008817 -0.116142 0.005698 0.045676 -0.095851 0.081718 0.114258 0.074585 -0.117769 0.113611 -0.046117 0.127712 -0.078349 0.099835 0.157421 0.282162 -0.153496 -0.054891 0.134073 0.065640 -0.002700 0.090995 -0.011513 0.122996 -0.115389 0.116523 0.122638 -0.016525 0.098103 -0.152854 -0.091963 -0.116177 -0.010870 -0.108830 0.159998 -0.087402 0.031598 -0.005186 -0.132675 -0.102957 -0.015573 0.076622 0.019572 -0.123240 -0.003714 0.048516
blue -0.011417 -0.092240 0.001277 0.197922 0.020593 0.051617 -0.182934 0.110572 0.116101 0.420625 0.171822 -0.029758 -0.059769 0.063733 -0.126013 0.084802 0.096529 -0.207019 0.143089 0.027400 0.119243 0.108771 0.109458 0.051613 -0.050166 -0.286377 -0.165006 -0.071128 0.033698 0.082699 0.080522 -0.027765 -0.200494 0.067180 0.016959 -0.209765 -0.009896 0.096553 0.036510 -0.197328 -0.116631 -0.175016 -0.059163 -0.069009 0.007021 -0.089133 -0.017830 0.051948 -0.118280 -0.215571 -0.074706 -0.111988 -0.051630 -0.092926 0.039589 -0.005957 0.070178 0.091882 0.040364 0.020544 -0.052498 -0.002457 -0.029943 -0.082639 0.192044 -0.110120 -0.087912 0.120309 0.070752 -0.033778 -0.096788 0.091667 0.098069 0.025436 0.163417 0.279344 -0.005397 0.120108 0.063440 0.231410 0.021293 0.212709 -0.025807 0.179570 0.085022 0.220898 -0.140457 -0.116729 0.041259 -0.141903 0.046796 0.153692 0.196577 0.130378 -0.131870 -0.090191 -0.130627 0.077557 0.065876 -0.327638
take -0.025705 -0.049041 -0.034834 0.262381 0.216981 -0.051761 -0.164552 -0.018837 -0.067624 0.534696 0.284456 -0.155522 0.007842 0.202215 0.072910 0.029697 0.165575 -0.411532 0.223027 0.055817 0.193822 0.072168 0.250121 -0.158209 -0.062541 -0.373996 -0.187359 0.093376 0.188292 -0.075344 -0.055532 0.056965 -0.271743 -0.043380 0.084823 -0.217424 0.085842 0.233820 -0.078016 -0.304903 -0.092065 -0.170964 -0.037077 -0.014016 -0.083572 -0.091556 -0.031355 -0.001222 -0.206934 -0.219321 -0.426590 -0.187469 -0.095173 0.051955 0.205641 -0.147633 0.002618 -0.005722 0.017313 0.170424 -0.189670 -0.007858 -0.009208 0.005427 0.021659 -0.131679 -0.195802 0.008217 0.017299 -0.026331 -0.068631 0.150539 0.099684 -0.068028 0.093893 0.122344 0.185548 0.220559 -0.183797 0.363196 0.109379 0.273426 0.103682 0.171244 -0.022103 0.263436 -0.183040 -0.157153 0.166956 -0.351310 -0.019852 0.300387 -0.046162 -0.097501 -0.308091 -0.021931 -0.367994 0.175107 0.061903 -0.322425
once. 0.249076 -0.291230 -0.448549 -0.373276 -0.026042 0.043036 -0.259734 0.062639 0.310877 -0.065498 -0.171094 0.443449 0.045013 -0.187119 0.133714 0.284215 0.277783 0.617093 -0.171614 0.056901 -0.143032 -0.111884 -0.250891 -0.165114 0.168916 0.380443 -0.319097 0.167565 0.071367 -0.109123 0.206106 -0.155983 0.344113 0.837688 0.045896 -0.266582 -0.432854 -0.283651 -0.295783 0.013026 0.025564 -0.427181 0.287378 0.286959 0.250693 -0.026359 -0.265647 0.396364 -0.043855 0.346929 0.153483 0.411503 -0.204737 -0.398042 -0.316624 0.416576 -0.200304 0.281669 0.356532 0.346340 0.255664 0.339578 0.150858 -0.344971 0.231233 0.096435 0.258649 -0.127873 -0.020674 -0.110003 -0.035217 0.039100 0.172895 -0.181059 -0.000120 0.075899 0.555749 -0.105588 0.614490 -0.047667 0.060274 -0.364616 -0.628540 0.133213 0.361318 0.123895 0.010708 -0.115555 -0.474754 0.137770 -0.466321 -0.039513 0.834348 -0.027393 -0.486716 -0.073261 0.069757 -0.016420 0.412651 0.216133
Turn -0.006244 -0.015435 0.019785 0.080393 -0.183721 0.108373 0.068919 -0.076537 0.059951 -0.413420 -0.180886 0.042935 0.042793 -0.076922 0.108492 -0.109287 0.115060 0.153745 -0.234460 -0.186554 -0.316130 -0.086303 -0.056563 -0.087316 -0.000993 0.217968 0.129416 0.119856 -0.150454 -0.188855 0.114718 -0.019555 0.041994 -0.020929 -0.344883 0.303898 -0.182086 -0.163129 0.298725 0.390170 0.403412 0.183441 0.224306 0.041157 0.091012 0.175535 -0.130545 -0.113607 -0.094539 0.372860 0.166263 0.212608 -0.383643 -0.054653 -0.101401 -0.128548 0.142942 0.218590 0.059500 0.012963 0.267338 0.031990 -0.202545 0.219284 -0.169986 0.144910 0.102863 0.047195 0.392803 0.335235 0.067837 0.055595 -0.104453 0.144860 -0.089813 0.086233 -0.030677 -0.096105 0.049115 -0.073938 0.033710 -0.513676 0.057152 -0.114216 -0.045640 -0.340088 0.105568 -0.033259 -0.026589 0.174577 -0.005929 -0.119495 -0.232376 -0.275167 0.255358 0.006516 0.279935 -0.208921 -0.096607 0.324006
end -0.149638 -0.200899 0.128856 0.082554 0.012534 -0.097765 0.057005 0.168318 0.208769 0.168177 0.092660 -0.083532 -0.090173 0.008650 0.085900 -0.009276 0.216094 -0.165914 -0.124336 -0.232745 0.168936 -0.183954 0.308268 0.046580 -0.073168 0.102795 0.049793 -0.255607 0.025154 0.107196 -0.062223 0.118559 -0.117724 -0.023301 -0.236388 0.290495 0.034915 0.080120 0.259396 0.117342 -0.077403 0.008174 0.143549 -0.105841 0.036638 0.131489 -0.018177 -0.032271 -0.108262 0.017506 0.102054 -0.059808 0.064145 -0.211010 -0.091210 -0.210252 0.084115 0.097378 -0.267632 0.044364 0.321104 0.097431 -0.039820 -0.187842 0.081091 0.023197 -0.223474 0.167793 0.308972 0.271113 0.081689 -0.114873 0.165375 0.048505 -0.079495 0.293906 -0.345563 0.289831 -0.050868 0.200446 0.153564 0.142730 0.178443 -0.133809 -0.085402 -0.123783 0.044967 -0.320134 0.116486 0.022530 0.050449 0.068550 0.133433 0.106779 -0.024382 -0.167480 0.091852 -0.166160 -0.030820 -0.058047
path -0.073964 -0.013868 0.154644 0.230935 0.103366 0.015002 -0.205049 0.072996 0.005208 0.510758 0.212181 -0.159975 -0.003831 0.135646 -0.085323 0.090814 0.068597 -0.401453 0.227611 0.052988 0.217935 0.195169 0.253551 -0.108337 -0.013177 -0.322985 -0.065304 -0.053312 0.074422 0.118168 0.117313 0.083274 -0.345695 -0.114591 0.100195 -0.258089 0.187396 0.181162 0.075572 -0.286975 -0.166410 -0.132140 -0.166537 -0.054674 -0.104484 -0.087785 0.028693 -0.090019 -0.073366 -0.296475 -0.182354 -0.146573 0.010880 0.126037 0.260957 -0.095138 0.083568 0.019209 -0.042401 -0.008926 -0.163493 -0.124227 -0.080578 0.063108 0.055600 -0.143071 -0.127780 0.040603 -0.068621 -0.077021 -0.040532 0.086133 0.053778 -0.009453 0.128566 0.148920 -0.065825 0.113101 -0.073439 0.218196 0.078824 0.350382 0.136010 0.064133 -0.006110 0.228641 -0.213108 -0.033777 0.233488 -0.273706 0.158910 0.154998 -0.043405 0.163106 -0.087161 -0.084576 -0.216852 0.223114 0.001866 -0.401362
on -0.081701 0.096579 0.041006 -0.192516 -0.001912 -0.034046 -0.046074 0.047080 0.047395 0.011870 -0.089754 0.059383 0.034658 0.019388 -0.022165 -0.037757 -0.109179 0.033671 0.030222 0.020440 0.172322 0.057613 -0.019533 -0.019219 -0.087748 -0.016841 0.093943 -0.111166 0.070440 0.074615 -0.073349 0.016326 -0.011188 -0.022692 0.111563 0.009295 0.058801 -0.020640 -0.078286 -0.082221 -0.081345 0.040172 -0.223198 -0.119179 -0.049273 0.010578 0.154764 -0.010173 0.118517 -0.042580 -0.074603 -0.037461 0.209574 -0.084218 -0.105757 0.002977 -0.140804 -0.136343 -0.066685 -0.023930 0.131960 -0.016551 0.002521 0.003215 0.031138 -0.052226 -0.101214 -0.007052 -0.249677 -0.111101 -0.075256 0.020818 0.222851 -0.052803 -0.017113 -0.055023 -0.127016 0.086980 0.010301 0.106134 -0.143658 0.234841 0.002663 -0.056673 -0.014821 0.064157 -0.054147 0.068425 -0.022803 0.001822 -0.005297 -0.213736 0.159627 0.142886 -0.066549 0.011076 0.028761 0.120465 -0.034716 -0.056167
in -0.101777 0.017725 0.055098 -0.004746 0.002795 0.005399 -0.086427 0.011929 0.001706 0.037826 -0.022851 -0.090081 0.009253 -0.019813 0.011549 -0.040538 -0.105384 -0.058670 -0.032891 -0.078108 0.133366 -0.082440 0.097862 -0.077022 -0.083752 0.069381 0.092290 -0.110521 0.035010 0.060471 -0.045033 0.044684 -0.086084 -0.193854 -0.094665 0.164918 0.150861 0.034668 0.064013 -0.077031 -0.053813 0.102617 -0.000641 -0.083382 -0.055103 0.099995 0.086646 -0.049335 0.059888 -0.003467 -0.032831 -0.019136 0.061693 0.004716 0.039443 -0.110778 -0.058896 -0.091548 -0.096318 -0.010651 0.100177 -0.024158 -0.062889 0.031764 -0.038668 0.055940 -0.100850 0.007158 -0.088357 0.059699 -0.070694 -0.043201 0.159199 -0.022208 -0.061054 0.028720 -0.119915 0.083973 -0.067474 0.056388 0.031601 0.143946 0.007469 -0.087102 -0.096122 -0.067425 -0.000598 0.049782 0.121104 -0.081605 0.034562 0.005600 -0.102213 0.011139 0.003811 0.053223 -0.008817 0.011048 -0.020401 -0.020150
onto -0.005236 -0.001931 0.017159 0.224117 0.213538 -0.062801 -0.161302 0.033726 -0.041294 0.568925 0.249073 -0.097797 0.016074 0.230909 0.054092 0.088833 0.117522 -0.471882 0.238339 0.062571 0.287010 0.158394 0.251461 -0.113323 -0.040735 -0.474980 -0.240106 0.016500 0.200993 0.006043 0.029973 0.045288 -0.220192 0.047102 0.215918 -0.352461 0.160568 0.207846 -0.112152 -0.368782 -0.120583 -0.223519 -0.174696 0.059713 -0.070544 -0.129570 0.000152 0.064548 -0.165606 -0.260697 -0.415823 -0.124886 0.005837 0.099799 0.239719 -0.072612 -0.047855 -0.000212 -0.055693 0.152826 -0.225171 -0.033637 0.015891 -0.092344 0.153760 -0.168879 -0.181442 0.004110 -0.078797 -0.135887 -0.106767 0.124135 0.066185 -0.114644 0.168617 0.093329 0.165432 0.212202 -0.093315 0.345449 0.057388 0.402106 0.091446 0.242824 0.111212 0.352897 -0.232868 -0.159031 0.125513 -0.372825 -0.002213 0.227663 0.092444 0.020010 -0.278076 -0.152774 -0.389190 0.212946 0.064133 -0.398700
should 0.018767 -0.003074 -0.136039 -0.056753 0.009413 0.049276 -0.135525 -0.018347 -0.027494 0.041045 0.033250 -0.009304 -0.010048 -0.085171 -0.102451 0.031273 -0.133063 0.178782 0.006663 0.078272 0.079936 -0.114339 -0.123695 0.025269 -0.041673 0.158528 -0.067316 -0.006145 0.010223 0.038383 -0.046706 -0.056510 0.006377 -0.000880 -0.020970 0.018572 0.074912 0.031072 -0.187883 -0.193075 -0.207751 -0.025684 0.065800 -0.031212 -0.023917 0.032349 0.019472 0.074546 0.051469 -0.043362 0.052566 0.006327 0.066416 -0.147851 -0.010137 0.114456 -0.120785 -0.118611 0.108538 0.023197 -0.070179 0.052495 0.066627 -0.030427 0.065560 0.018509 0.020628 -0.093296 -0.207361 -0.110408 -0.152219 -0.012011 0.197855 -0.013776 0.031807 0.015536 0.093998 -0.071927 -0.050564 -0.122835 -0.010460 0.124305 -0.205453 -0.002551 -0.027748 0.064079 0.027650 0.042910 0.004071 -0.026391 -0.009232 0.134261 0.105405 0.079775 -0.166726 0.174375 -0.038760 0.079796 0.204900 -0.043091
towards -0.114194 -0.024940 0.105854 0.264645 0.012199 0.008517 -0.177067 0.058812 0.051817 0.451789 0.181520 -0.135149 -0.027369 0.133114 -0.113398 -0.004614 0.086526 -0.372213 0.185060 -0.015019 0.158023 0.150047 0.192791 0.009560 -0.150090 -0.365492 -0.060188 -0.050137 0.044875 0.018162 0.036912 0.026336 -0.297750 -0.149118 -0.044491 -0.108630 0.069177 0.161976 0.134541 -0.151583 -0.050245 -0.041430 -0.144629 -0.149269 -0.047937 -0.054465 0.041318 -0.100969 -0.147402 -0.224560 -0.198392 -0.230506 -0.085233 -0.035848 0.116121 -0.169739 0.151963 0.074273 -0.024178 -0.020753 -0.076198 -0.113375 -0.090642 0.084686 0.066516 -0.140440 -0.192778 0.174898 0.126816 0.078005 -0.112558 0.133354 0.114543 0.071155 0.122450 0.276722 -0.088544 0.216502 -0.113382 0.336851 -0.007649 0.246041 0.133684 0.102219 -0.022164 0.159764 -0.215914 -0.083136 0.159203 -0.196644 0.158097 0.121335 -0.057048 0.068461 -0.088543 -0.046658 -0.151568 0.100870 -0.070711 -0.356733
segment 0.105016 -0.012689 0.134625 0.026504 -0.165459 0.183845 0.191829 0.077340 0.119518 -0.387071 -0.113687 0.065096 0.058943 -0.076082 0.084686 -0.089852 0.137286 -0.028257 -0.223714 -0.220505 -0.174731 0.109012 0.093826 -0.023377 0.098742 0.123201 0.076429 0.022505 -0.171094 -0.072334 0.209995 0.048247 0.202095 0.040650 -0.136225 0.171206 -0.077043 -0.144753 0.342908 0.376862 0.338131 0.126345 0.096702 0.175882 0.136758 0.070297 -0.085356 -0.007422 0.084008 0.298886 0.227126 0.245116 -0.042802 0.116488 -0.032069 -0.029687 0.051833 0.144736 -0.096406 -0.043226 0.210188 0.079956 -0.270506 0.051527 -0.014482 0.131510 0.148742 0.097288 0.243860 0.336997 0.055148 -0.083541 -0.250266 0.090324 -0.024582 0.012702 -0.157399 -0.116011 0.193072 -0.092408 0.087840 -0.246921 0.274456 -0.135656 0.106495 -0.241165 0.126563 -0.117911 -0.018172 0.172549 0.048410 -0.232970 -0.147402 -0.108370 0.413839 -0.187529 0.299540 -0.229701 -0.169360 0.288158
easel. 0.013210 -0.034091 -0.028829 0.019019 -0.062001 0.064993 -0.003833 0.012946 0.067199 -0.039006 -0.036263 0.033303 0.027469 0.000598 0.007683 -0.024652 0.049114 -0.009788 -0.057768 -0.074358 -0.024294 0.013047 -0.000566 0.004160 -0.032814 -0.011762 -0.030158 0.033350 -0.027283 -0.072233 0.031057 -0.034895 0.058508 0.016033 -0.080916 0.058864 -0.044516 -0.031313 0.091822 0.059415 0.100802 0.011936 0.037600 0.014801 0.061924 0.036423 -0.013099 0.021390 -0.006710 0.106174 -0.002392 0.026296 -0.081531 -0.019835 -0.021115 -0.003251 0.017008 0.052335 0.021666 0.023392 0.029401 0.041989 -0.060552 0.051800 0.007745 0.033696 0.002316 0.064915 0.120877 0.124554 -0.083890 0.021435 0.002239 0.036764 0.036244 0.054246 0.036475 0.042805 0.034852 0.084906 0.012291 -0.080810 0.008187 0.010452 0.040113 -0.025015 -0.031105 -0.042780 -0.022744 0.004528 0.001255 -0.049643 -0.029499 -0.078952 0.004789 -0.005866 0.018429 -0.036771 -0.032034 0.027189
be -0.053879 0.058851 -0.131465 0.043414 -0.066303 0.062974 -0.204003 -0.087433 -0.039311 0.047091 -0.061301 -0.085146 0.145507 -0.038960 -0.070601 -0.013594 -0.094981 0.035029 -0.070412 -0.014886 0.064061 -0.110554 -0.108589 0.035206 0.104324 0.059214 -0.106481 0.036636 0.099381 0.006770 0.002100 -0.091666 -0.130950 -0.044727 0.023317 0.064584 0.068096 0.049062 -0.046494 -0.206516 -0.167790 -0.190508 0.074336 0.029785 -0.082701 0.076049 -0.080150 -0.060746 -0.031801 0.025281 -0.013369 -0.030743 -0.058397 0.015396 0.161977 -0.008303 -0.105938 0.029539 0.079684 0.086394 -0.174253 0.017382 0.004852 0.124566 -0.058360 0.100255 0.015915 -0.083978 -0.098308 -0.095015 -0.174204 0.082193 0.071274 0.142157 0.000122 -0.022995 0.315639 -0.204928 -0.124538 -0.109765 0.042187 0.134969 -0.190542 -0.013109 -0.039366 0.079407 0.024753 0.083872 0.142382 -0.071604 0.085969 0.192412 -0.049141 0.030063 -0.036715 0.251663 -0.194486 0.116887 0.124525 -0.034391
wall -0.127259 0.064258 0.016883 -0.356855 -0.136308 0.034477 -0.098260 0.127397 0.160515 -0.065043 -0.334030 0.168289 0.036232 -0.104927 -0.058580 -0.011554 -0.258032 0.142476 -0.061359 -0.108891 0.130820 0.040275 -0.108043 0.009972 -0.058043 0.072292 0.189202 -0.224525 0.039638 0.176201 -0.035890 -0.013638 0.095658 -0.031610 0.057215 0.093037 0.084872 -0.176972 0.014062 -0.045157 0.001960 0.064569 -0.271799 -0.126241 0.010399 0.072891 0.259148 0.045320 0.265613 0.017863 0.059782 0.039956 0.285105 -0.021325 -0.191678 0.016963 -0.151484 -0.145183 -0.139096 -0.073473 0.252726 -0.083957 -0.039419 -0.083650 0.045345 0.064177 -0.066060 0.073798 -0.280396 -0.068903 -0.110993 -0.094790 0.252606 -0.119473 -0.044342 -0.069262 -0.202099 0.135348 0.209852 0.104733 -0.168634 0.255082 -0.142659 -0.045122 0.054317 -0.030627 -0.102314 0.191493 -0.088737 0.054648 -0.032465 -0.413422 0.235582 0.235197 0.010574 -0.014647 0.099450 0.060405 -0.138694 0.056664
Position -0.099471 0.177869 -0.059809 -0.233705 -0.091279 0.175030 -0.112533 -0.145511 -0.114259 -0.229106 -0.352918 0.049134 0.184269 -0.076901 0.051806 -0.026202 -0.409671 0.102457 -0.199008 -0.155535 0.136189 -0.128080 -0.155783 -0.161143 0.013128 0.222833 0.074871 0.008046 0.038967 0.008162 -0.002866 -0.045082 0.167632 -0.290020 -0.026155 0.235789 0.397539 -0.120105 -0.038115 -0.207581 0.020559 0.152333 -0.045469 0.016251 -0.028489 0.289016 0.232417 0.002834 0.284946 0.272600 -0.053461 0.150090 0.042899 0.256878 0.176747 -0.013124 -0.282892 -0.214622 -0.114291 0.017238 -0.141507 -0.079733 -0.055367 0.220293 -0.177296 0.219218 -0.020784 -0.167662 -0.332011 -0.054755 -0.317126 -0.105046 0.168747 -0.102974 -0.013144 -0.340403 0.175094 -0.031366 -0.084771 -0.098410 0.039899 0.119336 -0.200120 -0.114367 -0.053149 -0.138956 -0.099168 0.305704 0.147786 -0.126536 0.073287 -0.120841 -0.337759 -0.086475 -0.013370 0.185192 -0.121862 0.149117 -0.040682 0.155027
This -0.094825 0.194249 0.045753 -0.089620 -0.184067 0.188724 -0.002525 -0.131058 -0.106876 -0.412866 -0.317114 -0.003117 0.192894 -0.085171 0.026067 -0.113922 -0.308328 0.004858 -0.265733 -0.208438 -0.015265 -0.080174 -0.105159 -0.063894 0.065448 0.208599 0.126538 -0.007517 -0.047556 -0.042035 0.085924 -0.024404 0.113678 -0.311410 -0.102866 0.303864 0.292285 -0.096445 0.173839 0.037640 0.143162 0.192612 -0.011550 0.069840 -0.025418 0.274595 0.112116 -0.110677 0.217362 0.324397 0.092279 0.169871 -0.012034 0.274547 0.199195 -0.109241 -0.125771 -0.069993 -0.149623 -0.070980 -0.068060 -0.095933 -0.167142 0.274021 -0.213098 0.235207 0.056249 -0.060114 -0.089897 0.089883 -0.180560 -0.072882 -0.056202 0.110468 -0.074627 -0.247270 0.058391 -0.184718 -0.089134 -0.191336 0.035903 -0.000960 -0.001159 -0.190643 -0.045227 -0.255376 0.029525 0.235714 0.180960 0.029127 0.226568 -0.131234 -0.468067 -0.089636 0.311401 0.125094 0.024447 0.015893 -0.169585 0.258666
down -0.059566 -0.047227 0.000101 0.093267 0.004507 0.059485 -0.060144 0.057200 0.118467 0.146138 0.022211 -0.009900 0.008515 0.065594 0.046908 0.004379 0.109768 -0.146423 -0.022307 -0.143804 0.101999 0.001221 0.134037 -0.044148 -0.053229 -0.104482 -0.034407 -0.054654 0.017569 0.003080 0.019799 0.035264 -0.049103 -0.030412 -0.075823 0.064830 0.088676 0.026615 0.098083 -0.056528 0.032658 -0.052049 0.007480 0.010069 0.046004 0.053253 0.021988 0.014603 -0.029231 0.011897 -0.099901 0.028906 -0.013595 -0.003987 -0.001301 -0.085200 -0.013159 0.024240 -0.096301 0.073910 0.058992 0.043206 -0.073794 -0.035627 0.104386 0.002710 -0.089509 0.099817 0.097934 0.133543 -0.106426 0.006330 0.071174 -0.026297 0.082596 0.117880 -0.036561 0.174387 0.018507 0.211671 0.072876 0.099831 0.093975 0.058908 0.033379 0.076993 -0.085511 -0.134136 0.097180 -0.130388 -0.015752 0.025193 0.038357 -0.033672 -0.076431 -0.070964 -0.065331 -0.013149 0.013248 -0.084955
until -0.045131 -0.067038 -0.096639 0.028258 0.041123 0.036044 -0.183843 0.003052 0.055092 0.185935 -0.014848 -0.023012 0.011317 0.010115 0.029394 0.055262 -0.011249 -0.072186 0.006005 -0.065859 0.148572 -0.091474 0.009615 -0.058497 -0.048023 -0.027648 -0.110496 -0.024264 0.076733 0.033796 -0.026194 -0.033180 -0.036147 -0.036248 -0.049660 0.019436 0.140435 0.022801 -0.052701 -0.233118 -0.062313 -0.079634 0.047315 0.017379 0.005537 0.054625 0.045792 0.076097 -0.017201 -0.028363 -0.143722 0.019946 -0.009966 -0.008582 0.071569 -0.017146 -0.088292 -0.032385 -0.019310 0.134689 -0.057840 0.019703 0.018734 -0.050943 0.088087 0.032816 -0.081178 0.031960 -0.030640 0.001289 -0.177098 -0.004360 0.176563 -0.093186 0.086719 0.068579 0.140052 0.147208 0.007188 0.143261 0.065397 0.145104 -0.132383 0.115189 0.022377 0.115091 -0.102430 -0.030531 0.089251 -0.205503 -0.070830 0.119014 0.048455 -0.030366 -0.215366 0.051172 -0.197947 0.070264 0.122672 -0.122280
red -0.066157 -0.030821 0.033337 0.142881 0.023517 -0.010136 -0.146365 0.040362 0.044856 0.293718 0.101817 -0.069518 -0.034950 0.062772 -0.053718 0.013226 0.053982 -0.181208 0.123235 0.001641 0.104182 0.050736 0.128810 -0.037581 -0.079479 -0.171032 -0.024889 -0.048194 0.042898 0.026611 0.026688 0.025042 -0.199839 -0.058578 -0.032765 -0.072642 0.028370 0.090671 0.044496 -0.124683 -0.041608 -0.054366 -0.058729 -0.074093 -0.029264 -0.026117 0.017237 -0.034937 -0.091948 -0.124421 -0.123098 -0.094275 -0.057673 -0.030095 0.034509 -0.097308 0.064620 0.050103 -0.001368 0.010488 0.008556 -0.052055 -0.049258 0.008499 0.050844 -0.070847 -0.104672 0.091555 0.047037 0.034924 -0.038617 0.059200 0.100653 -0.002074 0.041948 0.162178 -0.051040 0.128080 -0.020605 0.205609 0.006546 0.135316 0.030124 0.068603 -0.017860 0.106953 -0.120818 -0.039006 0.084267 -0.130805 0.038690 0.086477 0.022786 0.035919 -0.092598 -0.025771 -0.088677 0.057376 -0.011770 -0.194185
see -0.034779 -0.025736 -0.163135 0.047293 0.073784 0.010627 -0.168754 -0.100177 -0.083129 0.168183 0.031009 -0.092023 0.055859 0.005368 0.000480 0.060465 -0.094146 -0.011711 0.018244 0.030665 0.140253 -0.167977 -0.071364 -0.025052 0.004893 0.031825 -0.162212 0.055867 0.103660 0.003105 -0.084789 -0.057891 -0.057831 -0.077966 -0.010264 0.023124 0.171447 0.078902 -0.177989 -0.318202 -0.201344 -0.113586 0.123140 0.009188 -0.064540 0.073522 0.005453 0.043811 -0.048777 -0.051795 -0.139757 -0.056821 -0.037996 0.020971 0.166139 0.017204 -0.122448 -0.085556 0.054144 0.131472 -0.259663 0.013194 0.095144 0.028926 0.005619 0.040896 -0.074943 -0.113038 -0.116734 -0.116255 -0.193893 0.012742 0.143117 -0.056044 0.073332 -0.035149 0.282782 0.005564 -0.179227 -0.026010 0.085689 0.155553 -0.210377 0.094953 -0.068266 0.109020 -0.065858 0.033755 0.126669 -0.211449 -0.025617 0.288326 -0.072799 -0.027923 -0.252414 0.204015 -0.287799 0.124551 0.200774 -0.119173
path. -0.152099 0.044916 0.114661 0.252064 0.064057 -0.066556 -0.200493 -0.005294 -0.070596 0.450997 0.174820 -0.228184 0.060836 0.146704 -0.070838 -0.044614 0.023852 -0.438992 0.158037 -0.001299 0.268943 0.068300 0.223777 -0.037566 -0.050587 -0.315915 -0.067630 -0.056234 0.157069 0.036686 0.019038 0.085690 -0.387286 -0.214995 0.062877 -0.083486 0.223551 0.253381 0.028876 -0.282876 -0.183968 -0.124625 -0.138667 -0.061461 -0.153875 -0.029381 -0.020216 -0.180461 -0.129077 -0.248666 -0.230868 -0.233158 0.001157 0.108238 0.297236 -0.196425 0.053034 0.037708 -0.084613 0.020321 -0.236461 -0.128611 -0.032032 0.119423 -0.010659 -0.092651 -0.161492 0.054210 -0.044440 -0.051467 -0.097857 0.103672 0.056391 0.124442 0.060551 0.116670 0.070992 0.072690 -0.270156 0.197954 0.063515 0.412221 0.138067 0.041091 -0.068316 0.200963 -0.148395 -0.022532 0.305823 -0.293151 0.213281 0.259877 -0.152532 0.095114 -0.059814 0.035983 -0.307829 0.174109 -0.018433 -0.347681
two -0.037834 -0.045564 0.003691 -0.027764 -0.084174 0.065248 0.028201 0.001828 0.077425 -0.161538 -0.098101 -0.000627 0.055798 -0.049545 0.053987 -0.023447 0.031575 0.072510 -0.181586 -0.156636 0.020812 -0.110989 0.004562 -0.035083 0.002202 0.198530 0.016160 -0.009295 -0.022690 -0.033965 0.026823 0.023804 0.046883 -0.048412 -0.178584 0.251054 0.039028 -0.047407 0.127259 0.106821 0.055363 0.069411 0.142564 0.010228 0.045591 0.145233 -0.038260 -0.040656 0.013420 0.198323 0.104618 0.075052 -0.060015 -0.053760 -0.006070 -0.044254 -0.021666 0.036673 -0.051062 0.040064 0.094861 0.068735 -0.071525 0.073687 -0.026727 0.095784 -0.010577 0.005447 0.111314 0.174128 -0.082038 -0.030753 0.049179 0.050699 -0.020872 0.044278 -0.013924 0.009015 -0.052450 -0.016759 0.077623 -0.070384 0.027199 -0.117539 -0.032372 -0.149801 0.042741 -0.075808 0.057788 0.026366 0.032948 -0.027864 -0.063374 -0.046001 0.041935 0.028886 0.080398 -0.075389 0.018046 0.118762
brick -0.039538 -0.074773 0.044736 0.209076 0.080659 0.012871 0.011571 0.028573 0.016772 0.217172 0.185216 -0.113231 -0.041580 0.095057 0.026628 0.002545 0.135282 -0.256929 0.068851 -0.055995 0.080414 0.019765 0.189991 -0.025776 -0.055762 -0.158179 -0.067225 0.009730 0.010632 -0.024295 -0.018583 0.064833 -0.125248 -0.112923 -0.093324 0.016869 0.075642 0.130389 0.099388 -0.023955 -0.018894 -0.001241 0.049448 -0.034352 -0.012259 0.012309 -0.000669 -0.029498 -0.126453 -0.082023 -0.122497 -0.098609 -0.059854 0.021237 0.098312 -0.134663 0.079844 0.015948 -0.067539 0.031772 -0.053546 -0.009325 -0.072684 0.012067 0.025702 -0.047354 -0.129230 0.071008 0.162265 0.141248 -0.026294 0.028373 -0.003592 0.004105 0.067340 0.135819 -0.081409 0.152547 -0.132287 0.177920 0.109091 0.088538 0.183394 0.035935 -0.052536 0.033647 -0.074808 -0.175985 0.141307 -0.128042 0.057750 0.170933 -0.122042 -0.044011 -0.060742 -0.047934 -0.087230 -0.004235 -0.016966 -0.144778
blue-tiled -0.002537 -0.070875 0.071770 0.152666 -0.022909 0.122083 0.153566 0.013864 0.078981 -0.127370 0.029075 -0.038844 -0.000935 0.021194 0.128904 -0.038628 0.157094 -0.133668 -0.145359 -0.238797 -0.060225 -0.040677 0.165976 -0.048846 0.004946 0.032432 0.023465 0.015524 -0.084712 -0.080150 0.037132 0.077223 0.054967 -0.133615 -0.233006 0.244051 0.056980 -0.005831 0.275595 0.210775 0.203374 0.121799 0.170640 0.052102 0.087711 0.127506 -0.014297 -0.030015 -0.033382 0.191806 0.017126 0.102643 -0.112681 0.087742 0.035515 -0.149600 0.061367 0.056202 -0.141672 0.024870 0.104685 0.058164 -0.188905 0.046315 -0.009473 0.089251 -0.043419 0.090154 0.309371 0.339527 -0.021010 -0.061200 -0.111911 0.021456 0.030125 0.071087 -0.145332 0.108343 -0.055725 0.091708 0.172842 -0.150626 0.261084 -0.059198 -0.024979 -0.160605 0.026795 -0.208422 0.118866 -0.018005 0.037278 0.020508 -0.238770 -0.185528 0.140956 -0.091496 0.084532 -0.175688 -0.075705 0.123971
yellow -0.114737 -0.061655 0.058913 0.159751 0.056991 -0.019960 -0.052625 0.025346 0.035606 0.214174 0.125081 -0.133027 -0.022517 0.066714 0.005027 -0.006332 0.059311 -0.201657 0.027238 -0.088008 0.153601 -0.078230 0.169182 -0.004427 -0.077179 -0.069838 -0.022508 -0.080305 0.056372 0.041911 -0.058593 0.062463 -0.177915 -0.171670 -0.116583 0.116678 0.129073 0.137295 0.083899 -0.082831 -0.106893 0.011032 0.052090 -0.100574 -0.042090 0.064930 0.010361 -0.080557 -0.089023 -0.073247 -0.088392 -0.110956 -0.015488 -0.037956 0.089509 -0.152095 0.040239 -0.002262 -0.112913 0.025967 -0.006987 -0.003432 -0.029383 0.020778 0.020836 -0.022093 -0.157386 0.064907 0.103019 0.107928 -0.065442 0.005842 0.116258 0.042027 0.034535 0.155597 -0.104168 0.154110 -0.190050 0.166150 0.096559 0.185757 0.119211 -0.032953 -0.093957 0.031999 -0.044901 -0.132089 0.187697 -0.128818 0.095838 0.177797 -0.084709 0.021605 -0.082275 0.008558 -0.109177 0.002718 0.019321 -0.164196
face 0.054795 -0.118309 0.000182 0.055780 -0.016474 0.099580 -0.028281 0.159158 0.201716 0.163912 0.066223 0.094996 -0.068538 0.002139 -0.033606 0.096609 0.161336 -0.040357 0.045851 -0.048512 -0.021593 0.150509 0.077269 -0.000898 -0.014644 -0.126412 -0.046843 -0.041788 -0.050417 0.061031 0.096654 -0.005602 0.015171 0.169742 -0.008319 -0.148785 -0.102482 -0.066571 0.113846 0.019174 0.038402 -0.096950 -0.030680 0.024752 0.118802 -0.080463 -0.003511 0.109512 -0.002602 -0.050251 0.028954 0.063308 0.007423 -0.061725 -0.115281 0.052477 0.051999 0.070019 -0.005007 0.013205 0.147101 0.056129 -0.086240 -0.160501 0.185456 -0.059369 -0.003157 0.128782 0.106141 0.084846 0.006487 0.013154 -0.002174 -0.083657 0.120518 0.188681 -0.141701 0.147533 0.258131 0.193410 0.016075 0.009725 0.052559 0.113740 0.143419 0.104149 -0.081367 -0.134281 -0.092083 -0.011010 -0.073292 -0.090669 0.257285 0.079926 -0.044802 -0.180272 0.064357 -0.030027 0.013036 -0.100880
an -0.023967 0.010295 -0.133099 -0.013857 -0.069251 0.168389 -0.041346 -0.124120 -0.058098 -0.179770 -0.099745 -0.026553 0.123427 -0.070284 -0.049295 0.062903 -0.158776 0.201833 -0.220300 -0.064510 0.083058 -0.236378 -0.185545 0.036294 0.038841 0.283832 -0.117642 0.059636 -0.029024 -0.000168 -0.014793 -0.082217 0.061585 -0.120476 -0.150011 0.242728 0.204704 -0.004342 -0.009231 -0.118017 -0.182152 0.028995 0.202190 -0.037502 0.004039 0.241047 0.012435 0.001289 0.041631 0.194271 0.146947 0.061264 -0.087186 -0.056147 0.154131 0.072316 -0.119881 -0.083824 0.023073 0.023659 -0.200915 0.077384 0.008147 0.188164 -0.044154 0.132725 -0.027151 -0.171891 -0.044766 -0.009929 -0.279654 -0.017271 0.135001 0.089587 0.106222 -0.054559 0.175395 -0.124846 -0.248093 -0.205842 0.087812 0.013633 -0.167821 -0.125873 -0.075509 -0.099339 -0.004578 -0.018089 0.137463 -0.008857 0.157925 0.163919 -0.178749 0.027530 -0.079995 0.217014 -0.065332 0.091010 0.175241 0.033775
chair -0.057010 -0.070264 0.018836 0.107348 -0.039034 0.053809 -0.146745 0.100435 0.119694 0.255378 0.075511 -0.027663 -0.042803 -0.000222 -0.136925 0.060955 0.049227 -0.090807 0.081056 0.000813 0.052229 0.079941 0.059554 0.037577 -0.045291 -0.123143 -0.020016 -0.080361 -0.004029 0.090789 0.060579 -0.003136 -0.173961 -0.001255 -0.047486 -0.083877 -0.017244 0.040593 0.095511 -0.086144 -0.104040 -0.072604 -0.050308 -0.104270 0.006122 -0.039064 -0.010449 -0.035422 -0.048419 -0.146213 0.042924 -0.092579 -0.015221 -0.098710 -0.003128 -0.029443 0.097208 0.061961 0.019379 -0.044461 0.035180 -0.034520 -0.057068 -0.028943 0.087641 -0.065347 -0.061371 0.098455 0.059143 0.011285 -0.028812 0.052895 0.085316 0.057810 0.079627 0.237084 -0.113052 0.074295 0.058190 0.138376 -0.002505 0.142531 -0.000136 0.048306 0.022616 0.089635 -0.096077 -0.041498 0.037973 -0.039827 0.077987 0.045941 0.127459 0.164092 -0.052630 -0.037256 -0.018679 0.052717 0.010855 -0.206564
carpet -0.043300 -0.063834 -0.009747 0.030435 -0.143936 0.136002 -0.086131 0.098916 0.181891 -0.014816 -0.055688 0.084300 -0.007726 -0.059428 -0.079917 0.016477 0.085807 0.039878 -0.055475 -0.117301 -0.072099 0.081936 0.005833 0.029300 -0.014279 -0.001441 0.041592 -0.061633 -0.066560 0.011166 0.127362 -0.024824 -0.030897 0.046595 -0.123872 0.033985 -0.080279 -0.064115 0.184435 0.103293 0.074164 -0.045319 0.000716 -0.019923 0.082978 0.042293 -0.022074 -0.025553 0.011709 0.085501 0.144627 0.070792 -0.052767 -0.080117 -0.119784 -0.009630 0.058821 0.125933 0.002251 -0.039887 0.158226 0.015828 -0.136059 -0.011988 0.076773 0.010205 0.034629 0.134117 0.134346 0.139387 -0.040950 0.028375 0.021025 0.082823 0.034026 0.179555 -0.111459 0.015197 0.178442 0.076303 -0.007544 -0.039429 0.020216 0.001118 0.076911 -0.024670 -0.032268 -0.040514 -0.030215 0.068175 0.060005 -0.100741 0.110585 0.079754 0.067809 -0.045257 0.118616 -0.049112 -0.048557 0.012446
intersection. -0.039742 -0.064064 0.063053 0.060747 -0.013908 0.070929 0.047456 0.035978 0.075891 0.030276 -0.005786 -0.035596 -0.001501 0.033929 0.041437 0.011704 0.040976 -0.113310 -0.074169 -0.134375 0.080016 -0.030086 0.096830 -0.020960 -0.086949 0.010784 -0.008682 -0.029741 -0.041809 0.000057 -0.007346 0.033405 0.008970 -0.115812 -0.179757 0.162462 0.079903 -0.000546 0.163210 0.062539 0.076029 0.122228 0.046434 -0.073242 0.035276 0.101611 0.073675 0.003040 -0.025347 0.077373 -0.014756 -0.017671 -0.051570 -0.043471 0.020607 -0.107982 0.036028 -0.014492 -0.101416 0.008047 0.082349 0.014035 -0.114128 0.061383 -0.003915 0.017595 -0.137281 0.065981 0.170334 0.192865 -0.087842 -0.022591 0.087468 -0.025744 0.065530 0.123749 -0.158833 0.182706 -0.080672 0.155285 0.051542 0.008118 0.119738 -0.044105 -0.031258 -0.088703 -0.086927 -0.128988 0.069107 -0.029836 0.057463 -0.026529 -0.100815 -0.021524 -0.016502 -0.058977 0.033014 -0.043709 -0.055712 -0.034749
back -0.130868 0.045844 0.102493 -0.267576 -0.183539 0.146552 0.006412 0.168646 0.254248 -0.126094 -0.336377 0.139416 0.075782 -0.080741 -0.059763 0.021187 -0.229331 0.129079 -0.187060 -0.224141 0.213790 0.025979 -0.078630 0.035369 -0.100981 0.103864 0.174092 -0.260058 -0.030503 0.237082 -0.018640 0.005563 0.114176 -0.098299 -0.028534 0.236514 0.186647 -0.201401 0.196588 -0.029621 -0.030136 0.158838 -0.252133 -0.166950 0.065800 0.161232 0.307795 0.051816 0.274492 0.056278 0.132326 0.045573 0.295920 -0.072603 -0.133803 -0.005806 -0.128180 -0.169505 -0.225174 -0.091815 0.286301 -0.023901 -0.147515 0.004949 0.121202 0.052346 -0.189315 0.090570 -0.164433 0.025501 -0.244606 -0.092049 0.331074 -0.094779 0.132854 0.030234 -0.363117 0.210352 0.096188 0.157125 -0.147115 0.302546 0.000624 -0.101887 0.054655 -0.066066 -0.144111 0.022322 0.005769 0.034941 0.047768 -0.462519 0.187536 0.296744 0.060115 -0.077698 0.146537 0.055698 -0.095470 -0.023241
hallway. 0.032081 -0.123850 -0.073488 0.007612 0.057814 0.024530 -0.041504 0.038170 0.103636 0.112728 0.047712 0.041548 -0.007380 0.019680 0.112577 0.078256 0.139640 -0.035985 -0.035412 -0.082715 0.071688 -0.049534 0.109374 -0.102804 0.003266 0.016490 -0.108774 0.025582 0.040311 -0.034253 0.022443 0.021035 0.056479 0.102442 -0.060801 -0.004065 0.004996 -0.002949 0.015291 -0.026714 0.027719 -0.071776 0.115205 0.067931 0.067949 0.036195 -0.024808 0.117009 -0.048833 0.075533 -0.078082 0.071500 -0.053087 -0.037817 0.002722 -0.005285 -0.045428 0.046880 -0.025143 0.135321 0.066906 0.100104 -0.036079 -0.112909 0.084500 0.020304 -0.054968 0.016856 0.083569 0.100433 -0.050328 -0.013576 0.064767 -0.104415 0.046653 0.072402 0.058916 0.137670 0.060582 0.134848 0.118477 -0.006184 -0.021215 0.051890 0.069641 0.043093 -0.060183 -0.154984 -0.014416 -0.099602 -0.117469 0.068580 0.100993 -0.074468 -0.175060 -0.081068 -0.059938 -0.028192 0.093636 -0.018192
position -0.115939 0.123210 0.013300 -0.075243 0.014605 0.014587 -0.136109 -0.069336 -0.105682 0.070777 -0.114041 -0.057464 0.084387 -0.005741 -0.025683 -0.002723 -0.282951 -0.068635 0.002950 -0.022868 0.198793 -0.064093 -0.025670 -0.054674 -0.027620 0.009825 0.032255 -0.075184 0.097339 0.087187 -0.042699 -0.011642 -0.055393 -0.225368 0.058959 0.051612 0.296266 0.036061 -0.074797 -0.261031 -0.145428 0.045208 -0.129312 -0.058674 -0.104935 0.107132 0.155203 -0.038644 0.121658 -0.041940 -0.102657 -0.043819 0.113260 0.142731 0.177784 -0.060429 -0.148231 -0.167093 -0.100363 -0.014921 -0.147824 -0.116422 0.018359 0.078183 -0.071930 0.054881 -0.095999 -0.089426 -0.273132 -0.142302 -0.166894 -0.031428 0.148759 -0.043682 -0.006531 -0.147778 0.057509 0.015752 -0.134275 -0.020298 -0.007746 0.289159 -0.107909 -0.022664 -0.056899 0.020734 -0.092179 0.192867 0.147728 -0.145004 0.105468 0.030906 -0.157604 0.075553 -0.054545 0.110926 -0.177505 0.169463 -0.017794 -0.075021
alley -0.067992 -0.048849 -0.047301 -0.003028 -0.049938 0.062524 -0.071662 0.072047 0.126606 0.064300 0.006330 0.012799 -0.018051 -0.021956 -0.073505 0.035480 0.023755 0.055604 -0.035607 -0.035029 0.058900 -0.037913 -0.010428 0.071629 -0.046623 0.040132 -0.001211 -0.088487 -0.013226 0.067311 -0.025999 -0.043437 -0.054203 0.022191 -0.074276 0.061484 -0.013134 -0.001542 0.064979 -0.034658 -0.110209 -0.064831 0.020175 -0.095885 0.026329 0.045152 0.015253 0.008174 0.012568 -0.014067 0.087932 -0.022888 0.047727 -0.167841 -0.096810 0.002137 -0.021470 -0.014398 -0.016729 -0.006009 0.117080 0.066090 -0.014377 -0.038303 0.077726 -0.009568 -0.051123 0.059837 0.030193 0.035754 -0.080575 0.018535 0.152511 0.051225 0.031947 0.148602 -0.104703 0.071793 0.030597 0.076799 -0.023967 0.095934 -0.031798 -0.033363 -0.003441 0.033604 -0.013907 -0.070180 0.009388 0.039238 0.048145 -0.003597 0.156034 0.127743 -0.068146 0.027755 0.034250 0.025609 0.037476 -0.077471
way -0.003710 -0.115541 0.003547 0.074864 0.009527 0.141646 -0.067041 0.105213 0.191351 0.177129 0.043206 0.034197 -0.024568 0.033124 0.083025 0.033442 0.158267 -0.133314 -0.036932 -0.190562 0.101275 0.032161 0.176414 -0.099676 -0.061516 -0.078091 -0.064173 -0.050166 -0.004831 0.012688 0.055164 0.040335 0.029358 0.026634 -0.118158 0.061710 0.077918 -0.014060 0.148365 -0.038267 0.090682 -0.031685 0.065951 0.012105 0.121274 0.058163 0.046587 0.094294 0.009410 0.058403 -0.091592 0.079298 -0.018825 -0.028246 -0.034535 -0.055524 -0.039317 0.025696 -0.095388 0.111892 0.147587 0.102668 -0.137578 -0.075579 0.155571 0.023230 -0.101283 0.126159 0.126110 0.218981 -0.136406 -0.031293 0.123657 -0.109318 0.124939 0.172202 -0.087133 0.258267 0.113426 0.291836 0.130787 0.062623 0.108562 0.062460 0.074622 0.062237 -0.109188 -0.202937 0.062137 -0.157744 -0.078597 -0.025236 0.097809 -0.066447 -0.115883 -0.134879 -0.004802 -0.053745 0.029081 -0.078435
next -0.069369 -0.009125 -0.036872 0.188572 0.009064 0.009520 -0.144045 0.015970 0.044946 0.256328 0.092859 -0.053178 0.033676 0.097525 -0.042821 0.013388 0.132492 -0.193427 0.081788 -0.005077 0.019955 0.080561 0.071477 0.020316 0.018421 -0.242577 -0.082321 0.010056 0.078797 -0.015578 0.036453 -0.015687 -0.216372 0.031871 0.043474 -0.123313 -0.028950 0.099148 0.051587 -0.114011 -0.054016 -0.211796 -0.050077 0.013416 -0.017534 -0.047276 -0.086230 -0.067728 -0.132540 -0.099106 -0.120429 -0.087213 -0.083717 0.000311 0.059322 -0.083740 0.059683 0.120941 0.021493 0.053217 -0.086688 -0.025350 -0.008822 0.014299 0.039693 -0.059457 -0.046818 0.093784 0.103896 -0.009167 -0.027080 0.123122 -0.034602 0.099665 0.045716 0.134930 0.122395 0.042376 -0.015402 0.183730 0.020205 0.120673 0.035580 0.108235 0.048140 0.177617 -0.088030 -0.064934 0.092649 -0.112257 0.076763 0.138751 0.060116 0.031165 -0.064079 0.004519 -0.176758 0.094269 -0.002947 -0.170195
chair. -0.061302 -0.010883 -0.031507 0.077840 -0.036519 0.068329 -0.061295 0.030235 0.065531 0.093012 0.003615 -0.004633 -0.009417 0.020952 -0.042139 0.011489 0.024536 -0.064940 0.014319 -0.051481 0.004428 0.023242 0.024584 0.027677 -0.036603 -0.092518 0.009198 -0.034503 -0.002196 0.013795 0.003842 -0.030324 -0.071196 -0.038573 -0.059823 0.011851 0.006850 0.003791 0.087850 -0.033180 0.003000 -0.037996 -0.019944 -0.054180 0.031889 0.032131 0.023552 -0.005809 -0.021790 -0.016370 -0.016110 -0.017898 -0.032721 -0.016597 -0.029469 -0.056812 0.023042 0.021674 -0.035185 -0.006657 0.035356 -0.010845 -0.046833 -0.002756 0.045616 -0.009232 -0.054462 0.082707 0.081269 0.058589 -0.050300 0.032405 0.032648 0.027010 0.047040 0.095170 -0.049984 0.089091 0.030149 0.122421 -0.005723 0.043910 0.015848 0.054084 0.017063 0.039616 -0.064683 -0.027871 0.031327 -0.028188 0.036126 0.003790 0.017699 0.014206 -0.025335 -0.004622 -0.029601 0.017036 -0.029398 -0.067481
will -0.057109 0.065703 -0.081572 0.033453 0.016588 0.005058 -0.000423 -0.111847 -0.132073 -0.063628 -0.026852 -0.077735 0.043860 0.005168 -0.000712 -0.020088 -0.124441 0.017411 -0.057107 -0.001744 0.033171 -0.155828 -0.087300 0.033589 0.007352 0.063556 -0.022454 0.039463 0.040623 -0.021207 -0.108568 -0.046219 -0.014721 -0.143659 -0.019299 0.121479 0.145913 0.053734 -0.084051 -0.111735 -0.100935 0.011246 0.072740 -0.003319 -0.047340 0.093630 0.014505 -0.035739 0.004521 0.030057 -0.039331 -0.038812 -0.004594 0.047454 0.115049 -0.034274 -0.067207 -0.098317 -0.014205 0.022422 -0.188394 -0.017903 0.079278 0.086130 -0.076409 0.053698 -0.028663 -0.085886 -0.049821 -0.066335 -0.092196 -0.004654 0.018325 0.040939 -0.000455 -0.112611 0.144631 -0.056729 -0.212025 -0.107202 0.023473 0.044790 -0.066108 -0.024815 -0.084298 -0.006157 0.026946 0.055847 0.115926 -0.054970 0.063906 0.152043 -0.176495 -0.059585 -0.046789 0.171198 -0.144820 0.065332 0.062402 0.019050
pink -0.035266 -0.066481 0.028316 0.139514 0.083867 -0.017134 -0.161751 0.050593 0.037800 0.378381 0.156402 -0.094650 -0.019537 0.079223 -0.041638 0.037129 0.052598 -0.245244 0.128421 0.013308 0.190441 0.038971 0.164875 -0.048052 -0.062664 -0.190543 -0.117356 -0.047420 0.085216 0.053407 0.018646 0.038437 -0.186317 -0.051214 0.013155 -0.101825 0.103011 0.134361 -0.008150 -0.217383 -0.122389 -0.088744 -0.040483 -0.055120 -0.047358 -0.039895 0.015350 0.008299 -0.083555 -0.182815 -0.159453 -0.126469 -0.000018 -0.025382 0.124537 -0.066876 0.014010 0.010433 -0.015093 0.055173 -0.079559 -0.015535 -0.021897 -0.034138 0.078687 -0.072094 -0.121337 0.048926 -0.016019 -0.008179 -0.092662 0.046337 0.133223 -0.015675 0.087116 0.157165 0.015391 0.132974 -0.071754 0.200318 0.066251 0.255004 0.016584 0.085012 -0.003900 0.163324 -0.120202 -0.077556 0.122645 -0.204259 0.031770 0.171933 0.042678 0.067490 -0.159110 -0.027696 -0.172436 0.086462 0.056818 -0.263866
follow -0.024559 -0.049943 0.027230 0.162283 0.096953 -0.001331 -0.187457 0.037722 0.009193 0.408971 0.169109 -0.115288 -0.008163 0.088248 -0.043046 0.056138 0.043543 -0.257325 0.158028 0.047658 0.181135 0.072968 0.149460 -0.065921 -0.041892 -0.232983 -0.133255 -0.023898 0.087228 0.057243 0.036138 0.016194 -0.204022 -0.043188 0.063578 -0.164690 0.108790 0.130898 -0.034140 -0.272991 -0.128186 -0.118476 -0.048018 -0.026512 -0.063700 -0.075940 0.000630 -0.003720 -0.081218 -0.213059 -0.202339 -0.125838 -0.023583 0.024619 0.162996 -0.041827 0.019471 0.012251 0.029025 0.062374 -0.140816 -0.032429 -0.012519 -0.004519 0.068594 -0.074079 -0.106373 0.034172 -0.040938 -0.062057 -0.100153 0.078621 0.111512 -0.032526 0.113421 0.136792 0.074730 0.105735 -0.062287 0.201305 0.070244 0.246422 -0.006088 0.108132 0.005306 0.197843 -0.133417 -0.043175 0.132588 -0.237456 0.026452 0.191701 0.020809 0.042951 -0.171861 -0.017665 -0.223162 0.122520 0.068209 -0.304344
alley. -0.049455 -0.034829 -0.031353 -0.022317 -0.053601 0.051876 -0.034129 0.048311 0.095911 0.016565 -0.042039 0.043359 -0.010222 -0.021246 -0.037528 0.066072 -0.003925 0.064829 -0.046144 -0.030695 0.027664 -0.023497 -0.027183 0.054854 0.002391 0.044829 -0.001861 -0.070195 -0.016373 0.070386 0.000942 -0.037551 -0.004502 0.043777 -0.035485 0.017145 -0.005445 -0.046819 0.070969 -0.015813 -0.063641 -0.054184 -0.000953 -0.050858 0.037955 0.044911 0.034678 0.036495 0.022607 0.009745 0.103270 0.018972 0.032876 -0.091551 -0.063196 0.013451 -0.018876 -0.004055 -0.040851 -0.016250 0.084305 0.032530 -0.003017 -0.053128 0.067705 -0.002957 -0.042603 0.035124 0.023341 -0.001591 -0.040544 -0.001544 0.076080 0.003152 0.044911 0.086311 -0.089859 0.051960 0.067106 0.026115 -0.020690 0.046202 -0.044156 -0.013117 0.035076 0.006870 -0.027173 -0.043726 -0.018164 0.054225 0.034843 -0.039741 0.128193 0.108468 -0.029155 -0.017218 0.031611 0.035512 0.021062 -0.044552
so 0.000873 0.133191 0.017525 -0.254494 -0.057189 -0.096905 0.121015 -0.001482 -0.074864 -0.220967 -0.171480 0.124142 -0.034435 -0.055245 -0.051475 -0.056238 -0.201600 0.207964 0.027228 0.086250 -0.062493 0.049054 -0.186654 0.109835 -0.016048 0.024584 0.157636 -0.060304 -0.028428 0.044338 -0.089353 -0.028774 0.152957 0.015876 0.160252 -0.032086 -0.051074 -0.107988 -0.133479 0.083785 0.027462 0.106698 -0.199360 -0.068274 -0.018249 -0.059606 0.129500 0.022481 0.154773 -0.027098 0.064024 -0.014728 0.194349 0.021710 -0.168099 0.098210 -0.053977 -0.114450 -0.020062 -0.126214 0.038096 -0.081671 0.113258 -0.052009 -0.011811 -0.019177 0.064505 -0.043911 -0.218607 -0.186634 0.093867 -0.068540 -0.039613 -0.068283 -0.063930 -0.211413 -0.100122 -0.065849 0.075779 -0.146789 -0.217321 -0.021995 -0.075902 -0.000379 0.011739 -0.046104 0.034608 0.211755 -0.178255 0.160758 -0.058414 -0.263445 0.092716 0.090865 0.090491 0.001454 0.128209 0.000275 -0.112381 0.125231
then -0.042714 -0.068205 0.012680 0.154442 0.055457 0.091650 -0.106205 0.031922 0.058357 0.248966 0.093074 -0.059526 -0.011043 0.059620 -0.001187 0.078106 0.033482 -0.194721 0.037925 -0.066570 0.146836 0.002857 0.139358 -0.068770 -0.059668 -0.130852 -0.088076 -0.034452 0.026941 0.048172 0.023828 0.011629 -0.109234 -0.089832 -0.080831 -0.018408 0.152039 0.064357 0.084059 -0.159372 -0.071540 -0.017030 0.015257 -0.039499 0.009406 0.054658 0.051461 0.028889 -0.053176 -0.075781 -0.108388 -0.031162 -0.047889 0.017505 0.125281 -0.082289 -0.001344 -0.020189 -0.071912 0.042389 -0.056557 -0.003776 -0.078138 -0.000969 0.081090 -0.025402 -0.151270 0.035490 0.059663 0.069337 -0.134576 0.019851 0.111759 -0.048903 0.144786 0.140706 -0.042431 0.174090 -0.066671 0.187682 0.098610 0.163561 0.036915 0.068998 0.012153 0.082647 -0.147594 -0.113527 0.135972 -0.188644 0.046235 0.129278 -0.046177 0.018666 -0.130846 -0.046947 -0.141255 0.071234 0.048564 -0.199768
that -0.047793 0.093852 0.038827 -0.167402 -0.034998 -0.058337 0.034107 0.007841 -0.027823 -0.094104 -0.128660 0.044023 0.006035 -0.031104 -0.055683 -0.024594 -0.156157 0.083310 0.014161 0.055181 0.021505 0.039709 -0.098633 0.061143 -0.005494 0.024843 0.114168 -0.076515 0.007149 0.068221 -0.054811 -0.006003 0.026754 -0.031123 0.102329 -0.003112 0.002457 -0.055867 -0.062662 0.006869 -0.031204 0.064260 -0.166280 -0.075099 -0.057815 -0.018311 0.112975 -0.024299 0.113072 -0.052608 0.049810 -0.033571 0.154278 0.027332 -0.063510 0.038150 -0.036713 -0.090801 -0.037741 -0.092961 0.029717 -0.080158 0.045986 -0.000555 -0.038254 -0.009719 0.009606 -0.023474 -0.179156 -0.133909 0.049294 -0.033848 0.025097 -0.012177 -0.053449 -0.109258 -0.089621 -0.040402 0.021002 -0.082436 -0.131977 0.084298 -0.050449 -0.042571 -0.018126 -0.029419 0.003545 0.161032 -0.060298 0.091417 0.017396 -0.177879 0.044064 0.127420 0.074241 0.035207 0.057457 0.052693 -0.072320 0.031212
are -0.091916 0.010198 -0.087838 0.012506 0.022548 -0.021916 -0.230927 -0.066882 -0.057968 0.187626 -0.018696 -0.082717 0.033539 -0.015272 -0.044880 0.011657 -0.131817 -0.004613 0.059217 0.029271 0.120125 -0.120351 -0.050715 -0.057177 -0.051575 0.018303 -0.033866 -0.010528 0.094319 0.031931 -0.057290 -0.040751 -0.128416 -0.129429 -0.027120 0.024942 0.132377 0.069208 -0.122510 -0.264466 -0.146436 -0.039884 0.026353 -0.062281 -0.071377 0.057779 0.028137 -0.026197 -0.021158 -0.079858 -0.112629 -0.079505 -0.046630 -0.001208 0.108185 -0.038749 -0.060604 -0.048507 0.050386 0.057276 -0.136975 -0.061727 0.070012 0.058620 -0.043154 0.026676 -0.066490 -0.054205 -0.140532 -0.092412 -0.137550 0.023673 0.187813 -0.015935 -0.002193 -0.003917 0.183090 0.016038 -0.112024 0.021411 0.020867 0.152948 -0.222505 0.054154 -0.085183 0.067516 -0.073172 0.133527 0.118094 -0.173314 -0.001292 0.174000 -0.056412 -0.003629 -0.182465 0.189416 -0.205158 0.125780 0.099747 -0.116898
past -0.034664 -0.049018 0.022437 0.087227 -0.021124 0.045658 -0.055782 0.093777 0.144091 0.137019 0.045544 0.008751 -0.023641 0.049472 0.003703 -0.016184 0.145201 -0.117529 0.026767 -0.079711 0.023748 0.089361 0.124953 -0.011417 -0.040859 -0.137887 0.012585 -0.066642 0.006258 0.015838 0.039533 0.016325 -0.081317 0.047196 -0.032209 -0.019594 -0.047772 0.002442 0.125162 0.028038 0.061325 -0.081336 -0.031105 -0.006377 0.051139 -0.026937 -0.018723 0.007010 -0.034864 -0.020135 -0.056013 0.013396 -0.004284 -0.048018 -0.090125 -0.069873 0.028655 0.070416 -0.040118 0.029803 0.159921 0.048047 -0.085419 -0.059157 0.099519 -0.023647 -0.038623 0.138795 0.111393 0.122748 -0.019341 0.038330 0.024565 0.008541 0.029315 0.156595 -0.106660 0.129185 0.121279 0.214904 0.011152 0.053854 0.110277 0.052250 0.056353 0.076026 -0.033694 -0.116537 0.011526 -0.040657 -0.014106 -0.045300 0.131188 0.009340 -0.004951 -0.095304 0.016644 -0.025989 -0.042752 -0.061904
all -0.073260 -0.056671 0.030124 0.151303 0.056973 -0.067265 -0.087022 0.057848 0.094036 0.271088 0.133107 -0.075628 -0.007989 0.129504 0.059425 -0.054958 0.231914 -0.271818 0.072389 -0.102265 0.084822 0.063963 0.222133 -0.052984 -0.035416 -0.203306 -0.028572 -0.041115 0.076991 -0.033329 -0.022576 0.077518 -0.175883 -0.010935 -0.012631 -0.000974 -0.000527 0.122769 0.071847 -0.032222 0.041278 -0.132513 -0.017652 0.020286 -0.016297 -0.043757 -0.057577 -0.085432 -0.119138 -0.075646 -0.213565 -0.079127 -0.025192 -0.015114 0.005989 -0.163405 0.057485 0.089373 -0.064312 0.111970 0.057482 0.022684 -0.039461 -0.031413 0.035743 -0.040820 -0.076922 0.154488 0.154901 0.138207 0.018202 0.050805 0.022424 0.038815 -0.016953 0.143725 0.017767 0.174965 -0.013124 0.301785 0.086712 0.124460 0.183306 0.037866 -0.006718 0.148771 -0.050366 -0.142416 0.126106 -0.149495 -0.021700 0.093969 0.038461 -0.072808 -0.078412 -0.058832 -0.114566 -0.021363 -0.043110 -0.127230
easel -0.039409 0.002235 -0.022717 -0.015951 -0.029588 0.010863 -0.114702 0.070298 0.086034 0.134734 -0.012634 0.039783 -0.019075 -0.003201 -0.083909 0.035087 -0.009507 0.002835 0.073801 0.026114 0.014940 0.086119 -0.013462 0.028863 -0.026004 -0.102363 0.025157 -0.069498 0.020623 0.067728 0.016523 -0.036544 -0.080632 0.059293 0.057927 -0.109335 -0.044746 -0.014137 0.004629 -0.074634 -0.060075 -0.099287 -0.114704 -0.050988 0.004641 -0.059976 0.030451 0.013725 0.022663 -0.099824 0.000428 -0.027490 0.053649 -0.046743 -0.077692 0.023940 0.008809 0.013135 0.010379 -0.020669 0.057071 -0.026577 0.004319 -0.062760 0.070766 -0.040391 -0.010306 0.070181 -0.057662 -0.069105 -0.012234 0.031432 0.060494 0.001684 0.022827 0.083765 -0.039936 0.045580 0.128577 0.104437 -0.065733 0.106490 -0.056986 0.063809 0.058109 0.107084 -0.058029 0.039449 -0.040091 -0.008309 0.004983 -0.063739 0.180613 0.112541 -0.045910 -0.020844 -0.019779 0.063202 -0.010833 -0.099114
carpet. -0.043834 -0.061875 -0.086217 -0.008727 -0.030756 0.064079 -0.059113 0.035616 0.104894 0.047188 -0.026349 0.060550 0.018275 -0.007975 0.010788 0.041486 0.058404 0.015963 -0.066397 -0.098248 0.062504 -0.054143 0.016017 0.004786 -0.010980 0.017826 -0.068549 -0.035813 0.031724 -0.011741 0.017248 -0.020202 0.022371 0.049365 -0.067013 0.060600 0.022091 -0.006264 0.022740 -0.029029 -0.026341 -0.084494 0.060651 0.002815 0.061183 0.078982 0.006673 0.056052 -0.006342 0.087925 0.001235 0.051335 -0.015173 -0.072510 -0.050489 -0.008253 -0.068385 0.031076 -0.043100 0.068018 0.049283 0.070061 -0.020324 -0.058954 0.090088 0.030060 -0.043529 0.037280 0.049909 0.061376 -0.119240 -0.005152 0.092331 -0.014471 0.049769 0.074189 0.034796 0.084348 0.037571 0.087538 0.036551 0.060021 -0.039188 0.024878 0.048168 0.035184 -0.044371 -0.092467 -0.001136 -0.035082 -0.012033 0.029002 0.117386 0.021881 -0.118350 -0.001232 -0.046129 -0.008283 0.049990 -0.012850
wood -0.072044 -0.052324 0.062828 0.203796 0.096043 -0.039826 -0.133377 0.039911 -0.003400 0.374966 0.187390 -0.164399 -0.026144 0.091761 -0.047852 0.016232 0.056312 -0.297014 0.132396 0.019672 0.182122 0.015733 0.183533 -0.006302 -0.059913 -0.208747 -0.095701 -0.068968 0.082371 0.067224 -0.021066 0.039501 -0.254227 -0.115208 -0.007941 -0.069752 0.102268 0.170393 0.018750 -0.205031 -0.150655 -0.079583 -0.027124 -0.075107 -0.090088 -0.043490 -0.002449 -0.047113 -0.126286 -0.216635 -0.154626 -0.168904 -0.014235 -0.023342 0.149176 -0.113819 0.059501 0.014339 -0.042567 0.026324 -0.096688 -0.043512 -0.013068 -0.009161 0.038878 -0.078579 -0.145777 0.065437 0.038481 0.000689 -0.051750 0.055228 0.101295 0.037428 0.057288 0.183738 -0.024656 0.112865 -0.151817 0.182437 0.068849 0.273628 0.070183 0.053556 -0.050956 0.137127 -0.087362 -0.100549 0.169803 -0.177204 0.095811 0.230257 -0.025156 0.078239 -0.106669 -0.009128 -0.188798 0.080622 0.030856 -0.277295
floored -0.106027 -0.022779 0.004875 0.068285 -0.008635 0.053641 -0.117864 0.033988 0.081202 0.153635 0.000661 -0.029619 0.024144 0.036509 -0.012160 0.017750 0.005856 -0.121444 -0.021693 -0.100218 0.133517 -0.022806 0.087702 -0.024575 -0.045326 -0.062067 -0.008571 -0.096285 0.047575 0.054446 0.007323 0.011576 -0.121148 -0.088708 -0.064094 0.058028 0.127842 0.043848 0.092823 -0.120106 -0.072486 -0.051653 -0.028222 -0.045834 -0.006016 0.085967 0.051359 -0.029077 -0.002875 -0.022640 -0.048012 -0.015637 0.012507 -0.012941 0.056039 -0.097983 -0.022639 -0.004979 -0.096882 0.032460 0.025302 -0.014811 -0.059119 0.000744 0.052553 0.012752 -0.105399 0.056771 0.015310 0.050595 -0.117421 0.018400 0.117440 0.006511 0.054431 0.108349 -0.054654 0.121483 -0.032195 0.154920 0.046312 0.181617 0.013745 0.010867 -0.000901 0.059248 -0.089984 -0.047329 0.124574 -0.110068 0.067682 0.047338 0.009275 0.061916 -0.069219 -0.000082 -0.086691 0.057016 0.003467 -0.118094
it -0.038579 -0.032280 0.040636 0.116729 0.045100 0.007340 -0.047898 0.044750 0.022735 0.197308 0.120821 -0.091737 -0.033563 0.039732 -0.060836 0.064340 0.043823 -0.116992 0.079552 0.037829 0.071818 0.029511 0.085174 0.025098 -0.001029 -0.088694 -0.028036 -0.052378 0.011459 0.087810 0.001963 0.018234 -0.162540 -0.045274 -0.001771 -0.062472 0.029579 0.082822 0.038326 -0.099732 -0.135065 -0.057752 -0.000084 -0.081319 -0.044519 -0.032524 -0.004654 -0.041295 -0.057509 -0.152766 -0.002746 -0.093311 0.012272 -0.021941 0.062429 -0.023732 0.062525 -0.001149 -0.016187 -0.019210 -0.042399 -0.018304 -0.004895 0.000409 0.029012 -0.062564 -0.065317 0.020996 0.018647 -0.033116 0.017739 0.022915 0.030769 0.024134 0.054192 0.120281 -0.087585 0.037886 -0.067405 0.053571 0.034033 0.128438 0.052763 0.003400 -0.037707 0.066557 -0.040775 -0.060789 0.089106 -0.055475 0.075344 0.115641 0.017748 0.107748 -0.043492 -0.010329 -0.063872 0.059610 0.037039 -0.186203
segments 0.032043 -0.113028 -0.006794 0.050325 -0.095964 0.148286 0.057071 0.032462 0.147474 -0.164522 -0.073858 0.053586 0.033478 -0.042039 0.095708 -0.011214 0.145373 0.020852 -0.182705 -0.210153 -0.064039 -0.043301 0.066263 -0.067007 -0.008603 0.120006 -0.017414 0.043024 -0.085007 -0.091100 0.110510 0.025167 0.120274 0.012066 -0.241491 0.207392 -0.031548 -0.086965 0.221824 0.205514 0.200682 0.077239 0.173036 0.074746 0.140773 0.132372 -0.050227 0.028214 -0.015277 0.255635 0.101023 0.158899 -0.155050 -0.031890 -0.039247 -0.050979 0.039219 0.119719 -0.051971 0.054784 0.151204 0.093761 -0.174098 0.033333 0.032586 0.098866 0.009453 0.079586 0.258103 0.316333 -0.078056 -0.032164 -0.029053 0.009277 0.044302 0.104076 -0.051067 0.064214 0.066058 0.066279 0.115353 -0.207259 0.101187 -0.045568 0.055382 -0.156381 -0.003447 -0.173600 -0.000824 0.016120 -0.027059 -0.056789 -0.069670 -0.133652 0.067214 -0.081636 0.134909 -0.160554 -0.008015 0.148431
lamp. -0.019645 -0.060875 0.010189 0.093583 0.031296 -0.005414 -0.060222 0.070217 0.085218 0.203682 0.104023 -0.016139 -0.062639 0.044743 -0.034845 0.032690 0.113326 -0.108349 0.098607 0.020253 0.016446 0.073938 0.091878 0.014380 -0.042967 -0.144919 -0.015606 -0.037487 0.009546 0.020279 0.015970 0.008713 -0.105344 0.042678 -0.010503 -0.105646 -0.072439 0.046697 0.044729 -0.018927 -0.021612 -0.068671 -0.035308 -0.048739 0.014755 -0.066868 -0.009075 0.010027 -0.076813 -0.113979 -0.047148 -0.067541 -0.018618 -0.059847 -0.041521 -0.036030 0.071831 0.052347 0.010869 -0.002508 0.061641 -0.010406 -0.026044 -0.067914 0.073391 -0.078839 -0.053292 0.092920 0.089234 0.033344 0.035765 0.053595 0.021230 -0.002739 0.038169 0.158840 -0.086562 0.110258 0.061517 0.159719 -0.009410 0.050183 0.046726 0.073132 0.032277 0.089082 -0.062475 -0.080948 -0.012605 -0.032205 -0.002976 0.033681 0.115149 0.050654 -0.060071 -0.070731 -0.016693 0.011260 -0.009048 -0.132137
three 0.102577 -0.066225 -0.164290 -0.118633 -0.022090 0.076024 -0.071553 -0.015179 0.089789 -0.070608 -0.090316 0.173232 0.052706 -0.044333 0.067302 0.097590 0.073109 0.196701 -0.081939 -0.025750 -0.061187 -0.012605 -0.107773 -0.083503 0.073929 0.106447 -0.124023 0.103429 0.011794 -0.078302 0.097142 -0.067750 0.179669 0.257428 0.017905 -0.089052 -0.096218 -0.117286 -0.084637 -0.006167 0.067383 -0.141807 0.096554 0.144757 0.109720 0.024907 -0.071688 0.148475 0.015500 0.173118 0.009555 0.189460 -0.101082 -0.048732 -0.061441 0.140979 -0.099538 0.082770 0.115757 0.136999 0.021734 0.114070 0.020819 -0.075802 0.068353 0.056616 0.108238 -0.051630 -0.004606 -0.017531 -0.066043 0.013016 0.009805 -0.083472 0.035741 -0.041518 0.252788 -0.035725 0.209949 -0.001506 0.043248 -0.163567 -0.204107 0.074756 0.150573 0.048789 -0.032340 -0.020504 -0.144572 0.004478 -0.162473 -0.029738 0.193718 -0.076675 -0.157479 -0.018713 -0.010543 0.008530 0.117909 0.108744
twice. 0.172199 -0.145306 -0.247241 -0.195467 -0.018917 0.065897 -0.088971 0.031989 0.154398 -0.061791 -0.093284 0.279785 0.017358 -0.090900 0.071615 0.177681 0.139147 0.324169 -0.092217 0.023683 -0.105475 -0.012072 -0.158692 -0.072088 0.115639 0.162751 -0.196452 0.123600 0.014274 -0.068335 0.132736 -0.096391 0.262729 0.470558 0.043661 -0.186617 -0.215715 -0.177502 -0.163225 0.016609 0.047072 -0.226815 0.136413 0.186198 0.166642 -0.019073 -0.122183 0.257757 0.003819 0.201717 0.088009 0.254193 -0.102442 -0.154826 -0.162066 0.251707 -0.114742 0.134176 0.170053 0.172622 0.076205 0.181317 0.075168 -0.205769 0.152493 0.047351 0.153742 -0.081946 -0.007023 -0.070419 -0.029193 0.003936 0.027931 -0.133460 0.053635 0.001988 0.306310 -0.044398 0.362761 -0.033914 0.040088 -0.226457 -0.318723 0.121537 0.243053 0.071882 -0.023755 -0.065806 -0.277895 0.064562 -0.255524 -0.045678 0.426042 -0.029600 -0.245837 -0.083876 0.031194 -0.014423 0.204448 0.131479
coat -0.056108 -0.071827 0.049723 0.174786 0.090354 -0.019675 -0.103437 0.040463 0.004723 0.341241 0.207608 -0.141278 -0.068798 0.077282 -0.047208 0.011363 0.042241 -0.235732 0.145164 0.027744 0.164795 0.013975 0.169108 -0.004549 -0.122850 -0.178559 -0.061792 -0.058302 0.048345 0.042418 -0.042472 0.033593 -0.196421 -0.126405 -0.059840 -0.030678 0.076919 0.153762 0.018023 -0.152514 -0.122690 0.014870 -0.002647 -0.113837 -0.060263 -0.038702 0.032747 -0.020753 -0.104371 -0.205729 -0.147460 -0.174343 -0.008633 -0.067469 0.085780 -0.098520 0.063926 -0.022544 -0.028694 0.007650 -0.044826 -0.023366 -0.028792 -0.013888 0.048965 -0.090541 -0.159135 0.065287 0.045050 0.048863 -0.071392 0.049899 0.141814 0.003320 0.073985 0.195246 -0.097301 0.156672 -0.140815 0.203850 0.041649 0.210276 0.068019 0.056868 -0.068318 0.093850 -0.081612 -0.097575 0.128451 -0.161911 0.060876 0.184491 -0.033961 0.040150 -0.127204 -0.008718 -0.125688 0.042787 0.041229 -0.254241
from -0.085975 -0.032522 -0.045872 0.072786 0.025744 0.000659 -0.103446 0.024991 0.072916 0.173089 0.030429 -0.036334 0.013205 0.060113 0.041485 0.000633 0.083165 -0.124636 0.013252 -0.083632 0.080483 -0.038886 0.089628 -0.031949 -0.037820 -0.097019 -0.020951 -0.042511 0.076307 -0.002635 -0.044377 0.014026 -0.120909 -0.021416 -0.034418 0.036722 0.040331 0.049505 0.046106 -0.094449 -0.039131 -0.104809 0.008201 -0.016515 -0.005460 0.033732 0.006837 -0.011660 -0.068363 -0.014865 -0.124267 -0.029397 -0.016638 -0.038233 0.000570 -0.117600 -0.019175 0.019643 -0.066424 0.085949 0.052594 0.015373 -0.023669 -0.035631 0.042526 0.000409 -0.097109 0.066770 0.064757 0.051090 -0.059644 0.050001 0.094308 -0.001487 0.004660 0.099713 0.015785 0.141588 -0.026888 0.201726 0.038826 0.124402 0.023750 0.042247 0.001463 0.097710 -0.063513 -0.092703 0.089005 -0.100648 -0.001444 0.073449 0.061336 -0.022417 -0.116700 0.011445 -0.124760 0.035324 0.020814 -0.089439
black -0.088239 -0.055437 0.013245 0.149928 0.098442 -0.003622 -0.136404 0.026340 0.012626 0.342972 0.139119 -0.131491 -0.019624 0.092365 -0.014649 0.031481 0.019324 -0.228455 0.101680 -0.021192 0.207513 -0.030019 0.153161 -0.039722 -0.096429 -0.166268 -0.074349 -0.060912 0.086964 0.058469 -0.063628 0.033109 -0.186512 -0.139303 -0.040543 -0.011469 0.163304 0.137138 0.000390 -0.233916 -0.141859 -0.038119 -0.015149 -0.093518 -0.059163 0.012553 0.057162 -0.014707 -0.080472 -0.170692 -0.184453 -0.141349 0.000321 -0.017574 0.121123 -0.104294 -0.003376 -0.058820 -0.052735 0.051612 -0.080080 -0.020645 -0.011788 0.001483 0.058117 -0.054504 -0.179006 0.038798 -0.008809 0.013286 -0.123708 0.034394 0.177873 -0.033087 0.091995 0.137115 -0.018246 0.187140 -0.148808 0.222744 0.071252 0.263992 0.022002 0.071497 -0.058070 0.134751 -0.130548 -0.089382 0.164600 -0.220740 0.043053 0.185411 -0.031624 0.029499 -0.191079 0.025631 -0.195698 0.096340 0.057118 -0.252261
floor -0.060298 -0.012486 0.009533 -0.016213 -0.053377 0.024364 -0.056351 0.018347 0.046098 0.007383 -0.043390 -0.022460 0.016123 -0.025558 -0.037032 -0.012826 -0.032249 0.023365 -0.040972 -0.055519 0.042048 -0.043940 -0.004459 0.012107 -0.025651 0.048904 0.028854 -0.050550 -0.006247 0.039370 -0.001717 -0.001911 -0.044030 -0.073505 -0.077718 0.106682 0.039987 -0.004903 0.049163 -0.019806 -0.033198 0.016300 0.019408 -0.053170 0.000117 0.063532 0.025414 -0.042434 0.014874 0.011502 0.036830 -0.023601 0.007171 -0.044566 -0.005836 -0.030997 0.001335 -0.002073 -0.022506 -0.004021 0.039914 -0.013395 -0.030123 0.029512 -0.000449 0.035054 -0.031003 0.026172 0.010678 0.037333 -0.061013 -0.008663 0.088674 0.029677 0.002117 0.060714 -0.040467 0.016518 -0.032724 0.020444 0.004933 0.049073 -0.034674 -0.037031 -0.032998 -0.030944 -0.014190 0.013026 0.049861 -0.005910 0.032601 -0.006042 -0.005630 0.046458 -0.000042 0.049970 0.015932 -0.007845 0.004145 -0.019744
green -0.030434 -0.052627 0.028137 0.060671 0.027713 -0.020292 -0.072978 0.051161 0.062985 0.196682 0.079120 -0.042301 -0.014523 0.038214 -0.002959 0.001026 0.063363 -0.121264 0.046777 -0.034123 0.100725 0.008252 0.106618 -0.010411 -0.047115 -0.099329 -0.044295 -0.059449 0.051543 0.033574 0.002459 0.036158 -0.096036 -0.005258 -0.003369 -0.019178 0.026866 0.056786 0.016466 -0.080676 -0.048330 -0.054139 -0.014953 -0.029969 -0.012419 -0.016649 0.002336 0.004676 -0.047955 -0.081416 -0.073341 -0.059065 0.011328 -0.046683 0.019849 -0.054089 0.006031 0.026045 -0.032239 0.041134 0.029078 0.006360 -0.021455 -0.050423 0.059797 -0.032000 -0.079032 0.057464 0.029847 0.033024 -0.033633 0.015044 0.089001 -0.009930 0.027772 0.115742 -0.029150 0.102186 -0.019083 0.138970 0.031613 0.134643 0.034705 0.038325 0.008321 0.079403 -0.043555 -0.074559 0.052592 -0.089206 -0.003982 0.058582 0.072894 0.040878 -0.076076 -0.041459 -0.060599 0.010104 0.019284 -0.125143
along -0.034517 -0.031749 -0.068900 0.007099 -0.090724 0.069947 -0.069245 0.103610 0.189277 0.054359 -0.040246 0.117004 -0.009692 0.009304 -0.025173 0.024408 0.142544 0.009954 -0.011499 -0.069283 -0.071016 0.108194 0.001647 0.050328 0.009431 -0.111711 0.013510 -0.049164 -0.000080 0.001219 0.053117 -0.055878 -0.032636 0.179645 0.018601 -0.086521 -0.160856 -0.071729 0.105232 0.056578 0.054427 -0.174126 -0.068184 0.018070 0.092856 -0.035559 -0.029084 0.032450 -0.013971 0.027793 0.029827 0.060473 0.001399 -0.084026 -0.181092 0.003447 0.012345 0.110850 -0.001093 0.028613 0.188740 0.056722 -0.047859 -0.104629 0.122428 -0.023127 0.029477 0.152770 0.108888 0.043867 0.007161 0.060949 -0.002386 0.033282 0.017145 0.140191 -0.045798 0.068749 0.246142 0.179517 -0.058589 -0.021414 0.018751 0.076728 0.134748 0.107613 -0.033895 -0.071595 -0.091007 0.062830 -0.028937 -0.128324 0.272716 0.053835 -0.005914 -0.084181 0.036571 -0.004532 -0.042725 -0.014923
'T' -0.066148 -0.018293 0.024891 -0.081354 -0.021569 -0.031297 0.117282 0.021005 0.061329 -0.155510 -0.115047 0.007364 0.008345 -0.003339 0.111560 -0.052065 0.021112 0.005782 -0.123553 -0.149370 0.019940 -0.090179 0.041438 -0.007087 -0.018725 0.106054 0.104575 -0.070428 0.002237 0.005262 -0.082139 0.054339 0.073393 -0.067947 -0.101051 0.230397 0.038254 -0.054433 0.092724 0.137111 0.111992 0.092235 0.029338 -0.011239 0.026166 0.092563 0.058523 -0.016493 0.041787 0.112526 0.012228 0.042314 0.068212 -0.004660 -0.082855 -0.103025 -0.031557 -0.039625 -0.140386 0.031139 0.181981 0.020226 -0.042267 -0.024030 -0.038897 0.073670 -0.060498 0.054250 0.084020 0.145493 0.027648 -0.075631 0.040083 -0.030685 -0.070039 -0.038321 -0.150115 0.112015 -0.019598 0.054705 0.004353 -0.016833 0.100009 -0.079579 -0.048265 -0.129334 0.049845 -0.067052 0.022494 0.046596 -0.039536 -0.129216 -0.029206 -0.039089 0.062863 -0.034745 0.083418 -0.098791 -0.080511 0.147459
into -0.006333 -0.011034 0.003962 0.068286 0.049814 0.016216 0.051077 -0.010934 0.014073 0.016122 0.015124 0.004297 0.002457 0.064632 0.111427 0.022478 0.082365 -0.115406 -0.019304 -0.065974 0.005330 0.004200 0.092468 -0.064967 -0.004826 -0.082486 -0.016967 0.020365 0.017035 -0.042972 -0.000306 0.025460 0.013121 -0.002658 -0.020614 -0.006717 0.029953 -0.004175 0.062649 0.029718 0.097431 0.002765 0.008302 0.046023 0.035571 0.030593 0.014692 0.033135 -0.036781 0.043259 -0.103268 0.052316 -0.056083 0.065205 0.024725 -0.078108 -0.008828 0.008997 -0.079927 0.062269 0.034369 0.020461 -0.042285 -0.026193 0.007105 -0.002742 -0.056993 0.021546 0.098782 0.074512 0.006146 0.019238 -0.042688 -0.061609 0.030675 0.002301 -0.028296 0.108374 0.004629 0.118417 0.050836 -0.032685 0.097562 0.049402 0.036056 0.008962 -0.043059 -0.100202 0.020871 -0.058404 -0.034906 0.000981 -0.046157 -0.097384 -0.028058 -0.085837 -0.051138 -0.010998 -0.028766 0.014916
rack. -0.005039 -0.115858 -0.005571 0.180171 0.120147 0.054491 -0.029623 0.013667 0.024685 0.270047 0.177455 -0.092340 -0.050870 0.078712 0.061105 0.076378 0.101741 -0.189916 0.058079 -0.044869 0.143837 -0.036116 0.181621 -0.075029 -0.088294 -0.105378 -0.120306 0.018238 0.028109 -0.017997 -0.024254 0.034531 -0.057984 -0.090004 -0.115045 -0.000602 0.122355 0.110319 0.042874 -0.119707 -0.051396 0.015743 0.104630 -0.035974 0.024314 0.033982 0.036774 0.072272 -0.096760 -0.065025 -0.157420 -0.054972 -0.084996 -0.008152 0.108659 -0.077764 0.004447 -0.025831 -0.047920 0.078853 -0.064778 0.043556 -0.049744 -0.039270 0.084510 -0.043333 -0.157477 0.026092 0.114161 0.133580 -0.110805 0.006933 0.100384 -0.099689 0.126871 0.140856 -0.032181 0.225491 -0.124834 0.209915 0.140474 0.088704 0.070563 0.091945 -0.021649 0.058430 -0.115256 -0.185077 0.115259 -0.203149 -0.020674 0.211906 -0.074121 -0.074863 -0.206852 -0.054327 -0.139933 0.022274 0.079610 -0.169669
segment. 0.141308 0.023802 -0.010836 -0.082965 -0.050717 0.145165 0.193234 -0.091672 -0.041219 -0.418389 -0.148643 0.105612 0.078458 -0.054101 0.142350 0.017744 0.005166 0.164383 -0.206228 -0.074587 -0.172412 -0.022557 -0.079646 -0.095210 0.098710 0.226545 0.004574 0.167899 -0.128378 -0.136912 0.100660 -0.016927 0.311177 0.055877 -0.077268 0.100550 -0.021108 -0.165106 0.088681 0.228939 0.262782 0.141904 0.153038 0.160403 0.101647 0.110463 -0.015079 0.077926 0.087637 0.338327 0.115525 0.253570 -0.135252 0.123568 0.019461 0.082075 -0.056557 0.001742 0.020648 0.014671 0.023230 0.085876 -0.104562 0.121829 -0.111782 0.122054 0.128036 -0.113656 0.091368 0.132741 0.006704 -0.055480 -0.170555 -0.055665 -0.000314 -0.181111 0.066340 -0.124440 0.072329 -0.182049 0.080423 -0.368769 0.035508 -0.096893 0.053017 -0.221403 0.066097 -0.001325 -0.079419 0.134879 -0.041128 -0.141858 -0.208867 -0.205766 0.154735 -0.058918 0.164960 -0.084326 -0.033470 0.303047
side -0.052105 -0.018281 -0.029313 0.022188 -0.042612 0.030508 -0.068618 0.036076 0.073643 0.066468 -0.009531 0.019436 0.001433 0.007342 -0.039085 -0.000849 0.038318 -0.006631 -0.003284 -0.038047 0.007491 0.022380 0.009831 0.022149 -0.026942 -0.042802 0.008145 -0.045973 0.010019 0.010831 0.009383 -0.021106 -0.063986 0.024535 -0.021057 0.006017 -0.024219 0.000622 0.051403 -0.014083 -0.018427 -0.066138 -0.023071 -0.034619 0.019549 0.014164 -0.006864 -0.015213 -0.008235 -0.011690 0.005042 -0.007763 0.000007 -0.063633 -0.051981 -0.023460 0.009441 0.030556 -0.006240 0.004407 0.061331 0.006384 -0.023615 -0.024035 0.040142 -0.002909 -0.021550 0.064188 0.035876 0.025340 -0.031518 0.027729 0.048345 0.041723 0.006655 0.083624 -0.022554 0.039877 0.048013 0.084866 -0.014871 0.051689 -0.003978 0.010637 0.024119 0.044314 -0.022453 -0.024855 0.011821 0.001328 0.020548 -0.017297 0.085722 0.049772 -0.024414 0.004627 -0.002521 0.019229 -0.012487 -0.042216
reach -0.042291 -0.042374 -0.081360 0.048490 0.113396 -0.018421 -0.098691 -0.043420 -0.051761 0.196643 0.066058 -0.095862 0.002018 0.044250 0.083131 0.016721 -0.011523 -0.090113 0.054481 -0.027569 0.151405 -0.120952 0.067189 -0.095788 -0.053305 -0.021728 -0.080227 0.019777 0.098222 -0.008091 -0.109047 0.028133 -0.041629 -0.119966 -0.035022 0.057450 0.177777 0.086408 -0.124087 -0.227526 -0.086393 -0.030851 0.099877 0.001921 -0.031030 0.053721 0.043843 0.043661 -0.038288 -0.048283 -0.225165 -0.040181 -0.011106 0.042086 0.096871 -0.046482 -0.098537 -0.090756 -0.021654 0.133082 -0.122796 0.029718 0.059715 -0.013893 0.015690 0.019284 -0.101844 -0.040296 -0.077116 0.006817 -0.142713 -0.033001 0.146445 -0.124956 0.046734 -0.033736 0.146197 0.153216 -0.140773 0.118609 0.105670 0.135683 -0.061933 0.076684 -0.071604 0.091787 -0.073317 -0.030609 0.128745 -0.253024 -0.093477 0.200340 -0.075689 -0.118842 -0.243810 0.096804 -0.221922 0.047001 0.128921 -0.098377
corner -0.036718 -0.027009 0.016739 0.036308 -0.010844 0.020387 -0.060250 0.040709 0.038612 0.082572 0.009811 -0.025752 -0.012446 -0.011160 -0.027123 0.013965 -0.010081 -0.031996 0.013392 -0.023365 0.045725 -0.000615 0.044501 -0.004278 -0.025592 -0.012959 0.006145 -0.049634 0.001007 0.037119 0.023746 0.004857 -0.054060 -0.033194 -0.031729 0.012352 0.033828 0.009496 0.042439 -0.046616 -0.028515 -0.001568 0.003614 -0.023945 0.006419 0.011740 0.010956 0.000034 0.002287 -0.030710 0.006945 -0.010190 0.002777 -0.006676 0.016384 -0.027280 0.012075 0.013557 -0.028016 -0.012822 0.026936 -0.016258 -0.030092 -0.011484 0.029468 0.002665 -0.033321 0.031684 -0.001771 0.023674 -0.031536 -0.006138 0.049596 -0.007696 0.017325 0.064816 -0.046169 0.037480 0.009964 0.045196 0.018972 0.066703 -0.007303 0.000197 -0.003836 0.006468 -0.030050 0.000539 0.040899 -0.043023 0.017641 0.024850 0.009870 0.042302 -0.009599 -0.005196 -0.011704 0.006189 0.003184 -0.055002
hall, -0.121745 -0.042203 0.057028 0.089021 0.029875 -0.024087 0.018382 0.027288 0.037210 0.104889 0.043239 -0.097080 -0.010056 0.062179 0.059716 -0.028557 0.028132 -0.173487 -0.032076 -0.130604 0.132637 -0.097760 0.153102 -0.006400 -0.079056 -0.048293 0.043719 -0.096005 0.036356 0.034944 -0.102460 0.063228 -0.092727 -0.190114 -0.120341 0.181054 0.142588 0.079018 0.121698 -0.026558 -0.020735 0.062321 0.021370 -0.086187 -0.017311 0.094714 0.072227 -0.054025 -0.040069 -0.017642 -0.086893 -0.080937 0.029945 -0.001917 0.032952 -0.179941 0.015851 -0.049929 -0.167598 0.017453 0.064763 -0.010743 -0.053893 0.001734 0.004166 0.005462 -0.174701 0.076651 0.105643 0.138101 -0.050956 -0.020261 0.100230 -0.005053 0.002093 0.086873 -0.155400 0.195022 -0.153556 0.170254 0.059009 0.147518 0.138071 -0.035336 -0.087423 -0.019679 -0.036993 -0.121453 0.143504 -0.097976 0.051802 0.060464 -0.095177 -0.014953 -0.038112 -0.002543 -0.062685 -0.033304 -0.042581 -0.071409
pink-flowered -0.085821 -0.006056 0.076031 0.079528 -0.093248 0.088005 0.034704 0.038286 0.077316 -0.086006 -0.031351 -0.038288 0.019732 -0.004648 0.009970 -0.087531 0.022375 -0.100181 -0.101247 -0.187607 0.007968 -0.017410 0.097567 0.015224 -0.078186 0.000313 0.093728 -0.073332 -0.051959 -0.020718 0.005938 0.038326 -0.033803 -0.179608 -0.171894 0.230679 0.072770 -0.001324 0.228405 0.121365 0.111162 0.120749 0.026718 -0.051173 0.034303 0.115095 0.042703 -0.083335 0.009406 0.102227 0.031849 0.016488 -0.022541 0.006000 -0.019646 -0.150314 0.034447 0.016823 -0.114739 -0.043285 0.129257 0.001371 -0.157154 0.091304 -0.010244 0.049468 -0.072821 0.128315 0.156563 0.234409 -0.078552 -0.011153 0.030247 0.084758 -0.000014 0.093161 -0.170393 0.091182 -0.051493 0.105942 0.041085 0.004027 0.169900 -0.072739 -0.047157 -0.114674 0.011906 -0.075584 0.114192 -0.007065 0.103036 -0.059994 -0.151040 -0.053573 0.142808 -0.015402 0.082257 -0.098636 -0.105401 0.046757
containing -0.063258 0.035847 0.030146 0.111930 -0.038452 0.013113 0.054908 -0.005475 0.029407 -0.053098 0.019069 -0.049680 0.032785 0.064368 0.041615 -0.121058 0.122640 -0.127825 -0.042358 -0.115559 -0.045365 0.008464 0.093303 0.030161 -0.011358 -0.072330 0.067355 -0.005271 0.000956 -0.064330 -0.029831 0.037923 -0.071378 -0.080283 -0.070373 0.141192 -0.019966 0.043239 0.130168 0.129136 0.103782 -0.009917 0.017602 0.021733 0.002430 0.026707 -0.057934 -0.109715 -0.053688 0.070144 -0.047236 -0.009908 -0.029960 0.027448 -0.040553 -0.142712 0.038732 0.056875 -0.076555 0.005279 0.081315 0.026107 -0.081949 0.058827 -0.021588 0.025110 -0.006839 0.099391 0.155152 0.170039 0.012812 0.027240 -0.080370 0.119604 -0.056321 0.037944 -0.054620 0.028498 -0.057608 0.101138 0.023561 -0.013197 0.204992 -0.044834 -0.037437 -0.018951 0.059309 -0.096555 0.094776 0.010786 0.058394 -0.005828 -0.096094 -0.086938 0.122956 0.003651 0.029069 -0.077691 -0.098547 0.076344
2. -0.057191 0.054323 0.015804 -0.095534 -0.009030 0.053805 -0.074600 -0.023534 -0.032891 0.007978 -0.111656 -0.010623 0.057846 -0.026131 -0.007326 0.020268 -0.208765 0.008347 -0.053340 -0.046478 0.161541 -0.064664 -0.036806 -0.048883 -0.036241 0.074880 0.007052 -0.062236 0.037477 0.080258 -0.020762 -0.008771 0.034150 -0.146811 0.009599 0.079451 0.220471 -0.026435 -0.026183 -0.166185 -0.083138 0.073994 -0.060787 -0.046703 -0.036281 0.110294 0.136105 0.028527 0.124958 0.022251 -0.026097 0.005399 0.084197 0.066932 0.097928 0.001523 -0.126279 -0.132279 -0.075033 -0.007915 -0.057631 -0.033526 -0.010909 0.051017 -0.027289 0.055141 -0.083643 -0.060327 -0.182137 -0.062386 -0.170598 -0.045836 0.157642 -0.071338 0.043265 -0.085040 0.001408 0.047768 -0.069709 -0.006385 0.007258 0.177146 -0.100747 -0.037776 -0.024225 -0.023397 -0.074777 0.109595 0.083758 -0.092943 0.043793 -0.032265 -0.082615 0.061079 -0.056247 0.052074 -0.076899 0.094096 0.014672 -0.036301
5. -0.045719 0.103095 0.070384 -0.071537 -0.033885 0.034364 -0.016408 -0.052683 -0.097172 -0.077727 -0.118715 -0.042700 0.073182 -0.022376 -0.027620 -0.035209 -0.231722 -0.015681 -0.066517 -0.029462 0.114542 -0.039764 -0.042837 -0.022560 -0.020595 0.078466 0.049570 -0.043283 0.001346 0.044350 0.004512 0.006221 0.025002 -0.190127 0.021548 0.103912 0.212238 -0.008594 0.003287 -0.100466 -0.043225 0.121197 -0.071594 -0.024507 -0.064050 0.093651 0.110173 -0.046845 0.133738 0.032148 -0.001942 -0.009842 0.076675 0.123837 0.146154 -0.017214 -0.080205 -0.110309 -0.070896 -0.051564 -0.105434 -0.069122 -0.025310 0.123195 -0.092911 0.063161 -0.037265 -0.064724 -0.171957 -0.050422 -0.122271 -0.044797 0.061230 0.006627 -0.007058 -0.135102 0.004455 -0.049530 -0.115244 -0.092779 -0.010139 0.127845 -0.040175 -0.080775 -0.058710 -0.077382 -0.022506 0.152588 0.102445 -0.047356 0.104804 -0.047294 -0.208025 0.030441 0.079702 0.066875 -0.038967 0.061796 -0.043382 0.006664
1. -0.042405 0.071178 0.012225 -0.099399 -0.042334 0.065282 -0.053965 -0.057462 -0.058490 -0.069124 -0.147564 0.001455 0.086680 -0.030799 -0.002403 0.009468 -0.221528 0.029361 -0.085394 -0.056449 0.119321 -0.061115 -0.064943 -0.053872 -0.008567 0.098115 0.011112 -0.027739 0.014963 0.047914 0.011310 -0.021125 0.062590 -0.149692 0.002150 0.096381 0.215830 -0.041511 -0.004713 -0.136042 -0.033268 0.083436 -0.049458 -0.011387 -0.033981 0.121989 0.124089 0.008097 0.133466 0.066550 -0.003090 0.030824 0.046419 0.103352 0.126517 0.005401 -0.110648 -0.111122 -0.062009 -0.013232 -0.093568 -0.049343 -0.026039 0.107795 -0.061428 0.081943 -0.040411 -0.083627 -0.172285 -0.056531 -0.171480 -0.046065 0.094878 -0.041700 0.028997 -0.133578 0.051679 -0.018616 -0.078440 -0.065272 0.008837 0.115922 -0.096622 -0.056597 -0.026561 -0.056802 -0.069900 0.131367 0.085167 -0.073508 0.062054 -0.046051 -0.150206 0.020193 0.006478 0.065292 -0.059341 0.079737 0.001460 0.007529
end. -0.056626 -0.032421 0.039408 -0.009701 -0.031703 0.054384 -0.050234 0.071720 0.107611 0.090491 -0.046249 0.017299 -0.016613 0.000135 -0.010249 0.024701 -0.022657 -0.041387 -0.022797 -0.085965 0.112641 0.012144 0.044895 -0.020600 -0.080517 -0.033260 0.010243 -0.083080 -0.005440 0.068891 0.015823 0.011140 -0.005130 -0.055015 -0.064115 0.052163 0.087299 -0.033745 0.080636 -0.051809 0.002926 0.053830 -0.056217 -0.070845 0.038961 0.049048 0.098813 0.036874 0.042371 -0.010265 -0.016652 -0.006897 0.034233 -0.032359 -0.021540 -0.035943 -0.012651 -0.028606 -0.075694 -0.001977 0.092370 -0.008485 -0.061804 -0.026825 0.078690 -0.006811 -0.111083 0.060170 0.005387 0.062833 -0.109380 -0.013567 0.135102 -0.060677 0.084123 0.090660 -0.125817 0.167463 0.032443 0.145063 -0.008214 0.114398 0.001647 0.030150 0.021530 0.006119 -0.104850 -0.039508 0.018551 -0.068540 0.002796 -0.082509 0.057623 0.064439 -0.055289 -0.060096 0.013055 0.013167 -0.006270 -0.089907
7. -0.048180 0.027584 0.024529 -0.031064 -0.001052 0.032912 -0.064978 -0.010096 -0.025862 0.054511 -0.040682 -0.029028 0.027317 -0.013415 -0.016427 0.012551 -0.132744 -0.029708 -0.008522 -0.029069 0.130285 -0.041830 0.008232 -0.050009 -0.044242 0.031281 0.005281 -0.037766 0.026901 0.043350 -0.005135 0.006789 -0.001750 -0.129475 -0.018937 0.058165 0.166212 0.014169 -0.011197 -0.126501 -0.059259 0.067945 -0.023891 -0.045429 -0.028037 0.075514 0.095176 0.011593 0.069958 -0.005779 -0.043545 -0.016602 0.041472 0.050372 0.087726 -0.020750 -0.068690 -0.082170 -0.047103 -0.005961 -0.054381 -0.039417 -0.021642 0.047352 -0.004580 0.027571 -0.071892 -0.032057 -0.120655 -0.017742 -0.128421 -0.032736 0.123352 -0.052921 0.032135 -0.031501 -0.003057 0.054014 -0.067701 0.018183 0.019534 0.131479 -0.052160 -0.019002 -0.031780 -0.015440 -0.067533 0.068426 0.083242 -0.097615 0.039013 0.017860 -0.084005 0.025380 -0.055566 0.041212 -0.063681 0.061742 0.019655 -0.049417
hatrack. 0.025095 -0.061274 -0.042181 0.011096 -0.009151 0.066534 -0.003577 0.058771 0.119234 0.033181 -0.015534 0.080492 -0.012295 0.009257 0.049726 0.029575 0.104051 -0.018533 -0.021325 -0.084625 -0.008619 0.034544 0.055847 -0.028540 -0.015050 -0.055546 -0.033160 -0.011224 -0.008853 -0.010726 0.038612 0.005086 0.062593 0.089605 -0.037231 -0.011383 -0.042642 -0.052764 0.057525 0.036114 0.089221 -0.041818 0.008655 0.045259 0.085361 0.007573 0.007109 0.089904 -0.004455 0.057367 -0.031790 0.081203 -0.021721 -0.023285 -0.083479 -0.006836 -0.021623 0.038763 -0.037301 0.046105 0.120199 0.059107 -0.071234 -0.097184 0.106308 0.008989 -0.023858 0.068957 0.080742 0.103772 -0.033082 0.000432 0.014912 -0.069788 0.057541 0.070804 -0.041105 0.118675 0.139390 0.142184 0.020364 -0.026375 0.025619 0.077309 0.098391 0.035302 -0.051193 -0.104569 -0.061071 -0.021123 -0.088078 -0.064821 0.129757 -0.030964 -0.055955 -0.104433 0.028288 -0.053787 0.006595 0.021970
