295 100
the -0.102579 -0.028143 -0.045976 0.289133 -0.005952 0.008326 -0.099459 -0.037983 -0.015527 0.269091 0.102425 -0.089529 0.000657 0.108594 -0.163195 0.227475 0.115965 -0.158729 0.056954 0.066989 0.043071 0.082231 -0.011206 0.020543 0.146587 -0.204286 -0.217195 0.075229 0.048954 0.051893 0.109140 0.026058 -0.301898 0.047046 -0.024234 -0.220808 0.054006 0.156416 0.062810 -0.129275 -0.237610 -0.196972 -0.003887 -0.143883 -0.006855 0.044027 -0.045499 -0.129542 -0.212123 -0.204009 0.077923 -0.208859 -0.207931 -0.106221 0.196721 -0.097535 0.275441 0.136394 -0.003405 0.015092 -0.249464 -0.185622 0.027668 0.065361 0.032511 -0.157319 -0.096447 -0.011986 0.136477 -0.111675 0.051869 0.103411 0.046936 0.174084 0.145588 0.260520 0.031947 0.060627 -0.150556 0.019064 -0.000217 0.088024 -0.034533 0.013502 0.013746 0.139651 -0.297898 -0.130396 0.144026 -0.082046 0.295493 0.311599 0.011695 0.315244 -0.134098 0.011278 -0.172741 0.203632 0.074567 -0.361549
to -0.232730 0.143717 -0.191557 0.065004 -0.075605 0.095931 0.078374 -0.015021 0.209555 -0.099889 -0.033237 0.101156 0.010265 0.151401 0.030634 -0.030128 0.106916 0.080991 0.010026 -0.074530 -0.087447 0.026798 -0.105640 0.174622 0.021154 -0.163745 0.156715 -0.131092 0.037882 0.049101 -0.172571 -0.134452 -0.112113 0.076483 0.046770 0.062902 -0.166699 -0.026807 0.174261 0.167286 -0.069370 -0.265221 -0.163456 -0.035676 -0.032670 0.070659 0.051377 -0.040027 -0.099182 0.010029 0.020411 0.072070 0.053688 -0.168367 -0.343092 -0.164099 -0.041107 0.040805 -0.099643 0.003037 0.304076 0.142495 -0.031156 -0.018555 0.086415 -0.206089 -0.121315 0.170469 0.184853 0.014864 -0.002352 0.293914 0.050793 0.163119 0.020302 0.036064 -0.328265 0.064484 0.052384 0.193749 -0.199303 0.046584 0.263456 0.001203 0.020846 0.130480 0.001580 -0.301641 0.042282 0.320689 0.148292 -0.161669 0.285278 0.133563 -0.036193 0.116308 0.050007 0.131510 -0.044735 0.075936
turn 0.150981 -0.194396 -0.062028 -0.046767 -0.010837 0.231134 -0.448571 0.266644 0.361632 0.139276 -0.040902 0.064103 0.020024 -0.063651 -0.048688 0.121375 0.310861 0.208440 0.051157 0.124612 0.050784 0.229882 0.098439 -0.322388 -0.000881 0.102840 -0.155734 -0.020147 -0.045367 0.024870 0.328306 -0.015504 -0.172378 0.460447 -0.018362 -0.254571 -0.279972 -0.087622 0.159437 -0.058247 0.104952 -0.227407 0.149714 0.061186 0.123034 -0.141851 -0.131702 0.115978 -0.016602 0.012374 0.050159 0.247482 -0.137238 -0.255793 -0.116340 0.335113 -0.070177 0.188499 0.308252 0.146812 0.449431 0.303086 -0.214115 0.030829 0.163519 0.032244 0.157789 0.053827 -0.130140 0.121895 -0.168747 0.139703 0.310386 -0.035910 0.158741 0.321829 0.151342 -0.051409 0.496191 0.227201 0.062951 -0.104984 -0.161839 -0.000103 0.150958 0.144524 -0.065394 -0.100365 -0.091640 -0.092241 -0.202691 -0.161413 0.556179 0.081310 -0.174773 -0.076876 0.200387 0.071129 0.206920 -0.162422
forward 0.310416 -0.226242 -0.149732 -0.114868 0.078000 0.245050 0.194940 -0.086444 0.115862 -0.323034 -0.050301 0.309960 -0.074797 -0.127737 0.152738 0.233909 0.042535 0.438693 -0.249750 -0.060024 -0.108558 -0.152664 -0.109362 -0.133820 -0.089859 0.426495 -0.164184 0.217143 -0.272263 -0.152680 0.094815 -0.112580 0.498741 0.254590 -0.446405 0.101983 -0.157802 -0.255488 -0.016193 0.205088 0.216638 0.285806 0.369372 0.068127 0.215760 0.211538 -0.038379 0.328901 0.061196 0.364091 0.337993 0.396552 -0.357916 -0.278165 -0.192509 0.247970 -0.122844 -0.065136 0.239704 0.050294 0.099620 0.140503 -0.016851 -0.073130 0.099760 0.136330 0.124606 -0.354796 0.196721 0.107122 -0.192028 -0.089449 -0.038069 -0.335446 0.110130 0.107490 0.002712 0.132062 0.147548 -0.186156 0.192990 -0.535023 -0.190474 0.050802 0.084348 -0.346944 -0.002660 -0.221926 -0.324234 0.142219 -0.199924 -0.054092 0.076058 -0.180497 -0.208118 -0.185871 0.327548 -0.093363 0.207831 0.237752
and -0.136721 0.116738 -0.091544 0.242670 -0.184456 0.183514 -0.150980 0.109802 0.124801 0.165695 -0.073081 -0.003266 -0.045675 0.083696 -0.204030 0.097818 -0.043588 -0.027836 0.069187 -0.001239 0.071403 0.085557 -0.111263 0.195194 -0.004614 -0.259514 -0.104494 -0.078820 0.000523 0.097800 0.018225 -0.193483 -0.159953 0.096272 0.049757 -0.185196 -0.010144 -0.006092 0.211064 -0.175244 -0.135278 -0.199380 -0.151092 -0.142734 0.087041 0.030542 0.089782 0.092440 -0.117934 -0.180055 0.077538 -0.106260 -0.098634 -0.088009 -0.086938 -0.007852 0.038334 0.108165 -0.099773 -0.032387 -0.008165 0.022827 -0.021216 -0.084271 0.187573 -0.122325 -0.142961 0.179445 0.083147 -0.039805 -0.205782 0.178270 0.107142 0.137007 0.248828 0.220955 -0.086748 0.127005 0.063827 0.155711 -0.150001 0.116126 -0.039215 0.198092 0.092369 0.175434 -0.188179 -0.062020 0.030139 -0.029528 0.190529 0.053769 0.216001 0.183371 -0.045131 0.016018 -0.091641 0.173207 0.017773 -0.323823
is -0.023219 0.104580 0.085040 -0.211019 -0.033740 0.019357 -0.088683 -0.149370 -0.051758 -0.125035 -0.388296 -0.129528 0.183281 -0.093175 0.217206 0.060232 -0.397333 0.165549 -0.143262 -0.069568 0.084223 -0.115154 -0.238760 -0.226949 -0.048338 0.222433 0.256282 0.060549 -0.066624 0.118668 -0.107171 -0.140528 0.074864 -0.310897 -0.007140 0.193596 0.195249 -0.214471 0.150925 -0.243884 0.149343 0.327875 -0.083524 -0.141804 -0.066936 0.147890 0.252639 -0.031131 0.198572 0.033298 -0.140166 0.000551 -0.134475 0.241712 0.208542 -0.055964 -0.070258 -0.272197 0.096350 0.043401 0.114268 -0.108006 -0.084041 0.336067 -0.299100 0.169918 -0.118508 -0.143888 -0.174345 -0.129057 -0.217410 0.042384 0.201243 -0.196791 -0.007389 -0.252151 0.072286 0.050906 -0.066434 0.055530 -0.034704 -0.096281 -0.299417 -0.118138 -0.133019 -0.221652 -0.093396 0.363636 0.157455 -0.134928 -0.116242 -0.345734 -0.380053 -0.215352 0.036798 0.133774 -0.088927 0.194272 -0.048322 -0.001828
a -0.020278 0.026024 0.085156 0.265800 0.013552 0.064263 -0.229112 0.032057 -0.074302 0.238527 0.118506 -0.227030 0.052128 0.064281 -0.113447 0.062780 -0.000377 -0.195098 0.071190 0.044212 0.153902 0.034873 0.103189 -0.087431 0.021147 -0.141758 -0.208761 -0.003730 0.056220 0.072894 0.137803 0.051341 -0.252726 -0.127021 0.025383 -0.129237 0.200111 0.126632 0.031324 -0.268051 -0.115828 -0.055501 0.073324 -0.038336 -0.037882 0.005726 -0.040638 -0.049519 -0.149317 -0.155867 -0.121506 -0.107046 -0.164869 0.053194 0.286175 -0.010458 0.043047 0.085408 0.010030 0.036244 -0.176800 -0.038483 -0.058029 0.095340 0.048905 0.029280 -0.030046 -0.023255 -0.066612 0.006483 -0.129963 0.038313 0.085217 0.078837 0.157169 0.182510 0.148684 -0.055834 -0.132059 0.026482 0.066115 0.142310 -0.112411 0.028554 0.017713 0.124262 -0.077162 0.028719 0.203832 -0.264061 0.130641 0.341097 -0.119701 0.032213 -0.013260 0.055554 -0.153366 0.064511 0.125798 -0.307730
of -0.228649 -0.175261 -0.008810 -0.005942 -0.016055 -0.058155 -0.073456 0.092947 0.162169 -0.028003 -0.069556 -0.142876 0.024161 -0.017929 0.112181 0.026157 0.105708 -0.006581 -0.155083 -0.246809 0.030769 -0.124657 0.111856 -0.048811 -0.045117 0.091828 0.169179 -0.161877 0.001827 0.100630 -0.093629 0.112447 -0.190918 -0.251069 -0.315866 0.399331 0.015191 0.041602 0.250131 0.199749 0.055821 0.069232 0.129365 -0.133380 -0.023041 0.145257 -0.013476 -0.202644 -0.064905 0.022445 0.096505 -0.027661 0.064834 -0.152694 -0.046727 -0.248333 0.145624 -0.004003 -0.057089 0.007282 0.344685 -0.005360 -0.122482 0.024102 -0.071845 0.036739 -0.103779 0.180045 0.245265 0.284037 0.128984 0.006532 0.097208 0.077659 -0.099786 0.195028 -0.300100 0.149111 -0.035097 0.147388 0.031689 0.076269 0.098664 -0.225864 -0.068138 -0.141623 -0.043010 -0.193589 0.137304 0.118394 0.032450 -0.023329 -0.020141 0.107309 0.007264 0.067331 0.073290 -0.085287 -0.069905 0.074775
walk 0.071503 -0.097977 -0.292326 -0.164898 -0.074793 0.281257 -0.313170 0.099724 0.307716 0.022805 -0.274968 0.308906 0.073974 -0.042729 0.069964 0.198775 0.168330 0.299610 -0.017846 -0.042360 -0.034765 0.178376 -0.102892 -0.265247 -0.005611 -0.030501 -0.160414 0.128737 0.117062 -0.178593 0.259690 -0.108267 0.221680 0.485215 0.077505 -0.262432 -0.162390 -0.268736 -0.089950 -0.102863 0.259965 -0.243174 0.087780 0.196842 0.311159 -0.040366 -0.013616 0.302788 0.118570 0.246886 -0.139517 0.382776 -0.236474 0.075041 -0.170935 0.319621 -0.278304 0.198018 0.150575 0.258982 0.053609 0.166834 -0.001763 -0.122289 0.210174 0.152267 0.151062 -0.036952 -0.114498 0.022425 -0.378626 0.085910 0.070324 -0.272249 0.253292 -0.010409 0.521579 0.095862 0.481763 0.286840 0.044447 -0.276510 -0.362786 0.348562 0.333536 0.168927 -0.193217 0.080836 -0.241532 -0.301736 -0.386517 -0.169174 0.441251 -0.217568 -0.434813 -0.067024 -0.119203 0.037164 0.173845 0.063336
at -0.185289 -0.003814 -0.019097 0.121838 0.073160 -0.046487 -0.033368 0.027395 0.033933 0.313742 0.115213 -0.100629 -0.018338 0.143594 0.024855 0.020767 0.070989 -0.216176 0.141872 -0.047014 0.069180 -0.005533 0.079499 0.070461 -0.022269 -0.314687 -0.025162 -0.117159 0.157515 0.088097 -0.142018 0.030603 -0.183311 -0.090973 0.130631 -0.068539 0.103184 0.067739 -0.020901 -0.180176 -0.110907 -0.160503 -0.127776 -0.089900 -0.040737 -0.033968 0.093859 -0.013681 -0.148796 -0.222463 -0.276875 -0.179193 0.054818 0.029479 0.018265 -0.161896 0.015107 0.014875 -0.084433 0.077154 -0.021865 -0.029473 0.030639 -0.133144 0.082260 -0.115109 -0.225822 0.134795 0.064729 -0.013505 0.029893 0.103347 0.091098 -0.017735 0.102198 0.048814 -0.100837 0.197564 -0.088791 0.273097 -0.056287 0.258342 0.045123 0.165273 -0.004915 0.208036 -0.106935 -0.115298 0.104946 -0.078069 -0.012936 0.118674 0.111872 0.046937 -0.170439 0.001252 -0.175264 0.081513 0.021817 -0.181677
left. 0.081590 -0.048667 -0.083580 0.037469 0.050529 0.074196 0.213167 -0.032879 0.065242 0.006100 0.034938 0.135953 -0.018619 0.105918 0.076023 0.140989 0.074338 -0.082858 -0.054659 -0.029383 0.009749 0.009925 -0.023184 0.110375 0.057788 -0.105281 -0.201972 0.058904 0.030739 -0.043975 -0.041328 -0.070349 0.204842 0.170568 0.030266 -0.103046 -0.029546 -0.074773 -0.036574 0.019857 -0.023423 -0.094391 0.016001 0.109120 0.094795 0.040429 0.065136 0.218195 -0.039670 0.015040 -0.042622 0.007489 -0.028696 -0.021708 -0.001978 0.013305 -0.043471 0.023520 -0.069412 0.097559 -0.148902 0.019350 0.013880 -0.206883 0.123391 -0.024900 -0.096998 0.009039 0.202631 0.006689 -0.054473 0.019418 -0.109205 -0.124548 0.152922 0.012907 0.014350 0.149700 0.014098 0.062247 0.039101 -0.021457 0.006488 0.205478 0.115055 0.044423 -0.066524 -0.204039 -0.129736 0.054573 -0.041486 0.073698 0.120375 0.017638 -0.119464 -0.143230 -0.078186 -0.005785 0.055616 -0.018618
you -0.051141 -0.102895 -0.110711 0.034099 0.048331 0.045654 -0.143960 0.005943 0.058109 0.184460 0.139205 -0.109634 0.013774 0.021087 -0.149306 -0.004967 0.052244 0.096116 -0.016214 0.017626 0.175117 -0.054490 0.010795 0.153009 -0.032200 0.037606 -0.243653 -0.025033 0.058741 0.003023 -0.092161 -0.036609 0.007529 0.005205 -0.019441 0.043065 0.046804 0.123882 -0.152360 -0.278028 -0.289860 -0.173484 0.186199 -0.063880 0.039803 0.006815 0.013004 0.037635 0.032711 -0.045891 -0.058415 -0.172405 0.010394 -0.180804 0.044623 0.139239 -0.132717 -0.029783 0.037101 0.105184 -0.197973 0.075466 0.167453 -0.008004 0.088383 0.134672 0.018801 -0.003757 -0.072864 -0.091650 -0.302568 0.058630 0.186688 0.035985 0.091536 0.181402 0.239763 0.017454 -0.114198 0.081116 0.112469 0.188628 -0.177125 0.085174 -0.023893 0.202054 -0.005231 -0.007323 0.021849 -0.171546 0.001451 0.341039 0.087170 0.040546 -0.292392 0.276073 -0.197310 -0.017495 0.258339 -0.206703
right. 0.264363 -0.120207 -0.099288 -0.071515 0.010559 0.178132 0.276767 -0.009080 0.140342 -0.256826 -0.082931 0.303246 -0.012562 0.015687 0.134770 0.164139 0.096384 0.103595 -0.198873 -0.065126 -0.088366 -0.000086 -0.042942 0.005071 0.052777 0.130448 -0.189815 0.134709 -0.112083 -0.117977 0.072649 -0.093461 0.430738 0.310948 -0.122991 -0.035703 -0.142961 -0.222897 0.045047 0.224978 0.173591 0.029302 0.151832 0.235031 0.214755 0.101659 -0.009052 0.332874 0.069679 0.249315 0.140439 0.253341 -0.101569 -0.058320 -0.089076 0.156359 -0.092658 0.040579 0.007565 0.073431 -0.019340 0.107695 -0.071068 -0.209912 0.124859 0.107013 0.047302 -0.080507 0.264271 0.135734 -0.084085 -0.077588 -0.211213 -0.214725 0.133575 -0.002636 0.050032 0.096093 0.197889 -0.041907 0.125469 -0.290497 -0.023598 0.148598 0.180979 -0.155481 0.004921 -0.217905 -0.277591 0.153206 -0.139335 -0.084819 0.134287 -0.083993 -0.032860 -0.261705 0.133058 -0.107681 0.026142 0.203721
right 0.053157 -0.042542 0.068633 0.133579 0.071474 0.116787 -0.011422 0.048898 0.030161 0.371278 0.155518 -0.019947 -0.012348 0.123434 -0.096298 0.139675 0.028616 -0.280610 0.170417 0.045347 0.194041 0.145118 0.098570 -0.035542 0.033066 -0.282515 -0.276011 0.037441 0.098758 0.045838 0.123311 0.058559 -0.050332 0.043733 0.137490 -0.309739 0.130916 0.044489 -0.077758 -0.250959 -0.173300 -0.066730 -0.109652 -0.017728 0.015014 -0.070776 0.101102 0.143027 -0.074367 -0.229154 -0.193214 -0.163356 -0.060510 0.063800 0.177965 -0.000679 0.024126 0.049886 -0.049976 0.057794 -0.257838 -0.057803 -0.105107 -0.134167 0.146181 -0.126863 -0.185588 0.011650 -0.024472 -0.031468 -0.093273 0.065811 0.081481 -0.104871 0.279612 0.117766 0.001008 0.146836 -0.032592 0.154122 0.041600 0.224065 -0.000435 0.228204 0.079393 0.213110 -0.232760 -0.083175 0.019409 -0.191677 0.015226 0.168401 0.090278 0.138673 -0.162501 -0.181137 -0.127552 0.083120 0.104903 -0.321957
intersection 0.017608 0.045585 0.041439 0.179231 -0.143955 0.157086 0.070647 -0.037462 -0.065081 -0.160686 0.065270 -0.071397 0.024612 -0.011966 -0.103031 -0.164591 -0.028050 0.008753 -0.137465 -0.218864 -0.072516 -0.085720 0.057830 0.070575 -0.051644 0.136077 0.094780 0.018307 -0.164647 -0.077175 -0.026382 0.001701 0.018538 -0.272857 -0.275982 0.287258 0.117352 0.101842 0.189912 0.128242 0.052794 0.140686 0.160960 -0.000753 0.028999 0.165457 -0.059202 -0.129342 0.011627 0.171933 0.161788 0.033245 -0.050696 0.006098 -0.026161 -0.072051 0.057237 -0.006382 -0.033980 -0.142731 -0.035218 0.061975 -0.094035 0.183545 -0.049995 0.093362 0.075410 0.047171 0.151782 0.258641 -0.071309 -0.109799 -0.107917 0.172548 -0.050177 0.053211 -0.101534 -0.045060 -0.144356 -0.096746 0.127134 -0.073548 0.253582 -0.186811 -0.106984 -0.165388 0.125078 -0.099230 0.150768 0.073705 0.251608 0.094264 -0.340424 -0.128257 0.223463 0.131011 0.138107 -0.093011 -0.115501 0.126569
move 0.024039 -0.003042 -0.055897 0.119835 -0.271580 0.276956 -0.281053 0.285695 0.302838 0.083671 -0.266897 0.123117 -0.051451 -0.016720 -0.315632 0.174833 -0.036603 0.073792 0.128749 0.000270 -0.024799 0.270893 -0.126655 0.016812 0.041820 -0.213269 -0.014282 -0.058122 -0.170435 0.176783 0.264718 -0.117524 -0.164231 0.186335 -0.005106 -0.219810 -0.090503 -0.150270 0.304784 -0.033910 0.081412 -0.125927 -0.164579 -0.095722 0.184817 -0.053087 -0.015605 0.046157 0.044984 -0.164684 0.209712 0.049096 -0.110616 -0.005751 -0.173960 0.166221 0.143240 0.167125 0.076188 -0.118698 0.151083 -0.013668 -0.208637 -0.094750 0.237542 -0.008877 0.048867 0.185490 0.004539 0.099120 -0.185441 0.062108 0.054599 0.034044 0.297697 0.233437 -0.060553 0.039785 0.401614 0.152498 -0.153619 -0.015524 -0.111600 0.157450 0.169237 0.096566 -0.255253 0.126824 -0.056742 -0.047370 0.049724 -0.191156 0.317248 0.229802 0.101064 -0.166601 0.149450 0.075417 -0.082543 -0.231927
hall. -0.108512 -0.035885 -0.049660 0.043913 -0.075428 0.080210 0.084445 -0.117162 -0.020504 -0.192122 -0.054933 -0.045538 0.137465 0.031441 0.161592 -0.060179 0.073337 0.014369 -0.319327 -0.371382 -0.001181 -0.214285 0.097327 -0.065629 -0.056154 0.204269 0.088615 -0.003462 -0.024186 -0.153415 -0.047667 0.057942 0.076690 -0.245715 -0.390670 0.463265 0.121778 0.051114 0.163256 0.216576 0.146854 0.117537 0.260651 0.064934 0.068722 0.307068 -0.037839 -0.108852 -0.043955 0.360805 0.032417 0.162475 -0.106245 -0.010998 -0.006154 -0.182448 0.010448 0.036514 -0.117321 0.031917 0.059494 0.051359 -0.067022 0.157271 -0.103617 0.143181 -0.054067 -0.001776 0.298826 0.294289 -0.050830 -0.097499 -0.121409 0.054530 -0.080490 0.015288 -0.018314 0.092852 -0.172710 0.014061 0.166921 -0.141491 0.172459 -0.201736 -0.056209 -0.272514 0.025066 -0.258255 0.132350 0.055306 0.130623 0.069669 -0.316173 -0.185451 0.017847 0.084956 0.045167 -0.111471 -0.097897 0.258167
one 0.194334 0.099769 -0.048651 0.067629 -0.201544 0.175247 0.066397 -0.071986 -0.043973 -0.369641 -0.173432 0.156603 0.116730 -0.014314 -0.126739 -0.047184 0.017909 0.140742 -0.266753 -0.065686 -0.121212 0.033473 -0.143162 0.006123 0.064486 0.188577 -0.079650 0.212173 -0.160309 -0.183439 0.182237 -0.071472 0.161458 0.135563 -0.163198 0.096058 -0.043404 -0.052510 0.137657 0.234099 0.170696 0.040927 0.122322 0.189937 0.120410 0.154018 -0.194003 -0.031656 0.062449 0.338986 0.273877 0.207402 -0.180406 -0.053304 -0.019618 0.125054 0.021088 0.129473 0.035554 -0.054778 -0.168724 0.040233 -0.052807 0.229481 -0.033490 0.144641 0.221095 -0.123513 0.159914 0.102589 -0.151553 -0.040090 -0.249922 0.196253 0.031703 0.036314 0.248633 -0.226443 -0.023711 -0.235610 0.065825 -0.279386 0.064024 -0.122921 0.084096 -0.178609 0.071000 -0.032662 -0.025063 0.096366 0.252529 0.004564 -0.186635 -0.033017 0.220003 0.034991 0.117753 -0.019298 -0.077176 0.200700
with -0.138971 0.109828 -0.063839 0.128122 -0.204256 0.181785 -0.003655 -0.022400 0.039298 -0.222849 -0.156496 -0.104536 0.158137 0.052474 0.000973 -0.110087 0.006870 0.002142 -0.238324 -0.304786 -0.012138 -0.095565 -0.010826 0.033264 0.033695 0.042054 0.108841 -0.051630 -0.022912 -0.015129 -0.062674 -0.005329 -0.079307 -0.285636 -0.223173 0.402127 0.100073 0.047570 0.295978 0.134661 0.109170 0.007348 0.136149 -0.010953 0.026910 0.247401 -0.015669 -0.144199 -0.046828 0.213400 0.026951 0.065374 -0.058941 0.077422 -0.021279 -0.168769 0.015618 0.049795 -0.132908 -0.020257 0.040571 0.060824 -0.150003 0.230964 -0.059333 0.127316 -0.057881 0.111647 0.216427 0.259184 -0.157208 0.002918 -0.088735 0.209392 0.016534 0.022754 -0.009676 -0.037314 -0.141769 0.045703 0.047068 -0.043932 0.172950 -0.145009 -0.070673 -0.145781 0.030743 -0.144900 0.225353 0.021668 0.196297 0.016424 -0.277151 -0.105678 0.188097 0.192928 -0.010198 -0.020450 -0.128308 0.119559
Go 0.170204 0.042059 -0.220936 0.249938 -0.212624 0.346935 0.032476 -0.098608 0.024967 -0.533388 -0.165142 0.194531 0.110268 -0.015299 0.022247 -0.009423 0.163295 0.212739 -0.353076 -0.233600 -0.377335 -0.021978 -0.047714 -0.131513 0.104440 0.214957 0.019848 0.259385 -0.152994 -0.314867 0.142171 -0.096345 0.218589 0.079158 -0.370994 0.204259 -0.141470 -0.102309 0.302652 0.436230 0.423949 0.017028 0.397633 0.276209 0.265754 0.268697 -0.236611 0.034807 0.002551 0.537854 0.257545 0.463241 -0.367201 0.072169 -0.086611 0.029489 -0.028486 0.185381 0.058530 -0.030038 0.000818 0.129178 -0.179938 0.213681 -0.107293 0.270445 0.278543 -0.079413 0.399086 0.368619 -0.078388 -0.061559 -0.399138 0.138733 -0.015817 0.043229 0.275495 -0.157985 0.100350 -0.107171 0.211710 -0.575848 0.101115 -0.090655 0.148376 -0.283853 0.093930 -0.147546 0.000735 0.094685 0.188969 0.097967 -0.325663 -0.345645 0.167803 0.084105 0.088561 -0.114932 -0.166138 0.479825
go -0.072093 -0.068072 0.014954 0.272878 -0.025478 0.126369 -0.230167 0.103570 0.068818 0.403699 0.143903 -0.149106 0.031332 0.117410 -0.147801 0.073290 0.178197 -0.294515 0.079839 -0.072465 0.156420 0.093161 0.191415 -0.073667 0.051022 -0.260035 -0.233555 -0.043251 0.082169 0.050156 0.163622 0.109495 -0.308428 -0.041854 -0.022491 -0.141198 0.152356 0.182103 0.127789 -0.205804 -0.135348 -0.205164 0.040186 -0.072813 0.037273 0.020503 -0.006333 -0.047518 -0.183292 -0.174341 -0.117639 -0.157391 -0.094905 -0.011470 0.203265 -0.082016 0.152907 0.167879 -0.042677 0.041835 -0.117634 -0.014394 -0.145286 -0.003853 0.126111 -0.065776 -0.120024 0.136485 0.087364 0.122599 -0.047156 0.046659 0.117442 0.120332 0.199284 0.288511 0.037232 0.108159 -0.044683 0.206275 0.095580 0.245293 0.044735 0.055120 0.050141 0.198841 -0.241249 -0.183494 0.191071 -0.204981 0.168675 0.293987 0.048369 0.161380 -0.115125 -0.029763 -0.118854 0.086849 0.063252 -0.335592
this -0.238236 0.018092 -0.048182 -0.103469 -0.078434 0.038444 -0.143389 -0.047985 0.068810 -0.032524 -0.185836 -0.042415 0.124725 -0.028571 0.015475 0.070521 -0.198323 -0.041448 -0.116614 -0.192581 0.166407 -0.057226 -0.069158 -0.007299 0.060241 0.144299 0.053537 -0.110208 0.072017 0.090309 0.003643 -0.026043 -0.075292 -0.176987 -0.107700 0.194781 0.223984 0.009117 0.058953 -0.099772 -0.182784 -0.050057 -0.033593 -0.048518 -0.065527 0.229976 0.084652 -0.142812 0.112983 0.098861 0.063289 -0.012983 0.049871 0.012153 0.072433 -0.153370 -0.055542 -0.052727 -0.151270 0.015675 0.007328 -0.154152 0.003341 0.087809 -0.081539 0.119409 -0.032482 0.042276 -0.052881 -0.023817 -0.137937 0.016520 0.149106 0.075715 -0.114838 -0.025461 -0.033625 0.016027 -0.019398 0.003452 0.025089 0.244768 -0.091908 -0.146291 -0.038607 -0.080271 -0.095766 0.090733 0.184417 0.011980 0.211607 0.012153 -0.127331 0.188587 -0.002674 0.127571 -0.108122 0.127384 -0.058506 0.008162
your 0.132720 -0.005093 0.147942 -0.354770 -0.177734 0.163822 -0.080693 0.156909 0.128890 -0.184658 -0.370414 0.107307 0.110583 -0.162561 -0.079643 0.088933 -0.286904 0.138508 -0.099431 -0.017100 0.245444 0.129576 -0.182123 -0.091305 0.014452 0.236381 0.004404 -0.021519 -0.166448 0.200121 0.245115 -0.078500 0.107327 0.038309 -0.013451 0.031400 0.080328 -0.187759 0.128167 -0.062722 -0.015866 0.200490 -0.198692 -0.045129 -0.021896 0.056090 0.075509 0.008016 0.247890 0.049744 0.248563 0.031874 0.090677 -0.044673 0.022843 0.201505 -0.044865 -0.090764 0.033668 -0.075930 0.096754 -0.049118 -0.173029 0.142349 0.040582 0.075753 0.041671 -0.049071 -0.276631 -0.021436 -0.276866 -0.062128 0.216210 -0.033028 0.082736 -0.020970 -0.044123 -0.106085 0.191834 -0.150152 -0.079859 0.110869 -0.126663 -0.135348 0.004666 -0.187497 -0.085142 0.193065 -0.039991 0.020115 0.027873 -0.445088 0.098920 0.267743 0.217925 -0.114284 0.244938 0.104977 -0.037777 -0.120002
left 0.053752 -0.080362 -0.006100 0.126791 0.058626 0.056240 0.032747 0.033396 0.039185 0.224877 0.094666 0.020511 -0.074127 0.056723 -0.083800 0.162686 0.014055 -0.087411 0.117085 0.063043 0.031228 0.072413 -0.001997 0.037956 0.025940 -0.177997 -0.158294 0.044755 -0.002791 0.050371 0.033796 -0.008563 -0.010747 0.059095 0.026341 -0.211672 0.008236 -0.009802 -0.037901 -0.123505 -0.107701 -0.035469 -0.036087 -0.053739 0.064718 -0.056001 0.044122 0.112017 -0.058502 -0.205557 -0.024546 -0.117797 -0.090118 0.000459 0.061081 0.024637 0.085395 0.018158 0.017302 0.004384 -0.157726 -0.079518 -0.016510 -0.157647 0.099652 -0.073310 -0.098170 -0.007995 0.062698 -0.045033 -0.015250 0.021424 0.003494 -0.100799 0.196658 0.107470 -0.029296 0.152610 0.009444 0.085396 0.012858 0.048529 -0.068591 0.197824 0.053623 0.105828 -0.181693 -0.033393 -0.060713 -0.088073 -0.019157 0.123652 0.086706 0.103666 -0.133300 -0.130261 -0.073714 0.044649 0.071421 -0.210686
hall -0.156856 -0.022430 -0.026211 0.010528 -0.130717 0.091950 -0.040848 -0.011237 0.072384 -0.106958 -0.109168 -0.076080 0.128587 0.006572 0.064200 -0.061983 0.030352 0.022957 -0.249439 -0.322799 0.069485 -0.134486 0.050791 -0.020705 -0.031412 0.151788 0.094038 -0.085617 -0.015479 -0.034319 -0.033081 0.024018 -0.043478 -0.216560 -0.258146 0.397011 0.128572 0.051532 0.199860 0.081254 0.026066 0.008766 0.153159 -0.009391 0.037581 0.238205 0.005105 -0.144758 0.007615 0.222709 0.039620 0.054164 -0.004759 -0.037719 -0.012653 -0.135935 0.011617 0.028464 -0.113093 0.035231 0.102698 0.051976 -0.077385 0.145479 -0.046932 0.122446 -0.061774 0.110235 0.177234 0.218318 -0.114880 -0.043787 0.040793 0.106327 -0.043014 0.060016 -0.037250 0.064335 -0.088091 0.073957 0.097623 0.020012 0.115249 -0.193214 -0.068938 -0.148406 -0.008067 -0.161945 0.170474 0.007256 0.134179 0.000660 -0.164189 -0.048017 0.031166 0.134436 0.008291 -0.042702 -0.067701 0.097394
blue -0.071058 0.005528 0.004234 0.228393 -0.044862 0.107415 -0.170135 0.108979 0.087264 0.324453 0.074475 -0.104125 -0.020605 0.104696 -0.144256 0.051224 0.074597 -0.221607 0.113783 -0.025405 0.127627 0.084503 0.085871 0.044978 0.008415 -0.302484 -0.174683 -0.078208 0.050362 0.081687 0.084973 0.011400 -0.224341 -0.017394 0.057068 -0.155504 0.090083 0.097079 0.096777 -0.203707 -0.089085 -0.162462 -0.060857 -0.092282 0.025141 -0.030790 0.056688 0.039289 -0.146415 -0.216041 -0.121194 -0.143563 -0.063931 -0.006037 0.077179 -0.053196 0.068663 0.115360 -0.041705 0.028524 -0.056824 0.015279 -0.098567 -0.069449 0.159510 -0.081033 -0.137632 0.168084 0.053406 0.050084 -0.104080 0.088791 0.120273 0.071889 0.219041 0.222060 -0.012573 0.106371 0.007441 0.211567 -0.011483 0.208940 0.006396 0.153959 0.068164 0.213366 -0.166611 -0.099587 0.101809 -0.147187 0.086168 0.183322 0.121415 0.100887 -0.068428 -0.045014 -0.113144 0.062630 0.049481 -0.310832
take -0.128972 -0.034444 -0.038229 0.301848 0.103370 0.041258 -0.181559 0.020257 -0.054217 0.531499 0.294145 -0.231028 0.007781 0.145622 -0.035859 -0.024107 0.199331 -0.340260 0.180519 -0.031799 0.104103 0.037958 0.236149 -0.097509 -0.056509 -0.399594 -0.170112 0.015616 0.259937 -0.090917 -0.028745 0.135469 -0.266553 -0.138841 0.090378 -0.172075 0.112546 0.221767 -0.073694 -0.290267 -0.069032 -0.147082 0.043599 -0.082184 0.000186 -0.093192 0.058328 0.011789 -0.249602 -0.211736 -0.429751 -0.213563 -0.095344 0.104737 0.193595 -0.165374 0.026102 0.095205 -0.022422 0.133849 -0.176272 0.037165 -0.069122 -0.047808 0.028238 -0.131644 -0.236505 0.090105 0.037024 0.072442 0.006871 0.125614 0.114316 0.000906 0.181402 0.170164 0.110870 0.194939 -0.192931 0.344686 0.076302 0.247266 0.054590 0.205238 0.018578 0.288244 -0.188465 -0.158709 0.159254 -0.324102 -0.018931 0.367908 -0.032637 -0.098936 -0.330287 0.064124 -0.322989 0.034307 0.101727 -0.261236
once. 0.127521 -0.336295 -0.384908 -0.324920 0.080256 0.029639 -0.277412 0.151152 0.442347 -0.087678 -0.203693 0.414219 0.001590 -0.106157 0.102870 0.295705 0.401820 0.479100 -0.133231 0.170049 -0.014790 0.082532 -0.086539 -0.171955 0.088270 0.251463 -0.361100 0.041802 0.128541 -0.124764 0.249974 -0.071675 0.217208 0.905418 0.064030 -0.279631 -0.439568 -0.232211 -0.237538 0.060270 0.010576 -0.468306 0.282391 0.298429 0.321017 -0.114876 -0.206498 0.332620 0.103391 0.259706 0.124653 0.389230 -0.090984 -0.389641 -0.259720 0.456199 -0.255205 0.270544 0.187655 0.334524 0.257678 0.209401 0.190623 -0.351225 0.288332 0.204585 0.297954 -0.083498 -0.048717 -0.133186 -0.193103 0.077097 0.151929 -0.217634 0.073370 0.187216 0.555088 -0.033614 0.621867 0.126215 0.061451 -0.234851 -0.521490 0.213893 0.401244 0.175207 -0.057440 -0.097512 -0.465913 -0.058497 -0.447869 -0.048950 0.898492 0.125428 -0.542165 -0.107232 -0.054085 -0.041098 0.355250 0.114253
Turn 0.015428 0.096180 -0.108684 0.081853 -0.194508 0.062609 -0.015038 -0.078549 -0.028849 -0.499526 -0.268058 0.100749 0.058286 -0.089644 0.058898 -0.074399 0.057053 0.356601 -0.271793 -0.127768 -0.339413 -0.100492 -0.163350 -0.091987 -0.020205 0.247503 0.224263 0.136221 -0.136143 -0.200054 0.031573 -0.090029 0.044291 0.039562 -0.298194 0.291671 -0.201988 -0.105963 0.234510 0.409117 0.406108 0.130005 0.213000 0.054867 0.115126 0.168753 -0.203432 -0.122742 -0.040631 0.394319 0.264149 0.359418 -0.275297 -0.072726 -0.212759 0.003654 0.038845 0.130130 0.087138 -0.042725 0.230617 0.091355 -0.024176 0.264235 -0.164954 0.132852 0.207717 -0.106576 0.238541 0.156744 0.040136 -0.013365 -0.196133 0.157168 -0.113752 -0.009180 0.116031 -0.165615 0.023788 -0.153706 -0.018131 -0.525870 0.027132 -0.198900 0.014283 -0.323680 0.137456 -0.016848 -0.027179 0.144127 0.079314 -0.133837 -0.173648 -0.252907 0.177826 0.130155 0.170459 -0.078991 -0.143374 0.395432
end -0.146930 -0.189856 0.107330 0.114833 -0.054179 0.019845 -0.030579 0.129220 0.149259 0.154013 0.066191 -0.119400 -0.004688 0.021522 0.021184 -0.013507 0.165023 -0.147921 -0.211384 -0.334774 0.165153 -0.161147 0.237741 0.049577 -0.043152 0.113900 -0.034165 -0.246147 -0.048107 0.086208 0.025157 0.108025 -0.158916 -0.124465 -0.350502 0.361261 0.118160 0.158792 0.282331 0.083663 -0.111128 -0.031811 0.186673 -0.073255 0.028798 0.234347 -0.026892 -0.106084 -0.143535 0.049604 0.129413 -0.060941 0.057098 -0.269221 -0.029390 -0.186114 0.141056 0.125056 -0.165839 0.009283 0.241214 0.055922 -0.095238 -0.077873 0.100010 0.032584 -0.194725 0.181644 0.353048 0.271412 0.059729 -0.113500 0.130478 0.106217 -0.039477 0.310225 -0.298959 0.199982 -0.027005 0.113848 0.164808 0.178465 0.129461 -0.195074 -0.076744 -0.164929 -0.073387 -0.376293 0.146238 0.093291 0.169660 0.107649 0.049794 0.180756 0.039372 -0.101732 0.158981 -0.084360 -0.048222 -0.056972
path -0.100933 0.004533 0.125066 0.249697 0.060424 0.022052 -0.166550 0.065260 -0.039158 0.518472 0.232976 -0.235144 -0.014814 0.145410 -0.088480 0.035175 0.090613 -0.432012 0.256778 0.007759 0.152726 0.131942 0.243382 -0.115163 0.027739 -0.380937 -0.098724 -0.059023 0.114444 0.092495 0.108555 0.163029 -0.361864 -0.184624 0.117297 -0.236614 0.219944 0.197588 0.041460 -0.281586 -0.116080 -0.113368 -0.112443 -0.105307 -0.091361 -0.077130 0.085786 -0.072516 -0.189150 -0.314438 -0.297162 -0.219980 -0.044602 0.174856 0.269746 -0.166754 0.162476 0.071312 -0.037639 0.009156 -0.131398 -0.079155 -0.151633 0.006942 0.054371 -0.177101 -0.191045 0.119453 -0.038381 0.054286 0.080101 0.055436 0.103654 0.016407 0.152192 0.125642 -0.094266 0.130543 -0.091186 0.211292 0.035026 0.280780 0.104564 0.090417 -0.031496 0.245830 -0.236025 -0.054056 0.236259 -0.243922 0.079779 0.212398 -0.056880 0.083526 -0.082716 -0.080221 -0.149910 0.112856 0.019260 -0.357692
on -0.066529 -0.031180 0.080219 -0.221339 0.022634 0.013677 -0.036615 0.080170 0.127661 0.105932 -0.037908 0.044586 0.022790 -0.034781 0.029145 0.010338 -0.085089 -0.017390 0.062799 -0.021711 0.208349 0.056892 -0.012977 -0.022199 -0.085437 -0.001930 0.037773 -0.102462 0.037101 0.095759 0.011792 -0.023698 0.019240 -0.013090 0.053082 -0.002850 0.039267 -0.038133 -0.037188 -0.094631 -0.114620 0.079076 -0.204339 -0.103619 -0.081282 -0.010155 0.157097 0.012107 0.069433 -0.066989 -0.048984 -0.063349 0.151961 -0.113436 -0.072915 -0.016341 -0.084497 -0.084090 -0.026429 0.023095 0.162507 0.007906 -0.077208 -0.036208 0.076480 -0.116745 -0.156432 0.044479 -0.157313 -0.046575 -0.082501 0.080470 0.284457 -0.078756 0.032202 0.003536 -0.220428 0.080535 0.053561 0.101522 -0.091952 0.241860 0.019969 -0.019377 -0.020812 0.040888 -0.083108 -0.032696 -0.022688 0.042871 -0.053683 -0.237604 0.200563 0.164281 -0.094240 -0.035045 0.090946 0.091783 0.043865 -0.111155
in -0.098796 -0.006718 0.065011 -0.083761 0.015590 -0.017528 -0.029557 -0.023985 -0.009827 0.012244 -0.020431 -0.100776 0.055959 -0.028991 0.077972 -0.035391 -0.128325 -0.060210 -0.055317 -0.124132 0.127771 -0.081770 0.046783 -0.038287 -0.061122 0.092611 0.094741 -0.083434 0.021072 0.048823 -0.062408 0.023398 -0.008990 -0.222876 -0.076903 0.194892 0.148755 0.024292 0.034790 -0.070064 -0.049707 0.118130 -0.019356 -0.063016 -0.091750 0.103584 0.103945 -0.066942 0.055352 0.030053 -0.062803 -0.038809 0.086111 0.024570 0.058888 -0.118627 -0.053316 -0.119311 -0.056297 0.000811 0.089970 -0.034886 -0.049402 0.060834 -0.058013 0.048006 -0.096192 0.012010 -0.056985 0.032970 -0.040950 -0.020202 0.124352 -0.048446 -0.092994 -0.037608 -0.123130 0.055462 -0.063469 0.032338 0.024264 0.143577 0.002081 -0.112973 -0.091151 -0.089508 -0.000782 0.038246 0.110266 -0.006753 0.013262 -0.050589 -0.146701 -0.012575 0.024787 0.059377 0.009577 0.012154 -0.031200 0.022641
onto -0.081785 -0.025958 0.052110 0.232622 0.138823 0.064822 -0.152861 0.075527 0.006989 0.623746 0.290536 -0.179866 -0.011116 0.189891 0.002434 0.048683 0.144600 -0.467863 0.245100 -0.024710 0.270527 0.091413 0.274690 -0.098992 -0.065781 -0.473511 -0.278559 -0.068480 0.242094 0.015006 0.066219 0.130876 -0.209172 -0.075449 0.184146 -0.293107 0.233996 0.163599 -0.105613 -0.393646 -0.122053 -0.149653 -0.086390 -0.030257 -0.018544 -0.094441 0.140500 0.136829 -0.244817 -0.283696 -0.484358 -0.192896 -0.045361 0.120504 0.243950 -0.125181 -0.025634 0.094093 -0.088642 0.157636 -0.173738 0.029861 -0.116091 -0.181777 0.195944 -0.182796 -0.307334 0.112126 -0.035732 0.055610 -0.076217 0.101283 0.179551 -0.116783 0.285398 0.157022 0.019498 0.255180 -0.100975 0.352139 0.049123 0.367401 0.038090 0.302372 0.089947 0.344380 -0.245032 -0.194976 0.131747 -0.342048 -0.075713 0.288642 0.113098 -0.014238 -0.314304 -0.138326 -0.266077 0.059450 0.152792 -0.394826
should -0.004041 -0.050331 -0.094542 -0.086139 0.017044 0.001606 -0.061217 -0.019579 0.032033 0.019195 0.005570 0.011546 0.001336 -0.069065 -0.061822 0.035605 -0.080850 0.118412 -0.006405 0.026954 0.082174 -0.025560 -0.096011 0.074694 -0.027883 0.115377 -0.079123 0.019413 0.003441 0.000855 -0.028968 -0.059917 0.079409 0.045598 -0.009517 0.007140 0.029619 -0.002230 -0.160690 -0.161611 -0.156458 -0.038840 0.013197 0.011872 -0.002224 -0.002514 0.023610 0.042898 0.096585 -0.013812 0.050650 -0.039980 0.049643 -0.121093 -0.010146 0.080026 -0.099030 -0.094117 0.051421 0.063260 -0.080294 -0.041526 0.105904 -0.033120 0.056426 0.062793 0.066774 -0.038615 -0.132192 -0.120710 -0.178254 0.026100 0.142410 -0.049123 -0.006899 0.047342 0.108195 -0.014728 -0.009028 -0.048377 -0.000984 0.116495 -0.153251 0.050115 0.023678 0.076983 0.009252 0.076220 -0.050283 -0.053585 -0.022268 0.078238 0.090277 0.069839 -0.143229 0.145607 -0.074698 0.033586 0.160138 -0.052234
towards -0.117511 0.049476 0.079693 0.350688 -0.075095 0.103622 -0.166702 0.055317 -0.034030 0.408502 0.160632 -0.191516 -0.041733 0.104713 -0.184544 -0.003928 0.026509 -0.288754 0.158332 -0.083368 0.091470 0.064758 0.114836 0.039904 -0.104994 -0.355962 -0.063892 -0.016571 0.023615 0.008575 0.050507 0.011048 -0.265048 -0.233178 -0.062341 -0.093853 0.141697 0.171399 0.155171 -0.166663 -0.043145 0.043197 -0.092900 -0.206144 -0.002954 -0.009748 0.087511 -0.065750 -0.223191 -0.235682 -0.141003 -0.213380 -0.141371 0.003823 0.093820 -0.169956 0.186625 0.096230 -0.043535 -0.051559 -0.099711 -0.026980 -0.135705 0.041426 0.069016 -0.203251 -0.241156 0.163764 0.127067 0.138872 -0.045246 0.088880 0.125965 0.121755 0.204293 0.248419 -0.155736 0.184073 -0.171062 0.217451 -0.031838 0.169168 0.135981 0.079565 -0.022099 0.138903 -0.228990 -0.129225 0.183530 -0.148398 0.219188 0.202943 -0.115347 0.027271 -0.073181 0.003754 -0.080331 0.065925 -0.029403 -0.325120
segment 0.198708 0.127510 0.040248 0.059330 -0.189914 0.175669 0.080563 0.036653 0.007889 -0.441804 -0.183630 0.133162 0.055930 -0.035928 -0.020976 -0.082834 0.031751 0.065396 -0.151868 -0.049898 -0.222700 0.087268 -0.012205 -0.078778 0.117192 0.131974 0.080308 0.089645 -0.179671 -0.074650 0.176623 -0.018407 0.118910 0.098747 -0.096442 0.061742 -0.122242 -0.112927 0.273147 0.366332 0.322685 0.068349 0.094878 0.181218 0.092366 0.080135 -0.162497 0.007056 0.051473 0.283084 0.253684 0.292346 -0.087139 0.113761 -0.065189 0.070311 0.030396 0.131054 -0.001054 -0.128735 0.095472 0.090465 -0.205433 0.136406 -0.055436 0.119674 0.216363 -0.022500 0.136919 0.229684 0.061716 -0.107662 -0.310435 0.130491 -0.037254 -0.066808 0.036348 -0.243469 0.175968 -0.215538 0.033517 -0.337928 0.163228 -0.146844 0.074507 -0.233895 0.139342 -0.001767 -0.022704 0.181936 0.104053 -0.171450 -0.158779 -0.119392 0.426016 -0.124306 0.259577 -0.092894 -0.219452 0.299372
easel. 0.028210 0.013001 -0.038831 -0.013702 -0.085093 0.083142 0.001777 0.021930 0.061386 -0.111720 -0.107669 0.098536 -0.001888 -0.029265 -0.012619 -0.000683 -0.021509 0.080920 -0.049166 -0.052631 -0.055714 0.014263 -0.064464 0.004125 -0.041403 0.031409 0.045448 0.035004 -0.055645 -0.058189 0.030137 -0.082206 0.092485 0.055629 -0.082265 0.031905 -0.074576 -0.072139 0.091125 0.096969 0.111804 0.067062 -0.015471 0.011602 0.070207 0.037977 -0.001506 0.045971 0.030956 0.103452 0.091558 0.105405 -0.054922 -0.031533 -0.109424 0.035719 -0.010233 0.025323 0.016226 -0.025202 0.071700 0.043711 -0.043014 0.014427 0.008819 -0.000362 0.019723 0.013981 0.077445 0.073299 -0.055985 0.007066 -0.020032 0.014051 0.027345 0.011131 -0.027280 0.021883 0.079159 0.017103 -0.030432 -0.112654 0.017387 0.003676 0.053076 -0.074860 -0.017209 -0.023655 -0.065107 0.069038 0.024314 -0.129593 0.016060 -0.042798 0.019727 -0.023996 0.076143 0.002959 -0.060853 0.083010
be -0.122802 0.118210 -0.142177 0.104966 -0.124116 0.059486 -0.219888 -0.054984 -0.010485 0.004572 -0.108891 -0.139818 0.154197 0.014905 -0.105392 -0.026102 -0.038319 0.009335 -0.053704 -0.035862 0.061255 0.015457 -0.091228 0.031016 0.091419 -0.033597 -0.079093 0.042525 0.137595 -0.029900 0.011658 -0.046608 -0.143374 -0.054894 0.075335 0.040019 0.070689 0.068705 -0.000034 -0.163908 -0.095370 -0.213305 0.057001 0.037987 0.000203 0.036138 -0.031376 -0.084629 -0.003621 0.036758 -0.096852 -0.049909 -0.057847 0.109130 0.131478 -0.026572 -0.081177 0.068461 -0.043172 0.088640 -0.171303 -0.030253 0.018884 0.171779 -0.049129 0.133214 0.056961 0.020448 -0.098591 -0.049667 -0.227592 0.109552 0.026061 0.158110 0.042018 0.004921 0.349551 -0.153616 -0.096883 0.017496 -0.009701 0.106100 -0.125348 0.023951 0.021275 0.134429 -0.014075 0.139182 0.155278 -0.195518 0.110035 0.200080 -0.103825 -0.000155 -0.032263 0.313745 -0.284138 0.065195 0.065677 -0.055149
wall -0.125544 -0.018897 0.063428 -0.313628 -0.077893 0.062624 -0.055030 0.147308 0.222673 0.014008 -0.256479 0.116699 0.038509 -0.056764 0.034805 0.042009 -0.210342 -0.000987 0.023623 -0.117506 0.201553 0.065349 -0.086603 0.032955 -0.037302 0.023543 0.133390 -0.189909 -0.002608 0.185128 0.018212 -0.086456 0.058763 -0.022100 0.036529 0.072346 0.064754 -0.141312 0.089650 -0.029339 -0.052894 0.056798 -0.281094 -0.102289 -0.056286 0.054111 0.214916 0.023811 0.164664 -0.041101 0.033402 -0.015959 0.222132 -0.032028 -0.151459 -0.035487 -0.095420 -0.100242 -0.104340 -0.040297 0.265950 -0.036059 -0.123406 -0.090328 0.077276 -0.033507 -0.141870 0.151794 -0.128649 0.015793 -0.125756 0.037836 0.255702 -0.088690 0.006847 -0.062550 -0.289544 0.107476 0.190309 0.138509 -0.136496 0.278837 -0.022964 -0.027777 0.015210 -0.047258 -0.109344 0.045214 -0.020171 0.111230 -0.028513 -0.416387 0.220336 0.225102 0.040425 -0.098356 0.130124 0.100151 -0.116161 -0.024580
Position -0.116361 0.113494 -0.009779 -0.353291 -0.036414 0.085646 -0.086137 -0.171942 -0.045458 -0.126285 -0.319094 0.022061 0.197746 -0.090394 0.165547 0.060938 -0.455617 0.055022 -0.110699 -0.144167 0.220138 -0.055592 -0.184457 -0.158639 -0.002614 0.239788 0.114735 0.027594 0.065459 0.038327 -0.011109 -0.102171 0.203616 -0.247482 0.021299 0.152789 0.328967 -0.171404 -0.111869 -0.275533 -0.040914 0.198045 -0.114519 -0.013549 -0.098394 0.222461 0.260195 -0.006072 0.307540 0.213159 -0.122982 0.077551 -0.003205 0.272586 0.167711 -0.033786 -0.263968 -0.254040 -0.070396 0.060408 -0.110963 -0.160950 0.004344 0.208992 -0.187748 0.195612 -0.018585 -0.162611 -0.336999 -0.159166 -0.325754 -0.008389 0.185002 -0.189361 -0.090119 -0.342834 0.140860 0.002141 -0.027126 -0.036079 0.025747 0.129486 -0.255278 -0.082581 -0.059049 -0.154317 -0.076640 0.356785 0.131977 -0.128489 -0.015085 -0.218311 -0.327976 -0.095038 -0.061877 0.129894 -0.149848 0.179069 -0.018548 0.076647
This -0.046671 0.265354 -0.011773 -0.140685 -0.195613 0.109463 -0.040659 -0.159536 -0.108617 -0.422074 -0.363055 0.028244 0.202967 -0.068268 0.038192 -0.042363 -0.370731 0.064955 -0.171719 -0.104064 -0.022167 -0.001753 -0.221888 -0.082844 0.105046 0.225158 0.184177 0.075714 -0.036031 -0.014119 0.051121 -0.114764 0.105046 -0.197080 0.004118 0.171229 0.191991 -0.124595 0.102760 0.017116 0.106340 0.138570 -0.078752 0.079184 -0.068355 0.218113 0.064662 -0.110214 0.234339 0.291064 0.077304 0.170416 -0.039227 0.292319 0.118672 -0.062244 -0.118079 -0.106103 -0.097476 -0.073373 -0.079233 -0.127398 -0.072742 0.319823 -0.227941 0.205911 0.143082 -0.099321 -0.167242 -0.053095 -0.173115 -0.013250 -0.089574 0.093517 -0.144586 -0.309233 0.155963 -0.248456 -0.025910 -0.208314 -0.039775 -0.068117 -0.073214 -0.198474 -0.034482 -0.224518 0.066044 0.347162 0.166453 0.025014 0.207569 -0.185565 -0.441835 -0.095274 0.307584 0.156632 -0.039805 0.109714 -0.189243 0.232767
down -0.097445 0.002424 0.008095 0.088089 -0.071378 0.099383 -0.067687 0.054116 0.096016 0.101800 -0.020088 -0.039206 0.034455 0.066368 -0.009095 -0.001729 0.052197 -0.104307 -0.039474 -0.169658 0.096366 -0.005708 0.076578 -0.001768 -0.037485 -0.090421 -0.019733 -0.093249 0.001520 0.021562 0.040661 0.012218 -0.091333 -0.074538 -0.090284 0.099562 0.095713 0.043093 0.136960 -0.030233 0.007739 -0.043434 -0.010107 -0.025353 0.016273 0.094726 0.043280 -0.019649 -0.072528 0.002896 -0.049799 0.011368 -0.018959 -0.029861 -0.019558 -0.085671 0.027148 0.069127 -0.077847 0.026706 0.067919 0.049209 -0.096017 0.006603 0.100874 -0.029738 -0.113418 0.126821 0.113603 0.141373 -0.087526 0.031620 0.068992 0.043795 0.099486 0.118359 -0.094261 0.101851 0.003120 0.135462 0.016109 0.093102 0.095166 0.009794 0.015849 0.027350 -0.088209 -0.155039 0.105588 -0.022810 0.068101 0.010030 0.034053 0.027219 -0.011191 -0.027417 0.015508 0.016563 -0.007576 -0.079998
until -0.119474 -0.082399 -0.054224 0.059553 0.027545 0.033651 -0.146709 -0.003931 0.059023 0.193043 0.028273 -0.119093 0.030885 0.026513 0.038042 0.031875 0.034237 -0.109927 -0.018975 -0.138599 0.160796 -0.080316 0.059538 -0.002123 -0.058427 -0.039442 -0.112820 -0.053675 0.108448 -0.008568 -0.031919 0.006548 -0.045078 -0.106012 -0.065136 0.076134 0.154792 0.061898 -0.035212 -0.220672 -0.067383 -0.063732 0.084772 -0.004446 0.013564 0.059521 0.071610 0.034876 -0.049132 -0.028959 -0.177408 -0.045553 -0.015669 0.007787 0.097769 -0.064089 -0.073245 0.009205 -0.048984 0.141181 -0.059218 0.004349 0.021668 -0.049070 0.075650 0.059387 -0.090084 0.091593 0.036160 0.053952 -0.166084 0.020708 0.139923 -0.064642 0.076570 0.106541 0.100619 0.154760 -0.043268 0.172249 0.078951 0.162693 -0.084636 0.107282 0.025062 0.094565 -0.073477 -0.057728 0.099827 -0.196905 -0.044924 0.172006 -0.009724 -0.051695 -0.198476 0.082933 -0.195597 0.012083 0.116416 -0.117718
red -0.062278 0.006041 0.025543 0.217474 -0.024260 0.029572 -0.115756 0.064664 0.004534 0.243960 0.115474 -0.115388 -0.055585 0.063115 -0.114804 -0.016627 0.076855 -0.151184 0.127188 -0.008772 0.015957 0.035574 0.107078 0.008569 -0.039009 -0.207434 -0.019779 -0.044987 0.014602 0.022919 0.031659 0.042093 -0.215728 -0.093425 -0.022256 -0.069976 0.022741 0.112141 0.085809 -0.070393 -0.004456 -0.038866 -0.023857 -0.103040 -0.002693 -0.044424 0.009966 -0.042575 -0.153254 -0.150830 -0.084818 -0.098945 -0.064518 -0.002133 0.012670 -0.090937 0.121275 0.083444 0.003441 -0.037071 0.015050 0.011287 -0.085814 -0.014513 0.055728 -0.108085 -0.099368 0.120291 0.079615 0.096831 0.054084 0.037579 0.051764 0.064799 0.086861 0.156282 -0.104252 0.075628 -0.040497 0.141097 -0.025893 0.072043 0.079243 0.046184 -0.013389 0.110685 -0.104658 -0.079481 0.086959 -0.071797 0.068407 0.124640 0.004270 0.018288 -0.026859 -0.009495 -0.021908 0.005413 -0.022101 -0.159647
see -0.101543 -0.014607 -0.125811 0.035480 -0.010980 0.093483 -0.202912 -0.049344 0.037960 0.175422 -0.032179 -0.107715 0.101043 0.006514 -0.031743 0.072717 -0.073380 -0.034915 0.006523 -0.053142 0.178348 -0.009138 -0.063385 -0.014511 -0.013174 -0.029519 -0.157509 0.037278 0.128366 -0.017823 -0.004178 -0.050799 -0.029112 -0.059148 0.019731 -0.018589 0.153862 0.018883 -0.106019 -0.339003 -0.151078 -0.111870 0.047993 -0.007882 0.008907 0.055479 0.088406 0.047271 0.011192 -0.031981 -0.177477 -0.080638 -0.068742 0.056209 0.140577 0.003468 -0.139244 -0.033459 0.000209 0.150334 -0.189164 -0.045069 0.031095 0.043447 0.034066 0.090881 -0.055873 -0.017941 -0.119490 -0.079016 -0.306778 0.093627 0.172143 -0.064616 0.121562 0.056816 0.252976 0.067662 -0.069823 0.119702 0.045386 0.193115 -0.204136 0.152251 0.028408 0.138688 -0.125439 0.090214 0.094808 -0.266110 -0.009800 0.192445 -0.041710 -0.004201 -0.241543 0.198477 -0.286031 0.098697 0.170740 -0.166602
path. -0.198447 0.069748 0.083820 0.248790 -0.000682 -0.020411 -0.170500 0.009140 -0.096838 0.449243 0.182978 -0.289598 0.042539 0.128049 -0.100045 -0.057278 0.019936 -0.397718 0.161079 -0.062930 0.205496 0.034683 0.179816 -0.015138 -0.019361 -0.336059 -0.074057 -0.079474 0.182795 0.054318 0.006646 0.137533 -0.355845 -0.283782 0.093334 -0.071309 0.270202 0.242979 0.005004 -0.290126 -0.177429 -0.105205 -0.097566 -0.121566 -0.109157 -0.019634 0.078890 -0.132751 -0.184472 -0.256217 -0.290557 -0.272984 0.004470 0.148926 0.261871 -0.230098 0.100768 0.054734 -0.128563 0.021700 -0.193620 -0.081549 -0.070364 0.064076 0.014490 -0.133106 -0.215951 0.139203 -0.047780 0.024695 -0.004310 0.069146 0.117284 0.125282 0.112559 0.101507 -0.019706 0.094731 -0.244703 0.184102 0.004172 0.359904 0.102086 0.055371 -0.060767 0.230647 -0.173299 -0.035951 0.291789 -0.261051 0.158876 0.283078 -0.145331 0.068851 -0.071483 0.074791 -0.250774 0.090348 0.016481 -0.320694
two 0.006542 -0.015721 -0.026098 -0.018973 -0.086094 0.056670 0.017691 -0.007414 0.044399 -0.180771 -0.085382 0.045133 0.061913 -0.025361 0.034564 -0.038083 0.068922 0.096836 -0.180246 -0.132184 -0.033865 -0.044596 0.001469 -0.035360 0.009969 0.163175 0.018453 0.012012 -0.029432 -0.082182 0.044419 0.005870 0.051436 0.028636 -0.158760 0.186105 -0.035324 -0.014219 0.098817 0.158094 0.087195 0.005273 0.139464 0.080197 0.060371 0.106895 -0.091036 -0.045918 0.015707 0.220030 0.111352 0.127428 -0.039149 -0.062624 -0.059043 0.012902 -0.015446 0.065307 -0.020003 0.019505 0.066487 0.069731 -0.018418 0.083317 -0.009725 0.087199 0.068397 -0.006754 0.115323 0.116379 -0.043298 -0.038473 -0.061974 0.062150 -0.050130 0.032286 0.063400 -0.041727 0.018971 -0.038065 0.070241 -0.121189 0.052932 -0.109809 0.010277 -0.133021 0.058077 -0.098882 0.003224 0.052566 0.048751 -0.035651 -0.027926 -0.050445 0.058187 0.034918 0.078054 -0.050852 -0.029012 0.156979
brick -0.035337 -0.015986 0.052282 0.251613 0.032428 0.028004 0.043943 -0.001460 -0.078797 0.200416 0.221445 -0.150513 -0.033908 0.092260 -0.033613 -0.051543 0.104243 -0.230155 0.039832 -0.087981 0.006226 -0.033293 0.168913 0.019603 -0.032237 -0.174218 -0.056044 -0.000517 0.013838 -0.033776 -0.039536 0.098509 -0.123344 -0.200778 -0.089501 0.037738 0.104731 0.158274 0.070182 -0.018740 -0.010606 0.021303 0.072993 -0.055127 -0.016794 0.032809 0.008713 -0.040529 -0.183427 -0.093423 -0.115367 -0.127434 -0.055828 0.044982 0.111595 -0.149339 0.118684 0.035925 -0.040464 -0.017375 -0.110029 0.000377 -0.077699 0.009682 -0.001355 -0.068093 -0.137902 0.066137 0.168369 0.152421 0.078979 -0.019728 -0.061237 0.056958 0.067070 0.112683 -0.104465 0.103528 -0.188351 0.088235 0.092275 0.063593 0.172647 0.014903 -0.064750 0.024882 -0.053009 -0.181740 0.136875 -0.055878 0.102716 0.238315 -0.182168 -0.065569 -0.003562 -0.009522 -0.038458 -0.043460 -0.028619 -0.098043
blue-tiled 0.030997 0.037643 -0.015957 0.142613 -0.078148 0.117683 0.132403 -0.075810 -0.040925 -0.257615 -0.008586 -0.007495 0.048498 0.020994 0.067892 -0.070361 0.067907 0.042471 -0.207518 -0.209837 -0.160228 -0.110424 0.046502 -0.021440 0.021424 0.118622 0.084178 0.040310 -0.099947 -0.108146 -0.029592 0.026964 0.053458 -0.156724 -0.253694 0.283108 0.014587 0.011100 0.203565 0.248839 0.199187 0.089801 0.210414 0.068578 0.055714 0.188826 -0.083095 -0.061840 -0.052356 0.250410 0.092141 0.167518 -0.125108 0.051192 -0.023363 -0.090260 0.034441 0.040396 -0.027855 -0.045100 0.036362 0.067883 -0.098657 0.135864 -0.075883 0.117987 0.045892 -0.019030 0.265525 0.242204 0.022798 -0.086005 -0.223281 0.085570 -0.046952 -0.004738 -0.032152 -0.030044 -0.095169 -0.069008 0.134331 -0.246100 0.173879 -0.130079 -0.047120 -0.217779 0.103833 -0.162810 0.091169 0.102810 0.118142 0.063915 -0.285717 -0.207738 0.182139 0.039415 0.107472 -0.110295 -0.109918 0.243663
yellow -0.151295 -0.069226 0.065924 0.109660 0.001683 -0.004207 -0.032065 0.014946 0.014084 0.171221 0.109191 -0.161957 0.016348 0.044000 -0.015070 -0.018212 0.030136 -0.159882 -0.053534 -0.186608 0.138884 -0.102972 0.129853 0.048953 -0.044301 -0.018581 -0.023993 -0.113573 0.034855 0.055165 -0.054174 0.080668 -0.148180 -0.246746 -0.165840 0.206530 0.160678 0.156815 0.090180 -0.056828 -0.136652 0.023891 0.070848 -0.118698 -0.049874 0.122951 0.038684 -0.125544 -0.096344 -0.040350 -0.040176 -0.142332 0.028612 -0.079649 0.080616 -0.172799 0.087189 0.003891 -0.107689 0.006935 0.005470 -0.021355 -0.036025 0.030138 0.012212 -0.018166 -0.159363 0.107514 0.134697 0.123301 -0.007719 -0.020695 0.114022 0.085038 0.002264 0.160657 -0.167513 0.123375 -0.178461 0.099955 0.083937 0.208261 0.109190 -0.109292 -0.096134 -0.013048 -0.061003 -0.171484 0.176927 -0.019375 0.151483 0.171475 -0.110022 0.079951 -0.029947 0.052961 -0.034006 -0.020799 0.005291 -0.124913
face 0.096384 -0.095826 0.019980 0.095734 -0.002799 0.130185 0.021505 0.136679 0.136480 0.104830 0.082945 0.070546 -0.092150 0.027067 -0.067971 0.069749 0.117601 -0.033003 0.060784 -0.010134 -0.018849 0.079325 0.077037 0.004407 -0.022552 -0.091931 -0.082306 -0.025601 -0.105656 0.045850 0.080253 -0.000155 -0.000676 0.111043 -0.075063 -0.105178 -0.080866 -0.037638 0.127308 0.045540 0.038684 -0.015825 0.014078 -0.013754 0.086359 -0.034557 -0.006420 0.112065 -0.061675 -0.075020 0.071165 0.034443 -0.048198 -0.098305 -0.090056 0.062906 0.070907 0.061782 0.048469 -0.035347 0.111958 0.081850 -0.126829 -0.145795 0.156722 -0.070218 -0.037898 0.076585 0.127400 0.145543 0.012805 -0.001593 -0.000283 -0.060892 0.146055 0.177921 -0.178874 0.118277 0.158880 0.094748 0.022997 -0.032823 0.075104 0.092100 0.062739 0.027385 -0.069989 -0.165062 -0.085834 0.060116 -0.034576 -0.027133 0.192538 0.061142 -0.000341 -0.188313 0.165130 -0.032529 0.018287 -0.092441
an -0.007797 0.059930 -0.057982 -0.066969 -0.052954 0.022617 -0.013261 -0.124905 -0.072493 -0.153691 -0.086658 -0.019259 0.109630 -0.047440 -0.062465 0.028711 -0.164338 0.129709 -0.127700 -0.000368 0.080845 -0.050560 -0.164970 0.054987 0.065670 0.205429 -0.059827 0.060637 -0.028041 0.021868 -0.008018 -0.068685 0.041776 -0.047210 -0.033606 0.101144 0.111913 0.010226 -0.060153 -0.111255 -0.180640 -0.004826 0.043855 -0.002724 -0.044147 0.117436 -0.004213 -0.078743 0.113261 0.103760 0.124357 -0.029051 -0.027589 -0.035686 0.102176 0.054740 -0.054795 -0.092207 -0.007592 0.004386 -0.187640 -0.087148 0.101257 0.182700 -0.066849 0.125935 0.091174 -0.137195 -0.127982 -0.154363 -0.201306 0.008559 0.050587 0.084838 -0.044171 -0.042234 0.171577 -0.133629 -0.136600 -0.183978 0.027454 0.055277 -0.120475 -0.111366 -0.051696 -0.050523 0.026317 0.112191 0.069941 -0.017639 0.169999 0.078899 -0.152906 0.095695 0.026490 0.200429 -0.075064 0.096607 0.083755 -0.021788
chair -0.013747 -0.037745 0.014920 0.136589 -0.017324 0.060066 -0.055953 0.104507 0.070377 0.210843 0.085439 -0.031165 -0.076153 0.043331 -0.126967 0.054781 0.053431 -0.116304 0.123916 0.024310 0.019994 0.085323 0.053411 0.050679 -0.004723 -0.181221 -0.054105 -0.039597 -0.026994 0.068854 0.044873 0.009819 -0.126921 0.010723 -0.002024 -0.127943 -0.017094 0.046792 0.083147 -0.053343 -0.061442 -0.049384 -0.062836 -0.094553 0.019301 -0.061970 0.016393 0.012229 -0.086371 -0.185019 0.013351 -0.106947 -0.013555 -0.055107 -0.016036 -0.021767 0.112148 0.046141 0.013253 -0.048114 0.021659 -0.001207 -0.081168 -0.090820 0.094735 -0.108678 -0.079307 0.103511 0.066742 0.048189 0.032813 0.039169 0.052836 0.029044 0.117195 0.171310 -0.148153 0.091469 0.050386 0.113002 -0.029564 0.095764 0.054372 0.082146 0.018764 0.100957 -0.116237 -0.074075 0.007768 -0.005687 0.049806 0.055708 0.117596 0.120026 -0.025017 -0.086879 0.026234 0.025141 -0.003540 -0.183682
carpet 0.011908 -0.012009 -0.048207 0.073096 -0.152255 0.184139 -0.045005 0.115858 0.158389 -0.075563 -0.105042 0.110860 -0.028281 -0.000406 -0.127960 0.067169 0.038961 0.069949 -0.035021 -0.066725 -0.048721 0.091801 -0.048645 0.055526 0.022845 -0.026147 -0.010111 -0.021331 -0.115096 0.027479 0.114248 -0.089399 -0.009332 0.096335 -0.113505 -0.008915 -0.087712 -0.050996 0.213923 0.114093 0.061243 -0.047929 -0.004366 -0.024041 0.093842 0.063875 -0.018846 0.025990 -0.004545 0.046950 0.204741 0.077821 -0.069252 -0.096914 -0.151665 0.056350 0.059082 0.097274 0.008187 -0.068671 0.106666 0.055787 -0.129355 -0.023586 0.103941 -0.021254 0.025442 0.096639 0.136188 0.123612 -0.082873 0.035588 0.002361 0.081400 0.107463 0.153785 -0.108014 0.004630 0.154042 0.031430 -0.036936 -0.072999 0.044414 0.009411 0.072979 -0.031090 -0.071420 -0.085942 -0.045882 0.100921 0.112639 -0.082720 0.129048 0.108333 0.072803 -0.055669 0.137266 0.012764 -0.061804 -0.024251
intersection. 0.009722 0.004286 0.052882 0.081408 -0.062916 0.096372 0.020190 -0.003877 -0.003339 -0.005302 -0.030206 -0.028530 0.037408 0.019706 0.007063 -0.000274 -0.007525 -0.058753 -0.097837 -0.140612 0.030609 -0.035771 0.023792 -0.018747 -0.044273 0.021895 -0.015292 0.018992 -0.053202 -0.035348 0.030947 -0.010712 0.021063 -0.106031 -0.164983 0.119814 0.067182 0.010069 0.126012 0.050326 0.079520 0.120718 0.047642 -0.029707 0.025536 0.108876 0.027792 -0.005608 -0.055372 0.086296 0.021029 0.014446 -0.089611 -0.028897 0.023688 -0.069906 0.042446 0.025339 -0.035356 -0.011455 0.004218 0.015751 -0.100691 0.081859 -0.019875 0.004368 -0.088933 0.007361 0.150468 0.137079 -0.048461 -0.032138 -0.000038 0.019025 0.058395 0.078559 -0.068357 0.072060 -0.075718 0.029759 0.044674 -0.041815 0.079225 -0.055163 -0.010769 -0.108722 -0.067075 -0.115235 0.056391 0.016768 0.104736 -0.002138 -0.129984 -0.041578 0.035391 -0.026500 0.054125 -0.005972 -0.058511 0.001806
back 0.020006 -0.051381 0.190203 -0.334670 -0.097967 0.132518 0.101682 0.143659 0.238829 -0.085037 -0.260760 0.133772 0.069948 -0.077092 0.036275 0.086748 -0.249592 0.068421 -0.101745 -0.176879 0.272786 0.044329 -0.107938 0.010958 -0.052020 0.184646 0.086907 -0.161273 -0.164246 0.250350 0.066364 -0.078852 0.151874 -0.041674 -0.087617 0.177640 0.118952 -0.186787 0.191752 -0.015775 -0.095708 0.228868 -0.260420 -0.112728 -0.057320 0.145024 0.222278 0.043140 0.192280 -0.008563 0.186598 -0.023916 0.187485 -0.157232 -0.108407 0.015097 -0.028174 -0.141769 -0.071652 -0.067565 0.260846 -0.030253 -0.199282 0.002683 0.122047 -0.039961 -0.198358 0.052372 -0.066880 0.032846 -0.206832 -0.017185 0.291757 -0.125672 0.108455 0.008677 -0.412574 0.119177 0.131203 0.008245 -0.088873 0.225813 0.044160 -0.115651 -0.039739 -0.188747 -0.113725 -0.060341 -0.028437 0.180272 0.009943 -0.500296 0.177045 0.299352 0.155675 -0.193433 0.321003 0.109100 -0.043287 -0.102169
hallway. -0.016175 -0.109312 -0.043217 0.009262 0.018855 0.070601 -0.048202 0.042223 0.101791 0.098141 0.028785 0.015006 0.010884 0.021922 0.074403 0.039077 0.114005 -0.045312 -0.065301 -0.134485 0.080866 -0.048905 0.114072 -0.070655 -0.041719 0.002803 -0.094601 -0.028517 0.042620 -0.052298 0.034230 0.040319 0.043845 0.020738 -0.107253 0.063289 0.034489 0.004966 0.027021 -0.010700 0.040940 -0.027373 0.122331 0.045307 0.080712 0.065883 0.017156 0.092280 -0.044716 0.080553 -0.083714 0.059506 -0.038828 -0.040993 0.002317 -0.018933 -0.046121 0.067243 -0.031199 0.095616 0.057942 0.075911 -0.060157 -0.100883 0.087873 0.044057 -0.075244 0.047432 0.110925 0.141178 -0.066837 -0.021390 0.044309 -0.088471 0.067345 0.094466 0.020836 0.135649 0.045571 0.132005 0.100503 0.017073 -0.019442 0.054622 0.067636 0.001669 -0.072296 -0.159066 -0.013036 -0.069744 -0.082516 0.063334 0.067108 -0.058791 -0.150164 -0.068044 -0.017878 -0.056355 0.057643 0.006458
position -0.154970 0.086947 0.034911 -0.128320 -0.006228 -0.017145 -0.114726 -0.082037 -0.047120 0.087340 -0.115318 -0.095756 0.119465 -0.019770 0.037816 0.022022 -0.258759 -0.090563 0.016326 -0.064918 0.208189 -0.019962 -0.065498 -0.040781 0.003608 0.030364 0.043917 -0.046018 0.107521 0.086841 -0.017740 -0.027004 -0.044951 -0.206878 0.077555 0.050980 0.253255 0.004925 -0.067578 -0.257056 -0.163857 0.039903 -0.148643 -0.072042 -0.129118 0.091632 0.157775 -0.082848 0.100685 -0.029999 -0.132125 -0.102978 0.059862 0.142345 0.171000 -0.113139 -0.092387 -0.131067 -0.093091 0.031789 -0.097538 -0.148488 0.008758 0.109585 -0.087751 0.036935 -0.091749 -0.028264 -0.218833 -0.137418 -0.152792 0.048672 0.177060 -0.026124 -0.046477 -0.135384 0.032650 0.007580 -0.101002 0.011317 -0.031778 0.260223 -0.115807 -0.039369 -0.058813 0.013180 -0.090033 0.201921 0.161745 -0.120494 0.077564 -0.028165 -0.168532 0.070654 -0.039063 0.113012 -0.164701 0.149170 -0.000906 -0.097489
alley -0.049576 -0.029744 -0.021364 0.010948 -0.038834 0.062429 -0.028289 0.040210 0.072528 0.033733 -0.003107 -0.009465 -0.002269 -0.002949 -0.058692 0.025946 -0.022855 0.012039 -0.025408 -0.050512 0.072575 -0.015738 -0.022504 0.073040 -0.019576 0.021047 -0.031681 -0.044677 -0.033184 0.046178 -0.008113 -0.048825 -0.014414 -0.018990 -0.070826 0.052319 0.028887 0.017298 0.056989 -0.046251 -0.099114 -0.030139 0.003592 -0.053972 0.007067 0.052068 0.028332 -0.003293 0.012812 -0.019050 0.073585 -0.044987 0.025131 -0.105296 -0.039666 -0.006958 -0.004942 -0.018090 -0.027943 -0.008665 0.033471 0.010975 -0.016064 -0.016940 0.054726 -0.005211 -0.038690 0.041893 0.033576 0.019733 -0.093677 0.029302 0.097984 0.035659 0.036309 0.097674 -0.085222 0.049157 -0.001868 0.032683 -0.010036 0.097699 -0.002335 -0.013529 -0.011023 0.007378 -0.042432 -0.056707 0.017840 0.030557 0.079132 0.022504 0.052803 0.107630 -0.025393 0.036455 0.024671 0.029115 0.022023 -0.075276
way -0.037369 -0.088273 0.021208 0.069574 -0.039906 0.197117 -0.077398 0.068926 0.145416 0.142542 0.020478 -0.010648 0.025023 0.040701 0.043748 0.026640 0.091636 -0.118671 -0.083665 -0.245125 0.126494 -0.019002 0.140327 -0.070260 -0.055853 -0.036409 -0.094200 -0.076409 -0.006435 -0.008086 0.076330 0.027497 0.002445 -0.060924 -0.184127 0.120886 0.116935 0.022887 0.160722 -0.034396 0.056004 0.010665 0.097335 -0.017278 0.077469 0.134028 0.074770 0.061774 -0.054771 0.069074 -0.054653 0.052238 -0.058474 -0.055380 0.008356 -0.063427 -0.016128 0.073727 -0.057199 0.069235 0.096496 0.097305 -0.169300 -0.030003 0.123085 0.020007 -0.141967 0.119147 0.169118 0.241278 -0.125365 -0.015027 0.102596 -0.045284 0.138676 0.179929 -0.103883 0.187239 0.050398 0.191852 0.126953 0.065367 0.090694 0.017963 0.044450 -0.021474 -0.119309 -0.248902 0.082780 -0.047797 0.020231 0.021100 0.036499 -0.029864 -0.078890 -0.090786 0.065896 -0.025366 0.020269 -0.063967
next -0.080138 0.057391 -0.026193 0.248716 -0.060195 0.084780 -0.137181 0.059223 0.015450 0.206139 0.070056 -0.111371 0.015878 0.104704 -0.124405 -0.007937 0.098177 -0.185067 0.084989 -0.016820 0.019395 0.086263 0.076524 0.017477 0.034038 -0.259088 -0.085923 -0.018811 0.078201 0.011337 0.054186 0.032048 -0.219896 -0.038501 0.062579 -0.108531 0.048766 0.111210 0.096808 -0.101809 -0.039434 -0.165012 -0.023072 -0.017227 0.030157 -0.027445 -0.015835 -0.030523 -0.137133 -0.124014 -0.115408 -0.093090 -0.057796 0.063079 0.069278 -0.075400 0.072713 0.131590 -0.051584 0.006194 -0.090771 0.013154 -0.076930 0.003401 0.057844 -0.063961 -0.076750 0.135205 0.062431 0.078380 -0.029130 0.079201 -0.010851 0.129319 0.130065 0.131053 0.053414 0.030755 -0.042479 0.154196 -0.007872 0.119061 0.066781 0.098069 0.048152 0.172427 -0.103740 -0.063846 0.125762 -0.128614 0.118438 0.187350 0.012337 0.040508 -0.018297 0.033719 -0.135589 0.042774 -0.006465 -0.167426
chair. 0.002087 0.000006 -0.024269 0.077934 -0.024993 0.085810 -0.006537 0.009303 0.021227 0.027946 0.004333 -0.000097 -0.004482 0.021073 -0.010060 0.028322 0.012525 -0.024292 0.005169 -0.046610 -0.023401 0.011343 0.014155 -0.020680 -0.019035 -0.047752 0.007335 0.025621 -0.023204 -0.023974 0.019405 -0.021622 -0.000527 -0.031967 -0.068072 0.000732 0.000781 -0.014146 0.074779 0.010929 0.059332 0.029407 0.016151 -0.021419 0.043346 0.037947 0.015656 0.029117 -0.036183 0.011752 -0.002891 0.031186 -0.075316 0.019149 -0.016350 -0.024973 0.020428 0.019239 0.002151 -0.010056 0.018140 0.019415 -0.069825 0.001527 0.013629 -0.019975 -0.043366 0.018507 0.081002 0.083918 -0.015201 0.016246 -0.018322 -0.011369 0.060247 0.039329 -0.045299 0.064748 0.012839 0.058339 0.013860 -0.047359 0.029013 0.036922 0.018125 -0.019750 -0.057064 -0.048891 0.010197 -0.000149 0.019239 0.002799 -0.037217 -0.045605 -0.018778 -0.028866 0.021184 -0.000167 -0.021957 -0.006313
will -0.099386 0.058481 -0.068698 0.034866 -0.011010 -0.043327 0.010121 -0.133354 -0.111748 -0.050633 -0.016034 -0.106861 0.066549 0.002036 -0.008252 -0.000231 -0.114866 0.011757 -0.088419 -0.039004 0.043204 -0.110107 -0.086399 0.081521 0.039247 0.081805 -0.010013 0.030688 0.047709 0.002721 -0.116398 -0.037987 -0.021401 -0.147743 -0.014915 0.126694 0.138272 0.060053 -0.073327 -0.123440 -0.151362 -0.035708 0.056378 -0.008425 -0.049856 0.099761 0.014766 -0.086496 0.033629 0.030529 -0.008241 -0.093291 -0.001907 0.035703 0.126488 -0.075320 -0.025773 -0.089208 -0.054192 0.030810 -0.198084 -0.105312 0.126735 0.114577 -0.090894 0.087824 0.013395 -0.055442 -0.032913 -0.119593 -0.097325 0.013289 -0.003686 0.069135 -0.060757 -0.058166 0.136676 -0.046778 -0.205093 -0.090191 0.026231 0.081397 -0.071925 -0.051141 -0.068698 0.001042 0.033543 0.088192 0.122072 -0.061139 0.122638 0.172808 -0.203669 0.000794 -0.019522 0.215567 -0.187652 0.063379 0.055814 -0.017611
pink -0.090997 -0.032644 0.027604 0.165514 0.028117 0.044581 -0.149592 0.066519 0.046881 0.361083 0.139701 -0.127643 -0.014069 0.092859 -0.061474 0.011130 0.083966 -0.253702 0.127574 -0.046921 0.144685 0.044366 0.156503 -0.025609 -0.041694 -0.249683 -0.124990 -0.068370 0.106212 0.031108 0.045809 0.072611 -0.187062 -0.087421 0.035723 -0.100638 0.121571 0.122923 0.018605 -0.196543 -0.081526 -0.088511 -0.039446 -0.076286 -0.008752 -0.031284 0.075265 0.019565 -0.139490 -0.178427 -0.206683 -0.138297 -0.019935 0.016087 0.104863 -0.102818 0.034439 0.072565 -0.050275 0.054557 -0.042788 0.015881 -0.082747 -0.071312 0.097762 -0.099030 -0.165623 0.125124 0.022556 0.075454 -0.040355 0.060012 0.136999 0.009336 0.142795 0.155794 -0.045465 0.140567 -0.047927 0.217507 0.024701 0.224661 0.038159 0.114128 0.025715 0.185620 -0.151845 -0.109532 0.117129 -0.165430 0.024707 0.170728 0.054810 0.044531 -0.141830 -0.029803 -0.119710 0.034894 0.051845 -0.234112
follow -0.097221 -0.017610 0.028163 0.168320 0.028599 0.064198 -0.171589 0.052640 0.029120 0.369025 0.130305 -0.156351 -0.000033 0.090066 -0.059879 0.026684 0.049349 -0.257420 0.140983 -0.033096 0.155638 0.058959 0.143252 -0.045077 -0.033082 -0.260792 -0.123969 -0.058058 0.110537 0.038308 0.047561 0.056092 -0.193793 -0.110951 0.063875 -0.121275 0.147747 0.112375 0.007585 -0.249712 -0.087526 -0.080059 -0.041315 -0.079216 -0.023837 -0.041145 0.091216 0.010207 -0.116940 -0.192301 -0.244881 -0.144374 -0.040922 0.069301 0.139747 -0.094695 0.029144 0.052254 -0.031637 0.054227 -0.077439 -0.002366 -0.090125 -0.038915 0.076513 -0.075949 -0.166172 0.116026 -0.014210 0.046146 -0.069067 0.079284 0.148326 -0.007809 0.160119 0.139238 -0.009123 0.135047 -0.052726 0.229077 0.030197 0.225817 0.009841 0.116782 0.021591 0.192960 -0.159851 -0.056588 0.135652 -0.202186 0.022249 0.182820 0.011089 0.013884 -0.149646 -0.011090 -0.160205 0.055274 0.056219 -0.265461
alley. -0.025668 0.005978 0.005219 -0.020114 -0.058796 0.068318 -0.002775 0.047891 0.089299 -0.013697 -0.065314 0.032123 -0.004883 0.004421 -0.030770 0.052685 -0.061973 0.019740 -0.000750 -0.019702 0.049059 0.031776 -0.053017 0.047826 0.014602 0.014687 0.008523 -0.047681 -0.061768 0.087418 0.013058 -0.062990 -0.007844 0.012140 -0.029039 0.002632 -0.002643 -0.050289 0.115142 -0.002087 -0.049426 -0.010565 -0.073272 -0.051957 -0.007374 0.043327 0.055354 0.017020 0.023889 -0.034607 0.106197 -0.013527 0.020948 -0.076881 -0.058574 -0.011270 0.010598 -0.024307 -0.023751 -0.039161 0.094375 -0.001481 -0.062953 -0.016585 0.049005 -0.041786 -0.051636 0.046836 0.018314 0.010264 -0.056492 0.047579 0.071868 0.009439 0.047440 0.058413 -0.154475 0.036263 0.066416 0.009978 -0.055662 0.058369 0.014341 -0.020119 0.003774 -0.024403 -0.051721 -0.034823 -0.000740 0.097406 0.069929 -0.100294 0.078673 0.126660 0.051570 -0.034079 0.086511 0.067966 -0.018885 -0.066909
so 0.035658 0.036045 0.064977 -0.294133 0.022510 -0.111755 0.129961 0.027534 0.002667 -0.099928 -0.117506 0.155477 -0.060572 -0.071001 0.032079 0.000997 -0.190387 0.117214 0.092709 0.123743 0.027299 0.048630 -0.144020 0.085707 -0.029523 0.028641 0.129926 -0.052551 -0.053021 0.103232 -0.057555 -0.074855 0.151836 0.077940 0.171976 -0.081103 -0.053662 -0.144869 -0.114962 0.023577 -0.033914 0.106660 -0.259515 -0.056197 -0.074573 -0.095251 0.101106 0.054763 0.159162 -0.077727 0.063023 -0.029407 0.188471 -0.006206 -0.134037 0.084467 -0.066588 -0.138053 -0.002559 -0.071194 0.069344 -0.057850 0.076750 -0.097006 0.028264 -0.075611 -0.001034 -0.040998 -0.204880 -0.193085 0.042163 -0.012183 0.046764 -0.119224 -0.048634 -0.198869 -0.161999 -0.023153 0.095719 -0.093330 -0.171465 0.052604 -0.046046 0.031665 -0.015624 -0.028467 0.035983 0.168311 -0.154126 0.139773 -0.121330 -0.325116 0.161518 0.116557 0.059595 -0.110660 0.124228 0.050455 -0.049980 0.025046
then -0.032002 -0.020493 0.035785 0.146678 0.003864 0.137412 -0.081204 0.009571 0.013227 0.222977 0.088514 -0.091267 0.019260 0.059812 -0.034575 0.057278 -0.008146 -0.190681 0.038380 -0.099394 0.135935 0.015513 0.101491 -0.060644 -0.032922 -0.126833 -0.114305 -0.005850 0.023943 0.016056 0.055935 0.021649 -0.079868 -0.133380 -0.073735 -0.030400 0.171942 0.062259 0.060563 -0.170700 -0.061774 0.029977 0.010465 -0.056941 0.000807 0.078257 0.085583 0.029644 -0.087105 -0.075165 -0.117490 -0.071419 -0.094279 0.040138 0.138196 -0.088004 0.018262 0.009684 -0.039201 0.024770 -0.096418 -0.015575 -0.119743 0.011493 0.059257 -0.035051 -0.153517 0.029084 0.045930 0.096759 -0.110083 0.025338 0.093623 -0.028449 0.154494 0.122910 -0.046905 0.137096 -0.082692 0.118164 0.076157 0.132866 0.020960 0.063857 0.007398 0.051423 -0.157604 -0.093413 0.123251 -0.135995 0.075895 0.141509 -0.096697 0.002397 -0.083481 -0.033605 -0.068074 0.051916 0.045564 -0.188569
that -0.026099 0.024321 0.057783 -0.222045 0.012343 -0.073124 0.054195 0.032378 0.036498 -0.034911 -0.113813 0.078306 -0.020175 -0.047377 0.006893 0.033264 -0.164751 0.037734 0.073141 0.085500 0.073154 0.059087 -0.107515 0.054973 0.002850 0.023574 0.091380 -0.064709 -0.021945 0.116773 -0.022122 -0.045875 0.052205 0.032438 0.123601 -0.055360 -0.008925 -0.097023 -0.064326 -0.024038 -0.073267 0.061437 -0.220078 -0.069879 -0.087642 -0.046770 0.105734 0.002192 0.124978 -0.089886 0.056557 -0.050731 0.149582 0.007605 -0.061740 0.035558 -0.029312 -0.109889 -0.017826 -0.056681 0.063373 -0.081265 0.028567 -0.049302 0.004662 -0.055142 -0.015753 -0.006836 -0.173830 -0.145152 0.022270 0.010319 0.087016 -0.060577 -0.043924 -0.118463 -0.143496 -0.013222 0.074822 -0.055089 -0.126374 0.118163 -0.055012 -0.010664 -0.024865 -0.017994 -0.014917 0.149457 -0.067509 0.097564 -0.045525 -0.245642 0.112412 0.157861 0.055694 -0.055162 0.074456 0.081404 -0.033271 -0.029228
are -0.177411 0.006257 -0.065813 -0.009226 -0.010951 -0.010114 -0.201855 -0.028388 0.013754 0.189439 -0.063686 -0.127870 0.058158 -0.011753 0.000032 0.028819 -0.113930 -0.035197 0.052319 -0.066076 0.140547 -0.043666 -0.051662 -0.016075 -0.062498 -0.050985 0.017266 -0.039842 0.116570 0.034904 -0.053194 -0.035839 -0.090894 -0.158219 0.022070 0.042193 0.144726 0.032201 -0.071695 -0.266385 -0.099281 -0.023187 -0.044447 -0.089566 -0.025983 0.026156 0.105826 -0.035903 0.012140 -0.085186 -0.168833 -0.097354 -0.011025 0.073793 0.080341 -0.078781 -0.065736 -0.057442 -0.027262 0.081512 -0.057117 -0.075538 0.050978 0.035724 -0.024155 0.027794 -0.088689 0.042785 -0.123902 -0.064433 -0.164700 0.067784 0.193141 -0.044874 0.027744 -0.005005 0.106761 0.091674 -0.063718 0.142591 -0.028159 0.189213 -0.166307 0.080712 -0.023950 0.094294 -0.105102 0.139205 0.119500 -0.207399 -0.026559 0.070609 -0.050211 -0.019014 -0.179301 0.171674 -0.229190 0.086301 0.064912 -0.127466
past -0.028108 -0.002096 0.028063 0.119822 -0.059037 0.109138 -0.057191 0.083282 0.071131 0.090526 0.031818 -0.027947 -0.021949 0.045012 -0.066631 -0.021677 0.052744 -0.096451 0.036969 -0.072508 0.018146 0.053370 0.083686 -0.000113 -0.028769 -0.117769 0.005875 -0.056005 -0.028043 0.022871 0.052454 0.007323 -0.090726 -0.047952 -0.060666 0.000723 0.015785 0.031659 0.146403 0.028891 0.041390 -0.012636 -0.016190 -0.042556 0.026446 0.014459 0.011124 0.001718 -0.063421 -0.035018 -0.006918 0.003099 -0.020845 -0.014005 -0.048252 -0.051959 0.051761 0.063761 -0.020826 -0.041261 0.089113 0.060934 -0.128691 -0.013961 0.069740 -0.049520 -0.066686 0.115329 0.092951 0.152063 -0.014886 0.021636 0.018744 0.050313 0.076059 0.118234 -0.142592 0.064080 0.050202 0.109794 -0.001502 0.041873 0.118607 0.014888 0.015138 0.023064 -0.055982 -0.111138 0.049687 0.013630 0.071961 0.003252 0.028067 0.021876 0.042263 -0.055970 0.068229 -0.006358 -0.055504 -0.052957
all -0.104282 -0.021067 0.004774 0.166362 -0.011365 0.020309 -0.109474 0.055739 0.031376 0.229541 0.106411 -0.101512 -0.010661 0.093393 -0.006528 -0.059688 0.167643 -0.194596 0.042556 -0.130067 0.029887 0.011246 0.180169 -0.036287 -0.044310 -0.201656 -0.026639 -0.077232 0.090005 -0.040240 0.007692 0.089619 -0.152292 -0.092623 -0.023298 0.021036 0.062505 0.122089 0.063946 -0.026322 0.067580 -0.081244 0.036700 -0.006033 0.023484 -0.009880 0.007520 -0.035646 -0.146730 -0.053683 -0.201541 -0.032331 -0.023017 0.047729 0.023792 -0.124716 0.050038 0.120257 -0.060689 0.054393 0.018760 0.066957 -0.067012 -0.038542 0.052361 -0.051885 -0.107034 0.161625 0.134428 0.172877 0.044216 0.006043 0.009212 0.049661 0.065545 0.102365 -0.008554 0.116879 -0.026358 0.222252 0.056703 0.081658 0.123398 0.055256 0.019243 0.116166 -0.066695 -0.143674 0.111474 -0.117650 -0.006960 0.134847 0.001561 -0.087151 -0.083538 -0.016441 -0.077323 -0.047767 -0.029564 -0.063161
easel -0.031830 -0.011062 0.004243 -0.009711 0.003720 -0.003156 -0.066015 0.073734 0.070515 0.119915 -0.006530 0.001110 -0.046495 0.004064 -0.067598 0.041667 -0.035067 -0.018561 0.120571 0.060795 0.027401 0.071432 -0.018430 0.031763 -0.014890 -0.103596 0.016160 -0.051471 -0.003203 0.086629 0.003707 -0.030069 -0.074318 0.029184 0.070585 -0.102282 -0.021653 -0.013927 0.012397 -0.074595 -0.062218 -0.042752 -0.118055 -0.078823 -0.016011 -0.075395 0.051896 0.017673 0.010432 -0.147825 -0.006359 -0.066993 0.044899 -0.020425 -0.046097 0.015239 0.028767 -0.014593 0.012157 -0.024610 0.056198 -0.022849 -0.019538 -0.074279 0.053729 -0.060677 -0.041595 0.066000 -0.058893 -0.042945 -0.001003 0.044568 0.086552 -0.015737 0.048542 0.046606 -0.093382 0.045241 0.079272 0.083849 -0.073806 0.103234 -0.031070 0.065670 0.017244 0.086895 -0.064095 0.044850 -0.021911 -0.001689 -0.016677 -0.056842 0.137575 0.100909 -0.030099 -0.036896 0.006650 0.045365 0.004962 -0.111777
carpet. -0.035615 -0.021734 -0.042318 0.005703 -0.071741 0.094335 -0.080561 0.044608 0.078376 0.018743 -0.061791 0.034031 0.027117 -0.008101 -0.067478 0.048994 -0.001424 0.006451 -0.042888 -0.060665 0.077115 0.021019 -0.014950 0.012482 0.008026 0.007840 -0.077860 -0.021497 0.004879 -0.002476 0.081849 -0.031677 -0.003300 0.032536 -0.049935 0.009506 0.031143 0.004070 0.041949 -0.038089 -0.043757 -0.055751 0.026766 -0.002882 0.053396 0.063004 0.011641 0.021044 0.021238 0.046022 0.050484 0.015069 -0.032801 -0.039830 -0.010146 0.026434 -0.026767 0.049297 -0.030723 0.018171 -0.021553 0.004622 -0.029587 -0.004493 0.069487 0.035110 -0.003139 0.037428 0.011590 0.027648 -0.142035 0.012255 0.060361 0.027558 0.066404 0.080240 0.047412 0.014751 0.044828 0.028250 0.009461 0.056495 -0.047539 0.017990 0.046055 0.015827 -0.071831 -0.019123 0.005283 -0.039276 0.062340 0.026867 0.056735 0.079510 -0.047624 0.013215 -0.028615 0.019049 0.018038 -0.061437
wood -0.125244 -0.011074 0.030730 0.241792 0.054997 -0.012070 -0.127416 0.027988 -0.040695 0.371526 0.206161 -0.221479 -0.008995 0.109646 -0.079923 -0.027110 0.101343 -0.293997 0.122004 -0.023269 0.132541 0.002299 0.168034 0.030241 -0.018289 -0.263201 -0.139943 -0.069578 0.134858 0.029859 -0.025919 0.091709 -0.253832 -0.155489 0.048184 -0.073341 0.134688 0.197084 -0.017161 -0.219055 -0.154114 -0.127984 0.003851 -0.083918 -0.052836 -0.042429 0.041878 -0.039469 -0.188198 -0.214833 -0.230288 -0.214399 -0.011525 0.018351 0.159404 -0.142365 0.069895 0.067776 -0.078384 0.045731 -0.125379 -0.014944 -0.027517 -0.039874 0.041777 -0.093275 -0.168684 0.124010 0.044966 0.040508 0.011203 0.057724 0.099526 0.081215 0.098509 0.166638 -0.008291 0.098029 -0.173633 0.178627 0.039344 0.270057 0.066100 0.077269 -0.024412 0.200329 -0.107710 -0.117666 0.169321 -0.169771 0.093389 0.311167 -0.034789 0.051630 -0.120024 0.051065 -0.200826 0.024258 0.057180 -0.251437
floored -0.062420 -0.009034 0.033469 0.068752 -0.023055 0.081321 -0.059255 0.034854 0.046857 0.135228 0.032248 -0.057898 0.022307 0.049400 -0.025793 0.014654 -0.000127 -0.136350 0.004547 -0.097455 0.114488 0.014029 0.076067 -0.013454 -0.011470 -0.074862 -0.041145 -0.069219 0.013584 0.045125 0.040666 0.027577 -0.089932 -0.101113 -0.049402 0.026138 0.122444 0.055561 0.087620 -0.092570 -0.060242 -0.019733 -0.024079 -0.041755 -0.016138 0.073033 0.065634 -0.017115 -0.038970 -0.046793 -0.049366 -0.048136 -0.005982 0.008365 0.067228 -0.081959 0.027508 0.014189 -0.061987 0.008616 -0.003214 -0.009519 -0.095436 0.003431 0.058776 -0.020930 -0.101614 0.072150 0.030041 0.082009 -0.069227 0.017493 0.076694 0.008331 0.076266 0.087710 -0.093185 0.081891 -0.023122 0.095265 0.032007 0.132829 0.043824 0.006421 -0.009521 0.033735 -0.097940 -0.070793 0.103198 -0.052560 0.069339 0.046220 -0.026480 0.054419 -0.010115 -0.026890 -0.005271 0.032848 -0.004660 -0.118912
it -0.034572 -0.044970 0.057602 0.068496 0.037776 0.018882 -0.019641 0.045168 0.028094 0.188536 0.109716 -0.095527 -0.020869 0.040839 -0.044978 0.044243 0.020741 -0.130585 0.058415 -0.012530 0.110366 0.013029 0.082736 0.020872 0.001616 -0.077714 -0.067226 -0.064204 -0.003203 0.092197 0.009837 0.045387 -0.115123 -0.077201 -0.016869 -0.025352 0.077112 0.078902 0.027334 -0.119141 -0.130781 -0.024570 -0.011254 -0.094168 -0.048461 0.004530 0.046860 -0.025673 -0.059403 -0.142210 -0.033071 -0.129721 0.018504 -0.046059 0.072256 -0.044371 0.067053 -0.013519 -0.013594 -0.001801 -0.016007 -0.024148 -0.044997 -0.020062 0.046350 -0.056228 -0.099684 0.044007 0.010045 0.009206 0.003821 0.008992 0.094437 0.001931 0.059734 0.119051 -0.124312 0.075986 -0.059194 0.060507 0.031161 0.160576 0.037548 -0.002319 -0.043114 0.055196 -0.077085 -0.077683 0.073240 -0.031300 0.054127 0.095270 0.022369 0.112000 -0.036439 -0.031324 -0.004170 0.035300 0.048851 -0.185919
segments 0.041251 -0.044351 -0.045800 0.072232 -0.125619 0.172760 -0.018946 0.029044 0.093205 -0.179609 -0.116488 0.067633 0.058645 -0.017199 0.042924 -0.017239 0.103731 0.072704 -0.196140 -0.212563 -0.071394 -0.045021 0.045018 -0.087452 -0.029631 0.108792 0.015516 0.030051 -0.076272 -0.114200 0.101723 -0.000766 0.079409 -0.002266 -0.256227 0.206093 -0.036267 -0.045254 0.201607 0.210395 0.219146 0.058539 0.180566 0.093247 0.147221 0.153833 -0.077286 0.015719 -0.021632 0.260829 0.109240 0.220637 -0.139404 -0.035267 -0.081598 -0.004098 0.011064 0.124347 -0.017854 0.009187 0.119418 0.107094 -0.134770 0.059137 0.028413 0.109125 0.041469 0.037091 0.222892 0.279228 -0.078363 -0.063682 -0.098332 0.022428 0.036491 0.083392 0.027338 0.020462 0.077809 0.032944 0.098993 -0.221404 0.077331 -0.065843 0.070145 -0.170150 -0.001921 -0.167857 0.000130 0.027085 0.028179 -0.034175 -0.067565 -0.138219 0.060916 -0.034174 0.123711 -0.102405 -0.064835 0.183288
lamp. -0.024499 -0.019384 0.010023 0.135681 -0.014744 0.051471 -0.054344 0.071178 0.046062 0.144176 0.063256 -0.041853 -0.038713 0.050887 -0.059371 0.005495 0.087981 -0.117213 0.059939 -0.026641 0.002191 0.038737 0.078264 0.013796 -0.016207 -0.153021 -0.033342 -0.029072 0.011973 0.001435 0.033879 0.025181 -0.097894 -0.021267 -0.019790 -0.056694 -0.007569 0.054651 0.079757 -0.003079 0.019567 -0.040209 -0.007199 -0.040004 0.033374 -0.022421 0.003672 0.011436 -0.101548 -0.085534 -0.046821 -0.050717 -0.030166 -0.002541 0.000675 -0.047401 0.068295 0.076255 -0.009710 -0.013887 0.020817 0.019568 -0.081755 -0.054113 0.059042 -0.065070 -0.073860 0.098393 0.101812 0.103860 0.031850 0.027589 0.001752 0.037347 0.085797 0.121157 -0.070731 0.075887 0.010893 0.116779 -0.004312 0.041923 0.064025 0.061196 0.032352 0.063538 -0.075104 -0.095083 0.027935 -0.027791 0.037741 0.071466 0.042632 0.020054 -0.015655 -0.052756 -0.002176 -0.013829 -0.024279 -0.089280
three 0.063722 -0.060252 -0.131772 -0.106449 -0.008170 0.055892 -0.081287 0.005132 0.113466 -0.087918 -0.111723 0.151535 0.036953 -0.032593 0.031559 0.097251 0.072879 0.166811 -0.069342 0.026344 -0.009365 0.037010 -0.065546 -0.075976 0.042889 0.095857 -0.117324 0.059314 0.034323 -0.073499 0.102841 -0.048197 0.127216 0.266508 0.018883 -0.086171 -0.102190 -0.102155 -0.072564 0.003649 0.047198 -0.126490 0.095623 0.127766 0.117236 0.002094 -0.058503 0.120558 0.068551 0.136841 0.027760 0.166512 -0.074606 -0.046791 -0.043851 0.154633 -0.112904 0.077750 0.061235 0.111854 0.005611 0.054280 0.050182 -0.064194 0.069498 0.106767 0.128329 -0.055811 -0.032814 -0.042194 -0.121324 0.015777 -0.000040 -0.077823 0.034814 0.001571 0.259526 -0.035469 0.188835 0.017900 0.036558 -0.126526 -0.193206 0.086321 0.143649 0.034828 -0.022223 0.024772 -0.137575 -0.055832 -0.136427 -0.018819 0.190981 -0.019755 -0.152450 -0.012876 -0.045351 0.001184 0.094522 0.072150
twice. 0.102778 -0.153521 -0.239345 -0.222352 0.013900 0.050351 -0.121187 0.059624 0.235940 -0.130139 -0.177922 0.287189 0.014695 -0.073238 0.064048 0.186186 0.159735 0.321273 -0.099600 0.096590 -0.025588 0.057571 -0.123131 -0.085166 0.071018 0.173838 -0.196045 0.065102 0.051653 -0.075809 0.141080 -0.087586 0.206026 0.531449 0.044945 -0.163685 -0.242262 -0.191497 -0.148102 0.031168 0.031125 -0.246865 0.136000 0.192038 0.195311 -0.038537 -0.102440 0.224998 0.110357 0.188514 0.103512 0.258952 -0.065247 -0.178010 -0.155192 0.287241 -0.180845 0.121066 0.103052 0.183239 0.096250 0.104979 0.119440 -0.185455 0.152368 0.147146 0.197263 -0.090282 -0.057113 -0.112022 -0.163485 0.037465 0.051628 -0.147918 0.053602 0.043992 0.360775 -0.031025 0.369509 0.030986 0.027624 -0.178679 -0.330561 0.149628 0.246054 0.063908 -0.025413 -0.000215 -0.282129 -0.030641 -0.257493 -0.079098 0.474976 0.047272 -0.281377 -0.060624 -0.035042 -0.006478 0.188794 0.101467
coat -0.096303 -0.049976 0.024497 0.199722 0.033931 0.030468 -0.109471 0.011648 -0.029527 0.318334 0.181337 -0.182452 -0.014372 0.070480 -0.059706 -0.001413 0.051606 -0.217127 0.072922 -0.071439 0.129819 -0.029050 0.133333 0.021661 -0.073485 -0.180437 -0.108869 -0.034338 0.081586 -0.003447 -0.021407 0.054112 -0.160996 -0.181723 -0.060510 0.006454 0.132642 0.156472 0.007836 -0.182053 -0.107204 0.001416 0.042657 -0.100381 -0.022565 0.008183 0.056742 -0.022882 -0.151000 -0.153673 -0.172950 -0.178618 -0.047503 -0.022384 0.130026 -0.125200 0.061925 0.029061 -0.046751 0.041647 -0.098814 -0.009822 -0.046113 -0.021343 0.033157 -0.069515 -0.174297 0.080247 0.078109 0.085864 -0.047540 0.041622 0.121339 0.034596 0.109343 0.181404 -0.043195 0.136939 -0.169799 0.169597 0.051908 0.198324 0.033938 0.062904 -0.028363 0.109345 -0.112665 -0.115244 0.138779 -0.152741 0.085507 0.255584 -0.084453 0.001791 -0.135302 0.046607 -0.143153 0.005924 0.070009 -0.212650
from -0.153949 -0.054494 -0.027584 0.077360 -0.018139 0.072245 -0.114341 0.041248 0.090922 0.193363 0.029769 -0.105930 0.043581 0.057802 0.033437 0.000378 0.063065 -0.136086 -0.034830 -0.197343 0.129877 -0.062162 0.105728 -0.014237 -0.060499 -0.087449 -0.030117 -0.100482 0.085478 0.004855 -0.030708 0.038367 -0.108831 -0.140277 -0.097699 0.134470 0.126663 0.075185 0.091506 -0.106148 -0.051886 -0.061052 0.049996 -0.047983 0.012236 0.099524 0.084038 -0.013993 -0.089949 -0.001204 -0.142283 -0.051342 -0.003038 -0.031030 0.029647 -0.151129 -0.011131 0.039644 -0.093145 0.078693 0.063941 0.027769 -0.078286 -0.029116 0.061208 0.006343 -0.165063 0.131029 0.111347 0.139517 -0.095592 0.048781 0.129868 0.004965 0.058360 0.129781 -0.067948 0.167728 -0.055888 0.224782 0.053920 0.176951 0.033492 0.022294 0.003703 0.055820 -0.106930 -0.162371 0.131595 -0.079326 0.041398 0.100395 0.008411 -0.008324 -0.130018 0.050776 -0.092671 0.003006 0.026183 -0.088223
black -0.137762 -0.024927 0.031157 0.127877 0.037325 0.019508 -0.118545 -0.008375 -0.020569 0.308813 0.108163 -0.186726 0.031680 0.070725 -0.021147 0.010750 -0.011886 -0.209295 0.061094 -0.099168 0.178336 -0.037744 0.103776 -0.007999 -0.056400 -0.155840 -0.076386 -0.055495 0.105914 0.035771 -0.032595 0.053986 -0.151931 -0.210746 -0.018494 0.017164 0.208277 0.125069 -0.013314 -0.249170 -0.132926 -0.012988 -0.016979 -0.100308 -0.052354 0.034698 0.102685 -0.041060 -0.100586 -0.144764 -0.205887 -0.174759 -0.026378 0.040592 0.157113 -0.138754 0.019800 -0.015346 -0.061069 0.057544 -0.108360 -0.045864 -0.030013 0.016851 0.027121 -0.045598 -0.181799 0.067982 -0.004459 0.027663 -0.089097 0.043310 0.158862 -0.001695 0.094576 0.099128 -0.016830 0.142991 -0.159060 0.170921 0.047531 0.246560 -0.009358 0.062644 -0.040952 0.118814 -0.141194 -0.057206 0.168943 -0.183605 0.061108 0.192343 -0.095393 0.011837 -0.151326 0.071317 -0.169660 0.057849 0.065343 -0.214496
floor -0.056212 -0.037499 0.004736 -0.006383 -0.039036 0.026793 -0.052839 0.021938 0.042064 0.025879 -0.025931 -0.038438 0.023844 -0.010192 -0.021348 0.009444 -0.005849 0.012159 -0.050996 -0.082402 0.063244 -0.032687 0.010877 0.008170 -0.019363 0.041390 -0.005704 -0.036757 -0.011525 0.023881 0.013108 0.002890 -0.035472 -0.063971 -0.097195 0.106101 0.045366 0.026991 0.044218 -0.024548 -0.043885 0.007026 0.040447 -0.040685 0.011484 0.068503 0.014528 -0.043334 -0.003327 0.015435 0.028097 -0.026192 0.002246 -0.060677 -0.003628 -0.024029 0.010555 0.001494 -0.022930 0.013786 0.029951 -0.009414 -0.017988 0.018343 0.019870 0.033465 -0.030857 0.029358 0.033701 0.041207 -0.065327 -0.008431 0.077122 0.016843 0.010476 0.076899 -0.026565 0.033424 -0.026219 0.032729 0.024714 0.054624 -0.017891 -0.039475 -0.018560 -0.030315 -0.037222 -0.034725 0.042335 -0.019204 0.035120 0.019300 -0.001797 0.045393 -0.019886 0.038230 0.009855 -0.003576 0.011562 -0.036228
green -0.087232 -0.047767 0.005904 0.094393 -0.000159 0.024025 -0.079012 0.056544 0.060559 0.197487 0.090107 -0.081572 -0.010049 0.051958 -0.025461 -0.016983 0.089950 -0.121601 0.035755 -0.080516 0.075137 -0.009431 0.106812 0.021467 -0.045125 -0.130854 -0.051426 -0.083260 0.065139 0.015542 -0.004823 0.051826 -0.119843 -0.062130 -0.024210 0.018815 0.041963 0.084998 0.038541 -0.064492 -0.051335 -0.067737 0.015090 -0.055003 0.004162 0.003726 0.032052 -0.007777 -0.093610 -0.080460 -0.093194 -0.078717 0.011726 -0.044976 0.008033 -0.081054 0.023739 0.057254 -0.048257 0.034171 0.035979 0.034747 -0.047463 -0.058974 0.062979 -0.049877 -0.115529 0.114741 0.076101 0.089559 -0.007273 0.028368 0.090077 0.029978 0.059607 0.129711 -0.069039 0.103674 -0.036132 0.153654 0.019066 0.136492 0.061587 0.039304 0.006520 0.089232 -0.062387 -0.125109 0.066664 -0.055565 0.020760 0.097012 0.062777 0.035372 -0.085966 -0.000669 -0.047337 -0.012049 0.017679 -0.111116
along 0.001095 0.009298 -0.078935 0.069960 -0.085106 0.133134 -0.036899 0.103006 0.145799 -0.012595 -0.045222 0.093994 -0.034762 0.036688 -0.045684 0.020649 0.102212 0.030801 0.016660 -0.023672 -0.058401 0.079313 -0.007650 0.028468 -0.001401 -0.101225 -0.006940 -0.025167 -0.031715 -0.007134 0.048477 -0.068607 -0.023816 0.145453 -0.006617 -0.073777 -0.128990 -0.055814 0.138386 0.086698 0.074939 -0.111566 -0.025979 0.019860 0.091225 -0.010684 -0.012310 0.078801 -0.048062 0.009089 0.054065 0.093502 -0.035097 -0.059717 -0.162785 0.035920 -0.003832 0.102120 0.008165 -0.004530 0.152273 0.112687 -0.095024 -0.083512 0.117339 -0.051340 -0.001561 0.108957 0.106129 0.099018 -0.035160 0.071528 -0.008197 0.033086 0.098107 0.101565 -0.078198 0.034755 0.168543 0.117196 -0.059407 -0.065971 0.068013 0.085287 0.094993 0.053451 -0.036363 -0.120431 -0.062147 0.078415 0.003756 -0.077137 0.207692 0.026067 -0.001314 -0.065645 0.076617 0.006094 -0.026457 0.001551
'T' -0.078743 -0.055174 0.017063 -0.099997 -0.015378 -0.006649 0.070731 0.004516 0.066601 -0.087819 -0.098189 0.000302 0.045858 -0.009525 0.140885 -0.015035 -0.004424 0.005669 -0.139505 -0.192176 0.051304 -0.104229 0.022986 -0.015286 -0.037229 0.114153 0.097281 -0.088176 -0.002056 0.014005 -0.058830 0.024404 0.054953 -0.104605 -0.148176 0.251566 0.056565 -0.034079 0.087285 0.104515 0.072149 0.074088 0.033158 -0.001926 -0.001761 0.126847 0.048013 -0.030152 0.014023 0.113693 0.002739 0.050406 0.061393 -0.034464 -0.055147 -0.105785 -0.027867 -0.028328 -0.072935 0.034005 0.166317 0.012097 -0.049612 0.000816 -0.024714 0.053411 -0.090381 0.050815 0.119031 0.127034 0.007025 -0.048003 0.034861 -0.042075 -0.056762 -0.034592 -0.145474 0.094911 -0.009100 0.053835 0.022776 0.022925 0.060589 -0.085441 -0.045098 -0.159125 0.013100 -0.116014 0.039047 0.080711 -0.024792 -0.135807 -0.029311 -0.015834 0.033176 -0.034480 0.080370 -0.035879 -0.071755 0.133184
into -0.014031 0.001925 -0.023402 0.066526 0.019874 0.051003 0.018330 -0.021382 0.000691 0.030148 0.032040 -0.008783 0.017481 0.040436 0.072324 0.009337 0.055715 -0.069996 -0.022623 -0.071119 -0.005013 -0.026106 0.065706 -0.057478 -0.008900 -0.055784 -0.018024 0.004513 0.038923 -0.046564 -0.005100 0.028302 0.002167 -0.038161 -0.031962 0.010739 0.036716 0.001805 0.029540 0.011470 0.070603 -0.007781 0.040654 0.032154 0.028071 0.054013 0.020231 0.043692 -0.056936 0.040807 -0.094066 0.051403 -0.064257 0.052924 0.026577 -0.068364 -0.026266 0.029293 -0.030000 0.046830 0.009860 0.035920 -0.052467 -0.018304 0.002658 -0.001405 -0.059611 0.004463 0.076510 0.081256 0.000438 0.018728 -0.036163 -0.038645 0.037628 0.004936 -0.012356 0.063202 -0.015523 0.072979 0.048356 -0.026691 0.043170 0.047060 0.026142 -0.002113 -0.027883 -0.095854 0.029734 -0.025928 -0.019256 0.043331 -0.043893 -0.090253 -0.049898 -0.027736 -0.034744 -0.014237 -0.002340 0.038000
rack. 0.000491 -0.090066 0.015149 0.202898 0.071472 0.103646 -0.001596 -0.018921 -0.020470 0.253945 0.196367 -0.119947 -0.012632 0.072365 0.017015 0.044595 0.096704 -0.170055 0.000214 -0.113490 0.094153 -0.055159 0.164443 -0.037948 -0.066142 -0.104728 -0.148984 0.022624 0.036508 -0.059501 -0.004388 0.061559 -0.027277 -0.144329 -0.136295 0.017097 0.131627 0.106001 0.018135 -0.126520 -0.030404 0.039971 0.138802 -0.034510 0.041747 0.060139 0.047952 0.068714 -0.136757 -0.048938 -0.152087 -0.074484 -0.128357 0.003643 0.137539 -0.082151 0.022345 0.024323 -0.009820 0.065906 -0.125209 0.032370 -0.071019 -0.045877 0.061829 -0.022120 -0.154823 0.010597 0.148493 0.151940 -0.059178 -0.013510 0.032899 -0.073698 0.140113 0.159707 -0.015073 0.195428 -0.146450 0.143790 0.150619 0.056499 0.040015 0.102589 -0.003250 0.035826 -0.111346 -0.192713 0.087138 -0.145191 0.009403 0.262499 -0.116929 -0.093974 -0.170536 -0.036324 -0.086982 -0.024976 0.086160 -0.132252
segment. 0.159398 0.051705 -0.085726 -0.017527 -0.042148 0.090556 0.109241 -0.124079 -0.053803 -0.384487 -0.128451 0.134899 0.081434 -0.038254 0.103182 0.017205 0.031793 0.191431 -0.204273 -0.013114 -0.193439 -0.034394 -0.075886 -0.115425 0.088850 0.226517 0.014461 0.179888 -0.079798 -0.164857 0.056768 -0.037968 0.217745 0.124070 -0.104171 0.065126 -0.099590 -0.122403 0.043017 0.221961 0.235009 0.052564 0.201135 0.185498 0.091806 0.108917 -0.116072 0.052585 0.067885 0.331876 0.135159 0.280229 -0.176233 0.067217 -0.005915 0.093741 -0.069701 0.024458 0.067814 0.009619 -0.027785 0.054257 -0.020285 0.146242 -0.125485 0.161021 0.197138 -0.190916 0.088828 0.050428 -0.001500 -0.055853 -0.238288 -0.015486 -0.066581 -0.117483 0.218074 -0.155063 0.051384 -0.185317 0.106297 -0.379075 -0.028240 -0.084219 0.056445 -0.199320 0.109294 0.016767 -0.070280 0.091373 -0.000721 -0.039401 -0.173534 -0.196837 0.102347 0.003643 0.066227 -0.036468 -0.041512 0.304058
side -0.056288 -0.004885 -0.043116 0.049953 -0.063268 0.048785 -0.064628 0.033413 0.044995 0.029880 -0.019465 -0.014336 0.007852 0.009129 -0.075469 -0.002530 0.014687 0.010357 -0.016390 -0.044467 0.016982 0.013490 -0.010537 0.048557 -0.008995 -0.027803 -0.016693 -0.029905 -0.000622 0.004383 0.010553 -0.026743 -0.057997 -0.006041 -0.036257 0.034943 0.002339 0.033713 0.056696 -0.013854 -0.040939 -0.059277 0.010854 -0.032649 0.025415 0.029379 -0.010615 -0.028344 -0.011197 -0.008719 0.034443 -0.024253 -0.003899 -0.053808 -0.032235 -0.006982 0.016554 0.031697 -0.017316 -0.006953 0.005210 0.006731 -0.012683 0.001504 0.034164 0.010672 -0.007940 0.061835 0.033791 0.031822 -0.065218 0.024092 0.039276 0.074509 0.024565 0.078083 0.004354 0.002451 0.000984 0.042233 -0.008689 0.053571 0.004168 -0.004523 0.012297 0.031776 -0.025506 -0.028260 0.033617 -0.008325 0.067395 0.040596 0.031899 0.056076 -0.012909 0.059947 -0.016776 0.011445 -0.003681 -0.045255
reach -0.151671 -0.090929 -0.079435 0.041219 0.047303 0.022730 -0.130261 -0.030052 0.038124 0.218956 0.055688 -0.129825 0.059524 0.037171 0.072488 0.041342 0.057086 -0.094692 -0.028301 -0.146004 0.149381 -0.082742 0.081402 -0.038122 -0.044510 -0.032753 -0.096645 -0.041888 0.144989 -0.033105 -0.054500 0.045136 -0.060148 -0.122699 -0.068956 0.095565 0.155593 0.076964 -0.071708 -0.210779 -0.094189 -0.090645 0.117422 -0.012832 0.008813 0.081656 0.066259 0.002886 -0.059083 0.000681 -0.214701 -0.055689 -0.032693 0.008999 0.104794 -0.083580 -0.069716 0.006340 -0.040548 0.158800 -0.077822 0.003277 0.044097 -0.013970 0.027342 0.054587 -0.106487 0.052885 0.022841 0.041676 -0.148964 0.021191 0.139462 -0.065355 0.049810 0.071989 0.123237 0.166873 -0.085983 0.190182 0.104052 0.164305 -0.081554 0.073053 -0.000533 0.093682 -0.104566 -0.080436 0.116969 -0.204578 -0.042202 0.197146 -0.029740 -0.058521 -0.261609 0.114680 -0.220796 0.018755 0.126522 -0.101074
corner -0.055040 -0.038760 -0.003130 0.071094 -0.018077 0.051350 -0.080734 0.054841 0.060381 0.117757 0.024254 -0.043921 -0.017623 0.012697 -0.040375 0.023308 0.017321 -0.040397 0.028623 -0.047449 0.052752 0.007143 0.047936 0.004619 -0.036666 -0.049667 -0.016063 -0.045974 -0.005257 0.022487 0.025199 -0.001651 -0.077916 -0.038762 -0.059233 0.010948 0.022517 0.030212 0.066112 -0.052493 -0.026668 -0.012695 0.011081 -0.054345 0.019211 0.020506 0.023330 0.002997 -0.043173 -0.047253 -0.009520 -0.025631 -0.027709 -0.040574 -0.008332 -0.038149 0.029937 0.027778 -0.012697 -0.006620 0.058242 0.011381 -0.055140 -0.022680 0.049515 -0.026539 -0.062390 0.065388 0.037610 0.062726 -0.034710 0.026290 0.080587 0.000486 0.047943 0.106959 -0.076262 0.076669 0.017365 0.093069 0.007691 0.065782 0.008068 0.011457 0.001690 0.024594 -0.074887 -0.050122 0.042027 -0.030784 0.027539 0.041915 0.033038 0.040852 -0.043247 -0.004374 0.005473 0.012469 0.008704 -0.082851
hall, -0.133715 -0.059340 0.043925 0.073499 0.003483 -0.018009 0.003919 -0.010560 -0.004962 0.103363 0.073098 -0.135069 0.036106 0.039013 0.060611 -0.036256 0.028508 -0.121741 -0.085948 -0.191624 0.094556 -0.131071 0.115261 0.012298 -0.055823 0.006401 0.037961 -0.088945 0.032127 0.010728 -0.085315 0.069021 -0.086058 -0.238147 -0.161667 0.232467 0.141253 0.113540 0.089020 -0.016373 -0.048067 0.046626 0.071264 -0.067123 -0.033639 0.125180 0.045311 -0.096630 -0.083665 0.015371 -0.067219 -0.084074 0.023461 -0.040754 0.045815 -0.186598 0.053310 -0.012928 -0.098230 0.020354 0.047406 -0.008068 -0.045282 0.030926 -0.020964 -0.006624 -0.156806 0.078338 0.144615 0.132927 0.014355 -0.016163 0.066330 0.034194 -0.033043 0.082238 -0.143519 0.126133 -0.155997 0.096299 0.067398 0.129741 0.104598 -0.091795 -0.087156 -0.052919 -0.033653 -0.163412 0.140520 -0.013094 0.083682 0.097407 -0.126938 -0.006299 -0.029858 0.057362 -0.023934 -0.038638 -0.023272 -0.021908
pink-flowered -0.032045 0.024052 0.045340 0.060934 -0.118762 0.121874 0.055140 0.006246 0.025434 -0.127511 -0.052948 -0.008279 0.050145 0.002630 -0.010111 -0.040924 -0.042069 -0.018086 -0.142948 -0.206982 0.002793 -0.053304 0.017972 0.034727 -0.042238 0.062835 0.077206 -0.033525 -0.092743 -0.011544 -0.001941 -0.021789 0.019381 -0.176980 -0.197550 0.230849 0.079921 0.006068 0.213057 0.123080 0.070852 0.127354 0.042332 -0.032880 0.015840 0.170093 0.025280 -0.063823 -0.014886 0.126511 0.105630 0.047014 -0.034683 -0.027487 -0.041474 -0.099159 0.038799 0.002672 -0.064092 -0.071556 0.066791 0.031195 -0.129320 0.112484 -0.014416 0.020838 -0.068875 0.064528 0.166923 0.186634 -0.063813 -0.024573 -0.018702 0.088191 0.012689 0.051890 -0.155838 0.035634 -0.066401 -0.003785 0.044210 -0.034847 0.148492 -0.119765 -0.048336 -0.161271 0.007600 -0.123769 0.096261 0.087291 0.167005 -0.045204 -0.165862 -0.029775 0.150211 0.010719 0.121481 -0.030603 -0.101736 0.066142
containing 0.010296 0.073660 -0.007632 0.080993 -0.059124 0.041068 0.097998 -0.041420 -0.048531 -0.164939 0.004449 0.003942 0.018333 0.026026 0.011826 -0.111495 0.041802 0.022794 -0.077049 -0.080120 -0.131289 -0.046840 0.016248 0.033631 -0.008182 0.021597 0.109111 0.018502 -0.052613 -0.058232 -0.054394 0.004780 0.022153 -0.087171 -0.087952 0.147413 -0.031791 0.013290 0.100404 0.183653 0.129580 0.043572 0.061056 0.043913 0.011472 0.049897 -0.065600 -0.055416 -0.033328 0.122853 0.043977 0.079865 -0.021834 0.040387 -0.077114 -0.056356 0.022244 0.023198 -0.022372 -0.062346 0.043273 0.066755 -0.041685 0.085070 -0.041788 0.020898 0.037289 0.015991 0.122519 0.127024 0.049046 -0.032683 -0.146853 0.097549 -0.054398 -0.042079 -0.054659 -0.049794 -0.057545 -0.037969 0.016335 -0.126842 0.164327 -0.075648 -0.039970 -0.090055 0.108543 -0.083174 0.043401 0.099244 0.069809 -0.013624 -0.138627 -0.118374 0.146106 0.039893 0.089839 -0.069307 -0.098538 0.177136
2. -0.067703 0.046653 0.067811 -0.141299 0.006725 -0.013091 -0.044426 -0.049287 -0.037930 0.043718 -0.092797 -0.047800 0.071022 -0.030530 0.054192 0.012764 -0.215118 -0.054292 0.004796 -0.043711 0.157526 -0.017131 -0.052613 -0.042686 -0.021633 0.053272 0.042320 -0.033873 0.043321 0.074116 -0.014207 -0.017628 0.026264 -0.153757 0.058385 0.042065 0.182687 -0.038341 -0.052233 -0.172509 -0.081205 0.096927 -0.124009 -0.046468 -0.092004 0.057010 0.133987 -0.020104 0.108538 -0.015945 -0.086240 -0.060953 0.062718 0.105023 0.106202 -0.048186 -0.076719 -0.123396 -0.051343 0.012092 -0.042810 -0.088476 -0.006807 0.063602 -0.063042 0.021709 -0.077329 -0.026076 -0.167391 -0.091300 -0.110224 0.008359 0.133648 -0.075277 -0.021057 -0.119797 -0.016891 0.028473 -0.048640 -0.000384 -0.019204 0.166464 -0.085568 -0.033111 -0.046283 -0.030222 -0.051411 0.155823 0.086141 -0.071035 0.002581 -0.093478 -0.117791 0.032818 -0.007912 0.027587 -0.066049 0.089064 -0.004311 -0.052148
5. -0.017289 0.098711 0.089890 -0.109429 -0.004548 -0.043647 0.000912 -0.060880 -0.099283 -0.023996 -0.083623 -0.042394 0.052713 -0.027966 0.008630 -0.025637 -0.223738 -0.040533 0.023351 0.030444 0.088853 0.008948 -0.068530 -0.016628 -0.001280 0.043618 0.072811 -0.004951 0.005077 0.059088 -0.006251 -0.013140 0.019111 -0.132985 0.104337 0.003831 0.138429 -0.027690 -0.050793 -0.115621 -0.053745 0.109849 -0.136094 -0.028030 -0.105802 0.007026 0.089939 -0.052713 0.115001 -0.029094 -0.051550 -0.060278 0.066169 0.138336 0.112277 -0.025772 -0.041921 -0.114535 -0.037204 -0.037976 -0.083252 -0.092843 0.006406 0.099860 -0.096894 0.010804 -0.016579 -0.049523 -0.189971 -0.114224 -0.047133 -0.004324 0.048234 -0.014305 -0.057640 -0.161340 0.003185 -0.064461 -0.063495 -0.084100 -0.049210 0.100287 -0.050314 -0.052785 -0.063711 -0.035962 0.010810 0.205725 0.070081 -0.037523 0.031408 -0.097118 -0.169408 0.009656 0.098071 0.031045 -0.039151 0.067290 -0.041274 -0.024852
1. -0.062082 0.083203 0.045508 -0.133221 -0.026207 -0.016347 -0.045199 -0.079441 -0.063442 -0.025838 -0.122427 -0.038193 0.093998 -0.024832 0.032392 0.006303 -0.228029 -0.026898 -0.014008 -0.025240 0.123688 -0.005164 -0.079158 -0.043117 0.015954 0.076186 0.052485 -0.009242 0.032547 0.060596 0.000361 -0.033083 0.019621 -0.140016 0.068162 0.041158 0.171981 -0.033730 -0.038588 -0.152980 -0.069797 0.069770 -0.115529 -0.022457 -0.095951 0.062586 0.108054 -0.052923 0.127551 0.014283 -0.051183 -0.042344 0.043270 0.127583 0.119324 -0.038877 -0.064735 -0.114524 -0.055816 -0.002726 -0.081028 -0.104924 0.005685 0.124446 -0.095526 0.051103 -0.016269 -0.054609 -0.187954 -0.113627 -0.113937 0.006128 0.078572 -0.021022 -0.053979 -0.156643 0.045567 -0.046125 -0.059443 -0.057451 -0.024661 0.127065 -0.081338 -0.068953 -0.054134 -0.037880 -0.033911 0.191591 0.101591 -0.062491 0.047883 -0.083474 -0.166359 0.023336 0.049982 0.064544 -0.074318 0.095754 -0.020120 -0.028293
end. -0.034660 -0.043436 0.044880 -0.012119 -0.020993 0.048647 -0.030063 0.053220 0.068720 0.088232 -0.021081 -0.008022 -0.010068 -0.003482 -0.004286 0.033005 -0.024635 -0.035044 -0.004655 -0.075163 0.096676 -0.000086 0.018570 -0.005552 -0.049284 -0.013943 -0.016718 -0.047259 -0.026222 0.049601 0.032497 -0.003939 -0.008807 -0.053309 -0.070250 0.039681 0.064255 -0.012523 0.054010 -0.045604 -0.022957 0.062430 -0.038077 -0.066683 0.009146 0.040069 0.064664 0.016386 -0.004098 -0.031819 0.004435 -0.034246 0.000583 -0.048321 -0.011509 -0.026333 0.020175 -0.006827 -0.021400 -0.001480 0.059482 -0.003583 -0.056970 -0.032098 0.058636 -0.032407 -0.100938 0.040174 0.027874 0.055730 -0.060658 0.003378 0.099716 -0.039052 0.069429 0.070407 -0.112828 0.109287 0.016452 0.067051 -0.003568 0.079935 0.001058 0.013225 -0.004402 -0.022818 -0.087546 -0.058198 0.010394 -0.010951 0.010034 -0.053436 0.041348 0.059782 -0.032826 -0.057781 0.057099 0.018560 0.010824 -0.088302
7. -0.073033 0.011655 0.035424 -0.082472 -0.005702 0.013887 -0.077778 -0.017751 0.000979 0.093455 -0.053569 -0.048663 0.057366 -0.020860 0.007500 0.041590 -0.147218 -0.055455 0.011060 -0.045595 0.163074 -0.007953 -0.024637 -0.034133 -0.020531 0.026856 -0.009581 -0.027931 0.045636 0.051807 0.015811 -0.013948 -0.002855 -0.111336 0.016027 0.025468 0.154847 -0.002723 -0.036732 -0.173971 -0.097971 0.049363 -0.066761 -0.052268 -0.054715 0.057784 0.108614 -0.007395 0.066990 -0.025748 -0.072146 -0.063859 0.027768 0.053756 0.097282 -0.036800 -0.055389 -0.073057 -0.037812 0.027365 -0.050937 -0.075134 -0.013213 0.042579 -0.006439 0.019269 -0.072606 -0.006202 -0.129009 -0.055863 -0.130419 0.015493 0.148172 -0.056646 0.011051 -0.030701 0.008721 0.048878 -0.032527 0.030353 -0.001105 0.160168 -0.088789 -0.007590 -0.022503 0.002910 -0.082140 0.099074 0.078763 -0.090589 0.022169 -0.014665 -0.061565 0.049117 -0.058731 0.037921 -0.073985 0.079204 0.036295 -0.091440
hatrack. 0.038568 -0.020962 -0.044226 0.042262 -0.006673 0.080716 0.023553 0.034833 0.065225 0.006162 0.003266 0.066193 -0.014185 0.028816 0.019558 0.011625 0.084423 -0.001933 -0.001259 -0.034852 -0.037661 0.019080 0.031292 -0.005852 -0.018965 -0.063036 -0.031693 0.005775 -0.008045 -0.036556 0.014857 -0.009568 0.047597 0.070477 -0.019330 -0.023879 -0.058904 -0.039469 0.038686 0.050912 0.085208 -0.031162 0.016919 0.044851 0.066781 0.000122 -0.002050 0.090304 -0.035668 0.031839 -0.027545 0.069183 -0.036911 -0.011687 -0.072631 0.015861 -0.026473 0.047544 0.004305 0.017373 0.058866 0.073720 -0.061728 -0.074700 0.072071 -0.010532 -0.028148 0.037229 0.085180 0.093063 -0.017687 0.019283 -0.034444 -0.041937 0.075335 0.036093 -0.023561 0.065948 0.078709 0.085975 0.005140 -0.059380 0.036196 0.087231 0.066628 0.017035 -0.021145 -0.102099 -0.059044 0.022968 -0.056491 -0.027283 0.093218 -0.049601 -0.043031 -0.071053 0.039156 -0.037833 0.002859 0.038319
