295 100
the -0.217905 -0.112218 0.032387 0.157924 -0.002844 -0.117877 -0.052592 -0.008278 0.100302 0.318981 0.126548 -0.088320 -0.049146 0.077325 -0.133318 0.124106 0.178762 -0.142970 0.044286 0.062234 0.118126 0.024634 -0.007735 0.125524 0.103042 -0.171505 -0.157833 0.014832 0.100764 0.059149 0.026080 0.026196 -0.244538 0.142127 0.099545 -0.225896 0.002404 0.159812 0.117636 -0.125572 -0.258551 -0.215168 -0.043626 -0.117920 -0.030314 -0.047846 -0.078260 -0.148577 -0.152669 -0.229725 0.073243 -0.243123 -0.118135 -0.075997 0.189925 -0.032581 0.193534 0.170318 -0.048639 0.039749 -0.264178 -0.113880 0.204393 0.026528 0.036798 -0.174309 -0.098440 0.026464 0.145184 -0.178370 0.011603 0.174602 -0.019447 0.256434 0.134421 0.226061 -0.003949 0.071316 -0.191839 0.052215 0.044629 0.125250 0.009042 -0.016352 0.063182 0.192190 -0.145845 -0.086651 0.155504 -0.063170 0.285284 0.207884 0.044257 0.290304 -0.159376 -0.037735 -0.233706 0.228522 0.100525 -0.369321
to -0.301948 0.178120 -0.172728 0.038259 -0.037668 0.050747 0.150884 -0.076713 0.184245 -0.220391 -0.089872 0.092446 0.128731 0.261801 0.080061 -0.043686 0.254061 -0.074603 -0.061105 -0.201095 -0.059576 -0.023554 -0.025844 0.151592 0.099817 -0.207847 0.123438 -0.091688 0.197630 -0.016646 -0.193085 -0.045219 -0.126521 0.076652 0.053511 0.230259 -0.021439 0.033028 0.035042 0.188143 -0.062295 -0.335216 -0.133634 0.058569 -0.004863 0.184682 0.020707 -0.154068 -0.178519 0.193785 -0.113382 0.129311 0.149740 -0.189757 -0.309688 -0.281519 -0.119690 0.035948 -0.276111 0.096548 0.230691 0.065638 0.026664 0.029048 0.148184 -0.168841 -0.091376 0.060975 0.242463 0.082931 -0.031874 0.151433 -0.002926 0.168618 -0.032552 -0.025845 -0.155221 0.089535 -0.094404 0.187375 -0.209144 0.085414 0.402733 0.054053 0.102535 0.174897 0.052861 -0.381424 0.130482 0.168475 0.126636 -0.156029 0.220476 0.100242 -0.035517 0.136844 -0.077277 0.169695 -0.073569 0.162008
turn 0.086122 -0.184586 -0.046786 -0.049000 -0.033754 0.265354 -0.376175 0.245697 0.357371 0.188837 -0.096686 0.078792 0.150894 -0.011951 0.034379 0.152320 0.268023 0.202805 -0.106849 -0.089054 0.175085 0.139016 0.071721 -0.319062 -0.096356 0.116194 -0.151650 -0.034896 0.013452 -0.003821 0.338293 0.001734 -0.127898 0.397905 -0.025055 -0.059748 -0.101408 -0.119810 0.091636 -0.137149 -0.005547 -0.281189 0.072472 0.112941 0.160266 0.014268 -0.080783 0.113853 0.037601 0.155170 -0.061294 0.319301 -0.138782 -0.323569 -0.161707 0.247913 -0.186301 0.179628 0.245758 0.245575 0.418387 0.372157 -0.199349 0.010115 0.196812 0.059642 0.062165 0.003777 -0.107633 0.205902 -0.258750 0.168979 0.386054 -0.063834 0.197598 0.274398 0.178151 0.048415 0.449254 0.284892 0.080648 0.026033 -0.177321 -0.048475 0.216856 0.146309 -0.073917 -0.164885 -0.050312 -0.075265 -0.147184 -0.199758 0.589635 0.082362 -0.296803 -0.071286 0.131590 0.126419 0.263552 -0.093790
forward 0.313203 -0.262286 -0.200565 0.006235 0.062356 0.368123 0.148511 -0.039617 0.139056 -0.263950 -0.007633 0.256662 -0.150314 -0.106532 0.206967 0.291918 -0.001350 0.400681 -0.210516 -0.153544 -0.091101 -0.099768 -0.102763 -0.127362 -0.103267 0.457887 -0.231978 0.199123 -0.261920 -0.160656 0.109179 -0.119813 0.470120 0.143315 -0.538632 0.184850 -0.094176 -0.211120 0.011544 0.229883 0.120069 0.270920 0.453809 -0.024103 0.207371 0.287696 0.056325 0.382422 -0.010449 0.348123 0.356657 0.358403 -0.374854 -0.277924 -0.232797 0.101428 -0.108634 -0.074325 0.126022 0.068473 0.143929 0.237474 -0.146105 -0.154378 0.126004 0.065677 0.052010 -0.167309 0.211175 0.298262 -0.136273 -0.053170 0.153467 -0.305214 0.131031 0.185292 -0.115920 0.192515 0.222899 -0.029939 0.230030 -0.533793 -0.230966 0.036686 0.068150 -0.379189 -0.079329 -0.329928 -0.256106 0.160150 -0.127150 0.082719 0.093835 -0.203815 -0.229097 -0.150338 0.343194 -0.206804 0.237569 0.196468
and -0.233691 0.078022 -0.056369 0.182002 -0.175942 0.120261 -0.059611 0.081345 0.116284 0.199715 -0.052048 0.039432 0.015928 0.098459 -0.151768 0.096885 -0.012208 -0.092284 0.029254 -0.068154 0.138037 0.058842 -0.042082 0.157381 -0.032035 -0.322025 -0.036235 -0.074893 0.063592 0.044483 0.011921 -0.144183 -0.127974 0.077869 0.058284 -0.127473 0.009911 0.018061 0.183997 -0.114690 -0.075157 -0.192671 -0.185192 -0.128708 0.091227 0.074271 0.078066 0.020447 -0.123182 -0.094359 -0.028626 -0.063230 -0.057279 -0.005455 -0.117761 -0.049885 -0.000480 0.104139 -0.133243 0.007565 -0.053708 0.034125 0.070285 -0.047735 0.223316 -0.155447 -0.170585 0.163993 0.091611 -0.026583 -0.262645 0.151794 0.051898 0.159713 0.261305 0.148771 -0.088317 0.184000 0.001626 0.212935 -0.137280 0.172037 0.041050 0.184491 0.135520 0.168855 -0.175942 -0.101917 0.055705 -0.077114 0.193497 -0.024278 0.153002 0.165109 -0.105110 -0.061855 -0.171040 0.232705 -0.037473 -0.274099
is 0.085015 0.179071 0.091571 -0.126885 -0.083745 -0.022375 0.001678 -0.153795 -0.216421 -0.173142 -0.283623 -0.051635 0.087918 -0.104362 0.040572 0.009208 -0.442975 0.153716 -0.060979 0.080775 0.006393 -0.067463 -0.225868 -0.122084 -0.039801 0.218441 0.227048 0.060802 -0.169784 0.098271 -0.025776 -0.154652 0.097600 -0.234894 0.009846 0.085298 0.115409 -0.152379 0.118667 -0.151906 0.108981 0.327441 -0.154533 -0.108098 -0.084503 0.082423 0.207146 -0.002384 0.147273 -0.044531 -0.036027 -0.021305 -0.081477 0.243875 0.147606 0.025315 0.050700 -0.243343 0.132408 -0.040110 -0.011219 -0.107567 -0.020714 0.308209 -0.295538 0.138464 -0.045540 -0.111508 -0.189891 -0.204707 -0.070698 -0.018821 0.146511 -0.106353 -0.017240 -0.260497 0.029522 -0.045910 -0.049288 -0.078704 -0.049677 -0.086643 -0.204483 -0.145990 -0.207721 -0.261826 -0.052962 0.370407 0.036983 0.007106 -0.015268 -0.267281 -0.356175 -0.132440 0.104977 0.082471 0.066948 0.104777 -0.146837 0.017255
a -0.066898 0.005085 0.114243 0.202354 0.037125 -0.011987 -0.171705 0.014393 -0.068251 0.265776 0.156109 -0.204878 0.006653 0.009034 -0.089655 0.002400 -0.036260 -0.160338 0.097967 0.098538 0.186463 0.015458 0.083703 -0.044573 -0.032534 -0.151543 -0.146184 -0.004047 0.054645 0.073480 0.082113 0.025219 -0.195187 -0.068804 0.092083 -0.204046 0.119399 0.133609 0.030858 -0.247663 -0.120051 0.004102 0.003515 -0.031858 -0.064238 -0.072600 -0.038482 -0.040544 -0.080103 -0.202834 -0.114621 -0.097947 -0.131986 0.081521 0.263524 0.052817 -0.001904 0.079896 0.025419 0.024353 -0.194313 -0.008095 0.027048 0.062473 0.027365 -0.039433 -0.020959 -0.030912 -0.080701 -0.069666 -0.152072 0.129190 0.043731 0.109047 0.156699 0.121488 0.065428 -0.074902 -0.157846 -0.021444 0.054638 0.174867 -0.087538 0.011510 0.021127 0.150390 -0.009686 0.064900 0.171087 -0.215129 0.119518 0.280134 -0.147580 0.012791 -0.033106 -0.004039 -0.172996 0.108659 0.141534 -0.279289
of -0.257525 -0.150694 0.140746 -0.062204 -0.008860 -0.043230 -0.042135 0.063153 0.137204 0.044370 -0.039766 -0.149219 0.017495 0.034351 0.094281 -0.001925 0.104735 -0.117098 -0.109090 -0.263548 0.069007 -0.145088 0.216769 -0.049849 -0.052427 0.042107 0.155785 -0.184946 0.015025 0.097346 -0.108011 0.155916 -0.148095 -0.278325 -0.222807 0.361579 0.146021 0.026261 0.205922 0.048960 0.087709 0.095654 0.055654 -0.161588 -0.051332 0.138271 0.080904 -0.171425 0.023743 -0.048361 0.024095 -0.115848 0.096348 -0.049050 0.003269 -0.268560 0.133701 -0.043761 -0.188443 -0.044627 0.308163 -0.069801 -0.139652 0.036203 -0.023633 0.081056 -0.153757 0.165072 0.143585 0.205023 0.081319 -0.096418 0.103455 -0.014000 -0.101166 0.235031 -0.290404 0.224723 -0.067290 0.202228 0.019818 0.124663 0.173786 -0.126192 -0.108953 -0.087151 -0.028606 -0.115807 0.187198 -0.014216 -0.034116 -0.048446 -0.078416 0.062617 0.066281 0.083305 0.036384 -0.134149 -0.047999 -0.070373
walk 0.139344 -0.102842 -0.383326 -0.144356 -0.074421 0.304050 -0.356359 0.123543 0.264245 0.028947 -0.288396 0.318352 0.159768 -0.097965 0.059841 0.270595 0.040847 0.340494 -0.109423 -0.126833 0.016718 0.192693 -0.264895 -0.281245 0.007135 0.012375 -0.224080 0.159844 0.083317 -0.136604 0.304572 -0.103005 0.206372 0.430298 -0.008192 -0.166865 -0.105227 -0.285928 -0.105710 -0.099592 0.158441 -0.297833 0.094569 0.233088 0.280753 0.027774 -0.008724 0.261543 0.083182 0.358572 -0.104578 0.425125 -0.239409 0.002419 -0.180171 0.307716 -0.278725 0.197384 0.265821 0.311712 0.024850 0.165438 -0.065302 -0.098446 0.181178 0.109022 0.119620 -0.077521 -0.121396 0.043194 -0.342393 0.118869 0.117818 -0.234663 0.255713 -0.071574 0.554524 0.063319 0.501016 0.220913 0.044422 -0.165576 -0.465458 0.244585 0.379133 0.119339 -0.291969 0.072315 -0.240775 -0.203257 -0.267425 -0.175325 0.409257 -0.106087 -0.456917 -0.037769 -0.091134 0.092316 0.184903 0.118343
at -0.183464 0.036326 -0.013527 0.024055 0.095906 -0.096148 -0.021961 -0.046639 -0.035701 0.283130 0.085802 -0.057093 0.025365 0.167379 0.016698 -0.022649 0.046028 -0.258324 0.120206 -0.043091 0.116561 -0.028660 0.092729 0.038806 -0.016390 -0.370839 0.003094 -0.059811 0.178062 0.064134 -0.158892 0.016598 -0.127510 -0.055056 0.160191 -0.030235 0.134450 0.107853 -0.072743 -0.217188 -0.010835 -0.128726 -0.160831 -0.039807 -0.056874 -0.046466 0.086387 -0.089957 -0.090293 -0.118915 -0.347993 -0.147930 0.104741 0.060903 0.033693 -0.114501 -0.027389 -0.039411 -0.116430 0.072879 -0.063863 -0.105048 0.112973 -0.010869 0.091400 -0.132845 -0.200366 0.022233 0.032362 -0.093675 -0.063302 0.033112 0.056235 -0.045618 0.047470 -0.037204 0.026289 0.176158 -0.168485 0.247783 -0.111201 0.256360 0.090477 0.177608 0.011689 0.227706 -0.087778 -0.049140 0.132130 -0.169565 -0.030050 0.026825 -0.034373 0.008944 -0.139224 0.008143 -0.239639 0.158368 -0.029650 -0.176739
left. 0.031760 -0.062805 -0.158481 0.009770 0.101274 0.066536 0.200786 -0.052120 0.062950 -0.031352 0.047486 0.146918 -0.012454 0.115174 0.136276 0.141221 0.080824 -0.054012 -0.057871 -0.072614 0.029687 0.022362 -0.034893 0.124703 0.099530 -0.156886 -0.202047 0.065223 0.121855 -0.046089 -0.118021 -0.092728 0.249813 0.162817 0.039353 -0.034977 0.005432 -0.038414 -0.071195 0.025021 -0.043915 -0.107276 0.075677 0.110892 0.086507 0.030318 0.053192 0.161869 -0.065846 0.068746 -0.063975 0.001103 0.033610 -0.006598 -0.018823 0.010797 -0.109372 -0.023391 -0.151787 0.115114 -0.187681 0.012878 0.082885 -0.198736 0.156628 -0.080144 -0.115787 -0.004685 0.188858 0.000140 -0.097615 0.028050 -0.074703 -0.090411 0.155305 -0.047766 0.065594 0.159255 -0.055025 0.109640 0.028346 -0.019328 -0.002099 0.245550 0.168101 0.081505 -0.062220 -0.238296 -0.065075 -0.039024 -0.037462 0.077364 0.047558 -0.026969 -0.145431 -0.114620 -0.181548 0.011775 0.082385 -0.024256
you -0.020945 0.003741 -0.159235 -0.032125 0.080546 -0.076685 -0.118312 -0.084086 -0.060777 0.262824 0.133680 -0.126378 -0.019115 -0.013303 -0.112083 -0.151440 -0.085689 0.100913 0.089803 0.065346 0.164189 -0.105393 -0.049983 0.142298 -0.092344 -0.000951 -0.124824 -0.007204 0.111646 -0.018207 -0.158908 -0.036115 0.002491 -0.061226 0.036288 0.049705 0.034197 0.189754 -0.267320 -0.344996 -0.220492 -0.094138 0.128361 -0.084821 -0.021199 -0.082062 0.042033 0.017157 -0.003158 -0.029360 -0.230248 -0.169814 0.071595 -0.058958 0.045036 0.121850 -0.209298 -0.124130 0.110639 0.101833 -0.207707 0.092275 0.202033 0.001787 0.066118 0.003183 -0.000122 -0.057874 -0.198014 -0.118720 -0.249379 0.019319 0.207600 -0.019976 0.010515 -0.034160 0.252520 -0.023912 -0.211597 -0.014519 0.047374 0.175506 -0.214652 0.113948 -0.053401 0.221096 0.027626 0.099504 -0.003034 -0.220087 -0.119850 0.227294 -0.014426 -0.069636 -0.277275 0.285772 -0.240683 -0.001500 0.237253 -0.118574
right. 0.191576 -0.148872 -0.195960 -0.009365 0.038175 0.233951 0.225160 -0.040058 0.134760 -0.303971 -0.060431 0.264858 0.005563 0.016366 0.205840 0.211825 0.083372 0.111049 -0.225007 -0.173031 -0.086901 0.012629 -0.093267 0.033951 0.097354 0.155874 -0.240931 0.145864 -0.036326 -0.152762 0.032639 -0.112463 0.445035 0.207174 -0.204413 0.076793 -0.028589 -0.181830 0.021327 0.243331 0.057166 0.011384 0.254448 0.203903 0.193998 0.178946 0.003168 0.262690 0.003280 0.310175 0.191150 0.229776 -0.110026 -0.075594 -0.077541 0.059902 -0.107238 0.022703 -0.108639 0.103580 -0.107888 0.092314 -0.060663 -0.195669 0.113091 0.068606 0.013442 -0.027746 0.290114 0.197936 -0.092582 -0.037575 -0.116685 -0.132446 0.131344 -0.003608 0.064309 0.121705 0.132362 0.013608 0.160825 -0.283391 -0.053984 0.124766 0.200561 -0.167043 -0.047035 -0.300685 -0.159484 0.108612 -0.012376 0.038728 0.030903 -0.110348 -0.078915 -0.169507 0.039361 -0.124526 0.071992 0.201483
right 0.005204 -0.060930 0.041308 0.143360 0.093293 0.058652 0.025178 0.017369 0.013258 0.332341 0.177435 0.005280 -0.060191 0.089676 -0.083939 0.126561 0.001066 -0.229084 0.166774 0.092508 0.186192 0.135589 0.089815 -0.001261 0.046080 -0.347903 -0.201966 0.077278 0.101905 0.065184 0.037271 0.011078 -0.004545 0.073986 0.176233 -0.336238 0.077595 0.067945 -0.042927 -0.202010 -0.114930 -0.031267 -0.103129 -0.016764 -0.007557 -0.127554 0.029651 0.077661 -0.028595 -0.241815 -0.132055 -0.148533 -0.058320 0.116990 0.156961 0.061430 0.002026 0.030876 -0.050982 0.004137 -0.313723 -0.079264 0.029656 -0.101247 0.106969 -0.172983 -0.127848 -0.022763 -0.014418 -0.103258 -0.121820 0.118189 -0.013405 -0.027797 0.266061 0.050623 0.007142 0.077551 -0.091552 0.125562 0.032780 0.178366 0.008561 0.211182 0.111534 0.210319 -0.152174 -0.019477 0.053237 -0.209811 0.059766 0.160772 -0.041781 0.100964 -0.132515 -0.211092 -0.222299 0.158994 0.077601 -0.299756
intersection 0.048042 0.046924 0.150266 0.215397 -0.115051 0.152514 0.053335 -0.007712 -0.054169 -0.151607 0.099403 -0.118113 0.004056 -0.021352 -0.133420 -0.241230 0.022160 -0.092774 -0.079839 -0.135555 -0.072308 -0.060379 0.138949 0.056564 -0.067416 0.140515 0.047142 -0.008872 -0.199386 -0.096891 0.054693 0.088241 -0.027898 -0.276185 -0.212414 0.195975 0.144590 0.119378 0.135388 0.142562 0.014074 0.158896 0.141478 -0.029242 0.028298 0.149954 -0.082646 -0.132579 0.038185 0.121330 0.192377 0.007095 -0.044629 -0.007881 0.015747 -0.085970 0.038641 0.059446 -0.081390 -0.183310 -0.081629 0.071429 -0.142557 0.167506 -0.054710 0.126194 0.105358 0.074426 0.110746 0.289817 -0.061681 -0.121964 -0.103816 0.212488 -0.069419 0.076118 -0.116516 -0.120328 -0.107630 -0.168483 0.154653 -0.067629 0.265620 -0.218518 -0.162856 -0.134630 0.149486 -0.041319 0.147774 0.072026 0.254757 0.167561 -0.335245 -0.131561 0.299915 0.067676 0.168107 -0.146536 -0.122860 0.135964
move -0.122723 -0.098633 -0.010778 0.046168 -0.276763 0.226361 -0.244101 0.317540 0.369501 0.178521 -0.229489 0.141560 0.067313 -0.037010 -0.215558 0.176990 0.036548 0.099022 -0.014742 -0.189570 0.108678 0.203643 -0.040913 -0.012535 -0.028106 -0.170200 0.014008 -0.134138 -0.059694 0.135002 0.234615 -0.037944 -0.112129 0.153748 -0.021056 -0.074776 -0.016120 -0.175907 0.241219 -0.030117 0.019091 -0.216829 -0.147149 -0.047494 0.191275 0.029688 -0.004546 0.023152 0.058569 -0.084602 0.113352 0.068059 -0.042195 -0.025258 -0.217967 0.092314 0.046557 0.235429 0.040744 -0.041404 0.171103 0.065263 -0.149119 -0.125893 0.264173 0.053182 -0.027006 0.210895 -0.014911 0.119558 -0.250595 0.075243 0.094242 0.057913 0.324006 0.239970 -0.051817 0.118438 0.364124 0.235489 -0.074896 0.169170 -0.110684 0.108065 0.227347 0.109810 -0.258877 0.024597 -0.003958 -0.078685 0.045114 -0.203668 0.406526 0.282673 -0.076253 -0.136341 0.041432 0.067144 -0.012565 -0.165214
hall. -0.088868 -0.038602 0.028380 0.050767 -0.001363 0.057861 0.000539 -0.154587 -0.077635 -0.149498 -0.014276 -0.124313 0.092845 0.033843 0.132300 -0.115537 0.042742 -0.140481 -0.234461 -0.302075 -0.000585 -0.239975 0.111875 -0.059846 -0.048415 0.184057 -0.005930 0.013702 -0.042683 -0.158907 -0.036641 0.113355 0.061911 -0.307563 -0.339359 0.391566 0.251281 0.083736 0.105853 0.074100 0.125033 0.164810 0.253398 0.019147 0.032341 0.276440 0.017520 -0.129929 -0.000735 0.288262 0.012631 0.056947 -0.114829 0.056203 0.133487 -0.199152 0.023188 0.022361 -0.210563 0.017396 -0.070353 -0.058679 -0.079596 0.194478 -0.139164 0.173845 -0.075810 0.018013 0.243717 0.233814 -0.055268 -0.149299 -0.087440 0.026504 -0.129476 0.020576 0.071199 0.114771 -0.198685 0.011438 0.186086 -0.135837 0.141646 -0.151619 -0.139496 -0.213430 -0.002322 -0.098406 0.184722 -0.060490 0.112728 0.177991 -0.496453 -0.272533 0.087776 0.109370 -0.016004 -0.170338 -0.090127 0.139920
one 0.215487 0.038163 -0.017814 0.062163 -0.145003 0.222781 0.111035 -0.042409 0.000405 -0.437883 -0.159831 0.107665 0.170838 -0.027339 -0.016914 -0.101878 0.008409 0.036704 -0.304150 -0.152729 -0.084496 0.028787 -0.129319 0.032755 0.049662 0.265091 -0.154761 0.170107 -0.173113 -0.203400 0.177193 -0.006902 0.264383 -0.010473 -0.222651 0.198928 0.069456 -0.095907 0.137465 0.297796 0.120942 0.131744 0.181452 0.216096 0.111121 0.221842 -0.145903 -0.001251 0.056912 0.394491 0.249062 0.205868 -0.137005 -0.012734 0.044468 0.063951 -0.032438 0.146132 -0.040741 -0.023900 -0.276981 0.079628 -0.146340 0.182042 -0.082326 0.220183 0.158907 -0.026919 0.241889 0.265968 -0.180682 0.001056 -0.261789 0.201363 0.068743 -0.049391 0.187367 -0.180090 -0.031079 -0.228364 0.178259 -0.213824 0.064459 -0.178511 0.055987 -0.243531 0.048776 -0.072808 0.006797 0.173847 0.282098 0.063070 -0.311037 -0.114033 0.249766 -0.046208 0.142775 -0.115748 -0.086699 0.332558
with -0.174012 0.106266 0.039286 0.104048 -0.193787 0.128490 -0.023934 -0.042363 0.002444 -0.226577 -0.160182 -0.150276 0.152226 0.014777 -0.053894 -0.187936 -0.044923 -0.069005 -0.189343 -0.267231 0.016153 -0.137476 0.009536 0.060847 -0.019817 0.078396 0.100335 -0.069179 -0.058737 -0.018398 -0.044598 0.050397 -0.095274 -0.361590 -0.246118 0.409470 0.171869 0.048747 0.233649 0.082357 0.077112 0.114896 0.090335 -0.077564 -0.004278 0.253308 0.024908 -0.181992 -0.031119 0.162995 0.044833 -0.000336 -0.040615 0.090365 0.014505 -0.196024 0.030005 0.045434 -0.183457 -0.064802 -0.026857 -0.001891 -0.152765 0.263464 -0.065820 0.154031 -0.081729 0.118511 0.154363 0.226449 -0.201331 -0.048810 -0.041416 0.223911 -0.006178 0.031940 -0.031110 -0.009031 -0.194107 -0.026145 0.032784 0.003587 0.175322 -0.140831 -0.150918 -0.142010 0.004045 -0.036173 0.236434 -0.034506 0.182982 0.033994 -0.380508 -0.111077 0.233185 0.200614 -0.007824 -0.072739 -0.128561 0.084154
Go 0.126076 -0.107177 -0.222444 0.266352 -0.134719 0.401513 -0.098648 -0.048516 0.091340 -0.451953 -0.083733 0.086451 0.113903 -0.088934 0.074216 0.046604 0.158990 0.064827 -0.360241 -0.302979 -0.306704 -0.023026 -0.097939 -0.119672 0.111164 0.295497 -0.222458 0.228283 -0.171309 -0.300608 0.203584 0.001449 0.180241 -0.005361 -0.466435 0.189854 -0.022861 -0.123777 0.288304 0.388851 0.218530 0.006797 0.493650 0.212437 0.216075 0.353144 -0.171038 0.058276 -0.061576 0.542526 0.350429 0.397797 -0.446579 0.008464 0.041489 -0.066972 -0.017444 0.265255 0.002046 0.066016 -0.124160 0.104085 -0.262936 0.166578 -0.111040 0.289282 0.164753 -0.008468 0.437436 0.409303 -0.096708 0.006021 -0.299621 0.182843 -0.024259 0.137608 0.247699 -0.093280 0.175820 -0.093171 0.319183 -0.491368 -0.033245 -0.129590 0.088966 -0.277624 -0.044506 -0.180246 0.055485 0.136101 0.267478 0.280033 -0.366291 -0.325900 0.106642 0.094207 0.083230 -0.144811 -0.048520 0.404570
go -0.147780 -0.099238 0.062626 0.183894 0.041208 0.041648 -0.220379 0.069900 0.095168 0.451921 0.161226 -0.131785 0.025416 0.098368 -0.084941 0.029979 0.186890 -0.322911 0.079832 -0.048738 0.199865 0.050317 0.211528 -0.081801 0.027110 -0.345796 -0.181426 -0.041434 0.128663 0.065039 0.094596 0.124616 -0.249076 0.027868 0.127532 -0.218475 0.178591 0.141275 0.095351 -0.274882 -0.078530 -0.219262 -0.024911 -0.007009 0.020235 -0.056302 -0.032777 -0.071750 -0.058572 -0.186477 -0.183265 -0.123691 -0.068073 0.093702 0.234981 -0.022084 0.039948 0.166866 -0.072337 0.051297 -0.161634 -0.035354 -0.013746 -0.008103 0.113524 -0.068657 -0.100661 0.062001 0.036265 -0.003589 -0.100704 0.093279 0.009780 0.099529 0.174929 0.185787 0.100239 0.097148 -0.051997 0.218501 0.097586 0.262861 0.041489 0.101114 0.099303 0.288347 -0.144011 -0.046559 0.220717 -0.279538 0.096732 0.221524 -0.030374 0.079695 -0.133524 -0.084387 -0.252674 0.169489 0.084897 -0.330625
this -0.158862 0.080991 0.027482 -0.020228 -0.077417 0.055347 -0.044300 -0.111253 0.024328 -0.059641 -0.098816 -0.024883 0.046444 -0.041572 -0.074964 0.025523 -0.185821 -0.039409 -0.049605 -0.116732 0.109798 -0.062605 -0.043326 0.030352 0.048236 0.165737 0.083349 -0.075233 0.015930 0.041074 0.025581 -0.044451 -0.028641 -0.153362 -0.080883 0.105471 0.246882 0.034677 0.045947 -0.090831 -0.175210 0.028398 -0.075766 -0.065893 -0.066861 0.197768 0.072126 -0.138132 0.089328 0.016454 0.107200 0.008863 0.039071 0.020368 0.074797 -0.119614 -0.045727 -0.076464 -0.132073 -0.047912 -0.062094 -0.133471 0.009586 0.083719 -0.079477 0.064926 0.029008 -0.018482 -0.096002 -0.054105 -0.084369 -0.033998 0.134955 0.111316 -0.073513 -0.027908 -0.091305 -0.039649 -0.086017 -0.106951 0.066147 0.185141 0.039735 -0.140405 -0.070997 -0.102724 0.000340 0.103778 0.167171 0.026622 0.247675 0.024660 -0.179475 0.170991 0.046559 0.068654 -0.033857 0.118991 -0.061020 0.000160
your 0.133560 -0.011314 0.228106 -0.250149 -0.172845 0.178027 0.057456 0.143218 0.128718 -0.147622 -0.317472 0.119629 0.088607 -0.132602 -0.059845 0.123446 -0.299523 0.246173 -0.100184 -0.044722 0.289817 0.065277 -0.064107 -0.094227 -0.107580 0.305839 0.117532 -0.089544 -0.186746 0.190868 0.219446 -0.093947 0.159897 -0.055510 -0.065570 0.131929 0.150192 -0.193917 0.115886 -0.068480 -0.071642 0.305665 -0.236698 -0.120447 0.008300 0.115341 0.133536 0.052591 0.235458 -0.076205 0.189027 0.037115 0.114599 -0.113916 -0.072781 0.171751 -0.032243 -0.160580 0.034394 -0.121166 0.171890 0.055031 -0.178353 0.059021 0.040406 0.089495 0.000575 -0.012514 -0.291294 0.058502 -0.241580 -0.048382 0.392648 -0.086104 0.215879 0.032086 -0.235351 -0.007175 0.110547 -0.075617 -0.018101 0.189462 -0.063036 -0.186156 -0.019284 -0.269023 -0.060962 0.084149 -0.050066 0.053821 0.022111 -0.407733 0.172462 0.298712 0.091447 -0.193420 0.308100 0.029835 -0.001272 -0.096171
left -0.046328 -0.134565 -0.042273 0.098776 0.067119 0.055363 -0.003895 0.047592 0.103656 0.290467 0.122505 0.041077 -0.095379 0.051531 -0.025526 0.185451 0.056496 -0.067606 0.103782 0.007050 0.079946 0.066305 0.039381 -0.002444 0.015539 -0.229231 -0.119145 0.029743 0.061662 0.056958 -0.006140 -0.014406 -0.022653 0.095131 0.029493 -0.197480 -0.013044 0.009666 0.003302 -0.121463 -0.074450 -0.081885 -0.013122 -0.067154 0.048774 -0.060689 0.040910 0.085599 -0.061979 -0.178947 -0.041874 -0.085401 -0.092771 0.013698 0.011044 0.008607 0.040245 0.031886 -0.011589 0.027710 -0.077495 -0.037996 0.029231 -0.149376 0.129273 -0.136175 -0.130398 0.011396 0.058776 -0.055385 -0.048032 0.075783 0.045196 -0.075042 0.191358 0.126735 -0.056359 0.181870 0.024868 0.196135 0.017523 0.050658 -0.056867 0.205563 0.094638 0.138698 -0.176340 -0.081507 -0.006336 -0.138570 -0.029833 0.083646 0.110522 0.087759 -0.209413 -0.123177 -0.145086 0.099540 0.098396 -0.242412
hall -0.075478 0.002193 0.121364 0.028972 -0.076563 0.125105 -0.015779 -0.043462 0.009887 -0.097421 -0.075410 -0.081188 0.096953 0.011205 0.039495 -0.084562 -0.033067 -0.085137 -0.174940 -0.259031 0.105459 -0.136172 0.106698 -0.062151 -0.074872 0.134840 0.047225 -0.054904 -0.081222 -0.044802 0.037448 0.059250 0.024320 -0.267314 -0.213457 0.315643 0.270091 0.031515 0.144383 -0.020479 0.045045 0.154299 0.080535 -0.041378 0.025238 0.233637 0.070108 -0.111884 0.064512 0.152063 0.018278 0.029639 -0.023952 0.022824 0.068895 -0.111931 -0.005656 -0.014983 -0.171310 -0.015784 -0.010856 -0.000471 -0.123314 0.162558 -0.035500 0.125944 -0.083610 0.063174 0.095461 0.203947 -0.157539 -0.110871 0.087190 0.031844 0.012963 0.047378 -0.045422 0.095437 -0.112044 0.029564 0.120880 0.015612 0.138209 -0.146919 -0.113150 -0.153441 -0.023425 -0.057546 0.184997 -0.079611 0.110246 0.017646 -0.306284 -0.115975 0.102413 0.025784 0.037958 -0.080081 -0.066959 0.017401
blue -0.135166 -0.071451 0.012462 0.144224 0.043935 0.026317 -0.126154 0.078277 0.089387 0.416993 0.153428 -0.062134 -0.048531 0.093107 -0.077154 0.074566 0.085120 -0.222647 0.132373 -0.013859 0.180393 0.045417 0.141377 0.011226 -0.027000 -0.366389 -0.132626 -0.065456 0.098533 0.089298 0.013107 0.028306 -0.173874 0.037603 0.100140 -0.188906 0.074248 0.106694 0.027126 -0.239766 -0.060714 -0.156570 -0.075159 -0.083951 0.004712 -0.077768 0.043805 0.020381 -0.088789 -0.216432 -0.177610 -0.123024 -0.031625 0.021825 0.053039 -0.018298 0.009423 0.071459 -0.041707 0.039988 -0.054649 -0.004834 0.025497 -0.091197 0.187037 -0.142410 -0.153996 0.083952 0.012958 -0.040586 -0.134587 0.091126 0.093405 0.012869 0.188268 0.178963 -0.022284 0.159030 -0.016972 0.244174 -0.014924 0.236476 0.007816 0.189220 0.096829 0.262026 -0.139752 -0.080806 0.107247 -0.206639 0.012821 0.132475 0.098897 0.086362 -0.157507 -0.104444 -0.205689 0.133408 0.086936 -0.326610
take -0.133078 0.002038 -0.073551 0.190775 0.190742 -0.049457 -0.161808 -0.087395 -0.139663 0.526333 0.298024 -0.193540 -0.008224 0.147499 -0.024304 -0.063306 0.086678 -0.420220 0.205136 0.054247 0.130106 -0.011668 0.177897 -0.104574 -0.023590 -0.519270 -0.157638 0.086803 0.233121 -0.032249 -0.119432 0.117978 -0.247449 -0.094244 0.172949 -0.223942 0.116219 0.241649 -0.106697 -0.374466 0.022802 -0.127311 -0.032526 -0.055544 -0.086592 -0.135472 0.043776 -0.061779 -0.153668 -0.157961 -0.466166 -0.194419 -0.086384 0.180656 0.245047 -0.107107 -0.017365 -0.000997 -0.015626 0.126656 -0.251023 -0.097530 0.062972 0.071868 0.005222 -0.190221 -0.225921 -0.068084 -0.000868 -0.119700 -0.061691 0.115804 -0.002337 -0.040551 0.064133 0.024330 0.202860 0.143005 -0.246443 0.281228 -0.003151 0.230795 0.052450 0.229750 -0.013905 0.333770 -0.152615 -0.001638 0.179696 -0.350296 -0.050263 0.277767 -0.246135 -0.152734 -0.246839 0.045421 -0.412778 0.210687 0.048351 -0.282396
once. 0.073256 -0.350945 -0.495770 -0.263018 -0.002968 0.096227 -0.343614 0.157143 0.477608 0.029089 -0.241674 0.333164 0.070997 -0.156806 0.171055 0.370028 0.265723 0.619830 -0.241860 -0.100176 0.044407 0.012229 -0.297021 -0.125545 0.018555 0.388628 -0.352354 0.038445 0.186265 -0.133494 0.230512 -0.120166 0.197955 0.738105 -0.127207 -0.050177 -0.310988 -0.238220 -0.181487 -0.034467 -0.142799 -0.469667 0.360552 0.258700 0.328343 0.003299 -0.127737 0.333353 -0.009400 0.350371 0.105538 0.397222 -0.172765 -0.429044 -0.256504 0.332066 -0.269581 0.242464 0.250704 0.418662 0.307048 0.300349 0.088997 -0.384043 0.302356 0.126943 0.169565 -0.058559 -0.021289 0.006944 -0.187554 0.151378 0.306442 -0.200704 0.143218 0.217593 0.493227 0.098915 0.542766 0.162829 0.097885 -0.161409 -0.656496 0.160222 0.500453 0.123580 -0.169611 -0.195904 -0.369591 -0.040639 -0.332531 -0.049448 0.886403 0.145634 -0.657700 0.021112 -0.085590 -0.040185 0.501735 0.108228
Turn -0.028200 0.028052 -0.079168 0.133558 -0.254964 0.169303 -0.116287 0.028202 0.061959 -0.430935 -0.249894 0.013618 0.123357 -0.090067 0.004192 -0.046216 0.062705 0.196825 -0.291972 -0.215811 -0.284920 -0.073324 -0.184664 -0.055379 -0.021605 0.292548 0.015833 0.094538 -0.174874 -0.199460 0.146225 -0.004474 -0.059723 -0.051350 -0.418107 0.326060 -0.174547 -0.124600 0.313678 0.402001 0.267619 0.078207 0.254665 -0.018565 0.101726 0.283638 -0.111253 -0.064328 -0.121782 0.414486 0.298597 0.285884 -0.361489 -0.120118 -0.147935 -0.109751 0.110608 0.245755 0.048974 0.026996 0.185100 0.114807 -0.203172 0.251740 -0.128712 0.214097 0.088186 0.041449 0.322023 0.290736 -0.040390 0.050174 -0.135625 0.220058 -0.060261 0.166781 0.058450 -0.076022 0.106240 -0.087705 0.029421 -0.413823 -0.025621 -0.231696 -0.029481 -0.315643 -0.022853 -0.091752 -0.015808 0.230408 0.175220 -0.001154 -0.122725 -0.187793 0.170597 0.175559 0.229465 -0.153520 -0.104278 0.326145
end -0.190644 -0.186501 0.202054 0.093976 0.019470 0.000546 -0.021854 0.051786 0.105219 0.190681 0.112577 -0.153938 -0.017656 0.073553 0.117432 -0.085916 0.206372 -0.248240 -0.175738 -0.340137 0.135152 -0.251256 0.345783 0.017891 -0.095934 0.038502 -0.007968 -0.233797 0.001044 0.000486 -0.044897 0.156047 -0.078422 -0.181485 -0.250784 0.351482 0.244199 0.149900 0.205674 -0.055608 -0.003668 0.020606 0.199371 -0.067154 0.048264 0.200981 0.020337 -0.098148 -0.042043 0.020033 -0.008261 -0.095422 0.039106 -0.115105 0.044055 -0.224185 0.072820 0.073301 -0.317920 -0.007629 0.192527 0.028507 -0.054823 -0.055562 0.101386 0.081012 -0.232797 0.174372 0.290609 0.243743 0.001962 -0.183119 0.111593 0.004990 -0.070416 0.295872 -0.188742 0.299118 -0.074393 0.228398 0.171232 0.102257 0.162328 -0.068798 -0.094783 -0.076139 -0.008525 -0.270706 0.223342 -0.100703 0.042467 0.137575 -0.119719 -0.052062 0.064406 -0.080040 -0.000087 -0.171344 -0.017836 -0.129411
path -0.202125 -0.020873 0.170333 0.149274 0.089060 -0.074476 -0.162947 0.043879 -0.000451 0.512572 0.230482 -0.191508 -0.030978 0.136228 -0.114406 -0.000245 0.140359 -0.444026 0.226393 0.061715 0.187133 0.097153 0.284948 -0.090582 0.045136 -0.455372 -0.025203 -0.075011 0.134561 0.132155 0.040914 0.161099 -0.357232 -0.069016 0.255600 -0.300944 0.198226 0.199015 0.052226 -0.297794 -0.073738 -0.174956 -0.199397 -0.052818 -0.116872 -0.142523 0.012078 -0.160693 -0.037961 -0.329367 -0.256949 -0.208350 0.023562 0.179887 0.265628 -0.092344 0.103563 0.079183 -0.073410 -0.020710 -0.132253 -0.146645 0.012229 0.040988 0.032501 -0.163300 -0.115343 0.047176 -0.065841 -0.108657 0.044813 0.073114 -0.014799 0.067394 0.068200 0.095606 -0.044719 0.057887 -0.101294 0.190517 0.007233 0.324584 0.170133 0.073902 -0.007108 0.322569 -0.104819 0.063154 0.259043 -0.261528 0.080916 0.133826 -0.077436 0.122717 -0.060200 -0.088677 -0.243528 0.229492 -0.017896 -0.372723
on -0.031895 0.070630 0.119260 -0.202362 0.023254 -0.018644 0.083034 0.022493 0.058066 0.048969 -0.078703 0.093583 0.033125 0.047075 -0.000456 0.030321 -0.112519 0.020275 0.087525 0.028840 0.221902 0.038181 0.035773 -0.040309 -0.089187 -0.024918 0.143663 -0.099617 0.038514 0.114419 -0.007006 -0.049352 0.010810 -0.012423 0.109338 0.045481 0.089825 -0.010725 -0.099889 -0.120119 -0.089463 0.096779 -0.305556 -0.109790 -0.086093 0.010666 0.162427 -0.027333 0.086988 -0.097029 -0.129490 -0.030480 0.222180 -0.139918 -0.136883 -0.002147 -0.084243 -0.184177 -0.048276 -0.020473 0.194716 -0.016580 -0.021419 -0.007866 0.100523 -0.132854 -0.101713 -0.037802 -0.226573 -0.077297 -0.074560 0.013345 0.332819 -0.129249 0.060760 -0.057107 -0.226037 0.064233 -0.026095 0.079294 -0.159038 0.266156 0.104341 -0.023538 -0.015331 0.017049 -0.026480 -0.021706 -0.024099 0.021304 -0.073569 -0.303429 0.221652 0.216692 -0.070665 -0.088514 0.105973 0.147329 -0.003805 -0.095297
in -0.061200 0.078807 0.124785 -0.040030 -0.003753 -0.017830 0.029770 -0.099906 -0.099815 -0.040328 -0.032751 -0.097685 0.010973 -0.020623 0.007788 -0.041769 -0.206706 -0.062607 -0.005522 -0.053031 0.109518 -0.101155 0.054242 -0.030253 -0.057445 0.112337 0.143354 -0.065857 -0.040880 0.058664 -0.051483 -0.002956 -0.002522 -0.260875 -0.068271 0.161825 0.209914 0.048503 0.025712 -0.112602 -0.042763 0.206718 -0.090040 -0.106794 -0.112143 0.114859 0.128387 -0.086382 0.081487 -0.054885 -0.026335 -0.060616 0.077431 0.060073 0.083919 -0.113227 -0.003274 -0.184177 -0.088424 -0.074066 0.032423 -0.103295 -0.033114 0.110718 -0.085118 0.036530 -0.065525 -0.030371 -0.120377 -0.033528 -0.023658 -0.089567 0.150925 -0.053787 -0.086500 -0.052615 -0.153755 0.022942 -0.128858 -0.050406 0.001369 0.117486 0.064689 -0.114129 -0.166344 -0.138301 0.020534 0.107553 0.123200 -0.032547 0.045786 -0.046483 -0.242054 0.004864 0.104399 0.040292 0.046530 0.020542 -0.077882 -0.027021
onto -0.108492 -0.016515 0.012198 0.157977 0.232306 -0.056371 -0.129488 0.009575 -0.061398 0.617508 0.312165 -0.123163 -0.037781 0.192065 0.011337 0.055238 0.111267 -0.458690 0.277067 0.097849 0.273305 0.089766 0.263398 -0.109146 -0.010225 -0.641381 -0.209696 -0.000733 0.272310 0.076798 -0.049122 0.096748 -0.186799 0.052220 0.331036 -0.399831 0.174287 0.186574 -0.156823 -0.436076 -0.033134 -0.185059 -0.151356 0.031858 -0.052065 -0.218099 0.056545 0.043266 -0.116136 -0.294767 -0.507605 -0.167221 0.013274 0.192467 0.243531 -0.002803 -0.070142 0.020497 -0.085787 0.124241 -0.217414 -0.088359 0.074534 -0.132702 0.179354 -0.254128 -0.226951 -0.033704 -0.089185 -0.155541 -0.101564 0.114536 0.030356 -0.139798 0.213626 0.024413 0.134270 0.179560 -0.138266 0.319131 -0.045349 0.360174 0.047461 0.354172 0.136221 0.437624 -0.166223 -0.042814 0.140215 -0.427974 -0.127220 0.213609 -0.021948 -0.028803 -0.269639 -0.185026 -0.415746 0.224532 0.110963 -0.421492
should -0.003997 0.024896 -0.137236 -0.049618 0.012041 -0.033210 -0.039341 -0.057633 0.009468 0.067979 0.010945 -0.015758 -0.020089 -0.062595 -0.049074 -0.007533 -0.120111 0.156660 0.044973 0.026500 0.106993 -0.049087 -0.115083 0.077589 -0.056693 0.112747 -0.020322 0.002329 0.056788 0.002485 -0.060336 -0.077695 0.039896 0.020646 -0.018591 0.043135 0.023160 0.060184 -0.199209 -0.193147 -0.167442 -0.021936 -0.005991 -0.003970 -0.013374 -0.026736 0.051814 0.050024 0.015116 -0.039549 -0.060896 -0.019274 0.085534 -0.109146 -0.042230 0.050256 -0.133521 -0.139630 0.069889 0.090855 -0.025497 0.022170 0.092136 -0.072744 0.089922 -0.029642 0.036426 -0.043523 -0.175410 -0.093330 -0.151993 0.029117 0.237535 -0.063061 0.027898 -0.004888 0.061839 -0.011090 -0.075048 -0.058914 -0.029515 0.146582 -0.136518 0.065559 0.035601 0.092827 0.006737 0.028607 -0.036626 -0.084512 -0.069809 0.056501 0.115333 0.064313 -0.176819 0.141150 -0.092889 0.036377 0.190575 -0.031139
towards -0.166793 -0.009044 0.120663 0.212903 0.009470 0.002907 -0.107833 0.048120 0.002668 0.419002 0.186045 -0.131789 -0.025853 0.138531 -0.136936 -0.026255 0.087432 -0.372119 0.160495 -0.026631 0.138050 0.040146 0.198913 0.007961 -0.077170 -0.432176 -0.059672 -0.040273 0.035508 0.056944 0.006652 0.081821 -0.256860 -0.128320 0.054107 -0.123160 0.101078 0.169336 0.119610 -0.157310 0.023148 -0.032250 -0.139310 -0.158603 -0.053930 -0.046148 0.042074 -0.111818 -0.127063 -0.204656 -0.202815 -0.186017 -0.070227 0.035026 0.077173 -0.117628 0.138012 0.095350 -0.079837 -0.036976 -0.099690 -0.068563 -0.010975 0.074115 0.093803 -0.171093 -0.211173 0.104870 0.108027 0.037278 -0.103357 0.081094 0.025874 0.094715 0.135689 0.188254 -0.108559 0.161070 -0.136078 0.244060 -0.052121 0.211170 0.166262 0.066815 -0.018761 0.198142 -0.156111 -0.071771 0.184308 -0.136039 0.143543 0.124121 -0.113513 0.039902 -0.043817 -0.082822 -0.138738 0.147468 -0.060484 -0.303408
segment 0.166849 0.015622 0.101810 0.124411 -0.143289 0.272545 0.078602 0.094276 0.062604 -0.446528 -0.113696 0.066093 0.116677 -0.028543 0.036099 -0.064047 0.122582 -0.046376 -0.221811 -0.159995 -0.191090 0.099794 0.074504 -0.065782 0.118815 0.143894 -0.051577 0.052066 -0.182681 -0.091292 0.191880 0.063556 0.148438 -0.010609 -0.153205 0.112912 -0.003146 -0.151710 0.277994 0.390076 0.207433 0.075914 0.176349 0.184192 0.113691 0.172477 -0.150148 0.019797 0.049692 0.282759 0.296402 0.240608 -0.110213 0.062099 0.007092 -0.007037 0.029580 0.200690 -0.090003 -0.101791 -0.006677 0.102992 -0.290561 0.089799 -0.066234 0.217718 0.143097 0.051980 0.237756 0.350084 0.021100 -0.071099 -0.315488 0.161426 0.013846 0.022517 -0.007073 -0.179464 0.178529 -0.161954 0.153949 -0.253540 0.185691 -0.169864 0.044516 -0.237972 0.099538 -0.115201 0.029996 0.201682 0.171582 -0.006857 -0.185715 -0.134146 0.390484 -0.131850 0.255362 -0.169939 -0.167405 0.302278
easel. 0.033214 0.018519 -0.050119 0.039764 -0.070861 0.077189 0.004944 -0.009900 0.008058 -0.106575 -0.063698 0.035930 0.054249 0.000305 -0.027000 -0.040416 -0.014805 0.001587 -0.079567 -0.069877 -0.035464 -0.014011 -0.049029 0.027651 -0.022870 0.027531 -0.042810 0.045415 -0.048425 -0.084211 0.029358 -0.031086 0.062461 -0.027144 -0.109212 0.095695 -0.021448 -0.014328 0.076125 0.087217 0.067085 0.043400 0.052894 0.010161 0.042825 0.081730 -0.017725 0.008256 -0.021005 0.151304 0.045107 0.062302 -0.083108 -0.016452 -0.036561 0.002635 0.007841 0.051048 -0.001799 -0.002580 -0.064377 0.044462 -0.035488 0.089172 -0.013090 0.045861 -0.005386 0.013863 0.115057 0.103544 -0.102761 0.005951 -0.051238 0.075451 0.026903 0.002619 0.057927 -0.004627 -0.006963 -0.002013 0.014345 -0.086858 0.002948 -0.039525 0.011630 -0.070392 -0.031372 -0.040352 -0.017391 0.063305 0.087031 -0.007044 -0.096059 -0.073905 0.036651 0.021826 0.026188 -0.012158 -0.055157 0.096299
be -0.106518 0.120143 -0.170843 0.037391 -0.113893 -0.019526 -0.204107 -0.094653 -0.031025 0.019012 -0.120212 -0.138884 0.126842 -0.093603 -0.120326 -0.083768 -0.153043 0.106160 -0.029782 -0.005669 0.078550 -0.038792 -0.206437 0.074188 0.044586 0.061851 -0.047602 0.049068 0.125328 -0.012059 -0.013810 -0.065568 -0.100755 -0.052846 0.031177 0.037260 0.037460 0.055612 -0.059138 -0.210858 -0.145886 -0.116027 0.028934 0.013654 -0.021913 -0.003833 -0.011332 -0.067799 -0.027204 0.018313 -0.090836 -0.039902 -0.044027 0.111463 0.134675 0.024840 -0.121546 0.018464 0.070751 0.109475 -0.200007 -0.017050 0.053361 0.126672 -0.060530 0.090689 0.039636 -0.044835 -0.167244 -0.117296 -0.225838 0.113279 0.067890 0.139248 0.041568 -0.080761 0.312741 -0.157152 -0.145924 -0.119815 0.001606 0.135649 -0.198351 0.028340 -0.000425 0.107655 -0.018385 0.205660 0.088195 -0.178842 0.042013 0.130126 -0.126667 0.006300 -0.080622 0.299564 -0.257879 0.077168 0.118958 -0.007221
wall -0.033021 0.056898 0.101273 -0.269003 -0.134764 0.118400 0.043356 0.085605 0.139406 -0.081254 -0.307823 0.200101 0.089800 -0.026853 -0.031141 0.101194 -0.241876 0.090577 -0.019555 -0.115316 0.193461 0.057835 -0.038273 -0.027870 -0.055181 0.081946 0.202923 -0.151263 -0.051400 0.139481 0.090849 -0.103465 0.126519 -0.040412 0.002905 0.135171 0.156843 -0.159356 0.043156 -0.030161 -0.004921 0.111082 -0.323505 -0.090908 -0.009400 0.132787 0.200584 0.001089 0.191147 -0.011326 0.029524 0.062396 0.216927 -0.056080 -0.203655 0.008803 -0.068327 -0.152339 -0.085724 -0.104338 0.234253 -0.043637 -0.109153 -0.013389 0.084349 0.020909 -0.057918 0.053897 -0.209309 0.019558 -0.155868 -0.080882 0.306119 -0.126908 0.073522 -0.081587 -0.231711 0.080533 0.141413 0.083952 -0.129166 0.250697 0.037912 -0.063535 0.019309 -0.146140 -0.098687 0.054451 -0.031220 0.075318 0.000480 -0.454297 0.205812 0.272260 0.039408 -0.138434 0.186265 0.099842 -0.158971 0.014007
Position 0.052033 0.235211 -0.013489 -0.182204 -0.091264 0.090958 0.006873 -0.230533 -0.166300 -0.269635 -0.269401 0.067639 0.103585 -0.135183 -0.034058 0.023808 -0.504147 0.114028 -0.056545 -0.004607 0.100532 -0.015281 -0.228674 -0.066195 0.053152 0.309952 0.132019 0.062899 -0.059612 0.021152 0.068049 -0.155915 0.219197 -0.200608 0.001236 0.066274 0.308849 -0.106268 -0.096096 -0.160946 -0.083689 0.237500 -0.159313 0.006090 -0.090149 0.192609 0.178488 -0.040392 0.243751 0.125515 0.052375 0.106855 0.031895 0.226996 0.143470 0.039355 -0.159481 -0.244655 -0.005904 -0.046413 -0.232158 -0.176260 0.014683 0.203416 -0.228066 0.148903 0.128244 -0.182661 -0.346936 -0.183743 -0.166065 -0.084095 0.147364 -0.054382 -0.072960 -0.377769 0.104962 -0.176493 -0.066245 -0.282479 0.059339 0.080707 -0.129699 -0.163281 -0.118036 -0.251938 0.007110 0.377517 0.060952 0.000879 0.140872 -0.137852 -0.379216 0.008337 0.075333 0.069947 0.016725 0.136865 -0.117329 0.142868
This 0.044072 0.255382 0.024887 -0.020438 -0.198192 0.103791 0.049880 -0.163778 -0.155524 -0.493617 -0.265993 0.002236 0.143410 -0.125973 -0.077101 -0.070357 -0.353860 0.069217 -0.147706 -0.020724 -0.080513 0.007851 -0.232076 0.027256 0.122413 0.322669 0.108392 0.076812 -0.126657 -0.031454 0.089939 -0.102856 0.135536 -0.212324 -0.065339 0.112682 0.169132 -0.094474 0.106681 0.119139 -0.009621 0.217506 -0.053234 0.055755 -0.063632 0.210996 0.021601 -0.096895 0.137704 0.185317 0.225012 0.117222 -0.038103 0.214483 0.157042 -0.029145 -0.019677 -0.061430 -0.050113 -0.114453 -0.237313 -0.122078 -0.075082 0.269826 -0.271204 0.211357 0.178798 -0.078821 -0.104421 -0.042394 -0.075043 -0.027519 -0.121812 0.200007 -0.090131 -0.267959 0.068287 -0.310807 -0.090713 -0.384958 0.053145 -0.058638 -0.001422 -0.259827 -0.119098 -0.305222 0.090802 0.286556 0.096372 0.148681 0.311548 -0.041326 -0.460399 -0.016843 0.332466 0.103113 0.089206 0.025470 -0.197459 0.265014
down -0.065263 -0.018864 0.046513 0.078993 0.011999 0.120669 -0.041289 0.009628 0.050422 0.126600 0.019433 -0.027319 0.035304 0.083735 0.035437 0.019271 0.034631 -0.162689 -0.023475 -0.156224 0.132102 -0.024936 0.135331 -0.076281 -0.061708 -0.146716 -0.045481 -0.036236 0.002320 0.002244 0.026536 0.037416 -0.009788 -0.096286 -0.068753 0.076204 0.178983 0.029717 0.063762 -0.108421 0.069908 0.025211 -0.005587 -0.017688 0.028456 0.094266 0.083215 0.001550 -0.010542 0.010413 -0.130265 0.027538 -0.036307 0.035549 0.019615 -0.062812 -0.029067 0.005227 -0.112200 0.036673 -0.004002 0.014250 -0.078006 0.026886 0.103887 -0.022738 -0.130845 0.051530 0.071227 0.120366 -0.161846 -0.013324 0.079402 -0.058792 0.128778 0.076964 -0.030110 0.161151 -0.023456 0.178218 0.038462 0.078048 0.094064 0.077600 0.016143 0.044719 -0.102030 -0.104470 0.125339 -0.146695 -0.006870 0.022198 -0.095636 -0.072500 -0.047259 -0.082508 -0.056915 0.028598 0.005342 -0.112484
until -0.104392 -0.022826 -0.086742 0.032497 0.041291 -0.014878 -0.148679 -0.064596 0.001136 0.192538 0.022942 -0.083519 0.004432 0.000777 0.011170 0.033649 -0.041658 -0.085747 0.043848 -0.058720 0.139172 -0.062457 -0.013453 -0.014187 -0.033418 -0.085664 -0.075708 -0.009444 0.100942 0.012115 -0.035455 -0.019102 -0.048532 -0.062356 -0.013699 0.001065 0.134886 0.072726 -0.068741 -0.250896 -0.035117 -0.051954 0.014262 -0.002482 -0.019130 0.000630 0.078568 0.003212 -0.036039 -0.055307 -0.185239 -0.021962 -0.014738 0.066451 0.099945 -0.027395 -0.069343 -0.033225 -0.020556 0.124309 -0.084632 -0.052993 0.058631 -0.013324 0.069688 -0.023690 -0.071550 0.016573 -0.042173 -0.057188 -0.149902 0.017297 0.135729 -0.072263 0.063556 0.028522 0.125941 0.107346 -0.060199 0.105552 0.011877 0.142175 -0.095380 0.127423 0.031853 0.122127 -0.092660 0.029631 0.103163 -0.220715 -0.056465 0.109018 -0.075055 -0.039744 -0.166639 0.072382 -0.226340 0.074825 0.104387 -0.138964
red -0.133816 -0.020157 0.023224 0.126164 0.008116 -0.045410 -0.149857 0.062426 0.017678 0.324309 0.117928 -0.108412 -0.025256 0.077778 -0.094293 -0.042129 0.107963 -0.201263 0.129851 0.006300 0.058095 0.011092 0.133956 -0.020894 -0.054226 -0.289737 -0.009492 -0.053065 0.061255 0.032601 -0.004647 0.086715 -0.255378 -0.045144 0.055199 -0.088908 -0.005886 0.117058 0.040545 -0.125948 0.038611 -0.117873 -0.068616 -0.078897 -0.031314 -0.077741 -0.004792 -0.073962 -0.101483 -0.127589 -0.175908 -0.101589 -0.043661 0.023034 0.008814 -0.079513 0.082436 0.099788 0.006282 0.000870 0.029903 -0.020768 -0.005883 0.022235 0.064052 -0.097586 -0.111109 0.085838 0.044480 0.008620 -0.001613 0.052203 0.003713 0.036230 0.028180 0.132753 -0.021077 0.085760 -0.027369 0.197742 -0.068569 0.120265 0.059500 0.073449 -0.005348 0.193922 -0.099301 -0.015511 0.093788 -0.117350 -0.000822 0.075335 0.025256 0.009549 -0.071208 0.017281 -0.115075 0.069954 -0.022418 -0.172272
see -0.071200 0.036770 -0.172897 -0.042765 0.023715 -0.076053 -0.115389 -0.166930 -0.074547 0.151050 -0.021167 -0.090383 0.011542 -0.084098 -0.039150 0.028463 -0.235866 0.099961 0.060132 0.050534 0.171592 -0.082902 -0.193760 0.059390 -0.021101 0.075590 -0.063556 0.055893 0.116701 0.015264 -0.090838 -0.109984 0.026480 -0.053486 0.021540 -0.010130 0.116336 0.071324 -0.201231 -0.367714 -0.206808 -0.011900 0.003634 -0.044217 -0.058568 -0.018051 0.108003 0.012646 0.000995 -0.089505 -0.154496 -0.105352 0.011891 0.077041 0.141349 0.050838 -0.138745 -0.165093 0.075278 0.135670 -0.230204 -0.085587 0.167327 0.023487 -0.005065 -0.015591 -0.031685 -0.103136 -0.227059 -0.232282 -0.215143 0.051507 0.228092 -0.075987 0.053682 -0.094586 0.212041 0.006127 -0.185743 -0.062529 0.013284 0.183645 -0.256599 0.117882 -0.025648 0.087926 -0.076217 0.185996 0.046533 -0.235851 -0.051864 0.129689 -0.120390 0.027190 -0.238908 0.207268 -0.285111 0.121595 0.189245 -0.137857
path. -0.217773 0.095640 0.121796 0.155265 0.030961 -0.126856 -0.165635 -0.013628 -0.110023 0.442788 0.175861 -0.236448 0.028783 0.110699 -0.144975 -0.137203 0.027093 -0.407858 0.201573 0.070531 0.196601 0.027937 0.195122 -0.017276 -0.024268 -0.445482 0.001376 -0.057099 0.176335 0.072596 -0.028224 0.136840 -0.347598 -0.156341 0.237240 -0.200563 0.173244 0.236311 -0.018278 -0.301493 -0.056718 -0.106551 -0.203877 -0.070318 -0.124513 -0.145573 0.004896 -0.180727 -0.072450 -0.273927 -0.320582 -0.238892 0.043391 0.209553 0.241850 -0.103927 0.054476 0.060169 -0.087440 -0.018334 -0.202162 -0.134724 0.051440 0.108414 -0.001016 -0.142800 -0.143468 0.052492 -0.104180 -0.133117 -0.047545 0.079222 -0.033848 0.126986 0.059377 0.010798 0.063288 0.014516 -0.239153 0.133964 -0.064668 0.346916 0.145900 0.088305 -0.045646 0.306583 -0.075223 0.126217 0.243780 -0.293344 0.081500 0.164972 -0.191998 0.040511 -0.010827 0.013887 -0.303917 0.184557 -0.046915 -0.305255
two 0.008231 -0.018484 0.023534 -0.016944 -0.067365 0.077176 0.006169 -0.021615 0.041411 -0.163734 -0.098107 0.009652 0.054476 -0.041346 0.041257 -0.010785 -0.011041 0.064721 -0.150046 -0.134542 0.007835 -0.061711 -0.023119 -0.038078 -0.013535 0.210099 -0.000909 0.003878 -0.050511 -0.061725 0.064614 0.009716 0.065443 -0.057514 -0.170893 0.186473 0.069931 -0.036447 0.077136 0.076944 0.018502 0.083409 0.104517 0.024695 0.040465 0.140240 -0.017375 -0.032734 0.037683 0.161433 0.113967 0.084204 -0.054229 -0.045251 -0.001056 -0.022115 -0.015410 0.018900 -0.051856 0.012149 0.020563 0.027239 -0.057509 0.074096 -0.028712 0.097915 0.026492 0.001820 0.066504 0.118336 -0.062158 -0.039925 0.024508 0.021238 -0.021973 0.032239 0.017297 0.008249 0.001378 -0.044653 0.089111 -0.080737 0.012431 -0.111324 -0.024879 -0.155525 0.011674 -0.041220 0.029291 0.029311 0.062830 -0.014444 -0.085515 -0.045216 0.054851 0.020383 0.079021 -0.061669 -0.004450 0.103885
brick -0.083659 -0.046690 0.023523 0.169032 0.094638 -0.019491 -0.033951 -0.015851 -0.055395 0.225520 0.217380 -0.142040 -0.035077 0.094132 0.002075 -0.073132 0.136825 -0.283493 0.066735 -0.029397 0.017146 -0.034120 0.176211 -0.012728 -0.006967 -0.253969 -0.092866 0.015674 0.061253 -0.026606 -0.074804 0.113403 -0.135324 -0.114038 0.010597 -0.043965 0.075382 0.151803 0.029667 -0.076601 0.033195 -0.046147 0.070042 -0.019409 -0.035172 -0.028432 -0.015385 -0.058450 -0.115522 -0.072171 -0.159425 -0.121834 -0.051964 0.087973 0.145944 -0.107490 0.058583 0.052280 -0.074173 0.017614 -0.126160 -0.048507 -0.005259 0.034360 0.000727 -0.057984 -0.121003 0.033236 0.132455 0.050899 0.017525 0.009210 -0.107909 0.035916 0.001612 0.080894 0.019327 0.081043 -0.144294 0.128184 0.057576 0.052188 0.122363 0.071934 -0.048472 0.124473 -0.038310 -0.086521 0.148274 -0.131884 0.027478 0.225782 -0.209066 -0.119091 -0.016366 0.011802 -0.155575 0.014358 -0.012555 -0.129140
blue-tiled 0.046465 -0.024942 0.081076 0.138186 -0.052066 0.181954 0.083589 -0.016361 -0.002604 -0.246824 0.007427 -0.025146 0.026334 0.002216 0.061458 -0.049639 0.069918 -0.083050 -0.172632 -0.201836 -0.129691 -0.050820 0.093774 -0.037419 0.032160 0.107996 -0.018512 0.029670 -0.142874 -0.090560 0.041142 0.072345 0.075679 -0.180455 -0.239806 0.205247 0.094033 -0.029191 0.211070 0.228047 0.159501 0.138940 0.197426 0.030993 0.053279 0.199418 -0.031640 -0.034559 -0.000235 0.198063 0.168417 0.108672 -0.129214 0.059616 0.045404 -0.105392 0.051890 0.072880 -0.114893 -0.071600 -0.024292 0.023277 -0.179447 0.109986 -0.064745 0.144779 0.012388 0.043013 0.251425 0.268607 -0.000488 -0.101230 -0.184749 0.079479 -0.028901 0.059220 -0.072733 0.001607 -0.013151 -0.049299 0.166099 -0.216450 0.165008 -0.113199 -0.080596 -0.207316 0.042835 -0.126880 0.109524 0.077848 0.139709 0.108119 -0.316961 -0.198462 0.231905 -0.018957 0.135298 -0.157217 -0.107335 0.157765
yellow -0.204196 -0.043676 0.104444 0.101935 0.018036 -0.041227 -0.056775 -0.054350 -0.005547 0.201498 0.109327 -0.186659 -0.014230 0.047905 -0.023445 -0.072178 0.015439 -0.206513 -0.009227 -0.150333 0.140943 -0.158131 0.156334 0.044119 -0.056119 -0.057106 0.001951 -0.100915 0.052500 0.035055 -0.085052 0.084416 -0.149603 -0.250057 -0.105212 0.160582 0.215124 0.180251 0.073396 -0.159477 -0.082731 0.044891 0.051831 -0.137101 -0.055072 0.092513 0.053873 -0.151576 -0.043298 -0.083114 -0.087507 -0.163560 0.009518 0.019772 0.140427 -0.167299 0.055983 -0.015197 -0.175660 -0.009620 -0.051615 -0.074727 0.024838 0.072061 0.009400 -0.006643 -0.147990 0.079289 0.080081 0.045998 -0.071420 -0.053737 0.098169 0.070974 -0.015594 0.144977 -0.094757 0.135202 -0.229310 0.100223 0.077524 0.178554 0.115006 -0.047970 -0.116602 0.041066 -0.028548 -0.053390 0.230689 -0.147498 0.106516 0.185272 -0.237758 -0.006108 -0.002787 0.069144 -0.142244 -0.008254 0.012610 -0.190494
face 0.005803 -0.162354 -0.015137 0.080119 0.022345 0.162206 -0.014515 0.154356 0.207743 0.165714 0.072283 0.090308 -0.041678 0.059777 0.025930 0.143528 0.188633 -0.041683 0.000503 -0.110640 0.048960 0.080329 0.125823 -0.045752 -0.014547 -0.158012 -0.119720 -0.033600 -0.002536 0.033250 0.062462 0.015012 0.019055 0.150469 -0.038473 -0.075319 -0.020786 -0.061355 0.087615 -0.002726 0.024376 -0.128837 0.054551 0.022192 0.123407 0.006596 -0.000219 0.117703 -0.030949 -0.023407 0.004733 0.063635 -0.051805 -0.084760 -0.102504 0.029070 -0.014015 0.091558 -0.036608 0.033139 0.123354 0.105133 -0.092377 -0.181290 0.216675 -0.053803 -0.070304 0.086194 0.121101 0.157563 -0.069572 0.027416 0.037245 -0.086846 0.179392 0.200797 -0.094225 0.181660 0.193655 0.233297 0.041067 0.008537 0.024852 0.155146 0.151756 0.102143 -0.100443 -0.213090 -0.026608 -0.055826 -0.071380 -0.003564 0.251813 0.045149 -0.118914 -0.171058 0.016074 -0.002001 0.088242 -0.126512
an -0.027461 0.047409 -0.077871 -0.028295 -0.064241 -0.025915 0.018305 -0.159388 -0.030367 -0.128789 -0.070907 -0.053000 0.021376 -0.105677 -0.077873 -0.004949 -0.193751 0.223716 -0.089482 0.008111 0.098697 -0.110659 -0.215516 0.135180 0.014330 0.337990 -0.027980 0.035452 -0.011713 -0.000148 -0.030919 -0.108560 0.056925 -0.057187 -0.101182 0.128477 0.092848 0.057901 -0.069149 -0.111379 -0.277800 0.077050 0.070350 -0.065998 -0.035051 0.102967 0.025967 -0.051198 0.033869 0.027135 0.145392 -0.048630 -0.015149 -0.078650 0.090912 0.041290 -0.068498 -0.115929 0.014419 0.026504 -0.189558 -0.018741 0.126827 0.088800 -0.060998 0.062672 0.077233 -0.094720 -0.120492 -0.119212 -0.162842 0.038868 0.175691 0.119305 0.005565 -0.029822 0.061359 -0.104106 -0.213286 -0.244307 0.082274 0.053473 -0.142362 -0.131778 -0.060901 -0.084453 0.045468 0.076898 0.044526 0.002439 0.169959 0.115591 -0.126023 0.112323 -0.056973 0.185203 -0.059285 0.047847 0.154542 -0.006650
chair -0.082958 -0.112398 0.045903 0.114099 0.013415 0.057566 -0.060113 0.104876 0.110431 0.295590 0.129252 -0.031711 -0.059688 0.064398 -0.069352 0.054511 0.120254 -0.169595 0.076245 -0.058315 0.081852 0.036835 0.161717 -0.003086 -0.034510 -0.223867 -0.058987 -0.055179 0.014977 0.050461 0.023999 0.067821 -0.115323 0.003134 -0.011313 -0.082813 0.037281 0.064668 0.083004 -0.085126 -0.017817 -0.071360 -0.015066 -0.081918 0.029756 -0.031171 -0.000386 -0.007752 -0.047940 -0.140429 -0.040230 -0.092525 -0.031585 -0.036267 -0.003077 -0.050920 0.072697 0.069132 -0.045660 -0.031187 0.035967 0.010657 -0.047811 -0.084407 0.125057 -0.081849 -0.112206 0.087874 0.084992 0.069346 -0.027203 0.020941 0.038819 0.007853 0.107482 0.210274 -0.122362 0.143782 0.037740 0.202561 0.019864 0.117330 0.073324 0.092104 0.042333 0.127871 -0.104476 -0.106050 0.065060 -0.088036 0.016279 0.073906 0.088659 0.075681 -0.078499 -0.107248 -0.054148 0.036095 0.023477 -0.203035
carpet -0.038240 -0.095186 0.006084 0.059530 -0.088471 0.156956 -0.013416 0.106579 0.174527 -0.010301 -0.037053 0.075852 0.004826 0.013078 -0.042370 0.085220 0.102951 0.000040 -0.074170 -0.134570 0.011536 0.051643 0.040443 0.013186 0.003427 -0.004766 -0.050016 -0.036792 -0.057907 -0.002425 0.102501 -0.006277 -0.001020 0.047268 -0.119712 0.041582 -0.003966 -0.040016 0.165311 0.097915 0.014974 -0.054540 0.041221 -0.022757 0.073574 0.109370 -0.009706 0.012984 -0.016139 0.063912 0.144030 0.060171 -0.067883 -0.094117 -0.095289 -0.009623 0.032461 0.109925 -0.045230 -0.022832 0.062605 0.070250 -0.108809 -0.033833 0.099082 0.005175 -0.019493 0.090899 0.138379 0.159227 -0.083772 0.025141 0.025578 0.072858 0.103883 0.173461 -0.104482 0.063784 0.111740 0.081483 0.043975 -0.019211 0.048833 -0.013837 0.072539 -0.027948 -0.069600 -0.141131 0.010247 0.059690 0.102919 -0.020658 0.109003 0.091558 -0.001039 -0.074464 0.070826 -0.004523 -0.005602 -0.025951
intersection. -0.004066 -0.043785 0.056031 0.076379 -0.002631 0.083452 0.035717 -0.045347 0.001788 -0.023889 0.016824 -0.034414 0.024679 0.031560 0.040161 -0.001697 0.020828 -0.110014 -0.103444 -0.128921 0.034409 -0.076485 0.057333 -0.010361 -0.022874 0.060298 -0.077262 0.023991 -0.050502 -0.050056 0.017773 0.021883 0.042445 -0.104451 -0.169088 0.139335 0.114023 0.036071 0.101122 0.035728 0.036477 0.106916 0.100207 -0.027586 0.005403 0.138346 0.023736 -0.024993 -0.032523 0.100613 0.038699 0.002781 -0.092606 -0.041755 0.066917 -0.084261 0.034974 0.014625 -0.104034 0.005600 -0.060220 -0.009874 -0.057776 0.090322 -0.028455 0.036822 -0.078026 0.000745 0.168717 0.127279 -0.067041 -0.036201 0.012579 0.023599 0.019751 0.092089 -0.041066 0.081444 -0.094549 0.033639 0.096740 -0.046816 0.075772 -0.080512 -0.037637 -0.104213 -0.044433 -0.116007 0.090061 0.016581 0.122955 0.084331 -0.197630 -0.062619 0.034247 -0.028761 0.016492 -0.022722 -0.030579 -0.001108
back 0.012387 0.013341 0.276207 -0.178373 -0.080868 0.185654 0.231767 0.068404 0.178458 -0.133034 -0.223976 0.171189 0.082551 0.032319 0.061693 0.120134 -0.184281 0.037333 -0.091342 -0.207909 0.285616 0.027861 0.095081 -0.054413 -0.072276 0.131327 0.165361 -0.157874 -0.099049 0.175469 0.076959 -0.064717 0.211293 -0.099830 -0.053553 0.237000 0.290656 -0.145257 0.122431 -0.033175 -0.064567 0.270934 -0.286948 -0.093379 0.000188 0.214586 0.243691 0.020056 0.194538 -0.053718 0.064086 0.025649 0.225875 -0.117692 -0.137790 -0.038768 -0.053105 -0.194868 -0.231832 -0.116363 0.223994 -0.011621 -0.178749 -0.011126 0.150072 -0.021751 -0.171902 0.036392 -0.096567 0.113768 -0.206595 -0.094917 0.384228 -0.165063 0.216404 0.006342 -0.417694 0.173996 0.018912 0.097010 -0.044043 0.251809 0.206298 -0.085266 -0.005970 -0.209248 -0.064240 -0.138251 0.053313 0.041897 0.024798 -0.412939 0.107545 0.258183 0.109763 -0.281857 0.248940 0.063269 -0.072793 -0.083824
hallway. -0.000611 -0.102116 -0.049551 0.018193 0.044867 0.069852 -0.057191 0.002070 0.069060 0.086437 0.035299 0.017777 0.004018 0.016274 0.082584 0.066721 0.071894 -0.036956 -0.062189 -0.105137 0.069177 -0.049963 0.065762 -0.071607 -0.017743 0.003491 -0.116121 0.012600 0.030555 -0.046101 0.024238 0.022267 0.058497 0.034917 -0.084470 0.029970 0.071259 0.000167 0.014015 -0.057196 0.023024 -0.026805 0.123101 0.042655 0.062989 0.061294 0.014640 0.069970 -0.014312 0.075369 -0.049692 0.049284 -0.069517 -0.022694 0.038409 -0.002440 -0.045127 0.039046 -0.045680 0.084950 0.004370 0.037173 -0.033600 -0.062292 0.067568 0.022469 -0.061789 0.005166 0.080135 0.080022 -0.072718 -0.012816 0.046065 -0.081923 0.056307 0.078862 0.065285 0.120454 0.031275 0.108683 0.091964 -0.011993 -0.054917 0.057398 0.070406 0.015335 -0.076197 -0.100979 0.019563 -0.096327 -0.048337 0.079083 -0.011570 -0.067975 -0.121830 -0.055907 -0.062782 -0.020915 0.081121 -0.039737
position -0.057302 0.153363 0.059133 -0.087846 -0.020011 -0.065324 -0.013431 -0.130770 -0.120545 0.009172 -0.083430 -0.049476 0.038451 -0.052561 -0.068136 -0.017296 -0.294114 -0.010958 0.066117 0.062730 0.143717 -0.025248 -0.076975 0.017419 0.008572 0.074602 0.107694 -0.025012 0.033304 0.082730 -0.015135 -0.073824 0.000103 -0.148295 0.096621 -0.019458 0.195734 0.035492 -0.081130 -0.207428 -0.146066 0.109688 -0.196001 -0.068301 -0.123601 0.027710 0.109645 -0.086606 0.101601 -0.106979 -0.057287 -0.085486 0.098491 0.127195 0.137339 -0.018113 -0.053686 -0.172823 -0.026379 -0.043127 -0.138574 -0.151180 0.069993 0.094073 -0.106872 0.004926 0.007304 -0.081188 -0.255608 -0.202538 -0.073713 -0.011360 0.139410 0.006108 -0.039846 -0.179025 -0.002642 -0.087104 -0.146363 -0.141932 -0.030326 0.210515 -0.039158 -0.061747 -0.094074 -0.038710 0.006362 0.246327 0.084444 -0.062000 0.091896 -0.042646 -0.187101 0.106727 0.027440 0.050250 -0.072594 0.137994 -0.048945 -0.063716
alley -0.080021 -0.013442 -0.010355 0.016317 -0.001375 0.015081 -0.025634 0.018360 0.071285 0.101392 0.028808 -0.028923 0.000027 0.025070 -0.022052 0.013591 0.022636 -0.018684 0.016711 -0.042271 0.101836 -0.022847 0.030988 0.041204 -0.023578 -0.035959 -0.012968 -0.056879 0.047450 0.039794 -0.019263 -0.020986 -0.049803 0.008089 0.001983 0.026139 0.057810 0.046890 -0.010945 -0.106418 -0.097438 -0.073564 -0.020326 -0.030540 -0.000866 0.011772 0.023431 -0.014582 -0.013608 -0.055375 -0.042493 -0.031863 0.060563 -0.068451 -0.026423 -0.024178 -0.053700 -0.026655 -0.047568 0.032193 0.043554 0.031846 0.013803 -0.047053 0.094913 -0.045066 -0.042104 0.024836 -0.024212 0.007090 -0.087173 0.024029 0.131745 0.009465 0.053462 0.069512 -0.050213 0.059539 -0.031611 0.063489 -0.017037 0.136577 0.018017 0.039141 0.022163 0.083365 -0.013790 -0.063887 0.048708 -0.060982 0.005897 0.021769 0.087845 0.086907 -0.071245 0.013434 -0.054680 0.048155 0.066086 -0.095339
way -0.040021 -0.084294 0.077897 0.108946 0.043928 0.181389 -0.059419 0.029342 0.081416 0.179772 0.098082 -0.017336 0.007236 0.090125 0.051366 0.011897 0.115146 -0.237405 -0.029388 -0.207596 0.114902 -0.021229 0.228762 -0.100040 -0.054411 -0.171530 -0.103962 -0.048147 -0.004041 -0.012318 0.054681 0.081434 -0.001127 -0.085528 -0.101383 0.076083 0.205692 0.053365 0.093997 -0.084525 0.097660 0.008753 0.066550 -0.016586 0.057275 0.108030 0.062948 0.002956 -0.003893 0.044368 -0.114434 0.036711 -0.052972 0.000957 0.034609 -0.075743 -0.027383 0.049792 -0.139101 0.032024 0.015628 0.036819 -0.123077 0.004852 0.126984 -0.005251 -0.136425 0.069533 0.137987 0.208192 -0.131715 -0.056678 0.064664 -0.065231 0.110399 0.149652 -0.052143 0.188044 0.019924 0.225339 0.111849 0.064021 0.145502 0.053527 0.029287 0.046308 -0.092764 -0.183513 0.143437 -0.133448 0.013189 0.071996 -0.095567 -0.098746 -0.036623 -0.130021 -0.015869 -0.005892 -0.003267 -0.106707
next -0.132748 0.008144 0.014750 0.158707 -0.010048 0.027975 -0.133974 0.040491 0.034227 0.250600 0.088594 -0.112384 0.044621 0.077068 -0.095883 -0.030624 0.087630 -0.218903 0.060503 -0.024318 0.104639 0.049166 0.099725 0.002884 0.023706 -0.272686 -0.082598 -0.025124 0.098908 0.038455 0.026596 0.064637 -0.191618 -0.019249 0.098146 -0.117324 0.087374 0.108109 0.066545 -0.160962 -0.050417 -0.152132 -0.045459 0.003888 0.001908 -0.038751 -0.031865 -0.072406 -0.065353 -0.109786 -0.136357 -0.090651 -0.029533 0.086398 0.114645 -0.040229 0.011011 0.116033 -0.058601 0.020112 -0.132957 -0.019175 -0.004543 0.028134 0.059017 -0.053562 -0.085403 0.066018 0.022960 0.001065 -0.105521 0.087303 -0.043244 0.121810 0.108390 0.089338 0.077803 0.032801 -0.076389 0.131502 0.013478 0.189565 0.059608 0.091336 0.054616 0.206143 -0.078766 -0.006019 0.154994 -0.177059 0.096062 0.143727 -0.053826 0.046631 -0.037634 -0.003662 -0.204444 0.115846 0.020095 -0.182798
chair. -0.066034 -0.028818 -0.007334 0.093375 -0.052461 0.094257 -0.058902 0.021054 0.052322 0.090944 0.012454 -0.034765 0.013479 0.016947 -0.061865 0.020168 0.007792 -0.073522 -0.015143 -0.087228 0.057088 -0.009489 0.036042 0.006216 -0.029605 -0.052736 -0.031941 -0.005516 -0.019754 -0.006441 0.037730 -0.000427 -0.052865 -0.062128 -0.092324 0.037339 0.062698 0.031580 0.097358 -0.047318 -0.005476 -0.006196 0.017892 -0.059937 0.030128 0.080681 0.013802 -0.021600 -0.028970 0.003971 0.016554 -0.009989 -0.075646 -0.007410 0.006628 -0.044542 0.022213 0.043356 -0.042072 -0.006966 -0.026082 0.007407 -0.048075 0.038375 0.044038 -0.002286 -0.065769 0.050590 0.070873 0.081730 -0.106283 0.022466 0.035813 0.057164 0.070949 0.107217 -0.032105 0.069531 -0.013818 0.081079 0.032674 0.041644 0.022921 0.009378 0.002693 0.008827 -0.080438 -0.041037 0.074771 -0.041868 0.089321 0.053294 -0.061576 0.011456 -0.025926 0.000913 -0.030354 0.031065 -0.003766 -0.079050
will -0.044222 0.089862 -0.048056 -0.004075 -0.014579 -0.086392 0.010704 -0.129600 -0.128379 -0.046535 -0.008973 -0.102626 -0.016260 -0.062828 -0.048877 -0.067369 -0.177796 0.069761 0.005715 0.048525 0.022618 -0.100184 -0.113077 0.095518 -0.007447 0.136692 0.058357 0.015101 0.011161 0.007736 -0.105579 -0.067031 -0.000625 -0.134229 -0.012579 0.071082 0.070716 0.073861 -0.090216 -0.114413 -0.127566 0.069942 0.012287 -0.046889 -0.062848 0.015429 0.038132 -0.053702 0.021858 -0.034971 0.000524 -0.091132 0.043653 0.050774 0.091921 -0.022143 -0.034653 -0.134860 0.017224 -0.001869 -0.144390 -0.068356 0.117218 0.075288 -0.093343 0.026939 0.035244 -0.046904 -0.110997 -0.134562 -0.041895 -0.011850 0.055440 0.047316 -0.071932 -0.101448 0.052740 -0.075822 -0.186349 -0.159270 0.007719 0.050739 -0.070108 -0.048122 -0.105673 -0.021967 0.064364 0.146742 0.054532 -0.040127 0.052854 0.092128 -0.179333 -0.017588 0.002430 0.179295 -0.094655 0.022103 0.041400 -0.000353
pink -0.137163 0.001628 0.030987 0.107449 0.020248 -0.032504 -0.156105 0.027575 0.012139 0.332288 0.100959 -0.108582 0.012188 0.074934 -0.089817 -0.029268 0.041581 -0.251309 0.119868 -0.003287 0.133146 0.024523 0.128267 -0.023759 -0.025388 -0.305689 -0.052155 -0.048581 0.106716 0.050398 0.009471 0.072126 -0.204616 -0.061386 0.107959 -0.124325 0.104581 0.124381 0.016669 -0.209858 -0.014061 -0.106925 -0.100734 -0.050530 -0.034358 -0.072305 0.026140 -0.064441 -0.054401 -0.161779 -0.209664 -0.121368 0.000779 0.088701 0.111032 -0.058276 0.022985 0.063893 -0.045079 0.018981 -0.077812 -0.056406 0.009278 0.012858 0.061191 -0.082881 -0.106870 0.061779 -0.026036 -0.040850 -0.081572 0.054546 0.032189 0.049423 0.081043 0.074939 0.039859 0.069399 -0.072467 0.167449 -0.029861 0.228073 0.042629 0.098307 0.027258 0.217160 -0.101884 0.032654 0.142187 -0.195495 0.029517 0.101195 -0.046998 0.038842 -0.073053 -0.013265 -0.199584 0.117318 -0.002609 -0.213347
follow -0.099769 -0.027127 0.043216 0.088120 0.093472 -0.041486 -0.111328 0.010281 -0.009546 0.361345 0.163726 -0.112821 -0.029703 0.078879 -0.041945 0.009481 0.043621 -0.238118 0.152728 0.047158 0.153523 0.026606 0.150941 -0.043674 -0.027194 -0.301004 -0.073492 -0.038097 0.108623 0.068831 -0.016321 0.056334 -0.164319 -0.026800 0.143939 -0.167911 0.101279 0.122363 -0.042326 -0.252781 -0.048241 -0.079576 -0.085535 -0.048214 -0.059195 -0.110892 0.043067 -0.032075 -0.045480 -0.201193 -0.240574 -0.130070 0.006369 0.072069 0.124316 -0.026768 0.005847 0.008544 -0.017179 0.032755 -0.077431 -0.047581 0.034463 -0.021358 0.066679 -0.114597 -0.120080 0.015451 -0.054405 -0.084477 -0.050943 0.065696 0.077590 -0.027765 0.088732 0.071456 0.013432 0.088101 -0.077279 0.172643 -0.010913 0.214344 0.029076 0.113304 0.020865 0.220593 -0.078157 0.009743 0.114893 -0.199689 -0.025301 0.115308 -0.020033 0.019271 -0.127829 -0.049164 -0.196865 0.123960 0.048768 -0.257560
alley. -0.072070 -0.003809 0.032266 -0.011949 -0.048784 0.049901 0.000501 0.015407 0.078810 0.043520 -0.046425 0.020709 0.011493 0.017690 -0.021551 0.060820 -0.043328 -0.004143 -0.002018 -0.052674 0.110497 0.004194 0.011311 0.020169 -0.006941 0.012960 0.019194 -0.055997 0.001295 0.059454 0.020219 -0.040756 -0.005004 -0.002777 -0.009654 0.026757 0.081465 -0.014703 0.058571 -0.066308 -0.076066 -0.013503 -0.081560 -0.048736 -0.002015 0.064734 0.061816 -0.007702 0.023338 -0.047469 0.030662 -0.014045 0.041913 -0.056844 -0.033998 -0.034720 -0.024415 -0.040211 -0.067603 -0.012100 0.054498 -0.001207 -0.015873 -0.022328 0.067704 -0.034880 -0.054846 0.028670 -0.031158 0.007095 -0.087320 0.021364 0.134918 0.000432 0.071779 0.061366 -0.116137 0.062300 0.009284 0.045061 -0.020439 0.124482 0.030473 -0.010492 0.024045 -0.006100 -0.038069 -0.038652 0.044014 0.003667 0.063047 -0.067659 0.065617 0.126869 -0.020679 -0.042017 0.012908 0.080212 0.009081 -0.089497
so 0.109777 0.087467 0.032296 -0.232556 -0.027439 -0.076109 0.181958 0.035737 -0.041091 -0.179544 -0.145587 0.192750 -0.031574 -0.031598 0.007912 0.030085 -0.153926 0.191359 0.057680 0.120589 -0.031142 0.081862 -0.118396 0.058043 -0.011351 0.053379 0.169262 -0.030452 -0.055988 0.058447 -0.032489 -0.100208 0.165038 0.074568 0.132754 -0.031700 -0.100569 -0.137567 -0.111153 0.116773 0.019324 0.093962 -0.223752 -0.028010 -0.025445 -0.065418 0.068751 0.070678 0.110549 -0.033116 0.050619 0.010492 0.195450 -0.036438 -0.191450 0.091847 -0.029231 -0.134672 0.043549 -0.088505 0.108357 -0.022675 0.048159 -0.087865 0.017063 -0.043097 0.055178 -0.036702 -0.171771 -0.124058 0.092903 -0.058002 0.027977 -0.125110 -0.019872 -0.200405 -0.133139 -0.055612 0.086198 -0.096992 -0.172087 0.001403 -0.010804 0.012199 0.006287 -0.096432 0.041112 0.091905 -0.199056 0.165733 -0.108879 -0.311339 0.221063 0.130877 0.054044 -0.099381 0.184843 0.004110 -0.105909 0.102367
then -0.074979 -0.012362 0.042285 0.129512 0.036821 0.080201 -0.075036 -0.033508 -0.003849 0.212643 0.098602 -0.077343 -0.008580 0.047315 -0.032548 0.041493 -0.026891 -0.196401 0.061919 -0.046364 0.139037 -0.001773 0.107218 -0.058286 -0.022874 -0.173228 -0.071506 0.002290 0.033591 0.035258 0.013699 0.013883 -0.079790 -0.094078 -0.003952 -0.068808 0.170032 0.076484 0.044866 -0.189251 -0.037892 0.022077 -0.033682 -0.056102 -0.026472 0.041435 0.065754 -0.022952 -0.034828 -0.103714 -0.119994 -0.057282 -0.070649 0.078408 0.133784 -0.063576 -0.006937 -0.013911 -0.069598 0.014988 -0.116983 -0.049626 -0.027528 0.039109 0.044727 -0.060626 -0.121141 -0.004721 0.003756 0.006017 -0.125900 0.036295 0.079872 -0.002340 0.119423 0.075691 -0.021141 0.097569 -0.093403 0.110749 0.051819 0.136607 0.035606 0.064449 -0.000784 0.085080 -0.104670 -0.015354 0.150344 -0.167477 0.068012 0.123550 -0.163167 -0.012323 -0.065887 -0.047858 -0.136346 0.111239 0.030305 -0.198275
that 0.060564 0.072034 0.075681 -0.202381 -0.022455 -0.040819 0.137308 0.008570 -0.018971 -0.113269 -0.134231 0.129119 -0.012603 -0.038448 -0.026342 0.061669 -0.187598 0.101890 0.052327 0.107155 0.050229 0.085978 -0.086952 0.031313 0.015347 0.080478 0.137126 -0.031313 -0.047764 0.085435 0.009499 -0.082396 0.120637 0.023350 0.112768 -0.043781 -0.003065 -0.104247 -0.066846 0.028392 -0.041628 0.117839 -0.232174 -0.049156 -0.071370 -0.026115 0.094032 0.019821 0.131489 -0.082459 0.074044 -0.020132 0.162898 0.007993 -0.073415 0.072885 -0.007057 -0.147650 0.021245 -0.098585 0.037958 -0.073957 0.021603 -0.028518 -0.030493 -0.030673 0.045188 -0.045369 -0.198758 -0.128404 0.056385 -0.043840 0.081795 -0.071893 -0.011278 -0.151728 -0.142123 -0.061411 0.040821 -0.110825 -0.100453 0.086410 -0.010388 -0.049351 -0.023362 -0.109196 0.014760 0.134122 -0.101345 0.123122 -0.014667 -0.266326 0.109584 0.185132 0.068335 -0.082944 0.140546 0.065949 -0.083692 0.023447
are -0.130181 0.082371 -0.055447 -0.029226 -0.060748 -0.090248 -0.183946 -0.086656 -0.079240 0.159660 -0.077769 -0.118039 0.029145 -0.077432 -0.101893 -0.026254 -0.226419 0.036770 0.075514 0.028368 0.120525 -0.074616 -0.123915 0.005860 -0.069774 0.030023 0.078551 -0.018667 0.049316 0.046085 -0.027148 -0.055885 -0.114007 -0.145890 0.003165 0.017605 0.095225 0.070525 -0.074554 -0.266806 -0.083416 0.036647 -0.093624 -0.111696 -0.066874 -0.007696 0.084974 -0.075768 0.015199 -0.106173 -0.115978 -0.091858 -0.010094 0.095687 0.082936 -0.019530 -0.019899 -0.089353 0.067336 0.032546 -0.079126 -0.103718 0.092231 0.105128 -0.065487 0.007240 -0.031549 -0.020203 -0.209162 -0.163175 -0.127829 0.019184 0.184837 -0.001485 -0.017219 -0.057260 0.109942 -0.008651 -0.111726 -0.022392 -0.056046 0.170007 -0.171662 0.012100 -0.086184 0.037264 -0.075439 0.247299 0.081659 -0.165050 -0.000790 0.022088 -0.116800 0.031922 -0.100594 0.186900 -0.165782 0.106796 0.024550 -0.113477
past -0.074960 -0.011716 0.006376 0.083982 -0.032421 0.100961 -0.089097 0.055124 0.069590 0.101738 0.006623 -0.015195 0.043766 0.064768 -0.024268 -0.013809 0.078378 -0.140973 -0.001923 -0.112312 0.049932 0.029792 0.103934 -0.045921 -0.025237 -0.170122 -0.023466 -0.042456 0.026228 -0.001658 0.049079 0.040874 -0.079675 -0.031659 -0.025933 0.019272 0.071776 0.015915 0.081759 -0.019466 0.075748 -0.074128 -0.012135 0.004931 0.038776 0.044088 0.003927 -0.020137 -0.027595 0.035698 -0.088668 0.044315 -0.030847 0.021051 -0.032360 -0.061021 -0.011072 0.084702 -0.061610 0.010881 0.046105 0.030532 -0.084788 0.016999 0.082696 -0.000149 -0.066677 0.072545 0.072025 0.120352 -0.099776 0.010352 -0.005349 0.022137 0.063511 0.079337 -0.006419 0.075226 0.054662 0.153080 -0.004750 0.068541 0.086115 0.053866 0.046315 0.071165 -0.067258 -0.073828 0.078076 -0.071664 0.029824 0.011062 -0.003742 -0.022500 -0.006884 -0.038240 -0.040060 0.030874 -0.042907 -0.032724
all -0.123288 -0.051730 0.049654 0.117871 0.055241 -0.010774 -0.131117 0.068238 0.034379 0.280864 0.142098 -0.103906 0.016668 0.133248 -0.005540 -0.074220 0.217789 -0.309182 0.051712 -0.101308 0.056020 0.009849 0.234506 -0.064881 -0.028572 -0.330009 -0.062660 -0.069153 0.084980 -0.003590 -0.010898 0.151797 -0.187017 -0.061659 0.046176 -0.025629 0.081007 0.125801 0.050942 -0.077153 0.116782 -0.126073 0.002736 0.016914 0.000206 -0.048631 -0.018559 -0.084944 -0.081637 -0.049626 -0.235425 -0.057066 -0.009784 0.054688 0.059123 -0.103046 0.047311 0.129536 -0.093040 0.040073 0.004247 -0.003726 -0.046487 0.010930 0.072751 -0.051864 -0.124086 0.108733 0.138272 0.111248 -0.002281 -0.005491 -0.073976 0.026671 0.028586 0.113628 0.048107 0.128393 -0.021497 0.252075 0.013579 0.116297 0.155967 0.087087 0.024659 0.205155 -0.071477 -0.095492 0.143993 -0.164357 -0.034668 0.110026 -0.050711 -0.088762 -0.033351 -0.040725 -0.136849 0.008947 -0.041262 -0.128635
easel -0.068673 0.017738 0.025312 0.014953 -0.031002 -0.004900 -0.062679 0.085317 0.057862 0.148743 0.005285 0.003444 -0.008754 0.028640 -0.092958 0.027849 0.004665 -0.066783 0.108691 0.031011 0.035552 0.088421 0.040722 0.004384 -0.012503 -0.181113 0.057026 -0.055805 0.026088 0.072769 0.020229 -0.001640 -0.122515 0.023011 0.098157 -0.105008 -0.018116 0.008978 0.028409 -0.053791 -0.012707 -0.086210 -0.151644 -0.052856 -0.021134 -0.072062 0.018690 -0.025767 -0.001424 -0.130917 -0.051248 -0.044990 0.050883 0.019537 -0.055785 -0.003405 0.036771 0.025018 0.009019 -0.038996 0.055649 -0.021947 -0.017492 -0.031610 0.060829 -0.065638 -0.034384 0.060536 -0.062745 -0.035029 -0.003957 0.033068 0.025060 0.024752 0.050599 0.043448 -0.074249 0.020039 0.061821 0.099775 -0.086378 0.133684 0.039687 0.057045 0.035172 0.109891 -0.051540 0.036430 0.013836 -0.028265 0.009869 -0.078676 0.133732 0.114105 -0.014759 -0.039464 -0.024340 0.083043 -0.039302 -0.101893
carpet. -0.066211 -0.052677 -0.035130 -0.016716 -0.021532 0.050612 -0.043973 0.007509 0.086757 0.066849 -0.027092 0.027696 0.018893 -0.004711 -0.009778 0.051707 0.002686 0.006898 -0.045823 -0.093948 0.111525 -0.036076 0.006435 0.015290 -0.019639 0.027049 -0.056340 -0.045107 0.035718 -0.004722 0.032368 -0.019449 0.021652 0.011377 -0.054613 0.054429 0.085662 0.017920 0.004603 -0.079000 -0.069703 -0.046252 0.029457 -0.012313 0.040358 0.074621 0.040051 0.010860 0.013209 0.033077 -0.004841 0.010885 0.001590 -0.051157 -0.006867 -0.001881 -0.058164 0.007115 -0.053476 0.044475 -0.009068 0.012550 0.008938 -0.034974 0.081633 0.008696 -0.038090 0.027789 0.003440 0.023455 -0.133276 -0.001412 0.116327 -0.008681 0.063875 0.062608 0.015943 0.073554 -0.004096 0.053790 0.035878 0.096932 -0.040463 0.019172 0.049274 0.021803 -0.059099 -0.049805 0.030452 -0.059831 0.031495 0.023316 0.045648 0.069350 -0.103758 -0.004302 -0.066600 0.020768 0.057733 -0.064631
wood -0.170657 -0.021341 0.063365 0.133354 0.080185 -0.076291 -0.149749 -0.000246 -0.035128 0.416131 0.180010 -0.194836 -0.011928 0.088383 -0.074479 -0.055450 0.059959 -0.308253 0.144939 0.012225 0.173220 -0.023077 0.178179 -0.007877 -0.037476 -0.328715 -0.071639 -0.061949 0.132114 0.067527 -0.053751 0.096195 -0.246321 -0.117051 0.110194 -0.115061 0.129597 0.191448 -0.012511 -0.287731 -0.062358 -0.092280 -0.065913 -0.082568 -0.080957 -0.100041 0.033074 -0.092922 -0.087963 -0.219694 -0.271132 -0.196525 -0.000176 0.087263 0.172275 -0.077848 0.041074 0.034866 -0.068161 0.024286 -0.115193 -0.076603 0.049087 0.024645 0.042013 -0.110085 -0.161427 0.052028 -0.016279 -0.065417 -0.065913 0.048949 0.057901 0.040272 0.060406 0.108393 0.029440 0.096041 -0.175311 0.182135 -0.004523 0.271234 0.060550 0.091169 -0.023653 0.240418 -0.089326 0.008386 0.187584 -0.240106 0.025842 0.188091 -0.118028 0.021141 -0.096513 0.011094 -0.261056 0.115511 0.033748 -0.285394
floored -0.106592 -0.016073 0.081900 0.062005 -0.021563 0.070815 -0.057595 0.001924 0.049418 0.129997 0.010848 -0.048904 0.017168 0.035634 -0.028378 0.032584 -0.026475 -0.132466 -0.008474 -0.100229 0.148122 -0.016922 0.096302 -0.034433 -0.022307 -0.069911 -0.005074 -0.068077 0.009681 0.053852 0.036120 0.017958 -0.067549 -0.101908 -0.036243 0.020892 0.180974 0.045903 0.097184 -0.134015 -0.044477 0.017692 -0.053085 -0.061815 -0.009944 0.091924 0.074316 -0.050060 0.022213 -0.074164 -0.031305 -0.040007 -0.011930 0.039463 0.084793 -0.071761 0.012965 -0.005626 -0.108389 -0.010039 -0.024669 -0.049505 -0.049873 0.029009 0.046841 -0.007544 -0.089778 0.044132 -0.003705 0.032266 -0.115569 0.000598 0.095868 0.012295 0.089671 0.088384 -0.085204 0.095790 -0.047161 0.095549 0.043764 0.144457 0.051924 0.004846 -0.011470 0.022553 -0.083030 -0.008785 0.142778 -0.114165 0.080984 0.033143 -0.098579 0.055976 -0.011899 -0.053566 -0.052027 0.066870 -0.008476 -0.157526
it -0.075131 -0.046998 0.085002 0.085227 0.043320 0.007590 -0.008650 0.032264 0.044633 0.190578 0.125659 -0.085756 -0.048461 0.053562 -0.031206 0.036491 0.076712 -0.135013 0.072008 0.007763 0.085651 0.016192 0.131330 -0.004748 0.005124 -0.127722 -0.018687 -0.045470 0.019206 0.075140 -0.004039 0.046336 -0.126757 -0.030549 0.041679 -0.075072 0.051366 0.079888 0.052748 -0.099480 -0.079246 -0.038514 -0.023985 -0.082970 -0.041709 -0.028604 0.014513 -0.045202 -0.031869 -0.157636 -0.032718 -0.101428 -0.003728 -0.004492 0.066654 -0.041391 0.051319 0.005616 -0.043245 -0.016748 0.000201 -0.011398 -0.007480 -0.007385 0.038329 -0.079974 -0.068101 0.026823 0.009630 -0.008002 0.017631 0.026855 0.047302 0.025523 0.051445 0.122921 -0.124829 0.058473 -0.057868 0.082586 0.028260 0.102797 0.089766 0.009736 -0.021860 0.087569 -0.020689 -0.060445 0.099971 -0.069306 0.042404 0.074748 0.009054 0.071270 -0.033719 -0.044851 -0.050993 0.063646 0.043505 -0.193576
segments 0.020648 -0.116769 -0.025191 0.096906 -0.092653 0.222863 -0.070242 0.054557 0.140127 -0.138472 -0.090647 0.034191 0.078403 -0.020206 0.065829 0.029891 0.113432 0.020415 -0.214375 -0.249720 -0.028341 -0.052084 0.041914 -0.089897 -0.033227 0.134409 -0.105237 0.023465 -0.086573 -0.111605 0.133183 0.044090 0.073733 -0.027569 -0.294177 0.209683 0.039296 -0.070782 0.193669 0.151870 0.132712 0.037665 0.228294 0.057216 0.148137 0.207016 -0.039507 0.036231 -0.014161 0.255067 0.140263 0.184134 -0.196570 -0.066891 -0.036004 -0.036303 0.009285 0.155344 -0.073060 0.040869 0.069834 0.102160 -0.181220 0.045028 0.048804 0.149325 -0.013580 0.071797 0.232220 0.302565 -0.139140 -0.031224 -0.032388 0.022514 0.073985 0.167824 0.039024 0.085813 0.112672 0.083824 0.142105 -0.184675 0.008018 -0.058685 0.064415 -0.145350 -0.075226 -0.175424 0.033096 0.001268 0.053923 0.057490 -0.080547 -0.132641 0.029266 -0.031451 0.089783 -0.128425 0.012993 0.108216
lamp. -0.048942 -0.058334 0.008329 0.052432 0.016781 0.033736 -0.052139 0.066574 0.065936 0.165781 0.058580 -0.007398 -0.018781 0.055551 -0.019995 0.029399 0.092957 -0.116724 0.041396 -0.036076 0.040893 0.022158 0.090836 -0.018994 -0.030020 -0.165733 -0.035136 -0.025215 0.019663 0.006896 0.019357 0.039824 -0.071278 0.008855 -0.005033 -0.043179 -0.003699 0.033226 0.048195 -0.027269 0.041598 -0.056587 -0.018348 -0.035678 0.017595 -0.014831 0.008399 0.004690 -0.050866 -0.043372 -0.066261 -0.031800 -0.026625 -0.014363 -0.020444 -0.031275 0.037271 0.057837 -0.015707 0.002399 0.040723 0.004533 -0.039173 -0.030777 0.077329 -0.058481 -0.082840 0.054716 0.073771 0.058566 -0.021400 0.026949 0.004275 -0.009305 0.059366 0.110590 -0.043670 0.100732 0.032818 0.152685 -0.022808 0.048484 0.040915 0.066245 0.041964 0.079424 -0.082137 -0.078039 0.022726 -0.044702 -0.005034 0.015521 0.060408 0.019109 -0.053679 -0.059183 -0.030405 0.027978 -0.007139 -0.096681
three 0.056992 -0.061274 -0.172610 -0.072596 -0.023921 0.071473 -0.083083 0.005279 0.107892 -0.082677 -0.112377 0.119750 0.053550 -0.056508 0.057175 0.107925 0.019208 0.197753 -0.106557 -0.055484 -0.000639 0.011504 -0.139165 -0.042349 0.025722 0.139689 -0.120404 0.050891 0.039767 -0.070385 0.081079 -0.062804 0.132232 0.189525 -0.058709 -0.001639 -0.061734 -0.100238 -0.048235 0.009055 -0.006429 -0.107490 0.127519 0.113679 0.112914 0.042483 -0.030631 0.117311 0.014515 0.163541 0.039424 0.162241 -0.085094 -0.061331 -0.043368 0.105832 -0.108329 0.069224 0.071121 0.131169 0.005635 0.080005 0.011532 -0.080718 0.057313 0.075897 0.075832 -0.032860 0.002265 0.011205 -0.097959 0.038554 0.035950 -0.054088 0.053757 -0.007817 0.213900 0.000976 0.149264 0.009922 0.052843 -0.097696 -0.218113 0.057243 0.154239 -0.002925 -0.057428 -0.024439 -0.111200 -0.020386 -0.081482 -0.001720 0.155754 -0.016204 -0.168573 0.019262 -0.039818 -0.017670 0.119321 0.093449
twice. 0.095623 -0.157652 -0.287849 -0.126100 -0.010007 0.088731 -0.141575 0.088392 0.221955 -0.035192 -0.128079 0.225782 0.032009 -0.076771 0.090145 0.196441 0.126109 0.319161 -0.118183 -0.040418 -0.029878 0.054648 -0.176518 -0.060458 0.034732 0.156236 -0.192623 0.058492 0.078191 -0.088840 0.123234 -0.078232 0.168156 0.405029 -0.052331 -0.065293 -0.189385 -0.166505 -0.108373 0.034469 -0.013137 -0.247353 0.181971 0.175031 0.192922 -0.008302 -0.076270 0.219453 0.003262 0.215183 0.064886 0.246711 -0.095110 -0.171248 -0.160974 0.192822 -0.153474 0.130477 0.137220 0.201680 0.113444 0.165103 0.029948 -0.219578 0.156923 0.069232 0.109518 -0.037901 0.001592 0.014840 -0.093393 0.066980 0.074211 -0.119589 0.090443 0.055784 0.287980 0.039117 0.326788 0.076886 0.048422 -0.139065 -0.334529 0.134354 0.286869 0.052000 -0.087960 -0.093752 -0.227496 -0.006364 -0.186264 -0.043263 0.441667 0.028174 -0.309158 -0.024667 -0.032466 -0.037892 0.217461 0.114710
coat -0.116966 -0.085349 0.061906 0.129017 0.081805 -0.020373 -0.093233 -0.010879 -0.021512 0.386202 0.212839 -0.156573 -0.071668 0.068167 -0.050101 -0.016072 0.025621 -0.237520 0.117631 -0.019385 0.172382 -0.069778 0.178170 0.007254 -0.104788 -0.221967 -0.077708 -0.045526 0.050483 0.037320 -0.056822 0.060605 -0.155369 -0.143560 -0.032902 -0.024532 0.117670 0.180756 0.009799 -0.237897 -0.056779 0.034701 0.008248 -0.143723 -0.058884 -0.031381 0.065760 -0.039216 -0.082785 -0.187476 -0.185622 -0.186304 -0.034841 -0.012552 0.112696 -0.082547 0.052102 -0.022431 -0.059702 0.008540 -0.060692 -0.032539 0.021538 -0.000478 0.068985 -0.110533 -0.182942 0.040142 0.037520 0.012663 -0.098178 0.020629 0.141307 -0.010887 0.073251 0.184051 -0.080770 0.160290 -0.162488 0.189951 0.022666 0.191629 0.034605 0.072895 -0.054009 0.135425 -0.092039 -0.059006 0.145929 -0.181188 0.027451 0.188997 -0.119251 -0.007439 -0.114515 -0.012512 -0.160893 0.060137 0.073097 -0.276549
from -0.116839 -0.023839 -0.000193 0.040837 0.032216 0.002820 -0.083896 -0.000979 0.019671 0.181422 0.056941 -0.070792 0.012628 0.059905 0.018078 -0.022880 0.051214 -0.162750 0.022927 -0.098963 0.082430 -0.061284 0.110398 -0.025303 -0.043881 -0.150250 -0.013820 -0.056198 0.074006 0.000143 -0.044721 0.057652 -0.093039 -0.081232 -0.012338 0.051197 0.111913 0.078459 0.019767 -0.126559 0.011829 -0.052070 0.001232 -0.029995 -0.010282 0.026601 0.057761 -0.041110 -0.045373 -0.016604 -0.156399 -0.046628 0.014809 0.016726 0.035341 -0.102932 -0.006074 0.009088 -0.095341 0.039810 0.024289 -0.034235 -0.012709 0.000329 0.058726 -0.026736 -0.117609 0.047239 0.043426 0.033312 -0.060506 -0.004822 0.061581 -0.025706 0.003394 0.067709 -0.003949 0.129168 -0.060576 0.168308 -0.001450 0.128033 0.051482 0.059742 -0.000925 0.098135 -0.069910 -0.058343 0.110221 -0.116545 -0.011646 0.058886 -0.054106 -0.039207 -0.069501 0.017504 -0.122200 0.026509 0.003030 -0.100956
black -0.124362 0.002436 0.059372 0.107380 0.052998 -0.043343 -0.082236 -0.012646 -0.041241 0.303711 0.142712 -0.134531 -0.026375 0.075994 -0.073277 -0.046086 0.007722 -0.227324 0.125918 0.005650 0.127324 -0.023180 0.135521 0.005340 -0.057071 -0.248438 -0.015788 -0.042443 0.070335 0.047906 -0.051017 0.058457 -0.172332 -0.119956 0.056165 -0.068222 0.111668 0.148632 -0.005296 -0.201725 -0.038923 -0.014443 -0.086549 -0.099576 -0.073121 -0.054462 0.046832 -0.079460 -0.063269 -0.171387 -0.187589 -0.154742 0.002219 0.051898 0.095677 -0.077745 0.036123 -0.015601 -0.045330 -0.009765 -0.073120 -0.060830 0.028624 0.040556 0.039861 -0.103511 -0.130774 0.028922 -0.024003 -0.042842 -0.056975 0.031920 0.071953 0.024840 0.044107 0.075285 -0.037334 0.082334 -0.139236 0.135573 -0.022127 0.200419 0.066849 0.067414 -0.044952 0.158766 -0.073081 0.005898 0.133563 -0.151813 0.037931 0.112945 -0.103908 0.011500 -0.064197 0.010092 -0.147910 0.097968 0.002286 -0.206913
floor -0.073624 0.001703 0.055136 -0.006787 -0.053764 0.010565 -0.034240 0.003675 0.021731 0.036080 -0.031896 -0.044650 0.014788 -0.008451 -0.041056 -0.017376 -0.049419 -0.003997 -0.014932 -0.062304 0.073583 -0.039343 0.018265 0.009985 -0.043468 0.031976 0.043534 -0.046023 -0.022924 0.029731 0.011957 0.003709 -0.046293 -0.104393 -0.070939 0.096548 0.073978 0.029390 0.044042 -0.050559 -0.033671 0.050851 -0.021817 -0.077665 -0.011637 0.062318 0.045834 -0.061031 0.012310 -0.030662 0.008310 -0.046166 0.013338 -0.021457 -0.002522 -0.040988 0.018667 -0.021085 -0.040323 -0.019856 0.025765 -0.022429 -0.020023 0.042939 0.011887 0.015645 -0.042207 0.034710 -0.015635 0.020693 -0.070372 -0.017307 0.101800 0.020514 0.018552 0.058183 -0.067289 0.036188 -0.054073 0.020754 0.001542 0.072798 0.013257 -0.045682 -0.045304 -0.031842 -0.032895 0.013300 0.063292 -0.029980 0.038551 -0.014162 -0.040611 0.046317 0.010612 0.030494 0.011847 0.002531 -0.008718 -0.059008
green -0.066472 -0.060206 0.038536 0.057017 0.030933 -0.000398 -0.077654 0.050987 0.046208 0.214629 0.096120 -0.055789 -0.010711 0.054228 -0.010277 -0.014955 0.092353 -0.141235 0.048950 -0.047765 0.069305 -0.007154 0.133658 -0.019197 -0.043290 -0.175269 -0.046486 -0.059571 0.053599 0.023862 0.002144 0.072742 -0.101120 -0.020122 0.023833 -0.029931 0.041985 0.064854 0.015789 -0.090208 0.014850 -0.063806 0.000494 -0.028539 0.004676 -0.033484 0.007621 -0.012444 -0.036905 -0.073682 -0.111547 -0.057153 0.001763 -0.001070 0.022511 -0.038308 0.012992 0.053547 -0.044267 0.014246 0.031499 0.004278 -0.020921 -0.042031 0.073627 -0.042904 -0.088564 0.060716 0.042037 0.046115 -0.024041 -0.000815 0.032336 -0.015965 0.040455 0.105152 -0.018210 0.096496 -0.008808 0.147171 0.001736 0.103089 0.047861 0.067284 0.026208 0.115755 -0.047466 -0.057323 0.063321 -0.101474 -0.030709 0.058603 0.028040 0.003793 -0.052711 -0.046482 -0.072949 0.008403 0.013875 -0.125366
along -0.063898 -0.034813 -0.063717 0.054353 -0.071726 0.147665 -0.051176 0.112055 0.169768 0.004684 -0.047996 0.078867 0.050166 0.062748 0.000511 0.044546 0.154462 -0.026878 -0.059577 -0.137801 0.001594 0.057567 0.043555 -0.009354 0.001954 -0.110096 -0.037964 -0.039175 0.025263 -0.023159 0.057799 -0.011755 -0.038563 0.109715 -0.033807 0.024129 -0.036597 -0.052018 0.106870 0.071252 0.046471 -0.164754 0.007185 0.044679 0.100678 0.070240 -0.017517 0.027034 -0.046095 0.098164 0.004871 0.114113 -0.019767 -0.077958 -0.149512 -0.022102 -0.046043 0.121740 -0.049882 0.046388 0.137001 0.110428 -0.093450 -0.056661 0.149049 -0.008162 -0.029165 0.099216 0.122035 0.151535 -0.098787 0.045881 0.005841 0.044133 0.093608 0.115957 -0.022391 0.077351 0.150914 0.169624 -0.027195 0.002935 0.077779 0.070518 0.125961 0.074801 -0.053742 -0.167799 0.005945 0.018733 0.021295 -0.060032 0.193804 0.030910 -0.040661 -0.048017 0.008382 0.026910 -0.004212 0.010961
'T' -0.044675 -0.011792 0.040122 -0.061654 -0.006513 0.055316 0.095755 -0.040122 0.031194 -0.154872 -0.098381 0.023696 0.060080 0.040409 0.128190 -0.013013 0.005217 -0.048673 -0.133899 -0.204857 0.028748 -0.096833 0.062283 -0.024180 -0.010622 0.094218 0.068639 -0.061934 -0.008956 -0.016125 -0.042483 0.027749 0.105503 -0.126801 -0.141515 0.267842 0.160779 -0.035037 0.055861 0.071136 0.085300 0.088361 0.029178 0.023145 0.019191 0.168186 0.076536 -0.036020 0.039492 0.130017 -0.006363 0.057633 0.072431 -0.012009 -0.036277 -0.126392 -0.031764 -0.057356 -0.171006 0.004259 0.114887 -0.032624 -0.083263 0.030105 -0.000701 0.078446 -0.081086 0.033064 0.109018 0.139103 -0.021293 -0.109709 0.052580 -0.071724 -0.041156 -0.032520 -0.099994 0.112046 -0.032477 0.065776 0.023412 0.006754 0.129110 -0.041167 -0.046939 -0.148114 0.004778 -0.114845 0.080522 0.017930 -0.008083 -0.098380 -0.113674 -0.051394 0.082724 -0.029142 0.066961 -0.071209 -0.088642 0.113257
into -0.057115 0.002541 -0.002975 0.077670 0.023393 0.055654 -0.017658 -0.036267 -0.007437 0.024009 0.025725 -0.033991 0.023313 0.043842 0.053550 0.020858 0.035632 -0.121358 -0.030357 -0.082065 0.021328 -0.033254 0.064338 -0.056556 0.010830 -0.082554 -0.035576 0.008319 0.033893 -0.024495 -0.009864 0.029287 -0.027325 -0.062363 -0.039348 0.019406 0.090510 0.020191 0.051428 -0.023030 0.055168 -0.000648 0.029581 0.007374 0.011215 0.078149 0.032673 -0.010508 -0.035071 0.035566 -0.069061 0.027603 -0.069356 0.055851 0.062630 -0.088257 -0.011918 0.019574 -0.084773 0.044004 -0.020246 -0.023022 -0.040564 0.029494 -0.001771 -0.001501 -0.070661 0.000014 0.079281 0.050135 -0.037526 0.012825 -0.019525 -0.009020 0.026547 0.026505 0.000604 0.069590 -0.038070 0.082631 0.036762 0.001486 0.059213 0.039144 0.006524 0.010504 -0.046074 -0.064288 0.085642 -0.065808 0.026998 0.065390 -0.127708 -0.079724 -0.019330 -0.010769 -0.073055 0.024453 -0.017199 -0.022278
rack. -0.037750 -0.110554 0.009145 0.125504 0.153843 0.050506 -0.012648 -0.061449 -0.031845 0.290575 0.214528 -0.095843 -0.073571 0.081761 0.079704 0.040061 0.063446 -0.222430 0.052653 -0.076381 0.118887 -0.083704 0.191268 -0.054994 -0.064331 -0.178073 -0.123838 0.011804 0.049137 -0.017986 -0.078145 0.054483 -0.005772 -0.114205 -0.069164 -0.010323 0.161543 0.122626 -0.017943 -0.192712 0.012578 0.038000 0.104313 -0.051774 -0.002929 0.023386 0.082576 0.042945 -0.062269 -0.068476 -0.187656 -0.081473 -0.076805 0.043930 0.128496 -0.081196 -0.020951 -0.049018 -0.082493 0.058831 -0.088599 -0.024150 0.003136 -0.046706 0.079574 -0.077333 -0.172125 -0.006713 0.100950 0.064570 -0.067099 -0.032869 0.068374 -0.134443 0.060551 0.107545 -0.017629 0.219032 -0.121227 0.202633 0.103980 0.057141 0.031401 0.145736 -0.023602 0.084313 -0.090376 -0.125251 0.120926 -0.196894 -0.057303 0.216339 -0.183164 -0.140432 -0.153105 -0.061934 -0.153929 0.024762 0.073472 -0.184078
segment. 0.208610 0.021367 -0.082215 0.010014 -0.029314 0.161020 0.099709 -0.093016 -0.043915 -0.440258 -0.116371 0.110457 0.063528 -0.078217 0.114385 0.058495 -0.027747 0.155120 -0.202973 -0.029152 -0.189635 0.015843 -0.142732 -0.068412 0.120019 0.307395 -0.084800 0.173615 -0.121973 -0.141510 0.096400 -0.058440 0.266187 0.071076 -0.139611 0.050058 -0.041603 -0.160785 0.066048 0.252189 0.103948 0.100444 0.216799 0.174849 0.070966 0.147843 -0.069383 0.097337 0.047439 0.310660 0.242278 0.248285 -0.179199 0.039777 0.050893 0.065591 -0.052524 0.027314 0.041514 0.022994 -0.109263 0.050933 -0.093018 0.093644 -0.159441 0.165016 0.168505 -0.128038 0.117184 0.099049 0.039185 -0.014704 -0.189031 0.017222 -0.049201 -0.115235 0.141473 -0.161762 0.097990 -0.223790 0.164240 -0.352243 -0.066099 -0.126234 0.027451 -0.256539 0.074692 -0.010073 -0.075163 0.188216 0.093148 0.028927 -0.193350 -0.170164 0.124640 -0.014380 0.142809 -0.075727 -0.026516 0.304643
side -0.073841 -0.020213 -0.013897 0.013445 -0.041338 0.021671 -0.078667 0.021612 0.054072 0.111141 -0.019031 -0.020242 0.023123 0.002851 -0.058946 0.008755 -0.009781 -0.015702 -0.000822 -0.048433 0.088191 0.000246 0.004229 0.016026 -0.027884 -0.038070 -0.022301 -0.042213 0.029661 0.020152 0.025024 -0.009630 -0.057127 -0.004171 -0.004464 0.010932 0.056569 0.032069 0.021122 -0.099016 -0.055480 -0.053428 -0.023347 -0.035792 0.013948 0.021970 0.015016 -0.025559 0.002664 -0.038117 -0.034428 -0.031048 0.006941 -0.021573 0.011198 0.000902 -0.012812 0.017242 -0.013260 0.018020 -0.016473 -0.004571 0.003995 -0.008513 0.054859 0.002825 -0.035642 0.036594 -0.026587 -0.002060 -0.103449 0.018841 0.084257 0.036480 0.055390 0.058804 0.023314 0.032168 -0.012335 0.053539 0.003770 0.117942 -0.031654 0.015830 0.029952 0.058606 -0.051095 0.007596 0.052038 -0.070827 0.029708 0.016069 0.031213 0.073289 -0.058344 0.018979 -0.063576 0.048976 0.031240 -0.089171
reach -0.075308 -0.001535 -0.067104 0.006598 0.055238 -0.014105 -0.103327 -0.086840 -0.066416 0.171452 0.037063 -0.095530 0.000850 -0.005352 0.029865 -0.006776 -0.085982 -0.071880 0.047063 -0.049394 0.109978 -0.081272 0.013310 -0.041959 -0.053306 -0.057518 -0.023818 0.001957 0.078769 -0.005728 -0.067547 0.010799 -0.017738 -0.129752 -0.027026 0.039258 0.154815 0.071435 -0.102375 -0.239747 -0.010979 0.012688 0.033899 -0.022668 -0.027275 0.017215 0.090347 -0.005349 -0.003860 -0.028354 -0.199969 -0.036954 -0.011955 0.098639 0.095321 -0.031857 -0.075026 -0.078932 -0.011606 0.084519 -0.090595 -0.057112 0.055527 0.023227 0.007567 -0.006668 -0.073975 -0.023731 -0.083906 -0.051600 -0.124042 -0.035073 0.114045 -0.112173 0.009012 -0.044474 0.118710 0.104270 -0.096531 0.083632 0.026238 0.105960 -0.080854 0.100715 -0.036312 0.069408 -0.077849 0.072173 0.086711 -0.224024 -0.085304 0.100833 -0.158388 -0.105491 -0.143956 0.088547 -0.184407 0.033567 0.068485 -0.098297
corner -0.041414 -0.016487 0.042842 0.021937 -0.003385 0.009290 -0.029187 0.035562 0.019722 0.088628 0.017026 -0.017677 -0.020796 0.010130 -0.019542 0.011091 -0.008259 -0.047729 0.039173 -0.020095 0.042032 0.002336 0.064156 -0.015762 -0.038634 -0.056873 0.032149 -0.043144 -0.014690 0.026557 0.016105 0.017798 -0.045838 -0.039626 -0.005421 -0.002708 0.036869 0.010852 0.025970 -0.043201 0.015456 0.015687 -0.038185 -0.036525 -0.002025 0.001748 0.023519 -0.006470 0.006108 -0.054611 -0.025754 -0.014746 0.005310 0.010672 -0.011331 -0.031064 0.023811 0.001677 -0.026469 -0.033109 0.053640 -0.017279 -0.026892 -0.011293 0.035249 -0.021338 -0.041613 0.032168 -0.016875 0.016046 -0.006337 -0.015079 0.041521 -0.032319 0.015302 0.045678 -0.071877 0.050659 0.019755 0.062968 -0.015054 0.054932 0.029765 0.010389 -0.012608 0.011604 -0.037019 0.006923 0.032001 -0.036405 -0.011777 -0.012293 0.008029 0.024022 0.002407 -0.035234 0.010415 0.009573 -0.021751 -0.059577
hall, -0.097561 -0.009718 0.109864 0.062517 0.024830 -0.034888 0.007475 -0.039960 -0.054396 0.105611 0.086570 -0.119550 -0.013168 0.049096 0.010340 -0.061898 -0.005119 -0.172307 0.007633 -0.072479 0.070806 -0.105186 0.137718 0.003856 -0.047635 -0.055938 0.047533 -0.059476 -0.002996 0.022616 -0.069192 0.062669 -0.081575 -0.198323 -0.057858 0.104457 0.151408 0.112283 0.059725 -0.079668 0.001087 0.083473 -0.008513 -0.084920 -0.057026 0.057624 0.054794 -0.093790 -0.024049 -0.060224 -0.071716 -0.106025 0.021610 0.030786 0.076729 -0.133855 0.058137 -0.047783 -0.117217 -0.042280 0.000073 -0.062388 -0.016082 0.070093 -0.019233 -0.024826 -0.114404 0.037087 0.053445 0.039554 0.002991 -0.046475 0.043168 0.010957 -0.045280 0.057114 -0.114735 0.087906 -0.145044 0.062848 0.021507 0.093291 0.126708 -0.039640 -0.113964 -0.007069 -0.001426 -0.036874 0.139128 -0.066102 0.055046 0.071193 -0.187809 -0.036658 0.051015 0.020277 -0.033021 -0.011608 -0.047570 -0.094227
pink-flowered -0.045974 -0.001810 0.123618 0.084163 -0.067633 0.103687 0.061653 -0.008015 0.007419 -0.099167 -0.000282 -0.047936 0.035420 0.021908 -0.014301 -0.051885 -0.010373 -0.118507 -0.101863 -0.164563 0.029437 -0.061817 0.104757 0.026393 -0.034699 0.043110 0.026374 -0.045236 -0.091169 -0.014266 0.014639 0.038216 0.004310 -0.204856 -0.154789 0.187731 0.156614 0.032236 0.170967 0.075586 0.036267 0.138967 0.040248 -0.059858 -0.000060 0.167426 0.033683 -0.080742 0.002903 0.061921 0.088087 -0.008115 -0.023654 0.001085 0.031143 -0.114022 0.047608 0.005769 -0.141075 -0.085810 -0.023127 -0.008608 -0.111025 0.115301 -0.014676 0.051074 -0.070397 0.073712 0.136448 0.171751 -0.077519 -0.056074 -0.003268 0.093605 0.016854 0.077195 -0.138435 0.048054 -0.093775 -0.003541 0.080393 0.000951 0.166745 -0.109467 -0.089411 -0.130693 0.010017 -0.088946 0.137896 0.024091 0.167880 0.045168 -0.230832 -0.038832 0.169070 -0.028232 0.076332 -0.056170 -0.088285 0.005201
containing -0.017359 0.060353 0.018247 0.064510 -0.034003 0.066534 0.050559 -0.023282 -0.020613 -0.133894 -0.012452 -0.021520 0.061913 0.056605 0.010273 -0.100783 0.058719 -0.094475 -0.064960 -0.095283 -0.068458 -0.020673 0.052629 0.017403 0.017092 -0.034208 0.032464 0.003230 -0.019990 -0.035545 -0.029980 0.042318 -0.005667 -0.105866 -0.061136 0.129623 0.042241 0.012860 0.069886 0.123317 0.088923 0.017531 0.037266 0.037400 0.003117 0.076617 -0.027213 -0.065229 -0.024853 0.116028 -0.000923 0.038795 0.000848 0.039666 -0.017954 -0.088694 0.004848 0.038447 -0.087950 -0.038958 -0.004657 0.015071 -0.081452 0.092078 -0.020340 0.046703 -0.006568 0.031853 0.116704 0.130414 -0.013299 -0.033488 -0.114638 0.084649 -0.039658 -0.025228 -0.019142 -0.020489 -0.051607 0.000852 0.013119 -0.040307 0.159194 -0.042965 -0.043568 -0.036080 0.043194 -0.073442 0.080874 0.042913 0.070072 0.015576 -0.150033 -0.087166 0.138689 0.031081 0.039912 -0.046212 -0.097846 0.124131
2. 0.008525 0.126652 0.089628 -0.098662 -0.024151 -0.018261 0.049619 -0.098912 -0.110103 -0.066248 -0.094399 -0.002401 0.030722 -0.047394 -0.032955 -0.007904 -0.275397 -0.000083 0.027743 0.038805 0.113746 -0.006931 -0.065147 0.003211 -0.000156 0.098665 0.099296 -0.014579 -0.021030 0.073293 0.000267 -0.063944 0.079402 -0.144555 0.066563 0.011931 0.179833 -0.018911 -0.052336 -0.119987 -0.078672 0.166143 -0.176108 -0.041241 -0.094326 0.043386 0.107334 -0.037237 0.125922 -0.064649 -0.007174 -0.048060 0.101779 0.111008 0.087945 0.006180 -0.042414 -0.167181 -0.036700 -0.070345 -0.104730 -0.113246 0.022405 0.078164 -0.095645 0.014740 0.004892 -0.060479 -0.201847 -0.130411 -0.064275 -0.038925 0.108591 -0.033369 -0.009210 -0.169805 -0.051468 -0.062650 -0.099606 -0.131805 -0.018326 0.145521 -0.008868 -0.073209 -0.081471 -0.101249 0.014449 0.194336 0.051701 -0.015620 0.067509 -0.096918 -0.175555 0.081395 0.077891 -0.016112 0.009639 0.080227 -0.070821 -0.010953
5. 0.045615 0.119058 0.100240 -0.060363 -0.021593 -0.035008 0.071020 -0.075361 -0.122366 -0.095377 -0.067959 -0.014764 0.017775 -0.038078 -0.041893 -0.034620 -0.215701 0.011158 0.017731 0.080468 0.049522 0.008809 -0.055500 0.014103 0.008554 0.096563 0.092000 0.001138 -0.054083 0.051853 0.008264 -0.042031 0.055426 -0.107745 0.076386 -0.012219 0.102850 -0.014749 -0.022829 -0.050482 -0.055369 0.151281 -0.129643 -0.023070 -0.084229 0.005137 0.055591 -0.043147 0.105101 -0.061251 0.021885 -0.047049 0.072665 0.102442 0.093882 0.021458 -0.003588 -0.119387 -0.005490 -0.079769 -0.105957 -0.076474 0.017128 0.089488 -0.118590 0.021067 0.036621 -0.055387 -0.157965 -0.106982 -0.004747 -0.025072 0.028280 0.017274 -0.033926 -0.155369 -0.040285 -0.108839 -0.085177 -0.160305 -0.015045 0.064851 0.005789 -0.091281 -0.092945 -0.098036 0.055510 0.173615 0.025925 0.027783 0.071165 -0.073903 -0.168648 0.040308 0.126374 -0.011910 0.041751 0.042165 -0.074520 0.011766
1. 0.023215 0.115605 0.067503 -0.087134 -0.052325 -0.021586 0.036530 -0.099113 -0.101774 -0.104250 -0.111847 0.004657 0.035248 -0.062653 -0.047688 0.001523 -0.264636 0.048401 0.005679 0.053969 0.081662 0.003363 -0.099221 0.006749 0.018888 0.145911 0.082483 0.004777 -0.042096 0.059382 0.028247 -0.076304 0.077271 -0.107309 0.051354 -0.003371 0.138467 -0.030185 -0.025305 -0.092069 -0.080339 0.144966 -0.141370 -0.027101 -0.081337 0.041180 0.079388 -0.036362 0.121973 -0.049309 0.048429 -0.032036 0.056635 0.101368 0.097007 0.029255 -0.022572 -0.131875 -0.006865 -0.065334 -0.127403 -0.101959 0.027701 0.099413 -0.116532 0.043242 0.050700 -0.074035 -0.194235 -0.135780 -0.057564 -0.023032 0.066213 0.010565 -0.018035 -0.168246 -0.011174 -0.110157 -0.082870 -0.178873 0.000149 0.092312 -0.040154 -0.103132 -0.079114 -0.114607 0.015564 0.204153 0.036058 0.007345 0.092764 -0.076748 -0.170136 0.074587 0.092503 0.000786 0.024270 0.068728 -0.054075 0.003839
end. -0.039446 -0.029438 0.078335 -0.000994 -0.008772 0.060315 0.012888 0.032051 0.054077 0.089320 -0.010699 0.014944 -0.008418 0.034513 0.008954 0.035705 -0.021084 -0.064389 -0.000649 -0.083938 0.115400 -0.009397 0.077058 -0.027462 -0.061815 -0.061030 0.009248 -0.046630 -0.024956 0.043199 0.021660 0.003423 0.017044 -0.069326 -0.048676 0.058150 0.109585 -0.005075 0.044872 -0.061143 0.020116 0.075564 -0.063907 -0.068397 0.012072 0.053995 0.083922 0.006950 0.024786 -0.036369 -0.043263 -0.025634 0.017070 -0.018704 -0.031453 -0.035579 0.008850 -0.033067 -0.072982 -0.020240 0.056689 -0.007911 -0.045779 -0.014968 0.079631 -0.036386 -0.111216 0.037262 0.015388 0.062255 -0.093604 -0.022477 0.113459 -0.065781 0.091047 0.060630 -0.114652 0.137387 -0.002873 0.116041 -0.011430 0.087676 0.051715 0.032154 -0.002374 -0.017129 -0.079141 -0.061343 0.036309 -0.053317 -0.002647 -0.066130 0.001430 0.034515 -0.022900 -0.091786 0.031361 0.020475 -0.011175 -0.102490
7. -0.010291 0.081438 0.075500 -0.070181 -0.020460 -0.050579 0.023125 -0.061216 -0.082227 0.003822 -0.045384 -0.024389 0.000944 -0.045334 -0.050749 -0.004427 -0.203669 0.016436 0.046598 0.059970 0.099954 -0.017616 -0.044126 0.012352 -0.019713 0.076942 0.083931 -0.016835 -0.018081 0.058746 -0.005688 -0.045997 0.023968 -0.108890 0.044454 0.000829 0.107481 0.015599 -0.043600 -0.113065 -0.080597 0.125823 -0.121990 -0.069987 -0.078868 0.011028 0.080082 -0.032282 0.082588 -0.089569 -0.009505 -0.073525 0.071183 0.061556 0.067518 0.008006 -0.010218 -0.124760 0.000803 -0.053900 -0.067066 -0.086588 0.037293 0.059428 -0.058696 -0.004577 -0.002789 -0.038522 -0.171904 -0.115915 -0.040508 -0.024976 0.114312 -0.022560 -0.017234 -0.092538 -0.047680 -0.038268 -0.083797 -0.096336 -0.025078 0.111872 -0.028489 -0.060405 -0.078780 -0.061413 0.004483 0.158360 0.033421 -0.019484 0.043711 -0.050412 -0.102718 0.072829 0.030589 0.011768 0.003017 0.061244 -0.024269 -0.047743
hatrack. 0.000831 -0.061919 -0.012511 0.049388 -0.023038 0.151505 -0.008958 0.059550 0.106646 0.015123 -0.031880 0.069008 0.029680 0.038056 0.036126 0.066335 0.067833 -0.047949 -0.058934 -0.140231 0.035812 0.017351 0.066353 -0.045823 -0.020791 -0.071885 -0.061323 -0.013006 -0.021836 -0.012967 0.053162 0.009713 0.054429 0.013379 -0.087964 0.054271 0.049588 -0.053207 0.085707 0.024914 0.082327 -0.016359 0.031733 0.022077 0.081697 0.090725 0.029834 0.060005 -0.007082 0.073797 -0.006102 0.079885 -0.055399 -0.020610 -0.060730 -0.022061 -0.023021 0.053147 -0.069427 0.014369 0.060961 0.047844 -0.107971 -0.042056 0.109667 0.017199 -0.076013 0.056180 0.106270 0.150887 -0.106924 -0.005747 0.022666 -0.047103 0.115729 0.086786 -0.037048 0.127107 0.094921 0.147619 0.025866 -0.012595 0.033904 0.070632 0.080898 -0.007705 -0.093965 -0.128649 0.011712 -0.030435 -0.010998 -0.030465 0.040211 -0.024170 -0.034650 -0.101013 0.023084 -0.020309 -0.002486 -0.010637
